%YAML:1.0
ANN: !!opencv-ml-ann-mlp
   layer_sizes: !!opencv-matrix
      rows: 1
      cols: 3
      dt: i
      data: [ 60, 120, 4 ]
   activation_function: SIGMOID_SYM
   f_param1: 1.
   f_param2: 1.
   min_val: -9.4999999999999996e-01
   max_val: 9.4999999999999996e-01
   min_val1: -9.7999999999999998e-01
   max_val1: 9.7999999999999998e-01
   training_params:
      train_method: BACKPROP
      dw_scale: 1.0000000000000001e-01
      moment_scale: 5.0000000000000003e-02
      term_criteria: { epsilon:1.0000000116860974e-07, iterations:500000 }
   input_scale: [ 2.5137097526077978e+03, -3.0895102806473995e-01,
       8.3496120898209540e+01, -4.2671602122160041e-01,
       9.5689327365448065e+01, -4.9303263257108815e-01,
       5.0259764893840696e+01, -5.0429717881505820e-01,
       2.4787392523597767e+00, -6.1633184248202200e-01,
       3.0327482383738547e+00, -9.5121657170868157e-01,
       3.5430202787288847e+00, -1.1550067109492836e+00,
       5.9551660485340800e+00, -5.4348676053255240e-01,
       5.7199444564385167e+03, -1.5174111831774750e-01, 1., 0.,
       1.9236961490280233e+01, -8.5531467324286259e-01,
       2.6266146676879178e+01, -8.7605840244792610e-01,
       3.1740034324676628e+01, -7.1455065952668717e-01,
       1.5249908782557981e+02, -1.6547380362495292e+00,
       1.1044817218680291e+02, -1.2907111864841023e+00,
       5.0201757958860135e+01, -8.6624756303994133e-01,
       3.2150553014963194e+01, -1.2738367363333487e+00,
       2.0696284260670815e+01, -1.8548454144385298e+00,
       1.7101423871322144e+01, -2.1566357361506805e+00,
       1.5973851132757950e+01, -2.4114232375473215e+00, 1., 0., 1., 0.,
       1., 0., 1.7420277741056809e+03, -2.6033950870390654e-01,
       3.4170933668655380e+02, -4.0643521407579214e-01,
       2.7249699958463722e+01, -5.1615819691006160e-01,
       9.9500562515459610e+00, -6.7502781061288131e-01,
       8.9648603039490329e+00, -6.9365025708584560e-01,
       1.6031993603943285e+01, -1.1988835058400462e+00,
       1.4264537097530042e+01, -2.1583337961661706e+00,
       1.7276636533482925e+01, -7.9873439170944305e-01,
       6.3443770993859916e+00, -2.2034916222362004e+00,
       1.1453540086946484e+01, -2.8801085921098744e+00,
       1.2640603693145545e+01, -2.2329017735009224e+00,
       2.5387150000570593e+01, -1.5420683546739142e+00,
       6.3139968333303095e+01, -1.1748880708470089e+00,
       2.7716416169771438e+01, -7.2947473890455505e-01,
       1.9203732608562476e+01, -7.1425237125163377e-01,
       2.8424005870422459e+01, -5.9376284885251396e-01,
       3.4088656939212036e+01, -4.9758037520329823e-01,
       7.8232858505537362e+00, -5.4584061557936869e-01,
       8.9516866463905025e+00, -6.6629423473084981e-01,
       1.3689937613397744e+01, -8.2377639179937623e-01,
       1.0549727524230642e+01, -1.0683421622855083e+00,
       6.0147584009294262e+00, -7.7300917240516809e-01,
       1.0397701123065017e+01, -9.5191199277838545e-01,
       1.0925171750090794e+01, -1.0464645849832062e+00,
       5.0513758999180700e+00, -1.0342465090451629e+00,
       6.5701541057290136e+00, -9.9430281517871444e-01,
       2.6683532240709443e+01, -5.9824017248042771e-01, 1., 0., 1., 0.,
       1.5117849510770418e+03, -3.2107076413144542e-01,
       4.4107438162763486e+01, -4.6479428647765719e-01,
       7.9655538463424991e+00, -9.5408890885945175e-01,
       4.5281161010994531e+00, -1.0883410289074249e+00,
       1.4772605348726179e+01, -2.7580126954469555e+00,
       5.2018008196423269e+00, -1.2287386400099540e+00,
       5.5180453914056216e+00, -9.9031888618962605e-01,
       2.4473434845796149e+01, -6.5442323339192199e-01 ]
   output_scale: [ 1.0526315789473684e+00, 0., 1.0526315789473684e+00,
       0., 1.0526315789473684e+00, 0., 1.0526315789473684e+00, 0. ]
   inv_output_scale: [ 9.4999999999999996e-01, 0.,
       9.4999999999999996e-01, 0., 9.4999999999999996e-01, 0.,
       9.4999999999999996e-01, 0. ]
   weights:
      - [ -9.3519003037364802e-03, 1.3350981453182617e-01,
          -1.8115427611668365e-02, 8.2295758930918450e-02,
          2.3332024157973981e-02, 4.4124788030935322e-02,
          -2.9694196689934574e-02, 4.7706094108503322e-02,
          -1.0565926554260749e-01, 1.1319758082711301e-01,
          2.6234683152202599e-02, 7.4624576200638393e-02,
          8.7945124227022803e-02, 6.8146097531211744e-02,
          -5.3821890901092611e-03, -5.1788986722985993e-02,
          -8.7705892827978693e-02, 4.4104412081623884e-02,
          -9.2339426610833483e-02, 9.5940043104296505e-02,
          -4.2224659908855197e-02, 6.5350616924020846e-02,
          2.9081187372294690e-02, -3.9832653363231267e-02,
          -1.0806835635454891e-01, 1.5026822714049029e-01,
          -3.0488621809140096e-02, 6.0746470626397750e-02,
          -4.2929577870865016e-02, 1.3021272143495916e-01,
          -1.8401527613371861e-02, 7.0950473539833176e-03,
          -1.0832445239132391e-01, 9.1898145628183020e-02,
          4.4262117832151247e-02, 2.1843136247312223e-04,
          -4.3918091562437221e-02, -4.1305046994145625e-02,
          8.4563321146951045e-02, 4.2257247908336029e-02,
          -7.5710569086767460e-02, -7.9598560522171451e-03,
          -6.9202591669920268e-03, -1.1434217468221769e-01,
          4.2747497604497614e-02, 1.5113402837100443e-01,
          9.6756033790205573e-02, -1.4331603843504129e-01,
          -6.2357654124994492e-02, 3.3024864568676947e-02,
          -3.3162920781504714e-02, -2.7439297640518077e-02,
          -7.5812171209177950e-02, 2.1116822565346322e-02,
          -5.4745896203990910e-02, 8.5401859213447479e-02,
          1.6347049734659017e-02, -8.5257268959997121e-02,
          -1.6175422680207507e-01, 8.0748172553332914e-02,
          3.9689008344942857e-02, 6.4727308206420336e-02,
          5.9670578426873629e-02, 3.8835939122730069e-02,
          2.5608531960347666e-02, 7.8271319308443485e-02,
          8.6992098219668260e-02, 1.1617394985818992e-02,
          -1.7689182699979780e-02, -5.9292715876400122e-02,
          -5.6170927399336247e-02, -9.7559949053214953e-02,
          4.6352814988619345e-02, -1.7378137768029312e-02,
          -1.1805633369037906e-01, -1.7555830297157137e-02,
          1.3625095712549230e-02, -3.0909152700013875e-02,
          9.3682852571467957e-03, -8.8825393494089092e-02,
          -2.7993219934321901e-02, 4.8550378498016397e-02,
          1.7433809795293748e-01, 8.3366787909049792e-02,
          9.7562024380360407e-02, -7.6401109938825207e-02,
          7.6020757681127468e-02, -9.7764646977717556e-02,
          -4.9712899825731571e-02, -8.9529526822127906e-02,
          -1.3151014650261103e-02, 1.2985737945175454e-02,
          -3.6621103653583807e-02, 6.4620261447134536e-02,
          2.9711875335164877e-02, -3.3814642566268566e-02,
          -5.1868254145385748e-02, 6.0985493133982188e-02,
          6.5131819362288235e-02, -8.9842995501162856e-02,
          4.5526171882197562e-02, 1.3038377769686077e-01,
          -8.7002678842262482e-02, -1.9507556290356470e-02,
          -3.2296875817815700e-02, 9.2147361887245455e-02,
          -2.9483360535850194e-02, -2.4518382074516662e-02,
          -1.5205331779128878e-02, -1.0267510553273537e-01,
          1.4489170027805108e-02, 1.5439035627926325e-03,
          4.1228678556113958e-02, -1.1084484019258616e-01,
          5.3444015365773992e-02, -7.0549919114908141e-02,
          6.2875017106570258e-02, -5.7065402186638019e-02,
          4.8769418287751325e-02, 1.9621397470673256e-02,
          -9.9042357283339998e-03, 8.9828519184971548e-02,
          3.4358545529588183e-02, 4.1379428956774385e-02,
          1.1672225366354015e-01, 8.7834802234181258e-04,
          7.1398227440756273e-02, 1.2195499519068732e-01,
          -2.5763453691476312e-02, 1.1262122514722994e-01,
          4.7989611139219755e-02, 1.8864756797933566e-02,
          1.7218580147631435e-01, 7.9305135322415791e-03,
          7.8798272668192046e-02, -1.0990420059978027e-01,
          -9.0364513801380941e-02, 1.1993894864984730e-01,
          3.0808427110634823e-03, 1.7493216109734844e-01,
          -4.7710373974678422e-02, 1.7428782473777843e-01,
          -8.0135221575045545e-02, 3.3385213119510898e-02,
          -1.1336395293998010e-01, 1.1744398170386711e-01,
          -1.7992533309383395e-02, 1.3163727041531081e-01,
          -8.1651688015864417e-03, 1.7166962149691134e-01,
          -2.7554864459170575e-02, -8.6385388138261451e-02,
          -1.8006240707951202e-01, 8.2363846713756891e-02,
          7.8856798794135499e-02, -1.7444876944860946e-01,
          -1.1137937097566381e-01, 5.3188876038074940e-03,
          9.6763082198050368e-02, 7.7169399155868970e-02,
          -1.4417384385353144e-01, -1.5957166741261136e-01,
          1.3897152671304812e-02, -4.9254939932820659e-02,
          -3.4335502726230142e-02, 1.1099876566075612e-01,
          9.7676499039003148e-02, -7.1590300415132410e-02,
          -1.0032514675989743e-01, 4.5369918658788880e-02,
          -7.2097551861621922e-02, -2.7738279144841747e-02,
          -1.7215275539918898e-01, -8.0642584277346554e-04,
          -1.2251533209220326e-01, 2.5455290588001226e-02,
          3.3559326749981001e-02, -1.9602939988253684e-01,
          -1.3830481041900899e-01, 9.4395182173723696e-02,
          8.2138928844097528e-02, 1.4100412034851784e-01,
          1.0517103074083651e-02, 5.0338875220792834e-02,
          3.7706191497117285e-02, 1.3552761036582370e-01,
          2.0183033828613886e-01, -2.5001482379858445e-02,
          -2.8430149967632039e-02, -1.5871012261569220e-01,
          -1.3178361941369715e-01, -8.9350463627344792e-02,
          7.7473518004452249e-02, -3.0845779040693262e-02,
          -1.3888537294047149e-01, -1.5268068006131150e-01,
          -4.7553642120458754e-02, -7.0392156361884034e-02,
          1.0356184146724530e-01, -7.4991841125680983e-02,
          -6.5286172120218158e-02, 7.8189811575790039e-02,
          1.3304549657165582e-01, 1.2679736349193458e-04,
          1.6912679262980812e-01, -1.5812813154682658e-02,
          8.2615202060891541e-02, -3.8827208946694808e-02,
          -1.1166215032324622e-01, -1.1179929122284618e-01,
          -8.7822206928113961e-02, -6.1982090935060040e-02,
          -1.2734932790767442e-01, 7.0611966222627262e-02,
          1.4961730777079242e-02, -6.5876566547923371e-02,
          -5.8377407988965575e-02, 1.1161405064589285e-01,
          3.4830918473754795e-02, -5.1620847659533821e-02,
          3.1533445182223757e-02, 9.6854741137162650e-02,
          -1.4410865659530742e-01, -3.0815589378920694e-02,
          -5.3899755382771336e-02, 1.7806813529493648e-01,
          5.1603324195187726e-02, -5.2893583750397884e-02,
          -1.7070979254025960e-03, -4.9045751697451845e-02,
          6.7103736670562075e-02, 4.3581355891493700e-02,
          -5.0552227150813804e-02, -2.5359454096120795e-02,
          6.1358401878282435e-03, -1.0118793901441563e-01,
          7.7277944115288752e-02, -6.1329397737199948e-02,
          9.3206837024418177e-02, 1.9380713172755849e-02,
          -9.9837944368701137e-02, -6.4921622082667690e-02,
          1.6954541653704688e-02, 4.0409679121880517e-02,
          -9.0384001350831633e-02, -9.5908012901813069e-02,
          8.7755967098492191e-02, 3.1289394100208479e-02,
          3.0386970888796942e-02, 5.9268653285586073e-03,
          8.1191948077081660e-02, -1.1000314379388505e-01,
          5.2489543750408992e-02, -3.8674392024113866e-02,
          -3.7365758137145287e-02, -5.1301614603012309e-02,
          6.4375241747595749e-02, -2.2027331605447325e-02,
          6.4858648591498730e-02, -5.0328399531535936e-02,
          4.9855605806867813e-02, 2.2748315964252846e-02,
          -4.7922104094291693e-02, 1.9220307094748292e-02,
          2.5742114489458127e-03, -1.3661225138954446e-02,
          -1.4577505370376220e-02, 1.6280175783254955e-02,
          -7.7031899553067261e-03, 4.6975720403575678e-02,
          3.5764147001933276e-02, -2.1295489495351403e-02,
          6.4977886236751714e-02, -5.3103316515790921e-02,
          -4.7912033381881838e-02, 8.1481997369099932e-02,
          -6.5030507761831294e-02, 7.3719182076390416e-02,
          1.9380776427086850e-03, -8.8174649107338396e-02,
          -4.1075683529443269e-02, 1.7852374512197785e-02,
          9.6958163353915203e-02, 5.0701221237225820e-02,
          -1.4745639802254311e-02, -1.0665462910523794e-01,
          -6.2265487480988813e-02, 5.9908914264830540e-02,
          -1.5454447072445454e-02, 8.0416434486438051e-02,
          3.6162750520188199e-02, 8.1281629998253196e-02,
          1.0183521060699856e-03, -6.2388693461712656e-02,
          -1.8312937021677377e-02, -2.9505226544114557e-03,
          3.1211519883822845e-02, 4.0995591439362274e-02,
          9.0016124789755722e-02, -1.0284284807940017e-01,
          -1.2046507852884093e-01, -1.6056706017234031e-02,
          -5.1260210462200674e-02, 6.7334999537422863e-02,
          7.5732372819559378e-03, 3.9662482282911193e-02,
          1.7264826984645177e-03, -9.8394865719834232e-02,
          -9.6617883474539618e-02, -8.8822069848870422e-02,
          -1.4838233952457690e-02, 6.8450206593684504e-02,
          3.7612928149214395e-02, -1.9701000148429532e-02,
          5.1859449469494674e-02, 2.8188435595937058e-02,
          -1.2229124903304937e-01, -4.0010934073169462e-02,
          1.9748202219282095e-02, 6.8714711132759135e-02,
          -3.6277499216165604e-02, 5.0054308816109748e-02,
          -9.8234707449897762e-02, -4.3271541526724008e-02,
          -4.4496382169402125e-02, -2.2685877472828956e-03,
          8.8536422558686285e-03, 1.1981635931788570e-01,
          -4.3274083667543622e-02, 3.9166113649006858e-02,
          1.6545795738270610e-02, 4.7347546888455661e-02,
          2.7266148461654240e-02, 7.6195659083616335e-02,
          -7.1845586603348208e-02, 3.6554206989683910e-02,
          -1.8776760362302011e-02, -9.6922836027173914e-02,
          -1.1584498273660819e-01, 9.1326879103061059e-02,
          -8.1936742894429607e-02, -4.6180768688103224e-02,
          -1.8381006164919736e-02, 4.4517384816357523e-02,
          -5.7070652883224458e-02, 1.0600125386642567e-02,
          -4.2901292562985055e-02, -4.4556536250597155e-02,
          -1.6582334929849535e-02, 9.0197029249460894e-02,
          4.5586323415595438e-02, 7.4068764349925270e-03,
          -5.6078935791664022e-02, 5.2954533913163723e-02,
          -6.7901074421350726e-03, 1.7862997585851401e-02,
          7.0858848773916348e-03, -2.8299752591458362e-02,
          -6.5136532567947547e-02, 7.0075959623362286e-02,
          -3.4121581291452124e-02, -2.4894228002257038e-01,
          1.9193471168099599e-01, -6.8995194457573197e-02,
          1.8005967829050964e-01, -2.1436819122293063e-01,
          2.7375711762532634e-01, 1.0137689646739158e-01,
          2.6192481810707990e-01, 1.2562749084543004e-01,
          6.0469371438069811e-02, -6.8214409803167717e-02,
          3.8086911339521412e-02, -2.3590482691559644e-01,
          1.7981189498697892e-01, -1.4949454860909228e-01,
          1.2823596969835446e-01, -8.6368472657787507e-02,
          1.8245375420192259e-01, 1.1006605763159908e-02,
          -6.1142656403128007e-02, 9.1061455615494266e-02,
          -2.5299279150619952e-01, 2.8133394296032943e-01,
          5.6763307898129535e-02, -9.1169887776350739e-03,
          7.9566290936265452e-02, 1.0969812809474917e-03,
          7.5677017213104131e-02, 1.8861705818136229e-01,
          8.4767164585569599e-02, -2.4926651999868135e-01,
          -4.2682128018102741e-02, -1.5805508819114336e-01,
          2.7073339043034972e-03, -2.6426235717989599e-01,
          -1.1812722932821254e-01, 2.1803735735607196e-01,
          -1.8988005637121427e-01, 5.8318232422035855e-02,
          -1.8090817055443179e-01, -2.7391510239440364e-01,
          1.0403525942714865e-01, 1.4763688290200985e-01,
          -6.4645200342383358e-02, -1.7940265713683357e-01,
          -2.4025599600343214e-02, 1.8006991204979111e-01,
          3.0262317024883280e-02, 4.6628265097331305e-02,
          -1.2093301602434153e-01, 8.4531402101709424e-02,
          -7.4734818303814300e-03, -2.8043927653279607e-02,
          -3.2577946795752294e-01, -2.0958569361241838e-01,
          4.2764564330764837e-02, -7.3570145088512175e-03,
          1.7148125878948575e-01, 1.3668809077638511e-01,
          -6.5905268907529554e-02, 7.7837144125517038e-02,
          -2.2013845054141351e-01, 2.6403801061466031e-02,
          2.3315894139700359e-02, 5.1621072336939404e-02,
          -6.4248768185855037e-02, -9.6737157129298271e-02,
          -2.2488140640259127e-01, -2.5930168247997182e-01,
          -2.2589123311878759e-01, 8.7198643871718939e-02,
          6.7550253730755197e-02, 5.9294186723423429e-03,
          -8.9835260363670649e-02, -2.3975547635477723e-01,
          -7.3130512016284011e-02, -1.2168913693013388e-01,
          2.0496593371916294e-01, 2.5964063278500099e-01,
          -4.6068902889745786e-02, 9.4915857012835073e-02,
          -1.5249249481739705e-01, -1.5330808697186651e-01,
          -8.8948797190666423e-02, 1.5858169388363025e-01,
          9.7346377880044396e-02, 1.7185278403434093e-01,
          -8.7399913088083231e-02, 3.4360994555439443e-02,
          -1.9823015061213858e-01, -9.1347686519250501e-02,
          -1.8648058433512263e-01, 1.5929838636940469e-01,
          -1.4180197316537099e-02, -6.5120928888367374e-02,
          7.4933576726228107e-02, 1.2332271112641185e-02,
          -3.8004278920297688e-02, 2.1215374912814576e-02,
          -2.0239290656188252e-01, -1.8175150355295075e-01,
          -2.3650817442487176e-01, 7.1048954605440126e-02,
          -1.2501012906402223e-01, -5.2505050629934420e-03,
          9.9994529683350583e-02, -6.4993372868214813e-02,
          6.8854891575102217e-02, 2.1757222867021297e-01,
          2.1000766417481917e-01, 2.2212066442097161e-01,
          -1.9482605195222621e-01, 2.4127282390426516e-01,
          -1.0166673988777743e-01, 9.9526913004033737e-03,
          -7.4018684848797978e-02, 4.0071204654049057e-02,
          6.0831610112361136e-02, -2.6119485815629521e-03,
          -3.5518405861208906e-02, -1.1477031341378485e-01,
          5.2743092726065012e-02, -7.8509375891436806e-02,
          2.0171336750817373e-01, -4.7749778477060363e-02,
          1.4655095803373680e-01, -8.7870998943821471e-02,
          9.3112987900694194e-02, 4.7943277912063523e-03,
          1.1781225955864603e-01, 9.7310283614012075e-02,
          8.4323718647113383e-02, -5.2848128909553260e-02,
          1.1992072043920653e-01, 7.6221195858536895e-03,
          1.0316971464709376e-01, 1.1757578296201253e-01,
          7.0978576417185385e-02, -1.3615372712601468e-03,
          -9.9007323990753918e-02, 6.6017170112040377e-02,
          -8.2246441702024442e-02, 6.1265764107961709e-02,
          -9.2692488177236378e-03, -3.6339010841672480e-02,
          9.1332737084118612e-03, 3.8506246235004010e-02,
          1.0752065439029230e-02, 1.2277781951010102e-02,
          9.9308459817028013e-03, -5.8943773938291144e-02,
          -1.0128943341938750e-01, 5.0417335972203450e-02,
          1.3078656894663224e-01, -2.1531752722823488e-01,
          -8.3796360951323548e-02, -7.7684544188912089e-02,
          -9.1416490432535760e-02, 1.0838316293692468e-01,
          -1.0937762543879546e-01, -1.1467882480494482e-01,
          -2.0519248748829124e-02, 2.9448688056241411e-02,
          -1.2590768043395462e-01, -2.1815208929618194e-02,
          7.2528050415352943e-02, 3.8190474002588108e-03,
          1.8169022704348892e-02, 9.2589974686058757e-02,
          -7.0761202283744218e-02, -9.6425762520662942e-02,
          -1.6023310283811817e-01, -1.4572278495352095e-01,
          -1.4475622516600065e-01, -2.7778546536984580e-03,
          -5.6621357406040178e-02, -6.2263102159692940e-02,
          -2.4649755006703876e-02, 1.4100130712640543e-01,
          1.4327997238802179e-01, 2.1491868814904024e-02,
          -1.2187419924081509e-01, 2.3786556458693809e-03,
          -5.3642792198893806e-02, 2.5267100546711357e-02,
          9.6213859531334475e-02, -9.6666289237303943e-02,
          3.0987998180765652e-02, 7.4045882638822613e-02,
          -7.4479154202177947e-02, 7.6199168953077559e-02,
          8.4341986248002543e-02, 4.5282814033798663e-02,
          -3.1385905414395461e-02, -1.9127722540837078e-01,
          -2.5476795667598723e-02, -1.1887085388796977e-01,
          8.2721152380753796e-02, 7.7039137799590096e-02,
          -1.7635637858431916e-01, 1.3228205335547447e-01,
          1.4671894269069688e-02, -1.0323301278823188e-01,
          1.0818877941210517e-01, 1.2302442069619027e-01,
          3.5030765909416797e-02, 2.7723999928354590e-02,
          -1.0116485524929877e-01, -7.6054896481759809e-02,
          -7.3939750813938998e-02, -7.0936703700580070e-02,
          -8.3408771948588853e-02, -3.5413247946941347e-02,
          5.4547011409720361e-02, 8.4405485664092714e-02,
          -3.7274850961630822e-02, -2.0367881117617531e-02,
          -3.6823128087669091e-02, -6.9224835616993399e-02,
          -6.4400826368967976e-02, -9.2987252696397557e-02,
          -7.3064124522059473e-02, -2.2350590448897981e-02,
          -5.0277198705345569e-02, 3.3044286330849978e-02,
          1.1429107510036389e-01, 5.6305196641996944e-02,
          3.7623159779344515e-04, 3.7942786016319528e-02,
          1.1207115976056960e-01, 5.7468619632135461e-02,
          -1.1880596870903039e-01, 5.5056572627640001e-02,
          1.1258485723336733e-02, 2.6105926749440678e-02,
          3.3956431243458450e-02, -2.5636216190737970e-02,
          5.1331293720423339e-02, 4.3389720378900577e-02,
          -8.6923061395521639e-02, -1.1267745427760814e-01,
          -1.3390587882213071e-02, 2.1681275542050171e-01,
          -3.3262572581621763e-01, -8.3898041977554544e-02,
          -5.4988777089524973e-02, 1.0843626058945861e-01,
          -2.5452964567009160e-02, -8.9164268224921669e-02,
          -1.6260342639084618e-01, -2.6534483581186424e-01,
          -2.9408370263893042e-02, -1.0678677961668083e-01,
          -1.8415934855686569e-01, -4.4135881564620442e-03,
          -4.3356182958002943e-03, -1.7471854333850673e-01,
          6.5495720433944277e-02, -1.8293816452738401e-01,
          1.8186647143628704e-01, -8.1775827171608306e-02,
          2.5204490027745954e-02, -9.5674169718953906e-04,
          3.9082280695871920e-02, -1.3099619931529852e-01,
          -1.0613029816836142e-02, 2.3554002783597008e-02,
          -7.0197296217105923e-02, -2.4499657602727134e-03,
          9.9451760442063608e-03, -7.9250265713604967e-02,
          2.2205344875687283e-01, -2.1066493097392597e-01,
          -1.6009155456422616e-01, 3.5363065783030379e-01,
          5.0262668181500443e-02, 2.2505386820066595e-01,
          5.4255551006629966e-02, -1.8446545404731776e-01,
          1.1405959753745336e-01, 2.4361446163578682e-01,
          2.2441674012714119e-01, 1.1693804197394947e-01,
          1.3180499808089352e-01, -2.7216097526404209e-01,
          -2.6990977460495180e-01, 1.9827632529220696e-01,
          -2.3617660595694378e-02, -6.5061096394473508e-02,
          1.0721425954236263e-01, 2.3647229688469432e-01,
          1.8491986936887894e-01, 1.0597740744303272e-01,
          1.6902094059684877e-01, -1.6636876473923808e-02,
          1.3883024974185371e-01, 1.5288846862430491e-01,
          2.8498541801935479e-01, -2.8901829530152073e-01,
          -2.7791749926175918e-01, -3.5257450675079752e-02,
          -1.3739773072354169e-01, 7.2350626211317576e-02,
          1.0091023315646640e-01, -4.7149251324651184e-02,
          -9.5854383252936132e-02, -6.3000047300137502e-02,
          -1.4058966924959410e-01, -7.1373859847927365e-02,
          1.6998402805910887e-01, 1.2791385549317477e-01,
          -8.7676574550932154e-02, -8.3388423835205644e-02,
          1.0974787791634168e-01, 3.3261142890315465e-01,
          -1.2302715467899387e-01, 5.6003257738077045e-02,
          -1.1348058120075492e-01, 1.1874964067251166e-01,
          1.7774204781482766e-01, -1.1105796309881151e-01,
          -2.4795978900221088e-01, 1.7143739614984518e-01,
          -2.2786994390779702e-01, -2.3119442638172474e-01,
          -7.3544469239233195e-03, 2.3621812879428433e-01,
          1.0902852838633349e-01, 1.8581167613982069e-01,
          1.2155226067581910e-01, 1.6260982653602321e-01,
          2.1981114511657052e-01, 1.0157147837499703e-01,
          -2.0570160594415546e-01, -4.9613033059824639e-02,
          5.3017864124114394e-03, -1.3062199949791395e-01,
          -1.7404090169570074e-01, 2.3840012110037326e-01,
          -2.6797014015105945e-02, -6.4778634482752784e-02,
          1.3032568194744187e-01, 1.0222436834092122e-01,
          9.6238251900368620e-03, -5.8184199732873379e-02,
          -2.5618108345262758e-01, -1.2941834838355554e-01,
          -1.6772257810615244e-02, 1.5060582178979512e-01,
          -5.9332373848346089e-02, 2.8102041575539992e-02,
          3.0596650868870687e-02, 2.3669164353683361e-01,
          -5.1413026290646431e-02, -6.1222817608748165e-03,
          8.0640762818750739e-02, 2.4198614849633579e-02,
          -1.7485635665868848e-01, -9.0001880146104267e-03,
          2.9317127199639681e-01, 2.5023779038710930e-01,
          -1.3150183726866860e-01, -1.1005530179283586e-01,
          1.7731263396690269e-01, 2.3093599236613721e-01,
          -1.7431237426593277e-01, 1.0162966183065704e-01,
          -8.6494784520098983e-02, 1.4315676960091397e-01,
          -1.0243142469616351e-01, 1.8983521283707122e-01,
          -9.1975539783877125e-02, 2.1496711293039661e-01,
          9.1557841427005140e-02, 4.9262454492705873e-02,
          -1.3161279486054089e-01, 5.7971397748245654e-02,
          -2.6210105773077769e-01, 1.5543305023036394e-01,
          -7.1369898300196521e-02, -8.8287253124432793e-02,
          1.5196803362430009e-01, -5.6962107539478300e-02,
          -3.2366668903867801e-02, 1.1751147947959323e-01,
          2.2878676768861961e-02, -1.2637748354857747e-01,
          7.9219746415636241e-02, 2.3683197719215135e-02,
          4.6196865822229170e-03, 2.1051291145085843e-01,
          -1.4206196834349380e-01, 7.7118956877065770e-02,
          3.7170867608175756e-02, -1.8013754265036952e-01,
          1.1675621846850812e-01, -1.2709085024299316e-01,
          7.7567044463727947e-02, 2.0206984807427128e-01,
          3.2030628734581588e-02, -3.3930138575053635e-02,
          -1.7314254219147948e-01, -1.2098488474213694e-01,
          7.5538006295856205e-02, 2.6511157134956476e-01,
          1.6502328975696018e-01, -2.7887946950298542e-01,
          2.8611663601504019e-02, -1.3626081406940535e-01,
          -1.2775916487341382e-01, -9.2115130880529930e-02,
          3.4768108488530652e-02, 1.0408237052639098e-01,
          7.0096159645888119e-03, 1.3485134153973038e-02,
          -4.3003874986195623e-02, -9.4603273313232719e-02,
          -2.0153261019794402e-01, 1.7021613941142569e-01,
          1.1598979894748124e-01, 5.4572823716570740e-03,
          2.5258593157858711e-01, -7.0796044341037256e-02,
          5.1752568723373110e-02, -1.9200975509196958e-02,
          -9.8294267079395044e-04, 2.4796210453120293e-01,
          1.3633953848738847e-01, 3.1340581918172281e-02,
          -7.3642598563746928e-02, -2.5035598234411566e-01,
          -2.8360163515595067e-02, 9.7989058027282930e-02,
          -1.4589124285771810e-01, -1.4814563379651544e-01,
          2.3484905665262720e-01, 9.6536549952312589e-02,
          8.6867436589438934e-02, -2.0672313035047241e-01,
          8.9855303833480296e-02, -3.4770457827040760e-02,
          2.3940502553177462e-01, 3.3845142461333654e-02,
          7.0670643583303341e-02, 1.0976912917717482e-01,
          3.8494520131415076e-03, -3.0839453371775427e-01,
          4.1470153517530618e-02, -3.8869391681258421e-02,
          -7.4915613352863411e-02, -8.6494336859909676e-02,
          -1.3669178571419513e-01, -8.7761609089407819e-03,
          1.4495508951220626e-01, -7.5926511540973685e-02,
          7.9124614945196889e-02, 1.8362371616749551e-01,
          2.2722878154694043e-01, -1.6074426977328968e-01,
          1.6281521738387009e-01, 2.2104246141679262e-01,
          -6.9280490725804916e-02, -1.1208784380770558e-01,
          5.6627304186241824e-02, -3.9223962543264747e-02,
          1.2369509375538489e-01, 3.1481074402355494e-02,
          8.0767390047012930e-02, -2.4966983149919936e-01,
          -1.1533801070361996e-01, -1.3738030231566223e-01,
          1.6193891110825304e-01, -2.7569700661162971e-01,
          7.4321779366908619e-02, 1.7559621059560621e-02,
          -1.4158232799123410e-01, 3.9292222041672993e-02,
          9.0903517382635579e-02, -1.0680250385439968e-01,
          -1.0007799134985999e-01, 3.2935965333317940e-02,
          -3.9441336918668180e-03, 4.3586106449227724e-02,
          -9.6316849282476275e-02, 5.9325199737228780e-02,
          9.9771105200457094e-02, -3.7687422883751737e-02,
          -7.1310885849511813e-02, -6.0066265500952461e-02,
          1.2714018859859788e-01, -1.0122517633584972e-02,
          1.8205801636356520e-02, 3.4782225135000816e-02,
          -6.6292896748199992e-02, 4.6657580819353534e-02,
          4.5230774223606876e-03, 2.8816090061197060e-02,
          -1.4250373717546831e-02, -8.4919791600525565e-03,
          6.0127530081620847e-02, 7.0124689428954553e-03,
          2.2852589636489808e-02, -7.5001103920625617e-02,
          -5.6023459885638635e-03, 4.4468482662694030e-03,
          -1.3106348091672776e-02, 2.1794418887544176e-02,
          -6.2064443274039108e-02, -6.4403655950816985e-02,
          -4.5310957055932858e-03, -4.9298217753121071e-02,
          -2.6054154716000921e-03, 4.7667948248396465e-02,
          5.2720327912932408e-02, 1.3853828810856300e-01,
          -7.0444544800591827e-02, -8.2440921995991220e-02,
          7.3545442634172066e-03, -9.8006406841700297e-02,
          1.4348126633055274e-03, 3.6446546023276571e-02,
          1.5490266927553821e-02, -4.2010348931040088e-02,
          -3.0524658895141162e-02, 5.7057768687487048e-02,
          2.9900053310099980e-02, -5.7972157081745829e-02,
          1.2631017485683042e-02, 8.0184073763809455e-02,
          1.1588869293574292e-01, -4.4019317370328943e-02,
          -7.6920431729152694e-02, -4.8161262984957418e-02,
          5.3205734221446546e-02, 3.4595703645912981e-02,
          -3.3557035985813926e-03, -5.5858443305586676e-03,
          -4.3164690147886930e-02, -1.3635681983345119e-01,
          5.4620423581432653e-02, 1.0449970763871838e-02,
          6.9017578467548968e-02, -1.0052169880095399e-02,
          -6.5000963630956560e-02, -1.7288785399414603e-02,
          -2.3566349442979764e-03, -6.3920555401440024e-02,
          5.5889578289219283e-02, 2.5202554648614900e-02,
          7.9997515575113379e-02, -5.5559137485096458e-02,
          2.8033793936715221e-02, -4.9148240330917692e-02,
          5.9328954018053437e-02, 1.3536301690803457e-01,
          -9.9284320324686301e-02, -7.2647885309254381e-02,
          -8.8221732589032861e-02, -1.1588264259590844e-01,
          -8.6161594984421053e-02, 6.8177637979114955e-02,
          7.9660060979013222e-02, 2.6940158778049648e-02,
          3.2069335020321200e-02, -3.0798133922934831e-02,
          -1.8625659982319805e-02, -4.4941653570739877e-02,
          -1.5944228167111083e-02, -3.3748091367457510e-02,
          5.5355969469369742e-02, 1.8055580909972675e-02,
          8.0612085424005178e-02, -1.0817948333043399e-03,
          -2.4620740322510423e-02, 1.9889260987594349e-02,
          -2.0313955737101274e-02, -3.9249213401978872e-02,
          -1.3783154349296703e-02, -3.5775840882380254e-03,
          3.3192645550296114e-02, 3.4860081593635441e-02,
          6.2929019686401591e-02, 1.2866348156148934e-02,
          4.2504981645267434e-04, -4.2124349792870955e-02,
          -9.8198959479679715e-02, 2.3979829885997603e-02,
          -8.8092589385639700e-02, -6.5143724297435965e-02,
          8.5679305241944934e-02, -5.7460776549539357e-02,
          3.5774782654260759e-03, -8.5906741380614424e-02,
          6.4371881620787302e-02, -1.4683955448315753e-02,
          -8.8895791271962170e-03, -5.6600563519263271e-02,
          -4.9970697318862445e-02, 6.2353700738838766e-02,
          2.7480782020252149e-02, -2.3812687927219037e-02,
          -4.6722598551832493e-02, -9.5309452912406112e-02,
          4.5257670278284146e-02, 3.9703022000566417e-04,
          -2.1105130796297295e-02, -1.1977972948854562e-01,
          -2.1157824619366470e-02, -9.2576024655830563e-02,
          1.8114194066820369e-02, 3.9616617062011070e-02,
          -6.6273518183101551e-02, 7.0519826408848615e-02,
          5.1593272862201639e-02, 1.1592800125675000e-01,
          4.3292373268663052e-02, -1.5361706757313059e-02,
          3.8059558402247347e-02, -4.9598118768860028e-02,
          -6.5478027414335995e-03, -5.6771859328269648e-02,
          7.7046500971205856e-02, -4.7839614149216003e-02,
          1.4442459631611549e-02, -8.3190275549994974e-02,
          -2.1970390215373253e-02, -6.9798083045748527e-02,
          4.9412709582442121e-02, -9.4228575140407764e-02,
          -5.2768287143161591e-03, 4.5254580741736689e-02,
          2.2872622824538266e-02, 1.2986172441910511e-02,
          1.8046226963266115e-02, -3.6948855124715359e-02,
          2.2788207422123941e-02, -4.7932333289608206e-02,
          -3.8935469200091014e-02, 2.8009090318739712e-02,
          9.3777951209154845e-02, 6.2496863939144999e-03,
          -8.4294444621891743e-02, 2.7109260168665057e-02,
          7.8686453795570790e-03, 1.8061103734892652e-02,
          -1.3409511911183117e-02, 5.7710133732398923e-03,
          3.6113130011415397e-02, 1.8245423811312309e-02,
          6.0740824213241298e-03, -3.4269381732559452e-02,
          6.0420567851978080e-02, -6.7185880648225629e-02,
          1.9371543750967800e-02, -5.8831053174587629e-03,
          -4.7010549705930806e-02, 2.7921659673443552e-02,
          1.4726224696849184e-03, -1.5619615112826741e-02,
          5.8874647784338416e-02, -1.8668006455750622e-02,
          -2.7297821262513434e-02, -7.5704518309396729e-02,
          -6.3810686243830433e-02, -8.0354383640093494e-02,
          -3.6537385434311773e-02, 3.9993171493245439e-02,
          7.6081748298263058e-02, 1.1580873703629370e-01,
          2.0906960214035909e-02, 1.4193873150162118e-02,
          -1.7294483336374390e-02, 5.2728534741088691e-02,
          3.8492276746372359e-02, -3.1266920798087156e-02,
          3.2146849749138437e-02, 2.7064753705544841e-03,
          -3.3193660299838945e-02, -3.2620005175516428e-02,
          -1.6109062402295732e-02, -6.7201687536640506e-02,
          -2.4318035973573196e-02, -2.8418293157595607e-02,
          1.2967813322392245e-02, 5.6821291379610596e-02,
          -8.8336254497245414e-02, 2.9243200147282836e-02,
          6.6027623951691011e-02, -1.6767726885675564e-02,
          2.0868524559080493e-02, -1.7479647451212717e-02,
          2.8250996413213851e-03, -6.9511768655889178e-02,
          1.7923627825919785e-03, 6.4074642669644244e-02,
          5.2515380980355644e-02, -5.4255606914713275e-02,
          4.5402761638204253e-03, -4.6005727527137448e-02,
          -3.5590319975089366e-02, -7.4360529527091712e-02,
          6.1931305793473175e-02, 2.4143706939321042e-02,
          -1.2180401500608482e-03, -9.1782214409599647e-02,
          5.3727311128046663e-02, 7.9372885448460995e-02,
          2.0703285542446100e-02, -2.8107232928466865e-02,
          -4.1523159316449947e-02, -4.4227148240642104e-02,
          3.5995554801139060e-03, -6.6724308330794986e-03,
          3.9995250529769266e-02, 4.0859108930097560e-02,
          -1.1071961607640822e-01, 5.7008065013193793e-03,
          2.4528181695161341e-02, -3.2370363353503420e-02,
          9.3434060701838521e-03, -1.9013474698710585e-02,
          1.6092088063185288e-02, -1.9888478808128209e-03,
          -1.8774867727132709e-02, -2.4792628138430594e-02,
          2.8917161000429438e-02, -1.2407491927193344e-02,
          2.2053664517747962e-03, -2.6190886960940539e-02,
          -1.6640385143878784e-02, 3.8810302896674638e-03,
          -1.2987936506808491e-02, 2.6395522274092163e-02,
          -7.9055389227425058e-03, 1.1978690720528059e-02,
          2.8237223779160468e-02, 8.5681227166773300e-04,
          -1.9812123766607525e-02, -3.2508340321084725e-02,
          -3.2499755627997079e-03, 3.5034212277895493e-02,
          1.5230988309522612e-02, 2.3384124783360469e-02,
          -2.6373253838155947e-02, 1.8510228612701574e-02,
          1.6980533280982712e-02, -1.0053380837020001e-02,
          -1.6972958712948842e-02, 3.2504031635641251e-02,
          -3.0472839537914867e-02, 1.7720094219065903e-02,
          1.7947461092873387e-02, -1.8282432733161831e-02,
          -7.4176502800869758e-03, -3.0303833333387892e-02,
          3.0092233153034068e-02, -2.9146166575856110e-02,
          3.3142536246524870e-02, 1.0039020230962554e-02,
          -9.6358521787199246e-03, -2.3869381636716380e-02,
          -9.7698527832837286e-03, 1.3047765314698931e-02,
          -1.9304154547946300e-02, 1.6247290490799770e-02,
          -5.1936962984428367e-03, 2.5005737753270425e-02,
          -2.3610590869316054e-02, -2.5542958372659925e-02,
          2.4092351808816907e-02, 2.1111178988952522e-02,
          -1.1777131216187214e-02, 6.0898567677161244e-03,
          -3.6823921308707964e-03, 1.6493255269226108e-02,
          2.6826247499714930e-02, -7.0420608865485082e-05,
          -2.2347780955575151e-02, -2.1232883452262909e-02,
          -3.7512140228846292e-03, -1.9561608739263360e-02,
          3.0049634106876506e-02, -1.9547385624628530e-02,
          2.0447698592861083e-02, 2.5725703225287888e-02,
          -2.4009070026998661e-02, -1.6784896574686260e-03,
          1.1619508100895296e-02, -8.9358250351083378e-03,
          -5.5368027885808191e-03, -1.9046839667783914e-02,
          2.6954787967521883e-02, -2.3724414624329743e-02,
          1.9809716803773789e-02, -2.7768710474577123e-02,
          -8.7475914670464283e-03, 1.2495813060055381e-02,
          1.2749721019494885e-02, 6.7548297521519227e-03,
          2.2039635048873123e-02, 2.0063943133956250e-02,
          2.6136673532155086e-03, 5.0611657431956190e-03,
          -1.3382324583371611e-02, 2.8328048189008508e-02,
          -2.3361303662387124e-02, 1.7190423341312572e-02,
          -5.9733358056296895e-03, 3.5042571119316733e-03,
          -2.1021636386133129e-02, -6.8652873791175356e-04,
          1.7843562988258111e-02, 2.7358279086235861e-02,
          9.5279406871597878e-03, -7.3551553668842664e-03,
          -2.8317621514064771e-02, -1.1678357040429770e-03,
          -2.1900401092841684e-03, -2.1211687375213704e-02,
          2.7037874321728047e-02, -1.7912351438556424e-02,
          -2.4229308495104230e-02, -3.0830863301508409e-02,
          -1.8065569559486131e-02, 3.2084003649574241e-02,
          -2.6339912897986779e-02, -2.5038429702468997e-02,
          2.2513633632807499e-02, -2.4704724940577703e-02,
          -6.7644585164349982e-03, 1.8524517211205509e-02,
          -9.5324549554566323e-04, -3.6988843317232026e-02,
          1.6977676804889201e-02, 8.8660517587714968e-03,
          -3.2960657283811673e-02, -3.3563600044511054e-02,
          1.2616532151259248e-02, -2.8078132968037531e-02,
          4.3730919537013219e-02, 1.9632155729282726e-02,
          -2.0351101677091997e-02, 4.8557491494836784e-03,
          3.0191862489228557e-02, 4.6191276693053292e-02,
          1.9158279192976163e-02, 1.0801914883520228e-01,
          -6.4916955977922852e-02, 1.0506212218101643e-01,
          -6.1548642688432922e-02, -2.7989494447016629e-02,
          6.8557899236886301e-03, -1.8223348120188405e-02,
          -1.8217237677590557e-02, -6.3494836071716895e-02,
          -6.2209145499146946e-02, -4.1080193581114754e-02,
          -3.6688354181492681e-02, 1.8600529751464596e-02,
          6.2193018876395924e-02, 4.0163962325357780e-02,
          -9.8541766977319426e-03, -1.9685992545658091e-02,
          -2.5277015263612729e-02, 4.0476745983366612e-02,
          -1.8156590711319483e-02, -1.8900158129612134e-02,
          -9.4952269824974660e-03, 1.0011172088856095e-01,
          -9.3685961383932308e-03, 1.3537939056169653e-02,
          -2.0006272385260145e-02, -6.2039667314398764e-02,
          -3.5798306091044597e-02, -3.7417397152162787e-02,
          4.2800632250686142e-04, 8.6182222993581234e-02,
          1.9068612517026233e-02, 4.5107105787393291e-02,
          -2.0117016274693075e-02, -3.9707387104606584e-02,
          3.7342848312544356e-02, -2.4163177593210083e-02,
          2.9054761310681902e-02, -1.8112346385421873e-03,
          -5.6700069071874339e-02, -3.6262999986354058e-02,
          -4.4339231103170750e-02, -5.5784293124420452e-02,
          -7.3318189048360918e-02, 1.0597938418430038e-01,
          3.6175373179447453e-03, 1.1076363236625059e-01,
          -3.8040623593114116e-02, -2.9117837702924799e-02,
          3.0279770980819055e-02, -2.9887545979059887e-02,
          4.7609832798848527e-02, 3.6563793514920589e-03,
          -1.2493700841653474e-01, 3.9637003386430253e-02,
          3.2250286929252581e-02, -1.6102724134558041e-03,
          2.7622561529720400e-02, 5.5642196461574922e-02,
          4.2355276127634123e-02, -1.4446415021386610e-04,
          -8.6562060631968585e-02, -1.4323809639020499e-01,
          -7.1487765978749465e-02, -1.3160846896172222e-02,
          1.5516624925985016e-02, -8.7919960836507702e-03,
          -7.4366605919081119e-02, -9.0785037124827949e-03,
          5.5529116290106297e-02, -1.4494339461219459e-02,
          4.9859247856239013e-02, -4.6427180598131799e-02,
          2.9557002520142827e-02, 1.0480909661882039e-03,
          2.6258506623836539e-03, 4.9469532843076577e-02,
          5.8318935090593896e-03, -3.8636228525973704e-02,
          3.3451987455986307e-02, -9.4477909082728278e-03,
          -3.2931219203862667e-03, 4.7013846139424380e-03,
          -3.1610939753623897e-02, -1.2464458150530306e-02,
          -3.8481192276895088e-02, 8.2569020989711348e-02,
          -1.3132911496124354e-02, -6.1914313165918423e-02,
          1.4102469664585573e-02, 8.4466131997096322e-02,
          7.3380850920711282e-02, 7.3005713281611276e-02,
          8.3507350085923505e-03, 2.8548299708616890e-02,
          -5.4650010595191832e-02, -9.5530345636922268e-03,
          1.8523945672463652e-03, 2.6771828012962576e-02,
          3.2328160674010301e-02, -4.4635972428646170e-02,
          5.7987188777854422e-02, -2.2228345007294571e-02,
          -1.2371358019667888e-02, -1.6885074923790027e-02,
          5.3088446654039230e-02, -9.7413155672353008e-03,
          -1.9441515354294347e-02, -3.2729597489476139e-02,
          3.7440540892814865e-02, -2.7219589855510363e-02,
          2.9840046434813722e-02, -7.0343417996068776e-03,
          -3.5296073429269992e-02, 9.8455198122458565e-02,
          6.1512804302569432e-02, -7.0194564951196442e-02,
          1.0964642822893838e-02, 2.5866092647368239e-02,
          1.0096997430385736e-01, -1.9823255973727177e-02,
          -2.6745668127659241e-02, -1.3319834826378243e-02,
          4.7916160477382459e-02, 7.9019562460915446e-02,
          5.4165554605285431e-02, 1.5897660996694013e-02,
          2.2517657563568400e-02, 9.7461636320204537e-03,
          -5.9372778646052858e-02, 4.6529826035845080e-02,
          -9.5630561108918932e-02, 1.0668510710324474e-02,
          -2.0095994338458486e-02, 2.1005622334580896e-02,
          -9.7401233409521726e-02, -2.7715416947394302e-02,
          6.8870123882128790e-03, 4.9812602769315963e-02,
          2.3289645817488852e-02, -2.6255929340975471e-02,
          5.0951890561314250e-03, 1.2181133295286670e-03,
          5.5030582201601522e-03, -3.1223316985272455e-03,
          -5.4421195973078935e-02, 3.4706985723658795e-02,
          4.6820218128246459e-02, 4.6114866652147320e-03,
          -5.6360001606681358e-02, -8.0716979874532607e-02,
          6.6528455222284334e-03, -5.4944827963333441e-04,
          -6.1133929619408320e-02, -4.8567030283053134e-02,
          -1.5089807753836107e-02, -4.7422622532818579e-02,
          -5.9230488989602544e-02, 8.1854740552629715e-02,
          7.8515852334350475e-02, -1.3676603846107210e-01,
          3.4848561483367818e-02, 5.2380804069442739e-02,
          2.9523372120261387e-02, -7.0977325262133142e-02,
          -8.3304319433492799e-02, -6.8562993392356941e-02,
          -2.7881473439618599e-02, 3.3259026056384040e-02,
          -6.6071978623530106e-03, -7.3651454398419330e-02,
          -7.9230952915302799e-02, -1.8066993632747240e-03,
          8.8891856449377485e-02, 3.5530004273137801e-02,
          7.5910779116041077e-02, -8.8772992225380782e-03,
          -3.5465127625858330e-02, 5.9921461068394490e-03,
          3.2413747460650975e-02, -1.3575012887918653e-02,
          5.1797717012760570e-02, 1.8632454593925967e-02,
          2.5694791991676423e-02, -8.4568069943162280e-02,
          4.6093923181466941e-02, 3.1865716961487552e-02,
          8.6590036764377671e-03, -1.1246265691740176e-02,
          1.2991302931222293e-02, -8.9931884190874931e-02,
          -2.4255392627057837e-02, -7.4099323729723762e-02,
          -8.5941380331478634e-02, 7.3903720724358801e-02,
          6.6093864277783340e-02, -5.7323508763917445e-02,
          7.0145226321947862e-02, 8.5518790107217066e-02,
          -1.9335921824962798e-02, -8.8165725395512803e-02,
          -7.4722819197804879e-02, -5.3063449690684411e-02,
          1.1142088076996202e-02, -3.2343512420108596e-03,
          -4.7806463407744963e-02, -3.9464302964905343e-02,
          4.5150201045318653e-02, 2.1451580463958824e-02,
          -1.4453558372648483e-02, 1.5267033655706558e-02,
          9.0601373629589893e-02, -4.9212112795286665e-02,
          1.8895995934728790e-02, 7.3979526162040621e-02,
          3.5485195545754161e-02, -5.9291006693876062e-04,
          3.7164204339161472e-03, 4.3929418398146659e-02,
          3.6351809700495973e-02, 2.0568497352782739e-02,
          2.1187762337379554e-02, -5.8340234870907594e-02,
          1.0774863482838157e-01, 3.3143080297243382e-03,
          9.0785852912991793e-04, -8.9607939632497843e-02,
          3.3768031041748241e-02, 2.2731538955422011e-02,
          -2.4563627619376648e-02, -2.2954347224588143e-02,
          3.6384208052830026e-02, 1.7056749320876387e-02,
          -1.0443965566756672e-02, 4.7174734425937545e-02,
          -4.5984904105228222e-02, 7.2868916604177020e-02,
          1.9020474995905114e-02, 2.8210612153580700e-02,
          -2.6524039817725362e-02, -2.3219480096134285e-02,
          -6.9094442350551219e-02, 6.3096330006730358e-02,
          4.3908962129069765e-02, -2.0268696729183466e-02,
          8.3164069793244158e-02, 2.7237395778871316e-02,
          -5.4763086870323260e-02, -6.7839720284408614e-02,
          -1.2393422826629988e-02, 6.6275456729082721e-02,
          -5.6861701122584200e-02, 4.5836874181988570e-02,
          6.4351141223899224e-03, 7.8732713847342789e-02,
          4.1337182457065660e-03, -7.6801095345139436e-03,
          -5.1939548988443093e-02, 7.6097706606733637e-02,
          -1.3227312204337476e-02, 5.6225369666212624e-02,
          7.7486415158682209e-04, 1.6516661279813202e-02,
          -5.5773798602409358e-02, -1.4130617350413174e-02,
          -2.6479099844211200e-02, 8.9479900034850172e-03,
          -8.8015550771690498e-03, -3.3099233586434393e-02,
          -4.7594938763346258e-02, -4.5419379835401424e-02,
          4.7006034903318908e-02, 4.5800159768573531e-02,
          -6.3656816990033518e-02, 1.6772808526734854e-02,
          5.3926400396630859e-02, -3.6673767522926351e-02,
          4.5269748161090542e-02, 2.1520275427896474e-02,
          2.7566743108664631e-02, -8.4894154688060532e-03,
          -4.8140074866317772e-02, 5.9457856593355153e-02,
          1.2996702651017775e-03, -1.6683798321020799e-03,
          -5.7031311052197851e-02, 2.8580352077053246e-02,
          2.6338511953570599e-02, 3.0863864945214609e-02,
          2.5778566358918738e-02, -1.8414743043797876e-02,
          -8.4254471768353146e-03, -8.6858146855529929e-03,
          1.5464718526856776e-02, 3.3543460690695172e-02,
          5.9706936114068472e-02, 1.4373087684252814e-02,
          1.2719842504293517e-02, 3.2634175669003694e-02,
          5.9749439219919501e-02, 2.1319946824720219e-02,
          -5.8128545505102630e-02, -2.8649443914545044e-02,
          3.8206840585987834e-02, -2.3403729965948517e-02,
          4.0146753293213794e-02, -2.9199784391285854e-02,
          -4.3898077665605183e-02, 4.8169610561641192e-03,
          5.7225051403645269e-02, 1.3087888949985468e-02,
          -2.6622235492648128e-02, -2.0264272836659297e-02,
          -1.1579900047232406e-02, 4.3197105249845026e-02,
          -2.0361428912520291e-03, 4.8392437469315999e-02,
          6.3675553470725246e-02, -2.4712812486340864e-02,
          8.2057403500953904e-02, 1.5416798655257804e-03,
          -3.6218302533133628e-02, -1.7868719487599782e-02,
          -2.1156947896927538e-02, -4.8461068580349558e-03,
          -2.4183846336400958e-02, -2.6448424838687442e-03,
          -1.5525464454511121e-02, -4.7425748595386209e-02,
          -3.7768237151861832e-02, 6.2872295060391381e-02,
          2.8934627767331612e-02, 3.3001822808279360e-02,
          6.1112598607778075e-02, 3.6989860306477503e-02,
          -4.9841160511555826e-03, -3.7509292391371629e-02,
          -2.5127653270807071e-02, 6.4634492839827362e-02,
          2.0587980147562236e-02, -7.1923709828549112e-03,
          -5.6462303695231031e-02, -5.2908836100107576e-02,
          2.3127287390179406e-02, -1.6413637279360356e-02,
          6.3813866057743779e-02, 7.3821494858295521e-03,
          3.9047973568054797e-02, -7.3602116550929672e-02,
          1.0188065265662059e-01, -2.8321150343574485e-02,
          -1.8928001900765808e-03, 3.0284510308164755e-02,
          -9.6904204067014527e-02, -1.0860133450281408e-01,
          3.9484783902933730e-02, 2.1652863288652385e-02,
          -9.6962222240608173e-02, -6.4424934752706262e-02,
          6.7421894247807021e-02, -8.8733344658885424e-02,
          3.0556966540877816e-02, -3.6519627028046571e-02,
          3.6086028683273265e-03, -6.3748463754595724e-02,
          -3.5189001076716284e-02, -6.5692684576717911e-02,
          -2.5546674600865280e-02, -1.2174099393483129e-02,
          5.9877933059749096e-02, -6.3260602146558334e-02,
          3.3646833088239923e-02, -3.5869719897796276e-02,
          2.5846761990708313e-02, -1.5089939782798112e-03,
          -4.8240753448429638e-02, 1.2471409268595052e-02,
          2.6053839600924000e-02, -7.6386365524459321e-02,
          8.7542648925076315e-03, 3.0281764352129269e-02,
          4.1033015773543745e-03, 1.3319200748664096e-03,
          -2.3316984789987488e-02, -5.4297786390365296e-02,
          3.6541270722040727e-02, -5.2578534678792539e-02,
          -6.9061703084962517e-03, 7.7300040364289196e-02,
          -1.4378317315680105e-02, 4.4004285177220291e-02,
          -6.5478153540927064e-02, -1.0272473640740180e-01,
          1.3315390379601036e-02, 1.3610792052713351e-02,
          6.6014177473679422e-02, 7.4679941264631053e-02,
          8.6609176665376920e-03, -1.3127668364430281e-01,
          -5.8276175310858824e-02, 7.2016625265747605e-02,
          1.7647260271901331e-03, 2.9135563399304173e-02,
          4.1663612734113495e-02, 7.4781573735553858e-02,
          2.0834547787654317e-03, -1.1029168604028914e-02,
          -9.8901604577742320e-03, 4.4158308722712352e-03,
          3.4663336958505889e-02, 9.5690979004671231e-02,
          8.2274843119485006e-02, -9.1061324871441626e-02,
          -7.9588063814911458e-02, -2.1228796594818088e-03,
          -8.9204009679241136e-02, 2.1928199861745545e-02,
          -2.0749237146631325e-02, -3.6117402826033776e-02,
          -5.5215710346194755e-02, -1.1362562731307048e-01,
          -6.4548260995521620e-02, -1.2905049766063449e-02,
          3.4404207223191069e-02, 1.0257000332847410e-01,
          -3.8197126101348719e-02, -4.1688177768098245e-02,
          3.7197078519139934e-02, 7.1765537045443722e-02,
          -8.7801308458865260e-02, -4.2773597477030911e-02,
          -2.8835161754947210e-02, 5.5766533369661753e-02,
          -6.0440171926643225e-03, -2.3764708858779206e-02,
          -9.5306887448564137e-02, -8.9019968254245934e-04,
          -4.4044442312119549e-02, -4.2174990837350546e-02,
          -6.1313923446364126e-03, 9.1562550869184883e-02,
          -2.1090291085439781e-02, 2.7993346689556962e-02,
          3.0450877008764365e-02, 2.5533554302934459e-02,
          2.4525069929801357e-02, -6.9517560313288951e-03,
          -4.5923291541180078e-02, 1.9997826615404408e-02,
          -2.2508482530439272e-02, -7.8779681518312120e-02,
          -1.3634601832926277e-01, 5.3251864636499717e-02,
          -5.8934006552566962e-02, -9.6088468882951875e-02,
          6.0851240242369847e-02, 3.0631678604051644e-02,
          1.2843737381100001e-02, -6.2319892474084190e-02,
          -7.0039880645120442e-02, 3.5634268588020435e-02,
          -8.6468600262843143e-03, 8.9052714873822131e-02,
          6.6352220741473733e-02, 3.3246059237017157e-02,
          -5.2038116814242717e-02, 1.1290850260211516e-01,
          -3.0356979501710304e-02, 4.7987627907890591e-03,
          2.0365174537915059e-03, 1.9833547584295112e-02,
          -2.5375119072106676e-02, 5.1796900169382015e-02,
          -1.3908735290975313e-01, -5.3700564387876626e-02,
          1.2600348298584394e-02, 1.5236577693634724e-02,
          -9.2379768536767409e-02, -6.0546623932046673e-03,
          1.3021707395362567e-01, -3.7899655154495886e-02,
          -5.0091443136676440e-03, -7.3719557706483821e-02,
          7.9647686265832587e-02, -4.4484684391163105e-02,
          1.3324243704663288e-04, -2.9403820018363436e-02,
          -6.3724026213938606e-02, 2.9446620194245626e-02,
          3.3213617169424128e-02, 4.5660477886905679e-02,
          3.0456934243524934e-02, -1.6215819968616832e-02,
          3.1590276751996368e-02, 5.3764470720258271e-02,
          -1.1240495573263610e-02, -6.3650965999521563e-03,
          1.6247022064130246e-02, -4.5319868457470130e-02,
          -2.3729388709911498e-02, 6.8665098109397084e-03,
          -7.3617073237955868e-02, -3.6350258413949406e-02,
          -5.0811157714862935e-02, -8.6651316397778441e-02,
          2.0866962398150536e-02, 2.1192193799007424e-02,
          6.6191167114801358e-02, 1.1524382278409893e-01,
          -5.7838428738397521e-02, -3.4830257107302719e-02,
          -3.2828458788218773e-02, -8.4795204461958956e-02,
          5.9105148513616647e-03, 5.2061464719806529e-02,
          3.7190523554057150e-02, -1.1783830838643991e-02,
          -2.2221981377846278e-03, 3.4725340295359647e-02,
          2.6619262162689537e-02, -1.3548413004704229e-02,
          1.7111695148069400e-02, 1.1683761385964664e-01,
          5.7808982800328229e-02, -7.3352078051635932e-04,
          -4.4888317446861122e-02, -7.8034952002708491e-02,
          7.9854899407952942e-03, 2.9694288023594775e-02,
          3.8574126497894915e-03, 2.8856540161558825e-02,
          -3.7818950634994172e-02, -6.8559887606700801e-02,
          1.7663402901948122e-02, -7.5971318549452839e-03,
          -2.7985563815736289e-02, 1.1228646847763191e-02,
          -1.7062827007123794e-02, -9.8065678743592000e-03,
          6.3579671116519986e-04, -6.2171311107199680e-02,
          1.4885582104303472e-02, 2.0584751412305443e-03,
          6.5384913975074205e-02, -8.8027335209532459e-03,
          1.9732283261900362e-02, -2.4718183518299065e-02,
          8.5160425587801070e-02, 8.2178191781009505e-02,
          -1.2322062146863082e-01, -4.6958147228462116e-02,
          -1.9165425234671268e-02, 5.2214178430603601e-03,
          -9.4907735893339784e-02, 4.5552399162409121e-02,
          -1.3732934266379908e-02, 2.3636832310569059e-03,
          7.7971313370979968e-03, -2.7603510485285587e-02,
          -1.0778179555487412e-02, -1.3897381273686660e-02,
          -3.1255756845715660e-02, -4.5674791453258271e-02,
          8.3739486791381351e-02, 1.0524306930283731e-02,
          4.3415437388180683e-02, -2.5684972429316121e-02,
          -5.5511735789330330e-02, 3.0125076186937501e-02,
          -5.3308264976328297e-02, -4.0973390761945352e-02,
          -4.3955241729512977e-02, 2.9375611685504861e-02,
          -3.2938571091015729e-02, -5.8636766667925486e-02,
          4.8175834457119524e-02, 1.6812494901788575e-02,
          4.5330011793886116e-03, -1.7917974798658282e-02,
          -4.9718878567901879e-02, 1.6871964926283404e-02,
          -3.8286497902036247e-02, 2.2509498060178563e-02,
          9.8916671312186552e-02, -7.6370534879791809e-03,
          -5.1302480325764552e-02, -3.2944677101657889e-02,
          2.4746956941869971e-02, 2.4294717941918922e-02,
          -3.0703762700052227e-02, -3.2113762704466309e-02,
          -4.4842304448567259e-02, 5.2329486061125530e-02,
          -1.0003449052090634e-01, -2.0705221937099918e-02,
          2.6292043846430340e-02, -1.0375124879527431e-02,
          -8.4740495661931300e-02, -4.8744062396632072e-02,
          1.2067538255887908e-01, -5.3100893324983321e-02,
          -1.8108209087592874e-02, -6.4868347790544387e-02,
          8.9413692980592055e-02, -7.3977706006167557e-02,
          -3.5068659683226575e-02, -3.1368628630611670e-02,
          -1.8503333857522845e-02, -2.2813266260940514e-02,
          7.0757104788153691e-03, 3.9798432422656578e-02,
          -5.4379023670178247e-03, -4.0305351757997127e-02,
          2.5155734089762065e-02, 1.4983613543162796e-02,
          -3.6630474889276871e-02, 4.3837128557639845e-03,
          2.6813618514632604e-04, -2.7412987078165311e-02,
          -9.2154912575944953e-03, 2.5024298478341908e-02,
          -1.7962436174607806e-02, -1.1447820178826479e-02,
          2.5414802829254544e-02, -5.4997593676824295e-02,
          3.7887909778996684e-02, 2.4746712362091784e-03,
          3.5403703841809463e-03, 6.9908931915017791e-02,
          -4.9140042303577720e-02, 2.6444886646442789e-02,
          1.0397532996871874e-02, -1.0097770197308387e-01,
          -3.2793892251165066e-02, 1.1542660177129510e-02,
          7.5145696367614326e-02, -2.1915841347912097e-02,
          -2.6898917258146297e-02, 3.3307709656849517e-02,
          3.5723623060121249e-03, -3.9352388708649204e-02,
          -1.8510470701154760e-02, 8.8292328912729312e-02,
          1.1158884281312594e-01, -1.2255965154934430e-02,
          -5.9425638011759672e-02, -5.9330395096795663e-02,
          -5.6419653421516378e-02, -1.3187877255238957e-02,
          5.0908718194870427e-03, -1.9139668295950190e-02,
          -3.7962031423151459e-02, -1.0330668863959468e-01,
          -1.8003552837862934e-02, 3.6788885038237282e-02,
          1.0715639856846654e-03, 1.4969807142166315e-02,
          -1.6889634553897873e-02, 2.5927611599865803e-02,
          -4.2568435683520471e-02, -1.3155380567561184e-01,
          -4.2115904852942976e-02, -2.1326811300368270e-02,
          4.7089490067287687e-02, 2.1214536418505747e-02,
          6.1559687581958199e-02, -1.9053180767999514e-02,
          5.1974167150846642e-02, 6.7175178012490108e-02,
          -1.0670804353327935e-01, -9.4790163339467715e-02,
          -1.4753540321931788e-02, -7.7724566990201079e-03,
          -6.3370111324449613e-02, 6.6142184764250933e-02,
          1.6767810554182835e-03, 5.9791477944162565e-03,
          -1.2411938387958763e-03, -1.8605438112666742e-02,
          2.6516557975857780e-02, 2.7495320334281478e-02,
          -2.6836852932559781e-02, 1.1608849238987697e-02,
          2.7423715519146061e-02, -7.3633870656024598e-04,
          3.9947990021547211e-03, 3.0431851781579602e-02,
          -1.4504320968484032e-02, 6.0283369501166577e-02,
          -1.4590865721481661e-02, -7.8813348712151093e-02,
          -3.1616511277782991e-02, 1.0689190722811593e-02,
          -5.2401785018033421e-02, 6.0930156527983972e-03,
          3.9000253535659439e-02, 3.2899810575659494e-02,
          6.3890845077494065e-03, -1.9411941473243200e-02,
          -9.0066217033123730e-02, 7.1796173829905613e-03,
          -3.0721601109449929e-02, 2.7431474809671536e-02,
          8.5222301095091560e-02, 3.1281275998669596e-02,
          -5.4446253745622383e-02, -3.9318076992199948e-02,
          1.0806129752111631e-02, -3.0741992009558638e-02,
          9.8566122084866713e-03, 1.0107683585736138e-02,
          -2.6069765972690995e-02, 5.0505656316479207e-02,
          -6.2274631433521882e-02, 5.3782660477852316e-02,
          5.0299907519918287e-02, 1.7513297254110719e-02,
          -9.1296874321950564e-02, -1.6930707852554017e-02,
          2.0934106585905179e-02, 5.8415541087792670e-02,
          -2.2302690686147450e-03, -1.2279673904897566e-02,
          3.8491782779134509e-02, -1.7755491461609846e-02,
          -1.2398165720688527e-02, -7.1451567623522496e-03,
          -1.2132010498544262e-02, -2.2109524160718763e-02,
          -3.6756801352111138e-02, 1.8940893137147054e-02,
          -1.8807242435125843e-02, -1.0436608207404543e-02,
          5.4885089701074065e-02, 5.5289123220516280e-03,
          -2.0853717243572902e-02, -1.6684425526657120e-02,
          3.9753303355635258e-03, -8.6479160179259960e-03,
          -7.5996270732548374e-03, -1.0162112295493542e-02,
          -1.1798006745550991e-02, 2.7057475944958519e-02,
          -1.1244031630572160e-02, -6.6574766168588664e-02,
          -2.7327548322838353e-02, -1.8967500068892074e-02,
          1.6229327059482906e-02, 9.0279159365564590e-02,
          -4.4336368852280067e-02, -3.0882180673736839e-02,
          4.9324549915984464e-02, -2.8011864027188197e-02,
          -4.2968691450978515e-02, -3.2101939093749601e-02,
          7.3454761945234400e-03, 9.8753709091686575e-04,
          -2.9735547149730500e-02, 7.1775689978044913e-02,
          -1.1009786172948540e-02, -3.5043092623317527e-02,
          5.0075072569635776e-03, 8.1538789962930548e-03,
          4.7745900661449042e-02, 3.0785449449171047e-02,
          5.9163705755878922e-03, -3.7500513409123568e-02,
          -1.0361201433219771e-02, 3.8004562249094521e-02,
          6.0118261157589900e-05, -2.1008283378446700e-02,
          -5.7039424834205828e-02, -2.9928226218217339e-02,
          1.1149043422754825e-02, 1.0041695070781028e-02,
          4.5763395692655272e-02, 4.6194731015646653e-02,
          -2.0257751255189617e-02, -3.7512034759753432e-03,
          -1.7588098342197524e-02, -2.0188678045490956e-02,
          -3.6987267230489826e-02, -2.7642752761660703e-02,
          -3.2961997958619163e-02, 7.5302241688695931e-03,
          4.9823462138856148e-02, -5.8369220057497319e-02,
          -3.0934777221555344e-02, 1.1187357344883669e-01,
          -8.9476662831751902e-02, -5.7526686132613775e-02,
          1.5169616301756915e-02, -4.7451373042805139e-02,
          -3.0599056463294610e-02, 2.1811359545400699e-02,
          5.9754221947747571e-02, 3.5401272763981799e-02,
          2.0136390179025045e-02, -6.6131741824998994e-02,
          2.0141585874783239e-02, -3.8856304481931273e-03,
          -1.0199153281307128e-02, 1.2944581592552247e-02,
          2.5433507654255710e-02, 3.4227895373189939e-02,
          -2.2453540675086398e-02, 6.7357436952307347e-03,
          3.8293509833218506e-03, -2.7060948707335188e-02,
          6.1489003234310733e-03, -3.2256588876900465e-02,
          -1.8621273330860194e-02, 2.5140695976343257e-02,
          2.0918337896969282e-02, 5.9552362217621412e-02,
          9.5519132778437866e-03, 1.5310254326782275e-02,
          6.3984812541180046e-03, 2.4428271367801055e-02,
          -8.8712823038855151e-02, -2.2036785197791533e-02,
          -3.6580810905850664e-02, -1.0482011209022330e-03,
          5.1223706513149080e-02, -1.3418217482398484e-02,
          -4.1988850078010821e-02, -6.6797543171413939e-02,
          -3.3124859007399726e-02, -2.6186922938766538e-02,
          5.7192654185007621e-03, 1.1512869526585475e-02,
          -2.9899375495101833e-03, 6.4572216132552538e-03,
          1.7364044503333120e-01, 1.7125704102972231e-01,
          -1.4695981935244223e-02, -6.2018158635328190e-02,
          1.0116121771194141e-01, 7.7838710095084349e-02,
          -7.4611501638468899e-02, 1.0142927873653247e-01,
          -5.6084826521273577e-02, 8.6648014469643098e-02,
          -8.7252207986765640e-02, 7.7703180522695731e-02,
          -8.3190053242732265e-02, 7.8922855846921214e-02,
          2.7995824888119716e-02, -2.3968703872645818e-02,
          -8.8643645128905019e-02, -9.0159328415630926e-03,
          -9.7610550219128109e-02, 6.9140845306843501e-02,
          -5.1303739795900319e-02, -6.0901316109055754e-02,
          3.8029184891922738e-02, -8.9308927166853198e-03,
          -1.5107636760386442e-03, 1.2367742139016867e-01,
          1.1503415933989189e-02, -7.9532352292528016e-02,
          2.7622906615512449e-02, 2.9064421303200513e-02,
          4.9011996118031982e-02, 8.7122954436723535e-02,
          -5.4750638313088809e-02, 5.9418111473958826e-02,
          1.3957367100584248e-02, -9.7851906388750340e-02,
          6.0090315014232155e-02, -2.1144354081658698e-02,
          4.9833860095268738e-02, 1.2011820570440138e-01,
          -1.2218425122806523e-02, -6.6090829452121316e-02,
          -6.2015744397272213e-02, -7.5652103804688522e-02,
          3.7562291707548393e-02, 1.3879744434255764e-01,
          1.0668674933578362e-01, -1.3523387016448368e-01,
          3.7544227111729583e-02, -7.3214374025833279e-02,
          -6.8240329962980698e-02, -5.7083344326936375e-02,
          7.7295555959453019e-02, 1.1116993748260662e-01,
          -1.8379853214010526e-02, -4.8753239996816897e-02,
          -1.9443921858063587e-03, -2.2963540188680322e-02,
          -1.3454930836513143e-01, 8.9998565440853232e-02,
          5.0295881637027577e-02, -2.2816133408872664e-03,
          1.3837646230245329e-01, -6.5697414561248224e-02,
          2.4639361442207880e-02, -5.1784026324310315e-03,
          -1.1732553806316996e-02, 1.3613246931123171e-01,
          8.5370814696726777e-02, 1.4393854543932338e-02,
          -8.7533385681869899e-02, -1.4733284085762108e-01,
          -1.8656836832060771e-02, 2.8244016699532280e-02,
          -1.1036307898482878e-01, -1.0572970231100753e-01,
          1.4683873711709061e-01, 5.4381295705062879e-02,
          5.8303158264399302e-02, -1.0025066299226756e-01,
          6.5909037393303421e-02, -4.0504432696979571e-02,
          1.4588123345750911e-01, 1.7305297034419811e-02,
          -2.4563095575308082e-02, 4.9885431615458505e-02,
          6.8013633526334424e-04, -1.5615901177398583e-01,
          5.6383282588905854e-02, 6.0691273223133738e-02,
          -2.6525966033391454e-02, -8.1171608152242600e-02,
          -5.4757963446163516e-02, 1.5824155109637757e-02,
          6.6659834277261396e-02, -5.1764593806505818e-02,
          7.4638956389546499e-02, 1.2779710441495665e-01,
          1.2977430422380548e-01, -1.0330229346083306e-01,
          7.6237664149139878e-02, 1.3428694266882962e-01,
          -4.1705184899285888e-02, -5.0853147319438054e-02,
          -6.0789733646329398e-03, 2.0004229769776703e-02,
          9.0672385499774452e-02, -6.2250593458739378e-03,
          5.6094174077687436e-02, -1.0021650398746607e-01,
          -9.9556661284401105e-02, -6.0289153265609435e-02,
          7.8021760702852674e-02, -1.1138273724635200e-01,
          1.1478330129101294e-02, 1.6120166082772565e-02,
          -4.7531695480086567e-02, 2.5357419237014022e-02,
          7.8003395883461987e-02, -3.5248387068835547e-02,
          3.9270477481637658e-02, 5.5154437589791029e-02,
          -7.1636394224486616e-02, 1.1226500754628410e-01,
          -7.4503645013776251e-02, 8.2236378169814953e-03,
          -1.3807239023398160e-01, 7.1983606569608116e-02,
          -6.9590903216986993e-02, 3.5711549411288179e-02,
          -1.1379242807525229e-01, -3.4459668776780208e-02,
          -6.0689880689974170e-02, -3.9553482895209541e-03,
          -7.8147991425535066e-02, 2.4627476078775325e-02,
          -8.3620288368912277e-02, -3.7843807048741643e-02,
          -5.1014364525450794e-02, -1.0072618360344720e-02,
          4.3047053749283748e-02, -5.8625684965932297e-02,
          5.5736132629651727e-02, -2.1042817398775393e-02,
          -4.3923599632196509e-03, 6.2191838416281925e-02,
          1.1060949151048634e-02, 2.2643859992438467e-02,
          -4.7825522949958982e-02, 5.6236377201037059e-02,
          -1.6303715997366741e-02, 4.2439614523770534e-02,
          4.9540871134428829e-02, -2.8990936504054671e-02,
          -9.0052579941771335e-02, 1.0783687272044519e-01,
          8.3032281499802602e-02, 5.5397831632605615e-02,
          5.2872653813376115e-02, -5.8150511300670560e-02,
          3.4125197554214365e-02, 1.1361181038644225e-01,
          5.8139135492935250e-02, 1.3004664747748432e-02,
          6.7327963361410351e-02, -2.7696445162790038e-02,
          -4.9747638731726336e-02, -2.7268039415643760e-02,
          -2.6618007506464595e-02, -8.8160257872499564e-02,
          2.7664805293081022e-02, 9.6532290491387646e-02,
          5.7291402262127422e-02, 7.0165059534936985e-02,
          8.6487120946774548e-02, 6.1353096130810303e-02,
          6.9471010090178670e-02, 5.9040219859849922e-03,
          4.4327026315718901e-02, -8.0941133655061281e-02,
          -7.0118247889346424e-02, -8.9351939728549191e-03,
          1.0777203633756345e-02, -2.7010525003405162e-03,
          6.1354907446867765e-02, 2.9109915894822695e-02,
          1.6970450728395384e-02, 6.9205641114310393e-02,
          3.4272525244351659e-03, -7.1390832380475014e-02,
          3.7954021816942296e-02, 2.2328410851535658e-03,
          -6.9848259839447813e-02, -6.0984758656895739e-02,
          -4.8816925218057774e-03, 1.2330788760253711e-01,
          5.4557710342721555e-02, 7.4320042770005479e-02,
          -1.5136841929987902e-02, -1.1615358280172679e-02,
          1.0912092552089707e-01, -5.7605970104919149e-02,
          -2.6677259271654569e-02, 1.0187776572337574e-01,
          -6.9447325520432257e-02, -1.1651163808491606e-01,
          -3.2813849481949084e-02, -2.2153352780505786e-02,
          7.4962155898224719e-02, 7.3265739971584115e-02,
          1.5564519400708788e-02, 4.8849182234823811e-02,
          8.3254768487497174e-02, 5.4617061090328982e-02,
          -4.2057530636294596e-02, -2.3923801624289337e-02,
          7.4421871609005822e-03, 2.9722262603232876e-02,
          1.5228047735597027e-02, 6.1098063238943630e-02,
          6.7198982567417354e-02, 6.0230129093846174e-02,
          -6.1137353840948665e-03, 8.1494034396669916e-03,
          -1.5992931620510142e-02, 3.8849603070181316e-02,
          -5.6606424878581710e-02, -7.2717156797152960e-02,
          7.7262214458482317e-03, -1.3967595115014022e-02,
          -1.1329915024034419e-01, -5.2632427534349081e-02,
          8.2740072225782849e-02, -1.6077778233403797e-02,
          3.5474332584029780e-02, -6.0825991059246139e-02,
          7.3991795977958297e-02, 2.4188238464678716e-02,
          -6.1924698853816934e-02, -5.2842176184702584e-02,
          2.5450282228272988e-02, -8.7033166969332845e-02,
          2.4249128583255695e-02, 4.6591972467836799e-02,
          -3.8541673877807284e-02, -4.1859224195260607e-02,
          -6.7304991353417415e-02, 3.3800922571538758e-02,
          2.4227652393160923e-02, 3.8724980062773778e-02,
          -9.2905122104299007e-02, -7.9854940894308002e-02,
          -9.2182886355491128e-02, -6.5755308341941598e-02,
          -4.2178781537004960e-02, 2.0796880426104992e-02,
          2.5218519540182817e-02, -1.2911664950608701e-01,
          8.1140682467740977e-02, -8.0012342586686644e-02,
          2.8654305137218661e-02, -1.0135850821968892e-01,
          1.4853926312729845e-02, 2.3430766438069919e-02,
          6.9526850276477634e-02, -5.9924560853119369e-02,
          2.7849402323943850e-02, -7.4836871368785376e-02,
          -9.9261921950779316e-03, 9.5445036570560599e-03,
          3.6520528172503015e-02, 9.3770336447738939e-03,
          9.0600183173678683e-02, -6.6895587891301705e-02,
          -7.9298540585205399e-02, 9.2523023685584335e-02,
          1.0261259372747704e-01, 9.2281961091847692e-02,
          -1.2356859087681851e-02, -3.3802763316752658e-02,
          6.0409212214759256e-02, 2.8858668931704266e-02,
          3.5663604501781403e-02, 7.8613753474595913e-02,
          6.7126767643319873e-02, -9.1943126558135788e-02,
          -9.2509919805615265e-02, 5.1738870018315848e-02,
          4.6829591807354146e-02, -9.8452425682162517e-02,
          -3.7519300110484044e-02, 1.3488702701732053e-01,
          1.5776652157155108e-01, 4.2942056192269991e-02,
          -2.6677562302064192e-02, -6.0498839938674186e-02,
          6.9904480939503327e-02, 1.1126566844535125e-01,
          1.2107226672974893e-01, -6.2977479280115933e-02,
          -1.2146876439909038e-01, -4.1511541011324322e-02,
          -6.7715968160970391e-02, -2.8043239463864250e-02,
          5.4799914883039390e-02, -1.8893984759396819e-02,
          -8.9046483492212433e-02, 3.0344362096340376e-02,
          -4.5574936000905224e-02, -7.7252833109643010e-02,
          -1.0107541448805627e-02, 3.3435177147905150e-02,
          -6.0271952634572322e-02, 5.6623175195119630e-03,
          1.8316736427822236e-02, 4.0168156182459766e-02,
          1.7408147472171440e-02, 8.5473260034118897e-02,
          4.3601463512311159e-03, 9.8190818826794438e-02,
          1.5527358301085334e-01, -1.0350687202587421e-01,
          -7.8924532595768745e-02, 5.9625222954702448e-02,
          -1.4418995344785104e-01, -4.4711781037572056e-02,
          -4.6550585376101142e-02, 1.0186878138980138e-01,
          6.0361602365667288e-02, 1.0935775330948126e-01,
          2.5752397215570533e-02, 5.1947370924943885e-03,
          4.7239380256488800e-02, 2.1467370288106323e-02,
          -4.4295384987516999e-02, -5.5851215443844929e-02,
          8.7589666320386422e-02, -3.8484451737066348e-02,
          -1.1952316271554990e-02, 9.0170643387143465e-02,
          -5.0711012038714413e-02, -2.3340085825481437e-02,
          1.0506547759801902e-02, 3.5998339775005259e-02,
          2.8738962377245748e-03, -5.5917356276334790e-02,
          -6.2817344371822403e-02, -5.2669852473835141e-02,
          5.5778984034168262e-02, 7.5855069941072384e-02,
          -8.2890930924579845e-02, 1.7989468743283922e-02,
          1.6737627544364617e-02, 1.0151476959550408e-01,
          -7.2483035824478126e-02, 4.8932351418080666e-02,
          -1.3149156624536230e-02, 6.9439611911454910e-02,
          -5.4853996300448654e-02, -5.6309013566646138e-02,
          2.5712178155857034e-02, -1.2579762530276851e-02,
          -2.5183702877706167e-02, -2.8056796004484880e-02,
          1.1426450103155282e-02, 2.7593806817386629e-02,
          -6.1383687771448918e-04, 7.1700893589564082e-03,
          1.0548968574139717e-02, -1.6626186270519788e-02,
          -1.7579640498869509e-02, -1.7948028528450378e-02,
          2.2885437793207234e-02, 1.4725179998463634e-02,
          1.6577478650114059e-02, -2.4983754707198196e-02,
          5.5090194404199423e-03, 1.1434103469867455e-02,
          -1.6056767845898184e-02, 2.3268190354443475e-03,
          -5.9265453192158552e-04, -3.4503270455169079e-02,
          1.2968293106915199e-02, -8.8780402937959722e-03,
          -3.4544396956760627e-02, 4.6527419709931794e-04,
          -2.5982084567508501e-02, -1.9590828998461419e-02,
          -8.5010915860146072e-03, 8.7264807217833293e-03,
          2.0978132575666622e-02, 1.5542114098296981e-02,
          2.8460640976608807e-02, 1.7032955874697817e-02,
          -1.5482691779097993e-02, -2.5191939365039103e-02,
          -1.9618400092366556e-02, 3.0374932572252246e-02,
          -1.0121637602110134e-03, -1.7921802212245875e-03,
          3.6119232950766078e-02, -2.8601989872532176e-02,
          -5.2431135785005172e-03, 1.9646344644458361e-02,
          -2.2197712377564111e-03, -1.0472633517457369e-02,
          -2.7079639033798487e-02, -7.3456149147020046e-03,
          3.2057280385406832e-02, 2.2255709126383919e-02,
          4.8968821245476439e-03, 1.7955488216947223e-02,
          1.6392352977008300e-02, 4.4207364422237400e-03,
          -2.0407728974878810e-02, -1.3856943225244436e-02,
          -2.1188170089084222e-02, 2.0140055035102539e-02,
          -2.7193241259319205e-02, -2.3521367510746093e-02,
          1.4016181670020170e-02, 8.8548706273510105e-03,
          -1.6010973049160715e-02, -2.5766735052754806e-02,
          4.8285796906317700e-03, 3.7897812822310787e-03,
          1.2228756573696915e-02, 1.6835707631453459e-03,
          -1.6183865837168115e-02, -2.3804370071132661e-02,
          -2.5259506710352226e-02, 2.9570334327711490e-02,
          -1.6193447985410229e-02, 1.8276058396680367e-02,
          -5.9952450673225041e-03, 1.2035321332277882e-03,
          1.0655501002434026e-02, -1.7903914375564167e-02,
          2.9934432333018793e-02, 3.5428872995296047e-02,
          3.5309715839188884e-02, -1.8983129923743070e-02,
          2.3091887153236609e-02, 2.6448209880427821e-02,
          2.7137360661786476e-02, -2.1459376640638506e-02,
          2.6790994129765482e-03, -3.6105660527169250e-02,
          9.0801997709219085e-03, 1.3241255470346661e-02,
          -2.2306513418831376e-02, 1.7938488323459671e-02,
          -3.2702784423000349e-02, -1.0216116570740242e-02,
          3.1839112235078300e-02, -1.7313786487454099e-02,
          2.8430654220798678e-02, 9.4080831868660324e-03,
          -2.0612434280855279e-02, 5.7961713867442704e-03,
          -2.6817050230251185e-02, -7.3513738906303347e-03,
          1.5096922532775736e-03, 2.6928658835746522e-02,
          2.2613542173172910e-02, -2.6657422005415052e-04,
          6.7979729167603788e-03, -1.4668101708885165e-02,
          -2.2229131982930046e-02, -2.4615431334384444e-02,
          2.2288568641590852e-02, 2.6151972573176398e-02,
          2.3277443530111377e-02, -3.4075805565461859e-02,
          -1.7067929409008888e-02, -5.2544920004259288e-03,
          -6.0886649313211970e-03, -1.8677593368624387e-02,
          4.4124497581383869e-03, -1.9668801851482301e-02,
          -3.4389912586513579e-03, 4.0815584326268752e-03,
          1.8447870705105330e-02, -2.4192949145722217e-02,
          9.5013750719152735e-03, 2.8403056738612195e-02,
          2.9931558394124220e-02, -1.4370636122442814e-02,
          -6.8874522565425898e-03, 2.4960084773774534e-02,
          -3.5962304335170987e-03, -9.6451737190248431e-03,
          3.0790120723765625e-02, -1.1119869066628249e-02,
          2.1078571156677509e-02, 2.6443527260709254e-02,
          -3.0069742978411199e-02, 2.1258269378510788e-02,
          -1.2164219657257702e-02, 8.3402862359757725e-03,
          1.5038451015338447e-02, -1.3312858326553288e-02,
          -6.8861094208203244e-03, 1.1262907617724752e-02,
          1.3160466256871072e-02, -1.5541251906864582e-04,
          -1.1823375234398137e-02, -3.0137682649123230e-02,
          -1.1797117263014176e-02, 1.4245013881287478e-02,
          1.7441899541918958e-02, -6.0125770301934110e-04,
          -9.3484834897790883e-03, 4.1092601844391023e-04,
          3.3182227859968952e-02, -1.9587104563140459e-02,
          -2.3149094863626755e-02, -2.1796778506191220e-02,
          2.5436940358268233e-02, 2.2616824575454199e-02,
          -4.5896169056322735e-03, 2.6663361517433445e-03,
          -2.5333431868299047e-02, 1.7108108883867653e-02,
          -5.0291918246604542e-03, -2.6419652582659440e-02,
          -6.1779401835554101e-04, 5.1475898900633600e-03,
          -2.9647285511475115e-02, -6.5753097012844789e-03,
          9.8198880671266173e-03, 3.1567466604740767e-02,
          2.0380956255207978e-02, 2.8118456414606505e-02,
          7.9652110306910502e-03, 5.7748425221333449e-03,
          -2.3448111025923250e-02, 3.1896226977916364e-04,
          -1.5713394315747368e-02, 3.1481296252390691e-02,
          -2.6336211445298584e-02, 7.9329709632971514e-03,
          1.1148424191634251e-02, -1.2361892962061832e-02,
          2.9137022652374632e-02, -6.7107604233853533e-03,
          -2.8680644959980715e-02, -1.8971325673626246e-02,
          -1.2609510264729068e-02, -1.9455704256554962e-02,
          -1.4813831821262323e-02, 8.0736605273671498e-03,
          1.3940045649365330e-02, 3.0241125920604735e-02,
          3.7033667859644789e-03, 2.6537518708949601e-03,
          -6.6378211105623027e-03, -2.3957585571908201e-02,
          1.4522185303081438e-02, 3.4631712338102277e-02,
          8.4428961544539272e-03, -4.6799936323028337e-03,
          2.2008592997913721e-02, 2.8720464042025155e-02,
          2.3054074744959185e-02, 2.1273142135922331e-02,
          -1.0110040502154886e-02, -5.3777262836748252e-03,
          -4.0629208005288258e-03, 2.8856889524456093e-02,
          6.7442193180472054e-04, -2.8415430716212092e-02,
          2.1458628054636931e-02, -2.8721591791187891e-02,
          1.8844397461307061e-02, -3.1690143708978158e-02,
          -1.8540474675819846e-02, 2.0284039697547971e-02,
          1.7399731271051818e-02, 6.2746809475471505e-03,
          2.2533165332615519e-02, -3.0338028029388703e-02,
          1.6256957519604806e-02, -3.0830942481215873e-02,
          -3.3649324658608375e-03, 3.1257572444260023e-03,
          1.6109899881028015e-02, -6.9726422320828384e-03,
          1.4218089795356098e-03, -2.4515124120497816e-02,
          2.3136612810888045e-02, -1.2101082750244210e-02,
          -1.9354656505123406e-02, -1.5200519548894670e-02,
          -2.1659140094163025e-02, -2.6397843800989005e-02,
          3.0281102633062686e-02, 3.3495278393856097e-02,
          2.9986090850462215e-02, -2.6275549277222612e-02,
          2.8576551532970933e-02, -4.3721196366818503e-03,
          3.1706856344851486e-02, 1.9657210495929521e-02,
          3.2165300935067601e-02, 1.0338741935418937e-02,
          2.9140097919932644e-02, 2.1869706728903510e-02,
          -2.4900667842955648e-02, -1.0970745601911304e-02,
          1.0361954509118380e-03, -2.0576088462996276e-02,
          -8.3429022989985179e-03, 2.3702079494342016e-02,
          4.4941466517711415e-03, -1.7991056008580815e-02,
          -2.9811053593153010e-02, 1.1452992838863292e-02,
          -2.9160307641357694e-03, 2.9723209499671194e-02,
          -8.7068748228291172e-03, 3.2152940291279505e-02,
          2.2634085643084181e-02, -2.1222730852006554e-02,
          2.7347009325257781e-02, -1.7788229047964954e-02,
          -1.2288551577253731e-02, 9.3559414567624746e-03,
          2.6815470587928301e-02, 2.7552752563043671e-02,
          -1.2797518529954926e-02, -2.4895643180724673e-02,
          1.5085822025746943e-02, -9.9695626530018153e-03,
          -4.1463580997205802e-04, 8.2084291114236391e-03,
          -4.0865256751435497e-04, 3.9094483454351599e-03,
          2.2210172228652507e-02, 4.5239652860496679e-03,
          -1.5440911765050629e-02, 2.8652046637442471e-02,
          -1.0828478423038293e-02, 1.0727562136367944e-02,
          1.0568658220628900e-02, -2.4134657089737954e-02,
          -2.1279896214702564e-02, -1.7005996562645103e-02,
          -2.2503427626845048e-02, 9.7786830836581514e-03,
          9.1802431164753912e-03, 3.0471053688469016e-02,
          3.1833036920354649e-02, -1.3489037588289074e-02,
          1.5648729691712843e-02, -1.1040034157698515e-02,
          -2.7853471714644293e-02, -1.2286299795931099e-02,
          2.1420796925413529e-02, -2.6346198183361598e-02,
          -2.1560247147395118e-02, -3.7765971727547623e-03,
          -2.8914364779359828e-02, 7.1531046753018825e-03,
          1.6866223638726124e-03, 2.6498945951476595e-02,
          6.2463910182754172e-03, -2.8396342742395097e-04,
          2.3983073687195790e-02, 2.5021899448348161e-02,
          1.9340934762782810e-02, 9.4752500307697454e-03,
          7.4663318242346750e-03, 1.6880322056015820e-02,
          2.3440348702171709e-02, 2.4098600852630832e-02,
          -1.2086030754775323e-02, 2.8804306267795520e-02,
          -1.6783197353389057e-02, 3.2218403601655586e-02,
          -2.7751203675506677e-02, 1.5352464741967230e-02,
          -1.1313082921836275e-03, -1.6885274702413706e-02,
          2.1620086895684707e-02, 2.4987119920584295e-02,
          1.3766077214430033e-02, 2.5106229721944262e-02,
          -2.3545438022795049e-02, 1.4930115625748952e-02,
          -3.1625310439748124e-02, 1.8127748937242946e-02,
          6.6372275679246959e-03, -9.8106385754410832e-04,
          2.5648830647037369e-02, 2.5667897841590133e-02,
          2.8768415954909587e-02, -1.2480666658498823e-02,
          3.0564139951024635e-02, -1.7218616226926328e-02,
          -1.8765992575444691e-02, 1.2378408651309260e-02,
          -2.9856134076017417e-03, -7.8736381401386252e-03,
          2.1461436013205076e-02, 2.3048056136504472e-02,
          -2.0460881045583849e-02, -1.0144772905863488e-02,
          1.8261956188138573e-02, 1.1992286782430452e-02,
          1.3705834372440275e-02, 1.7617190091531603e-02,
          -2.4240928398941545e-02, -1.7901924804551817e-02,
          2.1076239774481281e-02, 2.5959353938044234e-02,
          -2.5058528180521778e-02, -3.3715044064923858e-02,
          -1.5310625141070967e-02, -6.0235000190604279e-03,
          7.9800749452257347e-02, -4.2068105411594255e-03,
          -1.1476604368855342e-02, -2.0043302288643348e-02,
          3.5886238711022450e-02, 3.1840636056890054e-02,
          -5.0938358870811329e-02, 1.7751625496310326e-02,
          -2.0503638009056555e-02, 3.4421923535723140e-02,
          -3.1639684462809042e-02, 4.9010882355605058e-02,
          -1.1919045598024067e-02, 5.0839366598074504e-02,
          2.6116331777358386e-02, -4.2850293527593973e-03,
          -2.3467635129274210e-02, -2.6881217514408785e-02,
          -1.6786875089117369e-03, -1.0715392961180894e-02,
          -1.7739145459964205e-03, -3.8070077369063163e-02,
          5.4222003161233122e-02, -3.2415418084609737e-02,
          3.9524609212889137e-03, -6.4011594861608056e-04,
          2.8920637058285067e-02, -4.3686562471055797e-02,
          3.9551224445283972e-02, 1.7517752558799969e-02,
          3.0366085742128662e-02, 2.2914578147996294e-02,
          -2.1449486653727472e-03, 2.1325263513125064e-02,
          -4.1556085002457714e-02, -1.6118163084810653e-02,
          6.3469648599406181e-02, -7.3787712348075667e-03,
          -2.7231356506519583e-03, 5.4856857540597624e-02,
          8.2014856569637869e-03, 1.3418722986274702e-02,
          -1.3971212410751419e-02, -1.7629504535397307e-02,
          4.9571195091595618e-02, -7.5872411457195848e-04,
          -2.6508332817230491e-02, 5.2194911031373508e-03,
          3.1097197710392117e-02, -8.3229027097530078e-02,
          -6.8161759877393563e-02, 7.3513236231529519e-03,
          4.0059747514606843e-02, 2.1766278279042570e-02,
          1.4035579451159083e-02, 1.0427486904319770e-02,
          2.0465592277625465e-02, 1.5396097019147570e-02,
          -4.3845813040542646e-03, 4.9335320959016986e-02,
          6.3927040257794132e-03, -3.1259893805940686e-02,
          5.2390725642609354e-02, -5.8952980922229812e-03,
          -2.6878259999918944e-03, -1.3290680060212485e-02,
          -6.1759658636866702e-03, 5.0350976399677214e-02,
          6.6054647330667203e-03, 5.2708578159703132e-02,
          3.4802840388921327e-02, -1.3952600655518569e-02,
          -5.6038452488212952e-02, 3.2441492739621845e-02,
          -4.4963307234866572e-02, -5.1165500630422814e-02,
          8.1438123298691392e-02, 2.3350951443331637e-02,
          -1.3208245209811802e-02, -2.2194270086172724e-02,
          7.1597925660548109e-02, -1.4282403603196409e-05,
          1.0779617738597487e-02, 1.9907193903029381e-03,
          -4.0148666354684934e-02, -2.3280804618801765e-02,
          -2.7323893570762467e-02, -4.5725839969461841e-02,
          -1.4160711704408377e-02, -1.1745194298846677e-02,
          -8.2890784005811545e-04, -1.6884108887898572e-02,
          -4.0659314546502298e-03, -2.1644986159444098e-02,
          4.3094798923481573e-02, -2.5601896893237948e-02,
          4.5035281501506708e-02, 7.4907533491525360e-03,
          4.7739426496945563e-02, -3.4834513362590462e-02,
          2.1224202490553344e-03, -3.6729289347240571e-03,
          -3.2397510681388936e-02, 4.6100777230743996e-03,
          4.9479838895862497e-03, -1.9489161211442740e-02,
          -7.7423170159794221e-03, 2.6248926333400664e-02,
          3.4045590060790151e-02, -1.6735744284245662e-02,
          -7.6634888011773789e-02, -3.1597843417184735e-03,
          1.2711546783074391e-02, -1.6040705228649321e-02,
          3.0068697511215336e-02, 2.9774641063284913e-02,
          -2.0839060953171088e-03, 6.1802018238826806e-03,
          5.7689419176701531e-03, -1.1306596123274795e-02,
          5.4225690625401991e-03, 1.6208702543287307e-01,
          8.1380928297849001e-02, 1.3279606966532517e-01,
          6.7223177419291180e-02, 5.0057144717680288e-02,
          7.2051541051244450e-02, 1.8569435497548897e-01,
          -7.2257666767334472e-02, 1.8794158081232740e-01,
          1.1776686296853481e-01, -2.2076838532241929e-03,
          2.0028127103485460e-01, 2.7349786732421593e-02,
          -4.8713686302861971e-02, -1.7085092753402398e-01,
          -1.5565538944852150e-01, 6.5051390467525574e-02,
          -1.2689872439731656e-01, 1.3639685074086069e-01,
          5.5021436802775740e-03, 1.8376160203533687e-01,
          -1.1739637538876004e-01, -2.2020140392342416e-02,
          -9.6986340404009344e-02, 1.4873727181915697e-01,
          -4.9333781019874609e-02, 1.1683303597631238e-01,
          -4.1452819791100659e-02, 1.4984009017412947e-01,
          -4.4733180120601908e-02, -1.3079825219233823e-01,
          -1.5829512946837532e-01, 3.8239535954685377e-02,
          2.8834110456735916e-02, -7.9312591082946013e-02,
          -1.2033224567538578e-01, -8.1268616908808100e-02,
          8.2401111750030190e-02, 1.0500109572074318e-01,
          -1.6415695841133152e-01, -2.4653238654867935e-02,
          2.7269994407919974e-02, -9.9584173474733001e-02,
          6.3066481776201987e-03, 1.8174484527176857e-01,
          1.5824993652456062e-01, -1.2991161997273679e-01,
          -1.1160118946674005e-01, 7.8721609999147554e-02,
          -9.4270357760450452e-02, -8.5773431881581652e-02,
          -1.4284656312629285e-01, 1.0170059135010896e-01,
          -3.0907999669007490e-02, 8.2489606760850501e-02,
          8.8964888532474515e-02, -1.2724136819244392e-01,
          -9.8055391700628866e-02, 5.5358412278981424e-02,
          9.1611589388324546e-02, 9.5411343360835690e-02,
          1.2888955482712472e-01, 4.8644280209768478e-02,
          8.0078827824231105e-02, 1.4573189664990430e-01,
          1.4384596761784635e-01, 3.4773878969824513e-02,
          -3.7579295889295199e-02, -1.5394023365585191e-01,
          -4.5410411762735824e-02, -1.1081535304234993e-01,
          1.0565678744168637e-01, -1.1080542941214383e-01,
          -1.3712386253837111e-01, -2.0998519733147394e-02,
          1.0032910995757401e-01, -1.0148314990167466e-01,
          3.7119123129408044e-02, -8.5603474624552645e-02,
          -1.4801235485515626e-01, 1.3391043188167120e-01,
          1.5007983255410945e-01, 1.0391910268156465e-01,
          1.5994717896848201e-01, -1.1586816111937059e-01,
          1.0405912972232161e-01, -1.5867241542852722e-01,
          -1.2127388191984620e-01, -9.1756530509094811e-02,
          -4.9332080885455099e-02, 3.5985570212542159e-03,
          -7.8911815970382770e-02, 1.2125959117751232e-01,
          6.2396866286139607e-02, -1.0528040038818139e-01,
          -6.9554554769431495e-02, 1.4679675948696511e-01,
          1.8648625236582170e-01, -3.0180990036698847e-02,
          9.8469878702555358e-02, 1.8457762178053977e-01,
          -8.9842925012651204e-02, -7.1015660448995876e-02,
          -2.4044464322565944e-02, 1.5833369675820042e-01,
          1.3159263786861743e-02, -1.0888725209797828e-01,
          -3.0480869264862976e-02, -1.0125861652357371e-01,
          1.4394087497067778e-01, 1.3430818013838604e-03,
          1.5775425281869458e-02, -7.3368072648960128e-02,
          5.3096245249609209e-03, -1.0068707861706513e-01,
          1.6258111963687946e-01, -6.4246717251464913e-02,
          2.7358867677126673e-02, 1.4382114718842079e-02,
          -9.5135551806609917e-02, 4.1958204440806009e-02,
          6.8154973719550552e-02, -4.6463645165714655e-02,
          -1.1232505329589483e-01, -2.8438328348645601e-02,
          8.4519289601340863e-02, -3.9419838477621594e-02,
          -1.6678150155473276e-02, -1.6668759161088554e-02,
          1.3949527274839219e-01, 1.7503968800449389e-02,
          -1.5791670429416162e-03, 3.9515073354256892e-02,
          -2.0563228695779687e-02, 2.5038655057102184e-02,
          2.0189102861652191e-02, 4.9555469942007116e-02,
          4.5165960869111297e-03, 1.6743666913139905e-02,
          4.4328436457462518e-02, 3.5886381378920168e-02,
          -2.0963420340585365e-02, 2.1944038779232924e-03,
          -2.2771142182607965e-02, 9.7584289690053946e-03,
          -8.1083713959732833e-03, 2.7930240995031060e-02,
          -5.6840589348731624e-02, -3.0599536495322918e-02,
          -2.3388927692886512e-02, -4.2623043426544958e-02,
          -2.1432268372970631e-02, 6.6747566064016689e-02,
          3.9070758108956653e-02, 1.0606903794384476e-01,
          -8.8015837743034855e-02, -6.6947402383487911e-02,
          1.7185672085156946e-03, -5.0989772125654233e-02,
          -1.6411365308573952e-02, -1.1999185109785968e-02,
          2.1380716508659862e-02, -7.2651831880560930e-02,
          -8.4762636226706448e-02, 1.1020992229090103e-01,
          8.4926396551219321e-02, -5.6163227278787142e-02,
          8.3496289580247771e-03, 1.0921669181352030e-01,
          6.9177460828012877e-02, -7.0246351446678956e-02,
          -9.2969518431531506e-02, -5.9295239421278102e-02,
          -5.3169478232668516e-02, 4.8724073957841930e-02,
          -5.9801006784156894e-03, -6.8005734163670103e-02,
          -6.0033029187381418e-02, -9.5826145778531421e-02,
          1.0894991463530176e-01, 6.7978705600112944e-03,
          3.3319644251029484e-02, 4.5040761773949875e-02,
          -7.2176879350853609e-02, -1.0850124906650341e-02,
          2.1384957883756557e-02, -7.2759786386589906e-02,
          5.7541340133584154e-02, 1.8137119371322594e-02,
          3.0460214227777036e-02, -3.8145408132800179e-02,
          9.7653029600816177e-02, -3.4566507956355609e-02,
          6.2499027133925009e-02, 1.0287074507222803e-01,
          -8.6883272726360122e-02, -9.7536592676480918e-02,
          -9.3781011309089467e-03, -6.0448993344303426e-02,
          -1.3511029083787468e-01, 1.0895315850709225e-01,
          6.1452274053692933e-02, -9.8827593288563966e-03,
          9.4049841216488503e-02, -2.5517781405865235e-03,
          6.9069339817447208e-03, -2.6491751776598058e-02,
          -9.0036885216727494e-02, -8.6741643961867620e-02,
          7.2643681313807121e-02, 3.3597125302940636e-02,
          -8.3220377197853069e-03, -4.7226425417884861e-02,
          5.6661059881709958e-03, 2.0153082145390785e-02,
          -4.3955414120115020e-02, -4.1425944950361344e-02,
          3.6564883813181480e-02, -5.8689447106830543e-02,
          -1.7205153649642875e-02, 3.6091507275789352e-02,
          5.5071436646570007e-02, -8.2054995004640398e-03,
          1.4224191753642305e-02, -1.1929312417189094e-03,
          -4.5666813156688892e-02, 9.0667590368513126e-03,
          -2.7864501000706334e-02, -6.5755144296211071e-02,
          8.1908450924019882e-02, -3.7451632762491253e-03,
          -7.9933381172669835e-02, -9.9690990749772432e-02,
          2.4174954590870695e-02, -1.2539530791961595e-03,
          -6.2003088754108765e-03, -3.9437705860523906e-02,
          -5.0285457530376332e-02, 3.4193093202629261e-02,
          -4.1723038149747149e-02, 6.4280739376542370e-02,
          -2.4606580229193559e-02, 7.7555187960724453e-03,
          -1.2332049916739006e-01, 5.7587751908028853e-02,
          2.8913690518208510e-02, -3.0248575013040915e-02,
          -7.6010863023026967e-02, -4.3045453817901445e-02,
          7.0284506223588256e-02, 2.0405644610672912e-02,
          -2.2536025776122369e-04, 5.6544963407192977e-02,
          -6.7886323125397829e-02, 4.9996459869116841e-02,
          -4.2027468931337325e-02, 6.8954038067732953e-02,
          -3.8073907236883385e-02, -7.2269134834927855e-03,
          8.1940656386580699e-02, -1.6746621724263495e-04,
          4.0491044371864952e-02, -5.2879710001273984e-02,
          -7.8905602129268858e-03, -1.8303977795441004e-02,
          6.0372855392794448e-03, -2.6561140909828673e-04,
          -2.2399703114808382e-02, -7.3885069570712419e-02,
          -1.0292277880716608e-02, 1.5188684532748563e-02,
          3.0570865875027248e-02, 5.7578122299192395e-02,
          2.1780461001917908e-02, 1.2378092229135514e-01,
          -1.5270491468285156e-02, -9.9877326415753503e-02,
          4.5102599046888563e-02, -6.2071921151939075e-02,
          2.4886468480897223e-02, 7.1158854077093478e-02,
          1.6995186710757639e-02, -7.4102053634291842e-02,
          -3.2336075081194286e-02, 4.9967848922008035e-02,
          -8.5052455933985679e-03, -5.1282007614289575e-02,
          1.5672988071786693e-02, 7.5437131197042498e-02,
          9.8929335789333453e-02, -4.3323470974015010e-02,
          -5.4865335936530063e-02, -2.1958146460903646e-02,
          7.1178362736721706e-02, 5.5642688701293221e-02,
          -5.6853417807699487e-03, -4.0497386100505510e-02,
          -4.2970786353636992e-02, -9.6250812889404722e-02,
          7.3482068536029774e-02, 1.0446096545947676e-02,
          4.6668152742795184e-02, 4.2560484265906695e-02,
          -4.7855421276295940e-02, 2.9404124031175839e-03,
          6.2284080735955177e-02, -2.5617129315748409e-02,
          6.4786760503592722e-02, 3.7552438822101901e-02,
          1.1338479530888503e-01, -2.6115844730600177e-02,
          1.6378939755086031e-02, -3.4130961035453100e-02,
          5.2982390985245306e-02, 1.1322333766248908e-01,
          -3.9854613009753948e-03, 5.6866546578351199e-03,
          -7.7490150251874418e-02, -5.7363659057159053e-02,
          -9.7930960440544890e-02, 4.2432602485139664e-02,
          7.1946175118372771e-02, 5.0927829826650568e-02,
          4.1918352674871241e-02, -7.9289359693659411e-02,
          -3.0347424400053991e-02, -7.1573769902212300e-02,
          -2.7011369713584442e-02, -2.1374709178281669e-02,
          8.3942898518736167e-02, 2.5753680667464422e-02,
          7.5414596245914622e-02, -1.6933072678055612e-02,
          -2.8840048907966239e-03, 3.0346065943971027e-03,
          -5.0395302994494462e-02, 1.2559188707431574e-02,
          4.8965846319890920e-02, 1.0756843982945154e-02,
          2.4600392144977511e-02, 2.5798611218031817e-02,
          7.7411827189513407e-02, -3.8682784254536251e-02,
          4.7631960136937775e-02, -1.7202637997198882e-02,
          -1.1435156494333971e-01, 4.0135089539009905e-02,
          -2.9993450321361772e-02, -1.0319664121024116e-01,
          1.3900901453553735e-02, -6.4107980894041169e-02,
          4.7527881128343878e-02, -5.4807776463133513e-02,
          6.4327554220335967e-02, -3.5514466266008259e-02,
          3.4710031159499707e-02, -5.0052652642965469e-02,
          -6.6582696264421579e-02, 5.0784182816283718e-02,
          -1.2340369397831809e-01, 4.9600457355182613e-02,
          1.9681387693806899e-02, 3.3470246674105739e-02,
          -1.5905830968636858e-01, -3.5735954081222505e-04,
          7.9394138702984451e-02, -2.7085401041630930e-02,
          -4.0051167069857244e-02, -1.0117747799070326e-01,
          1.0896042610549284e-01, -6.1151488732000894e-02,
          3.3573905329171982e-02, -1.0691476475191038e-02,
          -6.4008019908740485e-02, -4.7882178435519583e-03,
