%YAML:1.0
ANN: !!opencv-ml-ann-mlp
   layer_sizes: !!opencv-matrix
      rows: 1
      cols: 3
      dt: i
      data: [ 90, 180, 28 ]
   activation_function: SIGMOID_SYM
   f_param1: 1.
   f_param2: 1.
   min_val: -9.4999999999999996e-01
   max_val: 9.4999999999999996e-01
   min_val1: -9.7999999999999998e-01
   max_val1: 9.7999999999999998e-01
   training_params:
      train_method: BACKPROP
      dw_scale: 1.0000000000000001e-01
      moment_scale: 5.0000000000000003e-02
      term_criteria: { epsilon:1.0000000116860974e-07, iterations:500000 }
   input_scale: [ 7.4093391557710442e+00, -8.8354997691739490e-01,
       4.6967794456711589e+00, -6.9885242849538165e-01,
       6.2625957777570322e+00, -5.3324936395059974e-01,
       7.5210483410374449e+00, -5.8775808781211181e-01,
       7.7416272186869390e+00, -8.4026141012247157e-01,
       9.3624004527089664e+00, -7.4744974430005218e-01,
       5.5519533201801172e+00, -6.4442713737542900e-01,
       7.9093250507986914e+00, -4.9845995755819938e-01,
       6.5298647883900900e+00, -6.1678979294774394e-01,
       9.4117518857091298e+00, -8.3346060682389711e-01,
       2.3942813421354295e+01, -9.2011639357301597e-02,
       3.7071794378406295e+00, -3.1812297492430047e-01,
       2.0879661677850333e+02, -2.8759865427152538e-02,
       1.1222530980483732e+01, -1.3000204688824415e-01, 1., 0.,
       1.0136017462600410e+02, -4.8865098792362470e-02, 1., 0.,
       3.5974442922947041e+01, -5.2029152987733321e-02, 1., 0., 1., 0.,
       6.0125475732383151e+00, -5.0837600032320773e-01,
       2.8845230110066713e+00, -7.8608118182053532e-01,
       2.2936580723762983e+01, -3.2232135560131336e-01,
       3.1601191542346925e+00, -6.9456564519585839e-01,
       3.0159534714427966e+01, -1.7936144992837602e-01,
       2.1641012766018466e+01, -1.7923166255033993e-01,
       1.4102957329141748e+01, -1.7586383253415450e-01,
       1.2830546269741646e+01, -1.9072429611689373e-01,
       7.6841748408835997e+00, -3.5493594036139536e-01,
       3.2895502204636678e+01, -4.9268777503650781e-02,
       3.9709705548148184e+00, -8.1085307830393949e-01,
       1.4018737389546548e+01, -6.8479623385835109e-01,
       2.7840937161081939e+01, -7.3875320447141257e-01,
       1.7374173897482315e+01, -6.6304888691022290e-01,
       4.3314816748560050e+00, -6.7133298527428209e-01,
       4.2804675571779685e+00, -9.5728620166103273e-01,
       3.7310463797449787e+00, -7.4897833064336683e-01,
       8.9445971238491868e+00, -5.4930415089664109e-01,
       4.0061705568513780e+01, -6.2406627718593788e-01,
       2.1269194078232438e+01, -5.5080974704104668e-01,
       5.4794954069026156e+00, -1.1099462756096923e+00,
       1.1874899844076733e+01, -1.2021013591626106e+00,
       1.7572488434077961e+01, -1.2657578733920274e+00,
       2.3882217183505116e+01, -1.3562605310700846e+00,
       2.7098998882926413e+01, -1.2659958846824555e+00,
       3.1492164454113698e+01, -1.3031506606834049e+00,
       2.8370747794359357e+01, -1.1993275595959214e+00,
       2.2451078255144235e+01, -1.0268284532146330e+00,
       2.3426071824361401e+01, -1.1066876330688342e+00,
       2.2147403668197828e+01, -1.0819688481891163e+00,
       3.2265025145149970e+01, -4.2950616026523131e-01,
       1.8585463379143551e+01, -4.9426681760553121e-01,
       1.2294931127294367e+01, -6.4943556236135835e-01,
       1.0283495219571870e+01, -7.1971794497105912e-01,
       1.7804929756245251e+01, -8.3444853623831661e-01,
       1.7045422843522164e+01, -7.5963627937403488e-01,
       1.4313947500594535e+01, -7.8834266825691657e-01,
       1.2938710599697314e+01, -8.3857278338812946e-01,
       1.1006851329134912e+01, -8.3994763546467310e-01,
       1.2289247017750265e+01, -9.5917935741626092e-01,
       5.1413918882389629e+00, -9.1635547246177040e-01,
       8.0271968203704986e+00, -1.2298222817130133e+00,
       9.1607719243832797e+00, -1.2012647916914008e+00,
       1.2514320701582585e+01, -1.0731059385974626e+00,
       1.4638477068049866e+01, -9.9416265641022750e-01,
       1.6727153984665613e+01, -1.0406499106054268e+00,
       1.3455913284457893e+01, -9.2777503480319268e-01,
       1.2076544161911128e+01, -8.0621484336160121e-01,
       1.2847345575193437e+01, -8.2165520558911953e-01,
       6.2599174856668203e+00, -7.6301902730842219e-01,
       4.9926310145762693e+00, -6.3764040939027855e-01,
       7.9332283055263018e+00, -9.4137831594147814e-01,
       8.1582340516273639e+00, -9.8900734529788237e-01,
       1.0173695736654901e+01, -9.2141159475285583e-01,
       1.1127157491454364e+01, -8.8307339273865570e-01,
       1.3460563655873285e+01, -9.9868143094876383e-01,
       1.2675528873954491e+01, -9.8268229927517214e-01,
       1.2776724987410331e+01, -9.9699261965937236e-01,
       1.0477192137433731e+01, -8.3517011384691631e-01,
       5.6483666866976741e+00, -8.6419259356673295e-01,
       9.0407665250281806e+00, -5.3053013448041930e-01,
       8.3720278500842884e+00, -8.1134234587719145e-01,
       8.7306828372294358e+00, -9.2518895487181296e-01,
       1.2858657743637012e+01, -9.0071159941817358e-01,
       1.2305686897028448e+01, -8.6998701917133936e-01,
       8.7996030945146959e+00, -8.3247500003321917e-01,
       9.2974092902209975e+00, -9.0582407877136650e-01,
       1.1698497328240064e+01, -1.0470500493292800e+00,
       1.0717238313462117e+01, -9.9113945939274006e-01,
       4.7269180306118406e+00, -1.0573025882886633e+00 ]
   output_scale: [ 1.0526315789473684e+00, 0., 1.0526315789473684e+00,
       0., 1.0526315789473684e+00, 0., 1.0526315789473684e+00, 0.,
       1.0526315789473684e+00, 0., 1.0526315789473684e+00, 0.,
       1.0526315789473684e+00, 0., 1.0526315789473684e+00, 0.,
       1.0526315789473684e+00, 0., 1.0526315789473684e+00, 0.,
       1.0526315789473684e+00, 0., 1.0526315789473684e+00, 0.,
       1.0526315789473684e+00, 0., 1.0526315789473684e+00, 0.,
       1.0526315789473684e+00, 0., 1.0526315789473684e+00, 0.,
       1.0526315789473684e+00, 0., 1.0526315789473684e+00, 0.,
       1.0526315789473684e+00, 0., 1.0526315789473684e+00, 0.,
       1.0526315789473684e+00, 0., 1.0526315789473684e+00, 0.,
       1.0526315789473684e+00, 0., 1.0526315789473684e+00, 0.,
       1.0526315789473684e+00, 0., 1.0526315789473684e+00, 0.,
       1.0526315789473684e+00, 0., 1.0526315789473684e+00, 0. ]
   inv_output_scale: [ 9.4999999999999996e-01, 0.,
       9.4999999999999996e-01, 0., 9.4999999999999996e-01, 0.,
       9.4999999999999996e-01, 0., 9.4999999999999996e-01, 0.,
       9.4999999999999996e-01, 0., 9.4999999999999996e-01, 0.,
       9.4999999999999996e-01, 0., 9.4999999999999996e-01, 0.,
       9.4999999999999996e-01, 0., 9.4999999999999996e-01, 0.,
       9.4999999999999996e-01, 0., 9.4999999999999996e-01, 0.,
       9.4999999999999996e-01, 0., 9.4999999999999996e-01, 0.,
       9.4999999999999996e-01, 0., 9.4999999999999996e-01, 0.,
       9.4999999999999996e-01, 0., 9.4999999999999996e-01, 0.,
       9.4999999999999996e-01, 0., 9.4999999999999996e-01, 0.,
       9.4999999999999996e-01, 0., 9.4999999999999996e-01, 0.,
       9.4999999999999996e-01, 0., 9.4999999999999996e-01, 0.,
       9.4999999999999996e-01, 0., 9.4999999999999996e-01, 0.,
       9.4999999999999996e-01, 0. ]
   weights:
      - [ 1.7042213798350923e+00, 5.3145795565945075e-01,
          2.9881578557852778e-01, 3.2246284931616348e-01,
          -1.3898160436248755e-01, 3.8472691148193849e-01,
          2.6452294216447991e-01, -1.4078746015965499e-01,
          1.5106015320190561e-01, 1.3589564433767676e+00,
          2.0664930760029074e-01, 1.0502571901411839e-01,
          -2.8948844957307468e-01, -3.0087098788809444e-02,
          -6.4075605072138483e-02, -8.4352804209612986e-01,
          -5.6924247314027399e-01, -2.4017883931156608e-01,
          2.6676618077181680e-01, -4.7295776393336286e-01,
          2.5224244765819093e-01, -3.5869300910967371e-02,
          -4.2554629998587834e-01, -7.3196447809884013e-01,
          -6.5783180169961886e-01, 1.3165880356785124e-02,
          8.7162177577359570e-02, 1.2974289458142838e-01,
          5.4481581796904899e-01, 5.5687913152710333e-01,
          3.6360554368889603e-01, -4.8005740274946845e-01,
          -3.2796489615177539e-02, -6.6204329791939465e-01,
          6.2040649732435192e-02, -7.7248681226042692e-01,
          -4.9888656842535367e-01, 3.2436452539493266e-01,
          4.2430010286110204e-01, -1.1494118941422020e-01,
          -3.9041353652751809e-01, -2.6106642570356597e-01,
          1.1961992749247857e-01, 9.0905135630981584e-02,
          -1.6511255803376773e-01, -3.1230238465230370e-01,
          -1.3728326547734515e-01, 5.1555863658757417e-01,
          -2.1165557573623231e-01, 3.6239048509959526e-01,
          5.1916155392386509e-01, -1.0697148327802602e-01,
          -1.7593640995596080e-01, 4.3179984989903088e-02,
          -1.2880575693625446e-01, 3.2255360643592573e-01,
          2.8736735697958125e-02, 8.1150603641533514e-01,
          -4.2900019519682164e-01, 8.5774543958812080e-02,
          2.8688457605755915e-02, 9.8713164057672531e-01,
          4.7586461514594164e-01, -3.7840411098823373e-01,
          -4.8353837723864623e-01, 5.1346383713171473e-01,
          -4.8972756203092749e-01, 1.0749381233827504e-01,
          -6.2792780002753387e-02, 1.7755990162222135e-01,
          -3.1588228023586566e-02, 2.2606080918615240e-01,
          6.3917927271120778e-01, -1.4489336733000632e-01,
          -2.1786838852629102e-02, -3.9982626078797284e-01,
          1.3782760213860690e-01, -5.7581442282549876e-02,
          3.9604836735356730e-01, 1.3689920200493555e-01,
          6.3967158578809150e-02, -2.3239223304204373e-01,
          3.1416624242862395e-01, 7.1915879784659842e-01,
          -3.7981445009805485e-02, 6.6459466516305687e-02,
          3.6646801337954849e-01, 3.6836070223269912e-01,
          2.5097116843178464e-02, 1.6323598789601279e-01,
          -1.0342801773067244e-02, -1.6022409488856765e-01,
          2.4031293747862428e-01, 6.5678007447762332e-01,
          -1.0817963007131692e+00, 6.8779286108220827e-01,
          4.5606429075669697e-02, -1.0319962775077507e+00,
          -4.2540547035985571e-01, 5.5584695757560210e-01,
          -3.1677490256619417e-01, 3.1854650850482508e-01,
          1.4186534733538528e-01, -2.1074825058218521e-01,
          -1.0569699099937955e+00, -1.1059407112948083e-01,
          -1.9924800044022714e-01, 8.8101172459483923e-01,
          1.1420024445120971e-01, -2.6680947838241664e-01,
          1.2122379670938076e-01, 4.8811801229233570e-01,
          1.7275307360647346e-01, -5.1098007066340201e-01,
          -5.8186381654464192e-01, 4.0118730409950626e-01,
          -1.7411336503670477e-01, 2.6437335161915532e-01,
          2.1147614551743615e-02, -2.8061158479127207e-01,
          -6.0585576922156437e-01, -4.2488979499382512e-01,
          4.0794786941967953e-01, 1.5014613198590868e-01,
          2.1998256492919563e-01, -3.9427375124067514e-02,
          2.6681457806406156e-01, -5.1518227670909844e-01,
          -4.2470035991665162e-01, -1.6776134331617742e-01,
          -2.7251355834630575e-01, -1.6151168298040938e-01,
          2.9231798278141702e-01, -4.9651004897818457e-01,
          1.4149333496850008e-01, -1.4733710512720363e-01,
          -3.0542236680859164e-01, 5.2092276799656867e-01,
          3.7727708425960105e-01, 3.0896299044531855e-01,
          3.8766609727967760e-01, 6.3479955033574550e-02,
          4.1877102116433605e-02, -4.0149685871265822e-01,
          -6.3562634960829645e-02, -3.0562833601804201e-01,
          -1.0869486103423254e-01, -4.1036826878503907e-02,
          -2.9757593638540136e-01, 7.5257213293414660e-01,
          2.3364388215008802e-01, 2.7130017101016768e-01,
          5.1673447741269718e-01, -1.2925373009572025e-01,
          8.7195659892038702e-01, -4.5024196492372753e-01,
          4.6590768749053013e-01, 2.9302485173113940e-01,
          1.1692403745687108e-01, 3.5790494793454086e-02,
          8.5790132303956115e-02, -6.3740232911514358e-03,
          3.0579571861854005e-01, 4.2191663753061187e-01,
          2.5846194671815309e-01, 1.9567103962434232e-02,
          4.3385017783612922e-02, -1.3973609696948183e-01,
          -5.8402601487761241e-01, 1.5034406239145420e-01,
          5.3954237865910026e-02, -5.2698258039676760e-01,
          -1.7742006691904402e-01, -1.7519875809569083e-02,
          4.7211676652816309e-01, -5.9504506397101598e-01,
          1.9943590884198992e-01, -1.8952224183871322e-01,
          -2.2563017768861118e-01, 2.4914102632848281e-01,
          -1.9634039790810347e+00, -3.8334265109894167e-01,
          -1.4010758655417738e-01, -2.5912529220544372e-01,
          -2.1791783720973379e-01, 1.7144893146595319e-01,
          -1.2177893423350952e+00, 2.4665829984840984e-01,
          5.8879221974265802e-02, -8.1194859271614439e-01,
          -1.0358872670275365e-01, 3.2350324633400163e-01,
          1.5995391997430461e-01, 1.7791560318726962e-01,
          -2.4124526562635659e-01, 5.5132545247083031e-01,
          -2.2341185904685754e-01, 3.6260958732493152e-02,
          -7.8958537175195775e-01, 7.2547194206788179e-01,
          6.6700318134177594e-02, -2.3938304325979826e-01,
          7.2346089325170815e-01, 1.7705974804492483e-01,
          5.2172866277355534e-01, -3.6045371251494734e-01,
          1.9573754009180028e-01, -3.7379522194767589e-01,
          -1.4777783676465919e-01, 2.1592303903381993e-01,
          -7.5515601612171135e-01, 6.8095157453448241e-01,
          6.5463148156070960e-01, 6.3495720286613613e-02,
          3.9486613209331595e-01, -1.1365830029506221e-01,
          3.2997633679778055e-01, -3.9333764966388574e-02,
          -4.1888184505312859e-01, -2.3944788365513126e-01,
          6.6604968476841442e-01, 1.1440777824082958e-01,
          -3.0280026532023607e-01, -4.2542612803463342e-01,
          -1.0887284473270993e-01, -4.1625137562087011e-01,
          2.6408937960711709e-01, -5.9012495198775672e-01,
          4.4967337237417820e-01, -6.0749669931316641e-01,
          1.4481594907246426e-02, -3.4417289159079101e-01,
          3.4001620650740007e-02, -4.0014159373189884e-01,
          1.0795511596382344e-02, -3.0792089258471661e-01,
          8.7074511818809236e-02, -2.7985295265985766e-01,
          4.5823934397263899e-01, 1.8042084828857294e-01,
          6.9403236158511994e-01, -3.0011859665175888e-01,
          1.8931047026200850e-02, 1.9176781106507945e-01,
          1.3839165549028993e+00, -3.2384778528420693e-01,
          -1.4924247162222726e-01, 1.0269069095255748e-03,
          -3.2943586948716747e-01, 8.9301043759194107e-02,
          -2.4206507364156822e-03, -1.4910477118581736e-01,
          -2.3380008662087373e-01, -5.0249986349545539e-01,
          -5.8372075607580853e-01, 1.2187123469189425e-01,
          2.9801316018711027e-01, 2.7657637691464554e-01,
          3.7049080797325201e-01, -3.6850651223191699e-01,
          2.7547137709868508e-01, 6.0595919474900943e-02,
          -1.3472102476363613e-02, 2.0895418914360850e-01,
          4.6954455573192430e-02, 1.7166475564768868e-01,
          -1.0753115007180289e-01, 4.0038454108291507e-04,
          3.6958965578358982e-01, -4.8166160645425909e-01,
          -1.9190255894001684e-01, -1.4814270883165950e-01,
          -9.8244258066493884e-01, -9.2156984509791617e-01,
          8.0510594840075866e-01, 6.8772289566170000e-03,
          -4.1791544776417738e-01, 4.4077513683356961e-01,
          2.6904031532931721e-01, 8.2762440941549789e-02,
          1.2465510087674987e-01, -1.8460909602826897e-01,
          -4.5633933804237886e-01, 6.2945160903331210e-01,
          7.7828066481548486e-01, -1.5011852739082268e-01,
          8.7733634647991082e-02, 2.4518524033394393e-01,
          2.8430273451343241e-01, -1.9188337903485848e-02,
          -1.2541127774698804e-01, -5.6791202458958467e-02,
          4.4591091748361383e-01, 6.4981602729379118e-01,
          -6.5171621426038984e-01, -3.4515591861907052e-01,
          2.5594146837332989e-02, -1.2867327807201856e+00,
          2.1345739459958502e-01, 4.8701806174860490e-01,
          -4.6263961305769943e-02, -4.2863702689168681e-01,
          -6.4844413368913612e-01, -5.4882228475600210e-02,
          -2.5904255031924123e-01, 2.2637708818728433e-01,
          -7.6226022125759116e-02, 2.5307576660351888e-01,
          2.9460028890128948e-01, 2.7590987287358720e-01,
          7.6725066928206276e-01, 1.8797849292264435e-01,
          4.9408523171346058e-01, -1.8726627983650376e-01,
          -1.9075324776027594e-01, 1.2764303793587092e-01,
          -5.5205967095797955e-02, 7.1571948954881989e-02,
          1.2092415280837493e-01, -4.5190782776940908e-01,
          -9.2695794750045857e-01, 1.8415214030389430e-02,
          -1.9374488366141093e-01, 3.7796968613528875e-01,
          7.1303776118844875e-01, 4.5567352129915356e-01,
          -3.9834374718244213e-02, 4.7144378360115126e-02,
          3.8433536924604489e-01, 2.2138036241878231e-01,
          -3.9748737852485028e-01, 4.8638131631553566e-01,
          4.3464994144329777e-02, -1.7857854181395166e-01,
          -2.8383869168500336e-01, -6.3258719169646829e-02,
          1.9140519158413685e-01, 2.6534359880332553e-01,
          -6.3609965959526629e-02, 4.4230423960413773e-01,
          -1.5266155619665811e-01, 4.4277377688410569e-01,
          -8.0538688581393314e-01, 4.6905167172921902e-01,
          3.4802624575119856e-01, -6.7446808356089172e-01,
          8.3477390775430915e-01, 2.1655710264998410e-01,
          -7.4374159816017282e-01, 4.0506060108961400e-01,
          -2.1520205560544197e-03, 1.3675430802885724e-02,
          5.5203761505676900e-02, -5.2218069030503544e-01,
          2.0975130487346691e-01, 1.2272405261829364e-01,
          2.5123125635104614e-03, 4.9311680754510985e-02,
          1.3320056477536318e-02, -1.0045949099934898e-01,
          -1.4629438249003415e+00, -3.8379351438392828e-01,
          1.0098441652490185e-01, 1.4725088745005255e-01,
          4.5481010825090318e-01, -2.6275984392387902e-01,
          3.8912711619111112e-01, -8.4415695450872741e-01,
          1.3409797805756465e-01, -8.2335705650249835e-02,
          1.0693208719067895e-01, -5.4563053603017386e-01,
          -3.7093034117936391e-01, 1.6173411471244753e-01,
          7.5493441143787721e-01, -1.7162089187312660e-01,
          -3.2360222936690275e-01, -4.5125507059869327e-02,
          1.4872420291747873e-01, -3.0476995294337444e-01,
          2.9956611059796724e-02, -1.5695402506305278e-01,
          -3.1160356106749920e-01, -2.2966693585761583e-01,
          6.2644127772015931e-02, -6.6441430953226899e-01,
          2.3690125413426710e-01, 1.2859447679050059e-01,
          -3.7039456139636906e-01, 7.8340540587136270e-02,
          1.2557103905627776e-01, 2.2795744917285846e-01,
          -3.5284766690634745e-01, 3.0902821112809037e-01,
          -5.5747795299905756e-01, -1.1166155980565121e-01,
          3.8566365891439830e-01, 1.4907671316743248e-01,
          -1.6481064805210022e-01, -7.3369968428680532e-01,
          1.2774922032141306e-01, 5.3416967426455658e-02,
          3.2001244750089219e-01, 2.3272226469421403e-01,
          1.9898370309146471e-01, -5.4700820663664207e-01,
          -5.5883140941095433e-01, 2.1118950292789471e-02,
          -5.3930093394894935e-02, 1.4326490864705951e-01,
          -5.2624524410607298e-01, -4.7873261661416899e-01,
          6.4196172390583589e-02, 5.1568044610966046e-01,
          4.9967687805273225e-01, -2.2406171126911464e-01,
          -5.7417450013217819e-01, 1.9049842420816383e-02,
          -4.3997943903264108e-01, -1.3087407363881887e-02,
          -5.5766164793637669e-02, 4.6933883218516249e-03,
          -3.7487625427275051e-01, -2.4319250669891351e-01,
          1.5026685974284826e-01, -3.8243716913107467e-01,
          2.9139988106825515e-01, 8.1561844027479025e-01,
          6.1087068333949701e-01, 3.0818465554321850e-01,
          4.8598380256211923e-02, -5.3050489632197373e-01,
          -4.6517266810503388e-02, 1.6171886901901947e-01,
          -1.3015022773784182e-01, -5.3893442673729108e-01,
          -4.1461356955641304e-01, 4.3499264799553888e-01,
          -2.8493857672418360e-01, 6.8983887634030805e-01,
          5.8921433694066376e-02, 1.7307870855609381e-01,
          -3.7255840754553177e-01, -1.6173640241145756e-02,
          3.5422143596017902e-01, 5.1923970783278733e-02,
          -3.1357485743652280e-01, -6.5198188528684808e-02,
          1.0553302615542336e-01, -8.5876023582130492e-02,
          2.5655827538373921e-01, -4.7186976525944940e-01,
          4.4688857106449549e-02, 2.0450200993310674e-01,
          2.0753236254540530e-01, -1.6855330281893105e-01,
          -1.5678843830947654e-03, -2.9459469410884909e-01,
          4.7956073840729374e-01, -3.7496441962724081e-01,
          1.5587431989206221e-01, -9.1677368352442987e-02,
          2.8932827314979803e-01, 2.0909811276333007e-01,
          -2.1428632639683057e-01, 4.1909742035960612e-01,
          -5.2893671535326769e-01, -7.9771431718133168e-02,
          -7.1203660191473547e-02, 2.0157838991859181e-01,
          -6.3168917159751170e-01, 1.4649499983120823e-01,
          -1.3556867423604640e-01, -3.0782856941849851e-01,
          1.2029816908674516e-01, 2.9768359932701310e-01,
          2.9779517739287131e-01, 2.9567875100952618e-01,
          2.4490093271444321e-01, 3.6567940367093299e-01,
          4.3261212782314346e-01, -3.5947007904601608e-01,
          9.9891155094163603e-02, 2.1741777598133014e-01,
          -1.0218581358690966e+00, -2.2940092653437080e-01,
          -1.8200815561227818e-01, -2.4239792271752042e-01,
          -1.9139936686981335e-01, -4.9307817489635819e-01,
          2.7256969813542115e-01, -5.1423485834039051e-01,
          -2.9538008437052726e-01, -1.8510528856861264e-01,
          2.5182233367849349e-01, -1.6849691504677863e-01,
          2.2813505171400855e-01, -2.6031287255381086e-01,
          -3.0465886820590204e-01, -2.0391962661965035e-01,
          5.0579316357933453e-02, 8.0886999199982490e-02,
          -1.5370160761713322e-01, 6.9043484370305858e-02,
          -4.6587857865560148e-02, -3.5027927767728295e-01,
          1.1593564450717592e-01, -4.2593304883857025e-01,
          -2.7477685661502493e-01, -5.5390492064696362e-01,
          -1.9373078974453878e-01, 1.0848920346350557e-02,
          -5.2569911217758825e-01, 6.6628341449850248e-02,
          1.0050830082109723e+00, 1.8250927225343671e-02,
          4.2474206021225647e-01, -5.5042419356904670e-01,
          -1.8383646309881110e-02, 2.0832582532446775e-01,
          7.8594843813356940e-01, -4.3798971124324193e-01,
          -3.0151002352166185e-02, -3.0862044162661750e-01,
          -1.1863573616333842e-01, -1.3192026876225768e-01,
          4.8848365892837503e-02, -5.6348586904122566e-01,
          3.0725544962978850e-02, -2.8370842618200814e-01,
          3.4254982310654258e-01, 1.0458239702725994e-01,
          -7.0335800360497761e-02, 1.7898079617578283e-01,
          1.0074671353353493e+00, 1.0092236614868003e-01,
          2.5207177760386201e-01, 9.0341521389051563e-02,
          6.1574608996806124e-01, 1.7336814795268174e-01,
          -1.6086230276638178e-01, 4.0832688441398957e-01,
          4.5725772527829034e-01, 8.2337696398873922e-02,
          -1.6336796231840012e-01, -2.1655260393367171e-02,
          9.5449848986131763e-02, 2.1547397648766017e-01,
          -1.2345845589425057e+00, 2.0527264826316466e-01,
          -6.3439639584312457e-01, 8.6992019211775171e-02,
          -6.3396873826678057e-01, -1.3621563682971256e-02,
          7.4319650721300923e-02, -2.1884788186874307e-01,
          -8.4004040387084492e-02, -7.3773776497521593e-02,
          2.3711948447956355e-01, -2.2267360785034301e-01,
          -3.2416330975855823e-01, 2.9288133855247361e-01,
          -1.1300125189626082e+00, 7.7118028451733300e-01,
          -5.1694491348767330e-02, -4.0400781579339306e-03,
          -3.0457780984227911e-01, 2.5710334949309338e-01,
          2.0545492178936181e-01, 3.4739444725409241e-01,
          3.3946978608488593e-01, -1.0892109152958269e-01,
          -2.8290931155350008e-01, 1.5621981321240438e-01,
          -3.6542015634171798e-01, 5.5931651760543410e-01,
          6.6566783681250907e-02, -2.0781189066717420e-01,
          -4.0295082899166845e-01, 3.7121546786881515e-01,
          -9.6863174971144694e-01, 2.6335294703379203e-01,
          -7.4346903869638825e-02, 3.2799503026311960e-01,
          7.1960551392511407e-01, 3.2896241333665505e-01,
          -8.1240712085895928e-01, 2.5293981257432585e-01,
          -5.9805501601385791e-01, -3.6400417444526717e-01,
          -1.9177350804087781e-01, 9.4137512129113110e-01,
          -1.3041572792429801e-01, -2.0329526420927924e-01,
          -3.7537015508512850e-01, -4.7304040339946885e-01,
          4.6609236358263473e-01, 4.6723835262202207e-01,
          6.9097211036943629e-01, -1.1899206368760153e-02,
          -1.2108066587777255e-01, -4.8245719084778482e-01,
          1.2143987636579726e-01, -2.1790268435509297e-01,
          -1.0393823772035063e-01, 1.5815163578163802e-01,
          -2.7659786617302295e-01, 1.8517333142118744e-01,
          -1.0824342266088425e-02, -4.2877790800750382e-01,
          -3.5203814339511996e-01, 2.7405112430614176e-01,
          -2.0104356085378725e-01, -6.1388764049083777e-01,
          1.7604393198697990e-01, 5.0212714913169876e-01,
          -2.6559313899687037e-01, 2.5455299814953369e-01,
          -1.9298175254624357e-02, -1.0372573437086846e-01,
          3.9400938600796503e-01, 5.4316558126337700e-01,
          -1.1429232614969487e-01, 5.2746562047634793e-01,
          1.1477595719143796e-01, 1.9562080040450983e-01,
          -1.4362166841136614e-01, -3.1469587446379105e-01,
          -2.2149025367630659e-01, 3.3781683674138946e-01,
          2.6408605293735271e-01, 4.5716502607133092e-01,
          3.6503512721024217e-01, 1.1518243838353828e-01,
          -2.7521527244957483e-01, -3.3604227016497165e-02,
          -1.5649598384350299e-01, 3.9145186364843498e-01,
          -3.3833801134745994e-01, 2.4049015755467915e-01,
          1.7383128891239771e-01, 5.1935042390775388e-01,
          4.4730766431263064e-01, -2.4574768405120066e-02,
          6.0296339190168446e-01, 2.2079084022396370e-01,
          -6.7377897606097670e-01, -1.7711201572049212e-01,
          -2.4129139895731019e-01, -4.6590330845966532e-02,
          -1.4294381931708000e-01, -6.4597916122225019e-01,
          -7.1227103511780887e-01, -1.4264680978200792e-01,
          -1.3494043236277889e-01, 3.3853712676271291e-01,
          -5.8510456937160893e-01, 3.8929752384756050e-01,
          4.7747827229057871e-01, -2.7585685891743667e-02,
          4.8321581912402173e-01, -4.2823230285845670e-02,
          1.0099248768106898e-01, -7.3566054431257258e-03,
          4.6255355948668059e-02, -2.3050354219075775e-01,
          7.4020422509806416e-01, -5.3039268094507319e-01,
          -3.8916834895537700e-01, -9.8058261731531637e-01,
          -5.2590321584663535e-01, 2.5548991962010642e-01,
          1.0241280871842214e-01, 1.5029594514137917e-01,
          -2.0081628439085400e-01, 3.5831204411591744e-01,
          -7.5104629742141249e-01, 1.1638818883468385e-01,
          5.5959475304033490e-01, 1.2394684361229610e-01,
          -1.1764345550236791e-01, 2.3484609117808877e-02,
          -2.6199471877303499e-02, -2.8382154185699776e-01,
          -4.0972891673108969e-01, 8.3417163825557458e-02,
          4.1177281564296614e-01, 3.9843419178700279e-01,
          2.4210973758353524e-01, -1.2554279289298720e-01,
          1.1474993512172226e-02, -2.4088856844508988e-01,
          3.4911994953870473e-01, -6.5920549766393599e-01,
          -2.4054612024725192e-01, -9.3671194003619185e-01,
          6.3970316684508421e-02, -8.3799203942286959e-01,
          2.2465380784407376e-02, 4.8836452978015844e-02,
          4.0278870374404935e-01, 3.4313281132490842e-01,
          -2.3793953052310315e-01, 2.8124636797211083e-01,
          -6.6571686506022287e-01, -1.1848408302111856e-01,
          5.2557685833774445e-02, 8.7899073727633822e-02,
          8.2600017970859008e-01, 4.5759534865679463e-01,
          -3.3055038021871069e-01, 4.0521694073329068e-01,
          1.2530379198736993e-01, -1.0565679704052425e-01,
          -8.3577199851981243e-01, 2.6757573583268379e-01,
          -4.1876273598386154e-01, 3.1053398755793438e-01,
          -1.4180446078514478e-01, 1.7983249199076892e-01,
          1.3941813878002722e+00, 3.5688505489049260e-01,
          -2.2070324213790446e-01, 4.6637283042524741e-01,
          -3.3659312165654981e-01, -1.2759281941279321e-01,
          2.2764269067550627e-01, 6.8890954248017311e-01,
          -1.4326861786255141e-01, 7.5416356789073724e-01,
          -1.6670946798082845e-01, 1.0262240868175511e-01,
          -4.8949629452634186e-01, 4.7234814238944839e-01,
          -1.0277048678671362e-01, -2.6569794498500832e-01,
          -9.2683166401623177e-02, 7.1862329201479350e-02,
          -1.6478128787377404e-02, -3.6069635385597182e-01,
          -1.5128382860878953e-01, -2.1839449967935343e-01,
          -6.4148349141913708e-01, -1.3206372775926761e-01,
          2.4980807580767345e-01, -1.3550946275742434e-01,
          -4.4795557184850904e-01, 3.6719576376324858e-01,
          6.8153312760488527e-01, -2.7760109071093605e-02,
          2.3275437932067572e-01, -4.9081092712893959e-01,
          -5.0930201895674564e-02, -1.9138084265502434e-01,
          6.1508790507209254e-01, 2.8862098694330981e-02,
          -3.2252007299105911e-01, -3.2710084237304982e-01,
          -8.5705280869620523e-02, 2.6861287612463475e-01,
          3.8731815758737592e-01, -4.5696814666599661e-01,
          -4.2519689232906749e-01, 3.8531428241838633e-01,
          6.0701440443861547e-02, -2.1342867423703799e-02,
          -5.1608656639404527e-01, 1.7129738895050112e-01,
          -6.2394188964612951e-01, -2.3855724358079214e-01,
          1.0660381795929387e-01, -4.1951566804710466e-01,
          3.1667822669877999e-02, 2.4054373183312397e-01,
          -1.6988908044874287e-01, 4.1192428053224572e-01,
          1.4749741060118934e-01, 4.8145780681351191e-01,
          -2.9848928936965669e-01, 5.2472438787009656e-01,
          -2.6376074426700580e-01, 6.8873003079859796e-01,
          3.4358691220916310e-01, -4.5341864105321084e-01,
          -5.8683276361760206e-01, -2.0028023568078487e-01,
          -6.2154542179711149e-02, -8.4612692029896797e-02,
          -3.7848813928828501e-01, 6.5065232309532806e-01,
          1.5153078984975790e-01, 3.1392439758691099e-01,
          1.0008520912259060e+00, 1.3867215639780392e-01,
          -2.4605478106733780e-01, -1.7621257037365079e-01,
          2.6518986548896128e-01, -4.8422592468081040e-02,
          1.7752807410081531e-01, -6.4103654183362813e-01,
          -1.5475995159949471e-01, 1.3435872201903318e-01,
          3.2158684816865518e-01, 3.6677719150532906e-01,
          1.7113876551144125e-01, -3.8593493928843620e-01,
          5.3858573538561771e-01, -8.6598173583913224e-02,
          2.6408291561361574e-01, -2.1718436292424673e-01,
          2.4914321072129045e-01, -1.3620335728573008e-01,
          2.4912355007639922e-01, 5.5869072691832089e-01,
          1.4721875950285873e-01, 1.1758207602142565e+00,
          2.7091685721321551e-01, 6.2674502405771132e-02,
          4.8315721987543830e-01, 5.7377594824223421e-01,
          3.8830736597961646e-01, -3.5361039651302240e-01,
          -5.6569364145937640e-01, -8.6288334555585336e-02,
          -3.8834600610651346e-02, 2.5383485967498715e-01,
          2.7426759652558474e-01, 1.0121639134616143e+00,
          -1.0131372880067098e-01, -4.2269653285941344e-01,
          1.0051251357133490e+00, 5.8018860974676478e-01,
          8.0978228662349997e-03, -2.0723471946669147e-01,
          1.0228487951874231e-01, 1.9776142116046283e-01,
          2.1427292052337274e-01, 6.9448376147066027e-01,
          -2.4818605691505241e-01, -2.8084592896561356e-01,
          -3.1773621863106738e-01, -1.2397391334098144e-01,
          6.2232485119191006e-01, 2.2758592702956293e-01,
          2.5251148050799976e-01, 2.7669170861586373e-01,
          3.3650543863043320e-01, -4.6634852591690157e-01,
          -1.2677474899913199e-01, 2.7766495287957926e-01,
          -2.5506770881876745e-01, 2.0413441039371891e-01,
          2.7581731039651619e-01, 4.7080534135756763e-01,
          9.6396476666731415e-02, -8.1621151494253558e-02,
          2.6733011636991999e-01, 1.6484853886579456e-01,
          -2.7092469915202749e-01, -1.0160676167739142e-01,
          5.0197287456235684e-01, 3.5337635484914148e-01,
          5.0292774339379176e-01, -4.9067151441221557e-01,
          3.4622296122910140e-01, -4.0794034187233813e-01,
          -4.5092680597056189e-01, -2.7238281568536954e-01,
          -4.8319341637887120e-01, 6.0432504102704276e-01,
          -1.0255092599474494e-01, 1.6875162554175929e-01,
          4.7095945098334752e-01, 3.6386731669165923e-02,
          6.3442206668148315e-01, -6.7613734375219703e-01,
          -4.7527856155861409e-03, -2.9688153814806634e-01,
          1.8055499567416428e-01, 9.8886922668487393e-02,
          2.6701974952536811e-01, -2.4796753850730371e-01,
          1.5338139408205978e-01, -5.0848438103717419e-01,
          1.9152231063933714e-01, 3.2725260101259646e-02,
          8.3540725445871572e-02, -9.7738422074984833e-03,
          -3.1173510092372103e-01, -1.1792012773264698e-01,
          2.1506705154669573e-01, -1.7485164948354234e-01,
          4.5289929912852733e-01, -8.8840874669257108e-02,
          1.3931355973202253e-01, -2.0771755376199555e-01,
          3.1211297432604612e-01, 2.6517300548223162e-02,
          -6.0578183462594393e-01, 4.2679273185409411e-01,
          -5.3144226349388790e-01, -5.9864457376206648e-01,
          2.8183353454489152e-01, 3.6818864783133581e-01,
          2.3148970888257178e-01, 2.1050157213897780e-01,
          8.0405010200977067e-01, 7.4985930095646219e-02,
          1.5618568776222284e-02, 4.4363369006117948e-01,
          -6.0993314080887384e-01, -5.1108218941093566e-03,
          -6.1633800146356021e-01, -6.3062045094533781e-01,
          -1.1100221897646133e-01, 1.8409999371238159e-01,
          -1.9146378622301544e-01, -3.5171454212959030e-01,
          7.2900142811367508e-01, -1.8949203863953967e-01,
          -4.4441829104384845e-01, -2.0437842668119241e-01,
          -1.8384083119434677e-01, 4.0863351879999116e-01,
          -7.2389177761993412e-02, -1.9587970946741379e-01,
          -4.0681175003286768e-01, 2.4647601127730887e-01,
          6.9331045711578243e-01, 4.5490612868408020e-01,
          4.3473548735213491e-01, -8.7374596063867593e-01,
          -3.4497868192266851e-01, -5.3099271197756470e-01,
          7.7097635819675081e-01, -1.3842704579968454e-01,
          6.0930360322942489e-01, -2.8632588164920275e-01,
          1.8281481891534107e-01, 8.2360446655867892e-02,
          5.4923584971169515e-01, 4.3014258779126191e-01,
          -4.2561218313038043e-03, 1.0729455452593335e-01,
          1.4757639956340163e-01, 5.7904735053124357e-01,
          -6.1921913323054953e-02, -3.2585480209503254e-01,
          -5.4399905795144543e-01, -2.0385173284280217e-01,
          1.5066341450785578e-01, 2.5852930932307394e-01,
          2.7660433551254957e-02, -1.9407582071131874e-01,
          -1.0773018110771312e-01, 1.7624739678498214e-01,
          7.0307292877539396e-01, 1.0132621067207119e+00,
          3.8364526134543514e-01, -2.6132554834832833e-01,
          1.9900226546804398e-01, -5.1471120189095096e-02,
          1.3368531576229822e-01, -2.3298660081973777e-01,
          -7.1612056543716801e-02, 2.9644235619311876e-01,
          -2.9231955559285711e-01, -2.1261691173253114e-01,
          -4.8454747719220082e-01, 2.2452986142729148e-01,
          -1.9989019056269164e-01, -3.1742283290399703e-01,
          -1.2128499285762270e-01, -1.9934105567831206e-02,
          6.6638114034563090e-01, 1.4144286931635902e-01,
          1.5628627817707771e-01, -1.3617027097111703e-01,
          -5.0873305065053342e-01, -1.2570757488678910e-01,
          -2.7743123469593312e-03, -6.2560761054205416e-01,
          2.8556211598931264e-01, 2.8793871755015460e-01,
          -5.1285212377147504e-01, -2.0757575383099922e-01,
          4.3200848293797628e-01, 2.3437071427469475e-01,
          -2.9727217566418973e-01, -4.3673999502668662e-02,
          1.3490096210349928e-01, 5.8685052519137443e-02,
          1.6882028497297519e-01, 3.5276040547960907e-01,
          2.1318040002470140e-01, -4.4240160222118350e-03,
          -8.4031952989600631e-02, 8.2138216961296318e-01,
          -6.4015572348549954e-01, -1.5684377014633538e-01,
          6.2814325586665865e-01, 5.4824944488752241e-02,
          9.1801460935990253e-01, -2.4789374754708357e-01,
          2.0209503968515269e-01, 3.0527385143981928e-01,
          5.8975632616393225e-01, 3.7746615777760933e-01,
          4.2711616886004722e-02, -5.5364561146164659e-01,
          -5.0179096921275690e-01, 1.0417366142093393e-01,
          -5.3055664493729549e-01, -1.5344370650148878e-01,
          4.6526767415301140e-01, -3.4313224907407086e-01,
          -5.1971507176583520e-01, -1.2952703983441977e-01,
          -4.1075768220105735e-01, -2.5986444891665661e-01,
          1.2347103385928128e-01, -7.4418775486092686e-02,
          -4.0398041378092142e-01, 2.3945369120936663e-01,
          -4.1781902127211751e-01, -3.2279959249013335e-01,
          3.1528804987725856e-01, 2.9053857652728787e-01,
          3.1181873644231589e-01, -3.0345242988366666e-01,
          6.0663933725759442e-02, 3.7444135468560158e-01,
          2.3301345668072324e-01, 2.4318196763773517e-01,
          -8.3023892520743089e-02, 1.8815930820656274e-01,
          1.6373616486482559e-01, 3.5765085628105914e-01,
          -6.3491942209424457e-01, -1.0555735091472986e+00,
          -1.3500080288791505e-01, -5.2580101451029637e-01,
          3.2105742608968241e-01, 4.3640584165360308e-01,
          3.0645333349674425e-01, -3.3172123100868656e-01,
          -2.2816253710851789e-01, 6.5250590904859096e-01,
          6.5427258657549947e-03, 5.3439678826022607e-01,
          -1.3320182038687989e-01, 3.1613682983718466e-01,
          -1.2826052704642424e-02, -2.7690570892688971e-03,
          -7.3237741151663205e-01, -7.4466005959653303e-01,
          3.0963909959278785e-01, -8.9894856569349008e-02,
          -2.3767886758337933e-01, -4.1174323937955759e-01,
          -1.6013810646208870e-01, 4.0050713411336614e-01,
          4.9489559257616411e-01, -1.2102420834895888e+00,
          -2.0826658045055502e-01, -6.8881329408921910e-01,
          2.9317601554252243e-01, 1.2333014977761436e-02,
          -4.6960388296148320e-02, -2.3115311886324197e-01,
          -9.4351264067370905e-02, -2.8085118333897663e-01,
          -1.3324725996299031e-01, -4.7176198298058430e-01,
          -5.7211120169542418e-01, 4.8181786549896077e-01,
          -5.1463779911727113e-03, -4.8341325119872453e-01,
          -2.5260140420520416e-01, 7.9623194150554244e-01,
          3.8414173788163503e-01, -2.7255083600857666e-01,
          -8.6005053593743919e-01, 1.9643244601681745e-01,
          -3.7537436245858335e-01, 5.8173902097025346e-02,
          -6.9962144547721350e-01, -4.3679151723584497e-01,
          1.0443342942043470e+00, 9.7605659633700395e-02,
          -3.1795753993312331e-01, 2.0465035035573793e-02,
          6.2775710832751463e-01, 6.4800151283145827e-02,
          1.7426828043415069e-01, 6.0140114588698868e-01,
          -2.0429907130125038e-01, 2.2814121290809658e-01,
          -3.6317137981496578e-01, 1.9826155988474475e-01,
          4.0036556339819285e-01, 1.6129467091828062e-01,
          3.0836111460247861e-01, -8.8389647471646982e-01,
          3.1147117787443429e-01, -7.8639070823167193e-02,
          6.8365030214487810e-01, -6.6836589836395399e-01,
          -7.8982031097838978e-01, -1.3344503829798848e-01,
          -4.1468550150592731e-01, 4.8805237733181378e-01,
          -3.6186849877776650e-01, 5.7568955820395684e-01,
          -2.0034542284066731e-01, -4.8778907516550507e-01,
          -9.1124414644546445e-02, 2.1783978399249779e-01,
          -2.0463370042236290e-01, -3.2665077592524322e-01,
          3.2878498738244477e-01, 7.3166372626899712e-01,
          7.6926829680038689e-01, 2.6850635312823690e-01,
          -2.0955947002490333e-01, -6.4575622815300082e-01,
          6.0856828798783213e-01, -3.5858514175857704e-02,
          1.0045104235904565e+00, 7.1869382918076730e-01,
          -8.2268075041202848e-01, -3.6019931447754333e-01,
          2.3390944750653500e-01, 4.1381837954861111e-01,
          5.6823761967892773e-02, -4.8636591216847891e-01,
          -6.0074491879163661e-01, 6.1226202953408926e-01,
          -5.0824464963164651e-01, 3.2977922586732672e-01,
          -5.0522031369677678e-01, 9.5433007902136630e-02,
          1.0313739282349026e-01, 5.6153139737964375e-01,
          2.2495959351085953e-01, -6.5953997350016036e-01,
          5.5758043032661797e-02, -4.8690527050896143e-01,
          1.1381594035851252e-01, 2.2138804954636945e-01,
          4.8841397777053047e-01, -2.1409491764320071e-01,
          5.5646559374708415e-01, 6.7296925340546832e-01,
          -2.0155581320746380e-01, -1.2730836006027565e-01,
          -9.9127766924906463e-02, 5.9655704558619703e-02,
          -3.0590806942610360e-01, 9.1202364836482266e-02,
          -3.3546570950863847e-01, 8.1813196967021051e-01,
          -2.8770837445858510e-01, -2.2744894731887030e-01,
          3.6033284887148020e-01, -2.9889942609478543e-01,
          -6.7099122897719676e-01, -2.0476692491445555e-03,
          -2.3627643262039094e-01, -1.7860188509217709e-02,
          4.4292964182071803e-01, -2.6356470167068780e-01,
          -4.2884696173025766e-01, -4.9632594546996961e-01,
          -4.2152251348412079e-02, 9.6147292583995597e-02,
          3.0727075632699958e-02, 6.4125560177949270e-01,
          -1.3568419671086662e-01, -4.0286692946747349e-01,
          -1.1129569719302435e-01, 2.4779124454550001e-02,
          4.4225482007024153e-01, 4.0902689881360788e-01,
          -6.5896295835580548e-03, 4.2749338370992623e-01,
          2.3887337236865844e-01, -5.4998249533051358e-01,
          1.6432011418279480e-01, -2.7176202745836531e-01,
          -3.6667624861910053e-01, -2.9910095075853976e-01,
          4.4105764715861651e-01, 1.9506777950281971e-02,
          -3.3165987963657176e-02, -1.9300087393061718e-01,
          7.2626249005011523e-01, 9.1394035645566557e-04,
          1.7112219773242335e-01, -1.0868279279963715e-01,
          -9.2401482130521739e-02, -1.0873067210917868e-01,
          -1.8908634832761845e-01, -4.6779181989072154e-02,
          -1.8728147039408927e-01, 6.5176659459997133e-01,
          5.3871624811240831e-02, -1.1615465310875156e-03,
          2.5876697408986121e-01, 2.8082370510739624e-01,
          3.3608544796886852e-02, -6.4232454723995636e-01,
          1.1869062281431367e-01, -5.8876795021014894e-01,
          -4.9584768569203569e-01, -2.0416797500907793e-01,
          1.0135041636803761e+00, -3.1373054180963936e-02,
          3.8222862637102839e-02, -3.6817183286229155e-01,
          -5.2056562046788368e-01, 4.6125651505930655e-02,
          2.9902433063936479e-01, -7.3559546311449286e-02,
          -9.4424587155457665e-02, -1.9320902903576434e-01,
          3.6236835575509491e-01, 9.8798915056077921e-02,
          -3.6403670415122080e-01, -6.5745071837655733e-01,
          -2.1620515108212021e-01, -3.4618406476129610e-01,
          -2.1956390881865159e-01, -6.0788993780623446e-01,
          2.5774257335743478e-01, 8.4932051429853039e-01,
          -4.6055524717997914e-01, 9.0960222793839707e-01,
          3.1199000562895418e-01, -4.5810313295974270e-01,
          8.0527876946812649e-01, 1.4510794659017476e-01,
          -6.8040808922623075e-01, 3.4554349636082810e-01,
          -3.4046822252344505e-01, 3.6089246464217972e-01,
          6.2196585931528814e-01, -1.1721576276074519e-01,
          -1.8145017263708482e-01, 1.2728936327548518e-01,
          9.8113175174357026e-02, -1.5701340111027626e-02,
          -7.4698548616941196e-02, -6.7776673371829198e-03,
          9.1123741730324552e-04, -5.3326486658908123e-01,
          -6.7083118602692016e-01, -4.2324265303207154e-02,
          3.9110726163251591e-01, -5.5617269407717296e-01,
          1.0125020111026377e-01, 4.2904128615107490e-01,
          -1.0660336297576899e-01, -8.6283889686653487e-02,
          5.0353322484580298e-01, -6.3789768667246532e-02,
          2.3545395358329946e-01, 1.4380939119320960e-01,
          -4.2708290600612786e-01, -1.3057658951938996e-02,
          -4.5090964143891737e-01, 2.8834684715717496e-01,
          3.4311699716769156e-01, 6.1647300194924526e-01,
          -4.7294641819437372e-01, -3.9672557057352548e-01,
          -4.6685935740510726e-01, 5.1063409207819743e-01,
          4.2518085889593249e-01, 8.4247347167627185e-01,
          1.0437927413255259e+00, 6.5229232706802392e-02,
          4.7334705663247872e-01, 3.0920748003537846e-01,
          2.2845226342527919e-01, 2.6115953707901635e-01,
          2.9959967832853235e-01, -8.4801191537340254e-02,
          -3.4137317569359976e-01, -1.1007325621237807e+00,
          5.4420966808691718e-01, 2.3206181013744040e-01,
          4.5573264198738195e-01, -2.2176987705915246e-01,
          -7.8834087176900081e-01, 4.6128827720538823e-01,
          -2.4514428749795644e-01, 4.1562297089365963e-01,
          2.9518746180628691e-01, -1.7776849067107284e-01,
          -7.0347996411149150e-01, -5.5694171030708539e-01,
          5.8119212400942455e-01, 6.2467382471439148e-01,
          -6.0566260009125052e-02, -6.5431378872374268e-01,
          1.0582790869824485e-01, -8.5143816125002236e-01,
          -4.9380858822356610e-01, -4.3746485315406847e-01,
          -2.0832938625662774e-02, 4.1277448822305401e-01,
          3.8761793960947068e-02, 5.8330387336065537e-01,
          7.0121211006824458e-01, -3.8564501573433746e-02,
          2.4448084446701340e-01, -6.2223025670637111e-01,
          3.9008033030606282e-01, 2.4548727241269348e-02,
          1.3230612717075096e-01, -2.3161832704565935e-01,
          -3.9791270776684667e-01, 5.6524420764550110e-01,
          2.4500816174300896e-01, 1.1871023687027156e-01,
          2.0430444321168639e-01, -3.3368171018532367e-01,
          5.0096260780312307e-01, -6.1474387029361421e-01,
          1.0365456899312911e-01, -7.5460434600168125e-01,
          -1.5409092414054151e-01, -3.7338939839729091e-01,
          3.0415884833802528e-02, -3.9400761049748394e-03,
          -1.1211786538902924e+00, 2.4235696305667490e-01,
          -2.7834579728938356e-02, -1.0827111207729381e+00,
          4.0132440315365042e-01, 5.3671272839370211e-02,
          4.6297706342489697e-01, -9.4474537135656078e-01,
          5.5295560707225488e-01, -1.2649535978638776e-01,
          6.2030869078329576e-01, -2.6237519193142944e-01,
          -2.9268957420779118e-01, -4.6057886703767392e-01,
          -5.9050714336712917e-01, 6.9302242882323983e-01,
          9.1471812665711111e-02, 1.7911093218587346e-02,
          3.7679448482762512e-01, 2.9212110840515171e-01,
          2.9618975449895979e-01, -4.6394108143102308e-01,
          1.1024070893201590e-01, -1.8953271116323547e-01,
          2.2194657278014240e-02, 2.3667090203170790e-01,
          4.8184850009227265e-01, -3.9491143425579200e-01,
          7.5293425126754554e-01, -3.1002131366581847e-02,
          -3.3907825143115994e-01, -7.6602808391195509e-01,
          -2.4603514194857523e-01, 8.9273669446904114e-01,
          4.4267930710594305e-01, 1.9148256881603248e-01,
          4.8934764888548143e-01, 9.6726813519699764e-02,
          -1.2201948736598063e+00, 1.1843759124165883e-02,
          1.8343955392545911e-02, 1.0426387989594013e-01,
          -1.9418220399653727e-01, 1.5774506656591308e-01,
          2.6042341246950906e-01, 4.7357178826710011e-01,
          1.3047453406403814e-01, -2.3659096611667256e-02,
          -5.1338370570671399e-01, -9.3949423096418938e-01,
          -1.9849069616441514e-01, -4.4558597818771535e-02,
          -9.1071441182974422e-01, -3.8854000258927684e-01,
          2.2440828692660633e-01, 1.5404935841714118e-01,
          3.9033490897312217e-01, -1.0712357768207087e-01,
          -1.4529937194944031e-01, -1.8094169479035158e-01,
          -6.4019236643291555e-01, 7.8042922296070183e-01,
          1.4419933016254436e-02, 9.4767353641238716e-01,
          5.1177503549270330e-02, 5.3995809767979419e-01,
          2.9171261573653451e-01, -1.8494123684597563e-01,
          -3.2016968979967753e-01, -3.0103829106221641e-02,
          -2.3704791773974301e-01, 8.1214641584770098e-01,
          6.6016701226523233e-01, -1.2767753617419539e-01,
          2.7407271848123166e-01, -7.3963900073528419e-02,
          1.1239911348282777e-01, 2.2421319304832590e-01,
          -8.3686668482862636e-01, 1.3376733958112530e+00,
          9.9018183336655935e-02, 9.1731735984186047e-02,
          4.9667710184226527e-01, 8.0971923045315919e-02,
          -6.2220956543864470e-01, 9.1166331998203598e-01,
          -3.8221183737271591e-01, 4.0509756676629965e-01,
          2.3014848198874929e-01, -3.5836857862396060e-01,
          4.9276426437867199e-01, -4.8035200037651909e-01,
          3.3014002238577861e-01, 2.2748205620763839e-01,
          -3.7048062533435000e-01, 1.8470192592091225e-01,
          1.1975894743165576e-01, 1.1729581277521367e-01,
          -1.9679592592134024e-01, 6.8120180071130942e-01,
          -4.2229531585552801e-02, -1.1339372855151043e-01,
          -6.6952914471579794e-01, 8.6861192059776771e-02,
          2.0636148949182367e-01, -2.5305837663618608e-01,
          1.2216060013574512e-01, 6.3201194079474898e-01,
          4.3978865802203732e-01, -1.1927291150147818e+00,
          1.7197890411487651e-01, -8.1025417204860506e-01,
          -9.3577420515630871e-01, -2.7407995717627842e-01,
          6.7133912620782499e-02, 1.4809442815837704e-02,
          -2.8147000326358890e-01, 3.5414307652402000e-01,
          -1.7054901216942270e-01, -1.7605048652369608e+00,
          4.1604803738655155e-01, -7.5626316861963261e-01,
          4.4809029716785681e-01, -2.4726216722298663e-01,
          7.4680383768155861e-02, -2.7910883265728714e-02,
          -9.2220116798427329e-02, -1.5734607935882014e-01,
          5.1571541113897224e-01, 3.0051831437909143e-01,
          -6.2439943140849508e-01, 4.1503340626258733e-01,
          4.8389203404629634e-02, -4.0137928039628246e-01,
          9.6162557385590108e-01, -1.8483727804620892e-01,
          5.5938500162638505e-01, 4.8621800736532911e-02,
          3.7237287959500015e-01, 1.3828488287499505e-01,
          -1.0621719123777613e+00, 1.3581124830124891e+00,
          2.7655993863607790e-02, 3.4900911025999626e-02,
          5.3074525787916396e-02, -1.0585052905399677e+00,
          4.0266404159549030e-01, 5.3001827893332687e-01,
          3.1853198999507298e-01, 5.4580082508924009e-02,
          -4.5251388116929081e-01, -3.7194937325492794e-01,
          -5.6068188812724140e-01, 1.1296852084708545e-01,
          8.2768909306617636e-02, 1.2659920682050960e-01,
          -2.2398596157664655e-01, -1.0594399246047301e+00,
          -6.4574510707249996e-02, 2.3183408638824193e-01,
          4.7704306955819076e-01, -7.0761580355674314e-01,
          4.3888746772034103e-02, 3.9485954614365593e-01,
          -5.1763348046045476e-01, 5.0636742028222059e-01,
          -9.7337245954613283e-01, 1.6040069091138043e-01,
          3.2030584366291158e-02, 4.0706941087108978e-01,
          3.2876729504711222e-01, -1.0214643783106307e+00,
          3.2585766348446293e-01, -3.7684863778205380e-01,
          -6.9666828375864853e-01, -2.6879837873570117e-01,
          -7.8419592465595378e-01, -5.0551977255982194e-01,
          -4.6454855845281950e-01, 6.0688541294515075e-01,
          -2.8567182813821651e-01, 1.0732521602835524e-01,
          -7.2126117619070140e-01, 8.3465936150638020e-02,
          4.3963871179818709e-01, -3.0531005004408501e-01,
          -1.0246279852398708e-01, -6.3145386577287343e-01,
          -3.5779213602579502e-01, -8.0837947607836225e-01,
          -4.1012687667882125e-01, -2.8549790697654881e-01,
          6.8046940261885874e-02, -5.1520846483159792e-02,
          -5.1146216929240285e-01, 5.3323571978779016e-01,
          -1.6292741199297719e-01, -9.4538847810164406e-01,
          1.9458257658227635e-01, -2.3949447161581841e-01,
          8.1588787656649031e-01, 1.1880085972285218e-01,
          2.0102298800497911e-01, 2.2754523617006964e-01,
          1.3749105668047559e-01, 1.3177582383549893e-01,
          2.6839339530954093e-01, -4.6471853454381062e-01,
          2.7935904011046742e-01, 3.8709338220359635e-01,
          8.8495974647787579e-01, 4.7921010302900757e-01,
          -3.7067343215255272e-01, 6.1739327875140482e-01,
          -5.6942033907353984e-01, -1.1894423343629802e-01,
          -8.7123370978131287e-01, -9.1270660875548096e-02,
          -2.7287440773855359e-01, 4.6418073029991358e-01,
          1.2531571517656234e-01, 1.2182147771502599e-02,
          -6.1124043272835671e-01, -6.6362365944555479e-01,
          -1.5751562769204219e-01, 1.4401016023887242e-01,
          9.1588477378282365e-02, -7.6227143017214102e-02,
          -4.9406870704667760e-01, -2.4065206611210324e-01,
          -5.8203635863455794e-01, -3.6290894683596746e-02,
          1.9605713792891849e-01, -5.9811279636418235e-01,
          1.2352116689481725e-01, -1.4826858262132070e-02,
          -1.4094978069266642e-01, -2.6998145620558939e-02,
          -4.7071818624290529e-01, 2.1289169376366920e-01,
          3.5984284728735266e-01, -2.1085240141258776e-01,
          3.2792126333085553e-01, 2.8311167008085916e-02,
          3.2354910977045703e-01, 1.5807834389532835e-01,
          2.6962542415611196e-01, -2.2562765636430251e-01,
          -1.7072329179182355e-01, 8.1939938038281923e-02,
          1.8881804826896159e-01, 1.8694217116952891e-01,
          4.3659899999266888e-01, -2.4630868179528068e-01,
          1.4050962495304753e-01, -2.8324223774310764e-01,
          1.2143272661250569e-01, -3.8839599729890428e-01,
          -1.5802847706142928e+00, 4.9560799815049361e-01,
          -6.4573572974270332e-01, -4.8005590483536120e-01,
          -1.8695468846652272e-01, -7.8629396519405217e-02,
          -9.0245842470371940e-01, 3.4083897767734611e-01,
          7.7239437186268900e-01, -4.9517705856360145e-01,
          9.0037715084004308e-02, -4.2643737746033883e-01,
          -5.5137179322176622e-01, -6.0525575273191923e-01,
          4.3029342382797577e-02, -2.6856466810907570e-01,
          -1.1567570263135291e-01, 1.8458441516200080e-01,
          2.7371281137313197e-01, -5.8545380006043896e-02,
          -5.2644153975418573e-01, 5.8493322386766455e-01,
          -3.5848267958326968e-01, -1.0107182784946606e-01,
          -4.0116536888303489e-01, -1.6771950688491424e-01,
          8.4169370299669077e-01, 5.1756824677948565e-01,
          1.9067772340193367e-01, 3.3625821208172885e-01,
          -7.7765137644086133e-03, -1.4676982435215463e-01,
          3.4454312905383999e-01, 6.8537309372742480e-02,
          -3.6827785179438888e-01, 2.1710910178482346e-01,
          -1.1864919352628271e-01, 2.5233063820800072e-01,
          -5.1805199858179984e-01, -4.0363333443321658e-01,
          6.3636178318167624e-01, -1.1001172643606885e-01,
          3.9520751276418897e-01, 4.7147840138614150e-01,
          2.3457172676577506e-01, 1.5329636793029391e-01,
          -1.1436994575723464e-01, -8.4587182979258241e-02,
          -4.5379029814357313e-01, -3.8089851154653048e-02,
          -5.7667966394281034e-01, -4.2661332744239078e-01,
          -3.9554867529608201e-01, 1.1931225661636778e-01,
          8.4132023004041667e-01, 2.3653528416820618e-01,
          4.8638312101960979e-01, -1.8631392535618871e-01,
          -9.7476195818020098e-02, -5.9464612926030780e-01,
          5.9982124037474722e-02, 1.9877197317360548e-01,
          1.3238580150410517e-01, 5.5480459548261085e-02,
          -7.1419111340162503e-03, -1.3467478105093889e-01,
          3.9128306198262262e-02, 4.6792717747319984e-01,
          -3.9339442814456482e-01, -2.3901442663428054e-02,
          -2.0007851066632862e-01, -1.2730751756198716e-01,
          -2.6447026930761974e-01, 3.0054178457639202e-01,
          -2.1119188098596506e-01, -2.1754765155955863e-01,
          1.7201041734555313e-02, -1.4925519954103844e-01,
          -4.8469430792354676e-02, -1.2049612452862637e-01,
          -2.2058849389324616e-02, 9.8304914731234516e-01,
          4.4863203746458119e-01, 6.8982643842659241e-01,
          6.7027426908171994e-01, -5.8071640173331251e-01,
          -8.5655695262262299e-02, -3.0746825651848048e-01,
          -2.5605100223241939e-01, -2.9717913844093846e-01,
          -1.7480444870025139e-01, 1.8633685379460974e-01,
          -4.6611654456834822e-01, 2.8779846849491514e-01,
          -1.6200412970514130e-01, 1.8234451925844983e-01,
          4.3103686952722610e-03, -1.3857905840312854e-01,
          9.9471171073413134e-01, 3.9546159996935598e-01,
          3.3874925268288819e-01, 2.0795541837487505e-01,
          4.5217361641171860e-01, -3.8244799718852635e-01,
          2.1634205429992823e-01, -4.6323733674575568e-02,
          2.1155760357346983e-03, -6.7065698021621239e-02,
          8.3512886114385218e-02, 6.3871537815906398e-01,
          1.4430944168300974e-01, 2.5725525031085955e-01,
          5.4891196951126320e-01, 1.3901904877218615e-01,
          5.6078305118711348e-02, 5.8547865452954095e-01,
          4.8137140393829697e-01, 1.2841422397184102e-01,
          2.5711420558143422e-01, 5.9084018365867319e-01,
          1.4957062976619345e-01, 1.9694724937422464e-01,
          8.8586864885972384e-03, -4.7077456677750394e-02,
          4.8565693243334890e-01, 1.5591012681981065e-01,
          -5.7787606000094145e-02, 3.6203442881951675e-01,
          8.9142632965503565e-02, 2.5770279086331666e-01,
          2.2036857835046494e-02, 1.0753305940940239e-01,
          2.7512316623223260e-01, -2.8814927096866305e-01,
          3.9129301848429959e-01, -6.2032196423559383e-01,
          1.3207299369988598e-01, -3.4685040608890029e-02,
          5.6959476579174906e-01, -2.8738924014417144e-01,
          -5.8933102110675650e-01, 6.5146381067802561e-01,
          2.1229819344674988e-01, 1.5147004811515624e-01,
          -3.2952078781446575e-01, -5.1342675751537274e-02,
          6.2592848116309718e-01, -1.2974433025605778e-01,
          1.0912555706012529e-01, 3.5500631005792088e-01,
          3.5927702239448267e-01, 1.3007510733702995e-01,
          4.7134131744360175e-01, -4.6375785766080851e-01,
          2.0944745683426462e-03, -2.3025380352455629e-02,
          -2.9265703841089274e-01, 1.7810989824805393e-01,
          -2.9990585837265943e-01, 3.7766284994108368e-01,
          4.3160784901233840e-01, -1.7199606204076950e-01,
          -3.7655148160645846e-01, 6.0624204409371135e-02,
          -3.1824586859583892e-01, -2.5111101304261230e-01,
          -3.0200439506475463e-01, -4.2262576224658810e-01,
          5.5975153152345647e-01, -2.8480731959145905e-01,
          -4.6321941040288439e-01, -6.8727931485630767e-01,
          2.5175673850431908e-02, 2.1574931614999035e-01,
          -2.3230129760743809e-01, 1.2150232353144916e-01,
          3.0730121749341355e-01, -6.1649233936147344e-04,
          1.8876620173338182e-01, -3.5249804260442685e-01,
          5.1308052072727695e-01, -2.7022045378593790e-01,
          3.2145843001837043e-01, 3.4154379190559581e-01,
          4.5745613617575662e-02, 1.6663827782214241e-01,
          -5.0077863953016022e-01, -1.9543477001123841e-01,
          1.1593344752274612e+00, -2.2147563930003450e-01,
          1.2684259329836720e-01, 2.4620413331383686e-01,
          -1.0237161967450292e-01, -4.9268022819645464e-02,
          -3.5807605925636998e-01, -3.6821909110746905e-02,
          1.0571149960474591e-02, -4.2709785309919379e-01,
          -3.5767218867096651e-01, -1.5956072586188791e-01,
          -6.2941031376466394e-01, -2.2182174669991578e-01,
          -5.2465324069971664e-01, -7.9146357395357275e-02,
          -5.1256965642180317e-02, 6.2506477483064482e-01,
          1.3127289212525197e+00, -1.0031784717359012e-01,
          3.1389000970182374e-01, -4.3398872858416586e-02,
          2.7470593990353193e-01, 2.4884663369851678e-02,
          2.2812211780747962e-01, -2.8930015988018881e-01,
          2.0398543164196767e-01, -2.7921453054418727e-01,
          3.2149418093192134e-02, -3.6050034699310157e-01,
          -2.1416100449031236e-02, 1.0407545823151010e-01,
          -6.3175624670837727e-01, 1.2837303492276958e-01,
          4.2321856591178181e-01, -1.2795104747494057e-01,
          -3.7722471230319660e-02, -1.8040768252498088e-01,
          -1.5562815057691723e-01, -9.8334600112680567e-02,
          -6.1896152568290541e-01, -1.1572000852109555e-01,
          -1.3740154666694090e-01, 1.3980634792784701e-02,
          -6.7534775314843823e-02, -7.2119049101942861e-02,
          3.4295368775601986e-01, 6.1211260621400332e-01,
          -3.3358806430586058e-01, -1.6450704878648112e-01,
          3.1409712051927757e-01, 4.2124917398782713e-01,
          -4.0621625632077979e-01, -1.2719619477905031e-01,
          2.5437173590863349e-01, -3.3583524777405505e-01,
          -2.0377122930117858e-01, -3.1685827769059947e-02,
          -5.8666518062059060e-02, 4.4505657542268579e-01,
          3.2180161179314180e-02, 4.6142816560524940e-03,
          -9.3056426080215235e-02, 1.9179679107918335e-01,
          3.5749640560061813e-01, -1.2872144048225015e-01,
          2.7294250944262688e-01, 2.8715128877590540e-01,
          -4.0776454711228705e-02, 1.1820062108247974e-01,
          -1.1597161017609424e-01, -2.1492729605177521e-01,
          1.0531866255290359e-01, -8.5044258144649512e-02,
          -1.3813170584806972e-01, 5.5470648818263690e-01,
          -7.9609578316852767e-02, -5.7516201956467394e-01,
          -1.0964024485748003e-01, 9.8393768227853617e-02,
          2.5363203716736943e-01, -5.9500351671624518e-01,
          2.4003208810381366e-01, -4.2918342420433298e-01,
          -2.7044615833851199e-01, -3.1407470297059636e-01,
          -1.2345035010419231e-01, -2.9191393254562109e-01,
          4.9147468609296813e-01, -3.3138703126832819e-01,
          3.7088958214300943e-01, -2.8634656413996451e-01,
          -2.6642481589409912e-02, 2.7110698379810078e-01,
          1.7043063259764357e-02, -1.8093802963839264e-01,
          -5.6386967142028088e-01, 1.9388948783627627e-01,
          -1.8833350001088012e-01, -8.8988997675114326e-02,
          5.3956228737768630e-01, 3.4313757803240785e-01,
          3.1550579432630416e-01, -1.0704494617108584e-01,
          -4.8629878112940639e-01, -1.3112393500802394e-02,
          -1.3078260827602070e-01, 3.1639460627186443e-02,
          1.0452233525420335e-01, -5.5948886327000298e-02,
          3.0227434220976768e-01, 6.5195679872071277e-01,
          2.0080398757588602e-01, 4.9299853325500559e-01,
          -1.5255571794383478e-02, -4.8086349376125093e-01,
          -6.9136229848936281e-01, 1.5736842901955211e-01,
          -2.1266997500221274e-01, -1.7695200603216454e-01,
          5.4765564602960809e-02, 1.7273294043308639e-02,
          -2.5140613010517465e-01, -2.9514883006085468e-01,
          -1.8015090218182131e-01, -1.7245112591528058e-01,
          3.9799486809479273e-01, -2.6592749559918688e-01,
          1.0766701037043239e-01, 3.8717186813577925e-01,
          1.1522207244281850e-01, 1.6882521037965176e-01,
          -2.6191645207861103e-01, 1.2897518676961195e-01,
          -4.9515695000195242e-01, -4.3863367812756765e-01,
          -3.3475527165608499e-01, -3.2899678346762801e-01,
          -1.7909209271342344e-01, 4.5855456839518566e-01,
          -2.6094437535200127e-01, -1.7343938252111790e-01,
          -3.4736122052908902e-01, 1.0430163807899823e-01,
          -3.5629945365077839e-02, 3.0971669137254859e-01,
          2.4587173955411210e-01, -5.9425886676736217e-01,
          1.8127615890750950e-01, 2.4756883257223655e-03,
          -5.1423891374385200e-01, 3.6944673322434002e-01,
          -3.5944895163909768e-01, -4.5634173810908146e-01,
          6.6834298107258855e-02, -7.7605351171909254e-02,
          1.7500553111776659e-01, 7.2023588909604377e-02,
          1.1882338171600870e-01, 3.7744577061854148e-02,
          3.2685561672458474e-01, 6.8803062458433284e-01,
          1.7882981678110230e-02, 1.6608321393706202e-01,
          3.5713888764921703e-01, 3.1042005589879518e-01,
          -1.3262600275882283e-01, -7.0605560463464709e-02,
          -1.4789194493249361e-01, 5.1821733487243976e-02,
          2.7724966160077735e-01, 3.4347596731878360e-01,
          2.4720183520118258e-01, 3.6260674208064286e-01,
          3.6058091381684358e-02, -2.9745883850285226e-01,
          2.2922878309058006e-01, 4.6576153917062046e-02,
          1.7199172601811449e-01, -2.0384487499939338e-01,
          3.0922302839439275e-01, 9.4397965753460725e-02,
          -2.4655056186169008e-01, -5.9830768978028737e-01,
          8.6186707401830778e-02, -3.0723038176925804e-01,
          -1.5913380862762344e-01, 1.7990014148057226e-01,
          -1.0217980080112699e-02, -1.6418879714536960e-03,
          1.5200267039807402e-01, -7.6983949569820920e-01,
          4.6980135599141043e-01, 1.6775207711059079e-01,
          -2.1484175460579708e-01, 6.7719384677049868e-02,
          -2.0581498211460805e-01, 1.5280464090547705e-01,
          2.5867998389364475e+00, -1.6283612075015286e-01,
          6.1140667940181876e-03, -1.6328402582680979e-01,
          1.2258649316770505e-01, 1.0969318260895715e+00,
          -3.0702046119171222e-01, -2.7594142020561319e-01,
          -9.2481832651342286e-02, 3.6642176874901838e-01,
          -4.8241269835603978e-02, -1.1561142519139478e-01,
          -4.1341857336502053e-01, -1.0695530288899618e-03,
          1.7482098419246195e-01, 7.2082510827705282e-01,
          1.5666377146393601e-01, -2.8912126621326578e-01,
          2.6783446383034387e-01, -3.5467930708239376e-01,
          -9.0219078974478606e-01, 7.1934417150523833e-01,
          -6.4267997780385022e-01, -1.9801262058575947e-01,
          -2.7378424037992061e-01, -2.1880960558564691e-01,
          -4.9679755004481430e-01, 3.7756005794578740e-01,
          7.8923173316226780e-01, 6.2278821484008828e-01,
          5.4780504682887432e-01, -1.9706814301487807e-01,
          1.3280896921075145e+00, -1.1852576090025696e-01,
          1.8352182902665248e-01, -4.7051090058685180e-01,
          3.8223480745373556e-01, -1.7900361947052873e-01,
          -1.2080066338150581e+00, -2.2659797465014991e-01,
          -1.3441516336439738e-01, 7.7689273508543011e-01,
          -3.3917891195400079e-01, 1.7228303302966272e-01,
          -7.1504146599732021e-01, 1.1240898460366379e-01,
          -8.4757793785602623e-02, 6.7573905343213003e-01,
          3.1840408780782758e-01, 2.4035477542046510e-01,
          6.0198625690910279e-01, -9.7329445076301646e-02,
          1.4416514200046507e-01, -1.3974772194622558e-02,
          3.9629252777686746e-01, -7.5252092262224557e-01,
          7.7979211666422840e-02, 3.7498079707989590e-01,
          7.1481846454354736e-01, 5.7347546571144670e-01,
          3.2902965047628291e-01, 1.5817529783962933e-01,
          4.1623612378162300e-01, 3.4169002336699905e-01,
          -4.6447814050871178e-01, -1.6201277821130844e-02,
          -1.4265115839619785e-01, -2.0129625736647744e-01,
          -5.2777673876000790e-02, 3.9864116372990832e-01,
          -5.5740657776483304e-01, -2.7750317089049786e-01,
          1.3295048392710260e+00, 2.9839539866195686e-01,
          -3.4439896656849339e-01, 5.7087201757603900e-01,
          -1.9885847940668411e-01, 2.2278997252315377e-01,
          2.2980310657496877e-01, 1.3800898140812337e-01,
          6.0552151057587149e-02, 2.7397043823869299e-01,
          9.5348104743106760e-02, -3.4422011442992917e-01,
          2.6245344513881957e-01, -2.7219490931647572e-01,
          -1.1827847153522067e-01, -6.7440296975396904e-03,
          -1.2853237145519990e-02, 1.3117927489787390e-01,
          -1.9898889239474690e-01, 2.2365662552681329e-02,
          4.1344392151491122e-01, -5.4913511753733268e-02,
          -6.3255581323712551e-01, 1.3508573444702936e+00,
          3.5657942474869470e-01, -9.8928746379174470e-01,
          -1.0198201193409259e-01, 9.4526581316514646e-01,
          9.2187236846603710e-02, 6.5377282170117568e-01,
          1.8617769145442090e-01, 4.4726817598285235e-01,
          -1.1745813787872764e-01, 2.9821702587809001e-01,
          -6.2922667442226488e-01, -3.7066748984223175e-01,
          8.7182259356617142e-01, -6.3649993208268796e-01,
          3.3125476092450995e-01, -2.8094454735489072e-01,
          8.7854124798175071e-01, -1.2965606952974432e-01,
          -6.4905719569344156e-02, -3.1127928214262557e-01,
          3.9335440929366977e-01, -6.7546647927637860e-01,
          7.6556983272228418e-01, 5.1109510703900185e-01,
          7.6197414816097445e-02, 3.0623961335913319e-01,
          5.0995383107267778e-01, 2.3213955056575791e-01,
          1.4908464325849760e-01, -1.8727994738179526e-01,
          4.6480829712728022e-01, -1.1500449063752130e-01,
          -2.9545326002781752e-01, -5.0981504011878620e-01,
          9.3303681812375627e-01, -4.6063174834728016e-01,
          -5.3393158136427976e-01, 2.3861016876397020e-01,
          -3.0625254279171060e-01, -5.6086938661290754e-02,
          4.2692383918538579e-01, -6.9713849519682602e-01,
          3.4376142214571809e-01, -1.9874471833625706e-03,
          -2.2147800072887711e-01, 3.8898153834548094e-01,
          1.2415591549348180e-01, -3.1171616340416292e-02,
          -3.1868859606686606e-01, -4.6778203668348706e-01,
          -2.9852978951854314e-01, 5.4827962278510334e-01,
          -7.3027695436659573e-02, -3.7482345969246195e-01,
          -3.2710177756215558e-01, 4.5173937939979300e-02,
          1.9250756713342226e-01, 2.9407015434399386e-01,
          2.1757879291546225e-01, -5.2426868713770980e-01,
          2.3412232397586022e-01, 1.6682525024629719e-01,
          -1.0219196310346521e-01, -1.2208324513005629e-01,
          2.6864898158221809e-02, -1.7263525225022128e-01,
          2.5814486790476360e-01, -1.2480634519349315e-01,
          5.2631729660681403e-01, -2.0081051767763583e-01,
          -2.6818136052301417e-01, 3.2058470385715848e-01,
          -2.6939269860849763e-01, 1.9819584826554493e-01,
          -8.5283952470967955e-02, -7.3553759168480629e-02,
          6.2109742152478542e-01, 2.4622868913796575e-01,
          3.8197167970665857e-01, 2.9560504944100313e-01,
          -3.1221610784187381e-01, 2.7702431580609943e-01,
          -7.1719500816358561e-01, 3.3584543870109634e-01,
          -2.4610693645653821e+00, 2.9903188544353865e-01,
          6.3824006723952609e-02, 6.0569067993914233e-02,
          4.1668616880661535e-02, 4.4546756941873149e-02,
          1.3740867341764901e-01, -6.3355543182450336e-01,
          5.1806778803005749e-01, 5.7198346498864322e-02,
          5.9723142591433742e-01, 1.3647822735106957e-01,
          1.2874179405978774e-02, 7.4595448861868185e-01,
          6.3151823339929594e-02, 4.1697829650793959e-02,
          -3.3198386307864584e-02, -1.7365833931420699e-01,
          1.0893467955114242e-01, -1.7434553828206956e-01,
          -3.8073348623370357e-01, 1.5608865589850138e-01,
          -5.5702097901154851e-02, -7.8092069412735121e-01,
          -1.2350938334446203e-01, 3.4153016339578145e-02,
          8.6911812056837373e-02, 5.1061453754049280e-01,
          -9.8018727766118006e-03, 5.0642283203038525e-03,
          -4.9992233644410611e-01, 5.7794087719006682e-01,
          7.2534079388195699e-02, 4.4274974770844677e-01,
          5.1547393193934560e-02, -2.3178018745664047e-01,
          -6.0999303262797802e-02, -6.0695725083520802e-01,
          -8.9674383921114556e-03, -2.7147679783462275e-02,
          -5.2636231653759602e-01, -5.6123746952187789e-02,
          8.7519368232662990e-03, 7.9129530138527138e-02,
          -1.6507538647707726e-01, 2.4780200145324821e-01,
          5.0177101851812789e-01, -4.3182150710747991e-01,
          -2.6918652244661834e-01, -1.6711997697945929e-01,
          2.6520159655739578e-01, -4.3307750920917787e-01,
          -6.1732774887223596e-01, 5.9019934784797237e-02,
          -2.6461010270997454e-01, 2.4015374665990141e-01,
          -2.7491167363885077e-01, -2.8400591950603817e-02,
          -3.8517425391102134e-01, 5.5641546440610520e-02,
          -7.6545872843195625e-02, 9.3183388179940568e-02,
          1.9974693869885693e-01, 7.2008591581080292e-02,
          -5.3840199177150626e-02, 5.9704944322276403e-02,
          -1.7922566172400164e-01, -4.7692376423667672e-02,
          1.9432539405624438e-01, 2.1628061833376186e-01,
          -8.2915292879854177e-02, 2.7076932235938067e-01,
          2.6167079990659647e-02, -1.7310037140090975e-01,
          1.7991744167842527e-01, 3.6892587352962325e-01,
          -2.4643345396760657e-01, 1.2895753008785574e-01,
          1.9798264104827195e-02, 1.1520420672203620e+00,
          8.0376297124556156e-02, 1.0652600171979694e-01,
          1.0581658619149927e-01, 4.8901537942168749e-01,
          -3.7101181317254311e-01, -1.6528157225041817e-01,
          -6.6743595346876061e-01, 8.6920375924292345e-02,
          -1.5681980940622790e-02, 3.3595131618558932e-01,
          -1.3819843479740088e-01, 1.0643142918294543e-01,
          1.2365991889541753e-02, -2.8169573640008074e-02,
          9.1516336572289403e-01, 2.5894548183156403e-02,
          6.8502736741183290e-01, 1.7504359379184492e-01,
          -6.8008887416733099e-01, 3.3731979973420013e-02,
          3.8865594706390880e-02, 2.7817332272857132e-01,
          1.7795804972809273e-02, -1.9938010780249860e-02,
          -2.5213940411029562e-01, 8.0170817086167995e-02,
          3.0542448723583199e-01, -8.0542390925332830e-02,
          1.2356262450836021e-01, -4.9630164247803898e-01,
          -4.0226180647319344e-02, 3.0869300055012067e-01,
          -4.4969289586465933e-01, 4.8151526843323675e-02,
          -3.0576956957370224e-02, 1.7452999727125154e-01,
          -2.8183702684466810e-01, 3.4954973976555226e-01,
          -1.7803425536896728e-01, -2.5447662259621379e-01,
          1.0500450694042444e-01, -2.9563084867284645e-01,
          -2.2293720823800925e-01, 2.6420656153347144e-01,
          -9.7514001999935207e-02, 1.5927194911816905e-01,
          -2.7284712646122539e-01, -2.2340845698177536e-01,
          -2.2496690121108051e-01, -9.5347368887502906e-03,
          1.3056076688172362e+00, -1.6609154802897036e-01,
          -1.1164487201900452e-02, -1.8812422941291468e-01,
          3.0233724799251221e-02, 1.9332084011346971e-02,
          -1.7322792572516754e-01, 3.1143404437623468e-01,
          -5.5820540554075038e-01, -4.5332482431623838e-01,
          -1.1109517323754460e-01, -7.4050941821015515e-02,
          -3.7728979631892490e-01, 3.4783970001204048e-02,
          -1.6638579319542526e-01, -2.2130439644972499e-01,
          4.5548947804934148e-01, 2.5697554008540791e-01,
          2.3403267748680542e-01, -9.7859505938749577e-03,
          -1.0298279887485735e-01, -8.2483874153851278e-02,
          -5.7607320637751813e-01, 2.2588975976844958e-01,
          -3.1080652370887696e-01, -1.7636245408311055e-01,
          1.4974189327068269e-01, 1.4239912932360554e-01,
          -3.1940540303735093e-01, 9.6724129455501365e-02,
          1.2489357927902538e-01, -2.4466214585758542e-01,
          -1.2873732429407964e-01, 2.8694254037904827e-02,
          1.7400572584177426e-01, -4.5422979157990562e-01,
          5.7088891765441019e-01, -1.1870840739974707e-01,
          -3.9982958252083173e-02, -2.5379940356873330e-02,
          -1.4214736857365198e-01, -3.5255739562356803e-01,
          -5.6575161319718001e-02, -4.7572562963252969e-02,
          1.9936738396963468e-02, 1.9073223394350805e-01,
          -9.8482414604856933e-02, 5.7212927962258420e-01,
          -1.5125197345902913e-01, 1.5021057069004943e-02,
          8.0511729513364239e-01, 1.6406517043542207e-01,
          -2.5023342744030808e-01, 1.1664461940523814e-01,
          4.1061218142952638e-01, 2.6080222066449743e-01,
          -6.3374672586847158e-01, -9.0261715223035846e-02,
          -3.9112064528083240e-01, -2.5631537342275346e-01,
          1.1159926570747296e-01, -1.4304399520690106e-01,
          4.1859005120661147e-01, 4.8999114701033197e-01,
          -8.2237065256118722e-02, 4.0526283585130563e-01,
          -4.9673810706921151e-01, 2.1404918564886766e-01,
          1.9931756641443765e-01, -7.1803318879465494e-01,
          -2.2330567719822733e-01, 1.0000507650225837e-01,
          3.9039314616735588e-01, -1.0299439376344323e-01,
          -4.1152727948251638e-01, -1.8982062080442388e-01,
          -4.7315294124455892e-01, -3.5940656574173774e-01,
          1.0482454914442008e-01, 5.1849820421773174e-01,
          3.7000067162390238e-01, -6.0729704535282103e-01,
          3.0925858101718789e-01, 1.8216998311259780e-01,
          -7.2618128031949791e-01, 1.9623276580469201e-01,
          -2.7128760792793871e-01, -1.8877815171167261e-01,
          -3.5756206307702404e-02, -1.6000210870066928e-01,
          7.2986994077651898e-02, -6.8878679234492168e-01,
          -3.9373742288347269e-01, -2.7000951211033425e-01,
          5.1655947109619971e-01, -7.6032384966137678e-01,
          2.5753217004781614e-01, 7.0599952744207284e-01,
          3.2802838008718249e-01, 5.5856293746764252e-01,
          -9.7437213206206741e-02, 2.8892552128056143e-01,
          -2.0528330287037877e-01, 8.8566091633011865e-02,
          3.8289028744736847e-01, 5.6980689491979264e-02,
          -3.0589596920443437e-02, -1.2341259591102875e-01,
          -9.4606682365787648e-02, -2.1639669311326945e-01,
          5.4898695977580925e-01, -6.6410371262355924e-02,
          -4.3546988756447406e-02, 5.5629825136867550e-01,
          -5.1612941983236704e-01, 5.3933798976658842e-01,
          2.1316079755296152e-01, -8.9129382484446990e-02,
          -1.3062641941389849e-01, -3.5874911401095100e-01,
          3.4551730144858306e-01, 1.1612273916167115e+00,
          4.2261850558695729e-01, 2.7095708600463381e-01,
          -4.5947456342698217e-01, -5.2810274348792330e-01,
          -4.4039700466962106e-01, 2.5740112233039410e-02,
          1.1888257264964951e-01, -6.5838194953292417e-01,
          -2.1358981050774273e-01, -1.7443200959052590e-01,
          3.7800743756759536e-01, -7.2178828181628762e-01,
          3.3674298724193269e-01, 5.7256078393754975e-02,
          2.1948293938056748e-01, -1.9303051538794396e-02,
          -3.5527152962301262e-01, 2.4249049329786876e-01,
          -3.6156802124167928e-02, -1.8088552540730149e-01,
          -3.6522982515472352e-01, 1.0633688823940010e-01,
          1.5153747235548412e-01, -4.2447059128315434e-01,
          -1.6339770751168040e-01, 2.6361572096838098e-01,
          -2.8980461018828679e-01, -3.0466729720962171e-01,
          -4.6666414327215633e-02, 2.6785525075423666e-01,
          -3.9777034491394159e-01, -2.9308871559669214e-01,
          -2.5555006363019422e-01, -1.4174597411253970e-01,
          -1.2857609329083644e+00, 3.2197782249222662e-01,
          -6.3829267147603896e-02, -4.3474196378810215e-01,
          2.8498823193509687e-01, 1.0883223931378987e-01,
          -2.6677614991211507e-01, 5.1280736032178598e-01,
          -9.3901021217708769e-01, -2.0325453600250110e-02,
          -1.0621014908120273e-01, 2.5991558808044135e-01,
          6.2333833531978577e-01, 3.1830431706646167e-01,
          -2.0891047316216393e-01, -6.6321171108791732e-01,
          2.1323275413172013e-02, -2.7307822484591660e-01,
          -2.0976771471871528e-01, -8.5717399911665146e-02,
          -4.1638958878568222e-02, -2.8508205827719774e-01,
          -4.5096081974008168e-01, -2.1824244115174571e-01,
          4.3519760419442782e-01, -2.0548100994011489e-01,
          2.4617477322620990e-01, 2.3475506703378956e-02,
          6.1911985229848657e-02, -2.3441080498716280e-01,
          -2.6766290408311572e-01, 6.1359568052186364e-01,
          3.6822734141096147e-01, 2.8031904444255157e-01,
          -3.5152804175564079e-01, 5.8419905431782948e-01,
          3.5226584877888417e-01, -2.7276192467788701e-01,
          3.0330334627459560e-01, -1.0675141524105992e-01,
          -1.2010604330156807e-01, 4.7393338129844600e-02,
          5.7643606233634221e-03, -3.3259742108653279e-01,
          4.4351295109138628e-02, -9.9724715334196010e-02,
          2.5035776465770715e-01, 5.9203296137725325e-01,
          1.8942104288374326e-01, -4.5732489439647181e-02,
          -2.4044442597828772e-01, 9.9610609067385406e-02,
          1.6249539041236866e-01, -5.6591372394040718e-01,
          6.2929462068933950e-01, 1.6467755597088976e-01,
          -2.4802528668999807e-01, 3.7988608875576424e-01,
          1.3705512449598403e-01, -3.5973047737437280e-01,
          3.3376481062271585e-01, -1.9731462761182589e-01,
          8.7686080566620524e-03, 8.9737759461606822e-02,
          -2.5958999834045210e-01, 4.8919806431701723e-01,
          2.4530464058553386e-02, -7.7460764274587916e-03,
          -2.8064788267258165e-03, 2.7981106412159146e-01,
          3.9992227867761704e-01, 2.9488608331451499e-01,
          1.2941863206097898e-01, 4.2447637095428298e-01,
          1.1680369186344700e-03, 4.6088469876444712e-03,
          1.3217280920615216e-02, 5.9116454177808404e-03,
          -1.4739287067487811e-02, 1.5870007926043189e-02,
          8.7442465940538120e-03, 2.0647079923630497e-02,
          -1.2348049953816819e-02, -1.3163133833428512e-02,
          2.1103878625860245e-02, -2.1107034978287868e-02,
          1.7013039111359204e-02, -1.3826243655273517e-03,
          -1.3621667730475158e-02, 9.2080606689651182e-03,
          -8.2392338603092894e-03, 2.4407849136017547e-03,
          -1.3116868405027163e-02, -1.4112830748778169e-02,
          3.0886804843285364e-03, 1.2522091935399150e-02,
          -1.0697761315182380e-02, -4.5366443826608373e-03,
          2.1850815447489926e-02, -7.2959843228776831e-03,
          1.9826450032213800e-02, -4.7859423527392359e-03,
          -1.2410326623392275e-02, -7.6027282102769300e-03,
          1.8324159566291482e-02, -2.1264297440446119e-03,
          2.2167115845933862e-02, -1.9508285029159605e-02,
          -1.5857840904768859e-02, 9.1043703932589259e-03,
          -6.7136695582972914e-03, -3.4620879764211349e-03,
          1.7965008954533540e-02, 2.3034172959839321e-02,
          2.3002654081226880e-02, -1.3034752190316396e-02,
          1.8814862988461079e-02, 1.2064907966251572e-02,
          5.6073368671537317e-03, -1.5480019951885382e-02,
          1.9045594761016544e-02, 2.4952410927420714e-03,
          3.7697249532910246e-03, 1.2921486996169920e-02,
          -1.6913566600061505e-02, 5.4743704819061063e-03,
          -1.1474268301541003e-02, 3.9138686599799943e-03,
          -2.1844788262392719e-02, -1.3871399259770047e-02,
          1.3774855782395892e-02, 6.5945471800025503e-03,
          9.8679984094086157e-03, 1.5381530475898818e-02,
          -2.0596340163215267e-04, -1.9469483919227377e-02,
          -1.7147983053579188e-02, -1.6628774157695144e-02,
          7.8126265767751168e-03, 1.3435998233634545e-02,
          -1.1720082686517081e-02, -1.5602838092638777e-03,
          5.4520044509003040e-03, -2.0394369238180568e-02,
          -1.9995093494098053e-02, -3.7100600913618706e-03,
          2.7405680426700659e-03, -5.4053001471576221e-03,
          5.6096135654132131e-03, 4.1629643812009167e-04,
          1.3309353239339990e-02, -1.9120421030000081e-02,
          -1.0762983744928572e-02, 1.9430039388980001e-02,
          1.9857762089231526e-02, 1.9150108665371115e-02,
          9.1803918754743523e-03, -1.7975413336650023e-02,
          1.1080591559797822e-02, 1.0153124575537594e-02,
          6.4618172706099224e-03, -2.0153895227940847e-03,
          -2.1578231795530974e-02, 1.2950763096506814e-02,
          2.0582450997720068e-02, 1.3875519517456310e-02,
          1.2058181822189751e-02, -1.0499745370233748e-02,
          -5.8447521686363817e-03, 2.2043230114316839e-03,
          6.7737581263814051e-04, -8.8587356396165589e-03,
          -1.2175584947411802e-03, 3.1063706921695014e-05,
          -6.7997792435150518e-04, 2.2216833032137591e-03,
          -1.3171564699183926e-02, 9.4383068294031248e-03,
          -1.0275370112341687e-02, -1.2726372530540611e-02,
          3.4709687659076295e-03, -1.9379102132034875e-02,
          9.4100034478539277e-03, -1.9726580535292157e-03,
          -1.1860541762358796e-02, -1.3550580490449757e-02,
          1.0208338518713115e-02, 1.4159544740310070e-03,
          -2.0571681584226377e-02, 4.6471117270266479e-03,
          1.9332628566378809e-02, -2.0647830871214964e-02,
          4.8697643720773502e-03, 1.8765062350135552e-02,
          -1.4841543699951252e-02, -2.3957541116780733e-02,
          -1.6480312570364759e-02, -6.1964743871393028e-03,
          2.4052435757372179e-03, -1.0954928717057357e-02,
          1.3184770576087435e-03, -2.2533887279007226e-02,
          -7.7738993027012225e-03, 2.5226753202369592e-03,
          1.4630336500662320e-02, 1.6442646462257208e-03,
          3.6671052038766650e-03, -1.9800984496792542e-02,
          -1.8354431411143606e-02, 1.5908500654730075e-02,
          1.1074222427601029e-02, 1.3191675339277035e-02,
          9.1684497634420361e-04, -2.0570822214880692e-02,
          3.4015301996483823e-03, -1.3730345148230705e-02,
          -1.9108395217867574e-03, 7.7784604758687247e-03,
          -5.1686586264532187e-03, 4.4010931579943390e-03,
          -7.1908990443916333e-03, 1.6383421374621971e-02,
          1.0946742090281023e-02, -1.8785888109372303e-02,
          -1.9438062421920699e-02, 9.3767005899884955e-03,
          -1.6457710656295650e-02, -1.0686720174358792e-02,
          -8.2654873057052825e-03, -5.3803254018975613e-03,
          -1.4962693091538668e-02, -6.6264169714961565e-03,
          2.9016724479070028e-03, -8.2619441932349613e-03,
          7.7058633330551064e-03, -2.0178330064914069e-03,
          9.8975461464667451e-03, 5.9967104329353045e-03,
          -1.2964791024900271e-02, -1.5055802367667201e-02,
          -2.6797337871503337e-03, -3.9923917549255193e-03,
          -1.9288719167168917e-02, 1.9816285640546528e-02,
          -8.5433768846499298e-03, 2.6574164332101528e-03,
          1.0835790412546968e-02, 1.2283406926151983e-02,
          -1.7227219887361565e-02, -1.9255142085262859e-02,
          1.4591539765743226e-02, 1.2918228166524964e-02,
          5.5515298993698437e-03, -4.4216107687595632e-03,
          3.0654608944405091e+00, 2.6938166344783854e-01,
          6.9072855186084481e-01, 1.2689593371691490e-01,
          4.8341763834340795e-01, 1.0305453686103247e-01,
          6.0997633124209505e-01, 3.0117231819890000e-01,
          3.8800445537513539e-01, -3.8773759183666412e-01,
          -7.3232985445054277e-01, -6.0861951053684360e-01,
          1.5240618543966464e-01, 9.9743859719008413e-02,
          -4.5261471470317413e-03, -1.7140352199587833e-02,
          -6.6821049514703923e-01, 3.3913167151652990e-02,
          1.2953521130958248e-01, 1.6505367530860821e-01,
          -4.8170712549966921e-01, 3.7857730969368220e-01,
          3.6991445282757593e-02, -1.2039562397703918e+00,
          -3.6282723497898267e-01, 3.3759889533239162e-01,
          -1.5284735715837603e+00, -8.2068060923203165e-02,
          4.8794768953420456e-02, -2.1964635343831759e-01,
          2.1588132736931723e-01, -3.3815899203691480e-01,
          7.0295570289124132e-01, -1.5638850466495591e+00,
          -3.2888226230528389e-01, 3.4688247979264908e-01,
          4.3209374839596459e-01, -3.3424460259782424e-01,
          6.0744048284176747e-02, 8.2221473106228193e-01,
          -2.0196488468025967e-01, 1.3140352867066378e+00,
          -4.2848052894846833e-01, -7.5982956704000570e-02,
          8.9911455101015267e-02, -9.0629527942408722e-02,
          2.5046946208169713e-01, -4.9227891343040769e-01,
          -2.3315356585855729e-01, -6.8623733552413280e-01,
          3.2024117192042983e-01, -6.8851660997959130e-01,
          -8.6492677861170431e-01, 2.8937316249068273e-01,
          -1.4968686002477860e-01, -6.2977561982259878e-01,
          2.6270753300642530e-01, 4.5605039371790773e-01,
          5.2886867339157184e-01, -2.9549719681264013e-03,
          -2.0770005887802226e-01, -6.2584133721718993e-01,
          -1.5080642689932042e-01, -8.8694459969478190e-01,
          -4.2039305989175918e-01, -1.1910911703946379e+00,
          1.0609217459845788e-01, -1.2908061490791265e-02,
          2.5353872712523196e-01, 1.0882010860250741e+00,
          -1.0557548702032822e+00, -1.0171668991901430e+00,
          -2.8050649598202226e-01, -3.3123937992119031e-03,
          3.2297938766860335e-01, 3.4340568737193650e-01,
          3.0618385050145236e-01, 2.4788060171787069e-01,
          3.9617544852529146e-01, 1.2669773935513009e+00,
          -2.0075106925775104e+00, -8.8026193989645318e-01,
          1.0320061007675543e+00, 1.8575438642485423e-01,
          -2.7110203562356461e-01, -1.3597419129987079e-01,
          -2.7458200662639243e-01, 3.9972149767959142e-01,
          -9.6298261447615863e-01, 3.8986636367597427e-01,
          -4.2047095965763026e-01, 7.8296795427136145e-01,
          2.1621083658711268e-01, 5.0970576013345781e-01,
          1.9491053665106528e-01, -1.2981198195655433e-01,
          -2.9002882068460756e-01, -4.4946886687894033e-01,
          -2.1127091637677187e-01, 1.2532220113996191e+00,
          7.6109258872882990e-01, 5.8144934887237959e-02,
          -2.7635868907818179e-01, 1.5805147192492214e-01,
          -1.0510219314813007e-01, 1.5625215945965185e-01,
          3.3331521505212430e-01, -2.6167105352064990e-01,
          -4.8995513884281994e-01, -3.1725249963145447e-01,
          3.4680810703755310e-01, -4.2194074913253599e-01,
          8.4959321055917170e-01, -1.9413788932272605e-01,
          -7.2560715484520266e-01, -2.5692282694457680e-01,
          -3.0859908960668936e-01, -2.9915964614034535e-01,
          3.7628573706237450e-01, 1.4701306734409572e-01,
          -1.1116378728535676e+00, 6.1812070696245258e-01,
          1.3227681031774330e-01, 1.9768243445688369e-01,
          -2.2097871050385054e-01, 3.4267309347138997e-01,
          -2.2738057756381219e-01, -2.2524991691449667e-01,
          -4.6079210601914383e-01, 1.0779748149843309e-01,
          3.8148447466272950e-01, -1.0865698368405199e-01,
          3.1816423523840218e-02, 3.8427681396000180e-01,
          -1.6821513066203051e+00, -2.3836702125666416e+00,
          2.7182911679311694e-01, 1.5556407490097506e+00,
          -4.6827346398871594e-02, 8.8923521099625313e-02,
          4.3625628209448319e-01, 1.0255795419902343e-01,
          1.0019611734235512e+00, -5.0425365498792551e-01,
          -4.0395251291276718e-01, -3.0832620976292591e-01,
          4.1246937113417231e-01, 3.6056045637747086e-01,
          5.8703781397233548e-02, 1.2900842402632244e+00,
          3.8880739709504580e-01, 3.9820835881070582e-01,
          -3.0078296564312190e-01, 1.8790390941738386e-01,
          -1.8912613125432892e-01, 6.3575625517207690e-02,
          1.2369086631752320e+00, 4.6885877219836153e-01,
          6.5884341117185463e-01, -3.3288474399845186e-01,
          -2.0335137686912311e-01, -8.4764359142014889e-01,
          1.0216981805490080e+00, -1.0553593774179840e-01,
          2.0669017384244529e-01, -2.5774269172567549e-01,
          1.5353611529785896e-01, 2.7683646362339698e-01,
          2.5220974060014534e-01, 1.2822624675232699e+00,
          -2.3121391037765665e-01, -2.0518768745872609e-01,
          -7.8098906225944320e-01, 2.5675237107611087e-01,
          1.9091927524117697e-01, -3.7788125015527102e-01,
          -8.8319029665744564e-02, 7.5187018107717296e-01,
          -9.2479583969455516e-03, -3.3643901437171575e-01,
          -1.0695537728382669e-03, 1.8602258873015375e-02,
          -1.6133491138361196e-03, 2.0146262529279816e-02,
          2.1889560672619299e-02, -2.1535116839050870e-02,
          -1.6022689780281662e-02, -9.7905765606650739e-03,
          1.1211509940395374e-02, 1.4968917985435776e-02,
          -1.0453715334123545e-03, 6.2885697617713942e-03,
          -1.2590633456711749e-02, -1.4368683979309308e-03,
          -2.1468902207895952e-02, 1.6591934483839461e-02,
          3.8028585031940946e-03, 1.3460426587802211e-02,
          4.8643553817706384e-03, -4.5566007112602391e-03,
          8.9062957573970564e-03, -2.0871683729485457e-02,
          -8.8820266902263703e-03, 2.5615284318446811e-03,
          2.1677368130350996e-02, 2.8713186276819774e-04,
          -7.0787675465025027e-03, -9.0041302597592410e-03,
          -1.6688935870356946e-03, 8.5793893666284756e-03,
          1.0708499791312217e-02, 2.2065404982326039e-03,
          3.0998933582300028e-03, 7.5267582002724416e-03,
          4.0454108266832862e-03, -1.5135196745742990e-02,
          -6.9688947256871542e-03, 1.7229334598658736e-02,
          -1.9858677055730044e-02, -1.5539712978405323e-02,
          1.3407103681286253e-02, 1.5195828756575472e-02,
          3.9290880081451320e-03, -1.7643031482616311e-02,
          -1.5875648103868205e-02, 9.2105645851383155e-03,
          1.4060215512694903e-02, 1.2588731256874449e-02,
          -6.9233155928936667e-03, -4.8273191694568124e-03,
          9.5395579555690030e-03, -3.7066815146982578e-03,
          9.3171033524644207e-03, 3.3665928805749782e-03,
          -1.2519767365002373e-02, 1.8133963927226139e-02,
          -1.4077251649554187e-02, -2.0919508331906079e-02,
          1.8829020843331195e-02, -1.8432778516369600e-02,
          4.7285437626297666e-03, -1.5675030308539210e-03,
          1.0671779983630746e-03, -1.4647380328990782e-02,
          1.2285097450307298e-02, 9.7724264085213906e-04,
          1.3168358854689897e-02, 1.3937615627433902e-02,
          2.5892285409872275e-03, -1.8273094276787964e-02,
          -1.9601634223929083e-02, -1.9197143910834737e-02,
          -3.6834414597401968e-03, 8.5747604172912006e-03,
          -1.7800006777969581e-02, -9.3312469647613173e-03,
          1.7688173824954245e-02, -8.6517174444333128e-03,
          -1.8282166736300159e-02, -9.3510626997592109e-03,
          -9.1057863660288126e-03, 1.4275841475973890e-02,
          1.0042972998102230e-02, -1.0070218486883742e-02,
          2.0865396402511695e-02, 5.8782206598453233e-03,
          1.6724565483152926e-03, -9.0290680439563120e-03,
          1.1425926944643732e-02, -1.4728005768670090e-02,
          -1.0691731825726077e-02, -5.7983771882217979e-03,
          1.3772336949203025e-02, -1.1656693000881149e-02,
          1.9744962719170627e-02, -1.3229767282678991e-02,
          -7.4343273960141166e-03, 1.8686150482190432e-02,
          1.4957480432180998e-02, -1.1301548310359094e-02,
          1.9666433133856791e-02, -2.1457486997285658e-02,
          -7.3662653073234760e-03, -1.8112221268206063e-02,
          -1.5582172743729814e-02, -9.0446362755642034e-03,
          -1.7442926602668662e-02, 1.7789525063296299e-02,
          -7.9417205091426076e-03, -1.8584478159473231e-02,
          1.5797866338502396e-03, 8.6262077187596788e-03,
          2.2574699478541530e-03, -2.2328728510378013e-02,
          3.9392430012188092e-03, -1.7692870199244058e-02,
          8.4696149494690922e-03, -2.1630780344277695e-02,
          2.1705172881400382e-02, 9.1959418474318287e-03,
          -1.5259748015827974e-02, 2.0584471498317392e-03,
          -1.7879922162444039e-03, 1.5092059594190407e-03,
          7.2879091870051334e-04, 1.1861026578161260e-02,
          5.3455863995756211e-03, -1.4598474800126101e-02,
          -1.2108226480914535e-02, -8.6272498369418023e-03,
          -1.6050828308504779e-03, -1.4751414317032512e-02,
          9.2715769083342343e-03, -1.6992876983109979e-02,
          -1.1227099360657605e-02, 1.1738208229544586e-02,
          -2.2578022453383237e-02, -8.3605787707392125e-03,
          1.3405198524068877e-02, -8.1323594647266049e-03,
          7.1872861922172258e-03, 5.1761680739476719e-03,
          -1.3465125918322772e-02, 1.7930839558742223e-02,
          2.0909728053095801e-02, 1.4239583182821968e-02,
          -1.9331381747589318e-02, 7.5197848577147931e-03,
          1.9299698495898979e-02, -7.5153605721879862e-04,
          -7.2051363593318863e-03, -1.2028795726447930e-02,
          -1.4882531412294876e-02, -1.7072330846036061e-02,
          -6.8489710855337881e-03, 1.9170210533366368e-02,
          -1.3521642802391693e-02, 1.1098314350730802e-02,
          1.8212160494826973e-02, -7.5785761300072836e-03,
          -1.0118291075439276e-02, -9.9085371030268876e-03,
          -1.2895285818005553e-02, 2.6729459062386179e-03,
          4.3547397872426537e-03, -1.8760199725396578e-02,
          -1.2934605468281582e-02, 9.5225086804081836e-03,
          1.3229705031375660e-02, 1.3777434843494848e-02,
          2.3623168189858472e-03, -1.2955556699882248e-02,
          -1.0404700594035381e-02, -1.8340688473915986e-03,
          8.5519098302906660e-03, 1.1225183863951667e-02,
          1.5031787337062293e-02, 5.7684226479306298e-03,
          -9.9315493471433224e-03, -7.7801905722516248e-03,
          9.0714787377007722e-01, 1.1177881899010519e-01,
          6.7714531398116096e-01, 2.2025260065513030e-01,
          4.9664446476018603e-01, -3.0311434123966258e-01,
          4.9228107062960674e-01, 2.5326080535549661e-02,
          1.1406638359373765e-01, 8.2709425090370248e-01,
          1.5251045666579877e-01, 2.5601626944685851e-01,
          -1.9758387196270308e-01, 5.1613783198358909e-01,
          -4.3511267931955500e-01, 6.8095575743309265e-03,
          7.1278128932634369e-02, 7.1696350592642499e-01,
          3.6685484476802793e-01, -6.5061745032981211e-01,
          -1.9731937156716958e-01, 3.2647276619373405e-01,
          4.6996702004516233e-01, -9.0077772849197657e-02,
          -2.7246053950378146e-01, -8.3731199274532833e-02,
          -9.0217902448589904e-02, 2.4128916263094494e-01,
          1.9992532456079948e-01, 2.5541894341960053e-01,
          -2.4833487601859194e-01, 1.7385276241287401e-02,
          -2.6848122955822656e-01, -2.1560055170603673e-01,
          -3.0278882116109096e-01, 6.5224439350050484e-02,
          1.4468889307409538e-01, -5.8687190706488213e-01,
          -5.0834366104016204e-01, -1.5313588568307748e-01,
          1.8293584027065132e-01, 4.3615533068973039e-01,
          -3.5869436423199716e-02, -1.8895816724799439e-01,
          -1.7813796238823777e-02, -4.7622632086977096e-01,
          -5.4751703998189405e-01, 1.2058662656434195e-02,
          -7.4140500752222185e-02, 6.1939292070592933e-03,
          5.4240514571054310e-01, -4.7688996451127474e-01,
          -5.8989834447164116e-02, 2.3762702805005354e-02,
          1.6221293747221244e-01, -6.0994823557506704e-02,
          -7.6370754691496609e-02, -7.5837397069534407e-02,
          4.7871061885946331e-03, 1.7812348852650822e-01,
          -8.1181442774574619e-02, 1.9760063061641328e-01,
          1.3281937778331490e-02, 3.6896698265432765e-01,
          -4.0897232349162475e-02, -6.8889457364291407e-01,
          2.3334497440329163e-01, -2.3351553551953094e-01,
          -5.7569956099202746e-01, -2.0631962101504076e-01,
          3.2237146067045225e-01, 6.1231374470243494e-01,
          4.8763148699155967e-01, -2.6275000075452288e-03,
          -4.1384263073831989e-01, 4.1087602988961941e-01,
          -1.7530944215907018e-02, -6.0897361642836612e-01,
          1.9262254999207079e-01, 3.6436457188158411e-01,
          -2.6194263392538875e-01, 1.7321915069923322e-01,
          5.2792439523417578e-01, -1.3867541492912505e-01,
