%YAML:1.0
ANN: !!opencv-ml-ann-mlp
   layer_sizes: !!opencv-matrix
      rows: 1
      cols: 3
      dt: i
      data: [ 70, 140, 17 ]
   activation_function: SIGMOID_SYM
   f_param1: 1.
   f_param2: 1.
   min_val: -9.4999999999999996e-01
   max_val: 9.4999999999999996e-01
   min_val1: -9.7999999999999998e-01
   max_val1: 9.7999999999999998e-01
   training_params:
      train_method: BACKPROP
      dw_scale: 1.0000000000000001e-01
      moment_scale: 5.0000000000000003e-02
      term_criteria: { epsilon:1.0000000116860974e-07, iterations:500000 }
   input_scale: [ 5.8271612790994993e+00, -6.4475757518193155e-01,
       7.9834500611647679e+00, -4.3947076022487658e-01,
       4.5104243607234533e+00, -5.4984122592807250e-01,
       7.2934398030568097e+00, -6.7452774704632767e-01,
       9.5315627699711296e+00, -5.0166885990371413e-01,
       4.1925950949708435e+00, -6.0807641400776291e-01,
       3.8452207368309179e+00, -3.8892891697995269e-01,
       6.4251794818593888e+00, -6.0510197540866240e-01,
       9.1057474000871235e+00, -5.7891327317151475e-01,
       9.4523878035398319e+00, -5.7229756678384613e-01,
       1.0529384736731938e+01, -4.8204123787144260e-01,
       5.7180808406118775e+00, -6.3000725413440539e-01,
       5.0008442860612746e+01, -6.8731505372083634e-01,
       5.6451117462040564e+01, -6.7655915625744434e-01,
       3.4781385941918788e+00, -5.1140265029794252e-01,
       3.1287811982123128e+00, -1.2234146978881049e+00,
       3.9369472559961252e+00, -7.0690170547998388e-01,
       7.7854828983403328e+00, -5.1555266994702220e-01,
       1.4307834971473671e+01, -2.9461452248622694e-01,
       2.3114941392503511e+01, -3.2113145574189417e-01,
       7.0180842228778246e+00, -6.6210750844068900e-01,
       7.0538750302174078e+00, -8.0255307120626107e-01,
       1.4107928659480198e+01, -9.8130676807244610e-01,
       1.2455069942928990e+01, -8.9983523970761170e-01,
       9.9725412997536136e+00, -9.1731157241484373e-01,
       1.4584009500825617e+01, -9.0824919421296957e-01,
       2.4808377695148845e+01, -1.2538244620210679e+00,
       2.0789430364162587e+01, -1.2591154104875029e+00,
       1.6062165036112198e+01, -1.0898899911065636e+00,
       1.3110996511801497e+01, -1.0466173461899364e+00,
       1.0237335314121151e+02, -1.3030570341530276e-01,
       5.9476478447712381e+01, -2.2259460206618578e-01,
       3.5474341141255934e+01, -3.3621376636034644e-01,
       1.3006597694785585e+01, -3.5675692574232737e-01,
       2.5823402369101132e+01, -4.0746813162477913e-01,
       3.1191075253676757e+01, -6.3862796516081521e-01,
       1.6233902380587686e+01, -7.8387697421340519e-01,
       8.4040835583308464e+00, -8.9321639800003294e-01,
       7.2640305119824564e+00, -1.1265586734994919e+00,
       7.4443161072849202e+00, -1.3093741826583767e+00,
       1.2023636598156296e+01, -4.9256880824424165e-01,
       5.1863502278861082e+00, -9.8641169718505484e-01,
       7.8741430085379589e+00, -1.2474457219191242e+00,
       8.5873923635823424e+00, -1.3574870051277099e+00,
       9.2897800822044658e+00, -1.1759608845934246e+00,
       1.0406039693169170e+01, -9.3400092826016101e-01,
       1.5809327339770469e+01, -8.8692969671035460e-01,
       1.5466200337626667e+01, -7.5073934287442201e-01,
       1.5500723190285434e+01, -7.4163200049735223e-01,
       6.3284355613164962e+00, -5.2847429726781725e-01,
       1.4351769441507058e+01, -3.6754758002499338e-01,
       7.9946441491802087e+00, -6.0858664680721120e-01,
       8.5793098111341628e+00, -6.8471337563271173e-01,
       8.8956781755182242e+00, -7.4006068196092745e-01,
       8.3370395751674895e+00, -8.6401101816997528e-01,
       7.5198525996428920e+00, -1.1827539740002799e+00,
       9.1497406013206053e+00, -1.3344872545975537e+00,
       7.0723311558881381e+00, -9.4469178378248531e-01,
       7.4495084307623891e+00, -8.8406315451921880e-01,
       6.7644283372274083e+00, -5.1574537235599172e-01,
       2.9245948306033561e+01, -1.9875134882344167e-01,
       2.2547918960197432e+01, -4.0820635916516740e-01,
       1.0861139919290272e+01, -4.2650480295420784e-01,
       2.0562596696770278e+01, -6.7361644416770150e-01,
       1.1765750890786807e+01, -9.4313622341476400e-01,
       5.2684660467207420e+00, -1.1402825058675479e+00,
       5.6705536051167638e+00, -1.4499521484569773e+00,
       7.3418392310338625e+00, -1.1447375887822073e+00,
       6.8040441197568349e+00, -8.6847094344155817e-01,
       7.5439252025286221e+00, -5.0709137981417496e-01 ]
   output_scale: [ 1.0526315789473684e+00, 0., 1.0526315789473684e+00,
       0., 1.0526315789473684e+00, 0., 1.0526315789473684e+00, 0.,
       1.0526315789473684e+00, 0., 1.0526315789473684e+00, 0.,
       1.0526315789473684e+00, 0., 1.0526315789473684e+00, 0.,
       1.0526315789473684e+00, 0., 1.0526315789473684e+00, 0.,
       1.0526315789473684e+00, 0., 1.0526315789473684e+00, 0.,
       1.0526315789473684e+00, 0., 1.0526315789473684e+00, 0.,
       1.0526315789473684e+00, 0., 1.0526315789473684e+00, 0.,
       1.0526315789473684e+00, 0. ]
   inv_output_scale: [ 9.4999999999999996e-01, 0.,
       9.4999999999999996e-01, 0., 9.4999999999999996e-01, 0.,
       9.4999999999999996e-01, 0., 9.4999999999999996e-01, 0.,
       9.4999999999999996e-01, 0., 9.4999999999999996e-01, 0.,
       9.4999999999999996e-01, 0., 9.4999999999999996e-01, 0.,
       9.4999999999999996e-01, 0., 9.4999999999999996e-01, 0.,
       9.4999999999999996e-01, 0., 9.4999999999999996e-01, 0.,
       9.4999999999999996e-01, 0., 9.4999999999999996e-01, 0.,
       9.4999999999999996e-01, 0., 9.4999999999999996e-01, 0. ]
   weights:
      - [ 1.4961084459447311e+00, 1.3996739581540005e-01,
          9.6688433182963385e-02, -1.8354631197300997e-01,
          -2.6787399005521195e-02, -1.8313541832412397e-01,
          -2.2702683262054638e-01, 3.8023101842979551e-01,
          -1.7959324349229802e-01, -1.3453879058016753e-02,
          3.9505087376516618e-02, 1.8701898240061562e-01,
          7.4341483623551500e-03, 1.5319033765579551e-01,
          -8.0423496800217736e-02, 7.8099096919359193e-02,
          1.2478690356569734e-01, 1.5926546554918264e-01,
          1.1563855909094570e-01, -7.1879304484994078e-02,
          -3.6393461657994081e-01, -8.2773761336409027e-02,
          -6.1721749043293868e-02, -5.0666670668267591e-02,
          2.2925074365232551e-01, -1.3919229678741804e-01,
          -3.0634460017293574e-01, -1.7395113397938569e-01,
          -3.5512139879261807e-02, -1.0330994165536800e-01,
          5.6986869105624904e-01, 6.5636505493013059e-02,
          -3.8540156966153322e-01, 3.7830388631242842e-02,
          9.4295982693606256e-02, -9.7745665313649921e-02,
          -2.0441761919146936e-01, 2.4645187715620406e-01,
          -2.9929447419355532e-01, -1.6840794823646368e-01,
          1.1231095079414380e-01, 6.4883101165278595e-02,
          -1.5590220144933004e-01, -1.0696190209083803e-01,
          -1.3747804513821644e-02, 1.2333889236259146e-01,
          -1.3147358689138083e-02, 7.9185648002520398e-02,
          -2.4391000996754431e-01, -1.5350146491908337e-01,
          -1.4960689880719252e-01, 9.9690259672954182e-02,
          -2.3648482571739671e-02, 1.4960470875712056e-01,
          -2.5589545226799685e-02, -4.4876257967991613e-02,
          -1.2781229889675733e-01, 9.5521297016373824e-02,
          -3.6999099120378867e-02, 1.0068174022252570e-02,
          1.9532087847305136e-02, 8.3311013578426241e-03,
          1.7607469948957577e-01, -1.2043810392704390e-01,
          -4.5088251455754826e-02, 7.4137593237863356e-02,
          -9.8153470104254847e-02, -3.1273804832543467e-02,
          -2.5922790868074580e-01, 1.2521287012394205e-01,
          6.5005196635197979e-02, 3.6121043232142658e-01,
          1.4311099810787212e-01, -2.5624560906018823e-01,
          -8.6015359463418817e-02, -2.7807479127505019e-01,
          5.4754631366083106e-01, 2.1662046476715524e-01,
          2.2520538254931741e-01, 6.2230015697774765e-01,
          -1.4995422970023853e-01, -9.2731366036094262e-02,
          -3.2493260178285233e-01, 2.5516982417270956e-01,
          1.9710811092475491e-01, 1.9003173208830565e-01,
          -1.7532601274744042e-01, 2.5351638498942675e-01,
          -1.1005115202735933e-02, 1.1770570802528782e-01,
          -2.4977801626972326e-01, -5.6527799073368065e-02,
          7.2002703045988312e-02, -8.6051052873030651e-02,
          1.1991777720739180e-01, 8.6093244511435366e-02,
          -5.4873546260475844e-02, 2.8415317369584503e-01,
          1.2683789390599259e-01, -8.4743498467974313e-02,
          -6.5927244070736593e-02, -2.3172426550989243e-02,
          7.4524055752645701e-02, -2.9466286864641110e-02,
          4.0237593838199075e-02, -3.4696630050588546e-02,
          6.8427638033264668e-02, -1.8743846999998526e-01,
          -5.2318717533827908e-01, 1.2317759636426720e-01,
          1.2557460680876301e-01, -2.1666233794106635e-01,
          7.7493533778156112e-02, 2.8428035979867389e-01,
          -2.1994712094983984e-01, 1.8151924233661801e-01,
          -8.5102938628918698e-02, -3.2013285315403917e-01,
          -7.4483500599264035e-02, -5.9968764527129299e-02,
          1.4174036489368322e-01, -1.6851909134887336e-01,
          -2.9525288781624182e-01, 1.5852789028728873e-01,
          5.2103250065808814e-02, 2.0490677221546105e-01,
          -2.2149502352326302e-02, 7.4102184146955533e-02,
          7.0578344708842722e-02, -3.9345278966241132e-01,
          1.8431927857937602e-01, 7.2678278111583932e-03,
          7.8263204047919394e-02, -5.3806719201288808e-02,
          1.5121366705835482e-01, 2.6950622510766770e-01,
          9.0931429981350606e-02, 1.1565671323175915e-01,
          1.3015295595535312e-01, 9.2849767512224887e-02,
          -3.2063366377795377e-01, 4.7840804620829333e-02,
          2.9137622515907186e-01, -2.6916010412900593e-01,
          -1.4855836678063122e-01, -2.9411530445819761e-01,
          2.4598966268407496e-01, 2.5666393297308321e-01,
          1.6742562390166943e-01, -4.3588607624877991e-02,
          -5.9237908265227471e-02, -3.9520462031181924e-01,
          9.4360583549533361e-02, -8.4970204885111075e-02,
          -2.4219480834098146e-02, -2.8704164142544203e-01,
          1.7000399140485198e-01, 2.0353300679916864e-01,
          -7.6418284014100724e-02, 3.6912023644957589e-02,
          5.5846799904367084e-01, 4.0131805824342126e-01,
          1.1478862188333824e-02, -2.2763971601306349e-02,
          4.8597140511295711e-01, -9.9898084938982418e-02,
          1.2723116106972393e-01, 2.3396147534582232e-01,
          -1.0262179507426457e-01, -3.7070061302403902e-02,
          4.6886914801592122e-01, -3.5651416857137086e-01,
          3.3911026771062093e-02, 2.8949369376291473e-01,
          2.7934967415970635e-01, 2.1197967756631939e-01,
          -1.0284178857229982e-01, -2.1145821983371824e-01,
          1.8143179034537629e-02, 2.0415529090026704e-01,
          8.1149209289898350e-01, 2.6088419641574826e-02,
          9.3593201445811250e-02, -2.3070277623806185e-01,
          -1.0592089105597602e-01, -1.5358087888219779e-01,
          1.4072580671150292e-01, -1.1927810459727221e-01,
          7.8771787501344365e-02, 3.0141938599865328e-02,
          2.4689029305694887e-02, 1.2874828071933520e-01,
          -2.9002721611606636e-02, -5.4243739986958051e-01,
          -3.4161220352844068e-01, 6.4560311718553001e-03,
          -7.0280576316445009e-01, -3.1180037412392264e-01,
          6.0912085265042125e-02, -1.2447673306869228e-01,
          3.4289063958117871e-02, -4.1253840503016076e-01,
          -2.0112406264357813e-01, 8.0111425013677817e-01,
          -1.0375144017164162e-02, -2.3053586679116903e-01,
          2.0226170507684429e-01, 2.0038539467956659e-01,
          -1.8954546140303636e-02, -5.0665246973274410e-02,
          3.7191961002951315e-02, 3.4046387092804185e-02,
          -5.4559706165473613e-02, -1.7017654840631040e-04,
          4.1659597841619982e-02, -3.3591163171809840e-01,
          -4.7847195384822265e-03, -1.1913009885086064e-01,
          1.4481756720409408e-01, 2.6652291771460179e-01,
          -2.0523136147274809e-01, 6.7650738192784540e-02,
          -1.9514105759053960e-01, -5.5914557261685149e-02,
          -2.3140834425402837e-01, 8.4756897973057965e-02,
          1.4384460789908488e-01, -6.2693300888883940e-01,
          1.3818658196059505e-01, -2.1881248036966081e-01,
          -2.0057894459397790e-01, -5.1573271712042151e-02,
          2.2364246953794270e-01, -8.9296262762686018e-01,
          -4.5794112184181290e-01, -2.7831084677777074e-01,
          -1.5036693729154335e-01, 4.1554452403339728e-02,
          1.9468566664073560e-02, -1.9906631806174419e-01,
          2.1967478410525237e-02, 8.7451135245854530e-02,
          5.3659526922234758e-03, 1.0194115979682927e-01,
          -7.9946499688511571e-02, -3.4533911124428079e-02,
          -5.0403360121409120e-02, -2.0671516099914103e-01,
          1.5598564196544318e-01, 1.9936132918077121e-01,
          -3.8102856887802139e-01, -6.6693559037748440e-01,
          -5.3004679682397338e-01, -3.4171401944971191e-01,
          7.1996561365072848e-02, -6.2178202632606080e-02,
          -1.1414541938497295e-01, 6.7039396123103223e-01,
          -2.0476468454015734e-01, -2.3540028727325354e-01,
          4.0078052718986179e-02, -5.4620901820902068e-02,
          -4.0093324991897902e-03, -1.4859916815982543e-01,
          -1.7170443791808276e-01, -5.3279984116948252e-02,
          -4.5374861585409282e-01, -1.0689358100262331e-01,
          -1.1023176384692317e-01, 3.3553783160969336e-01,
          -3.8604469511390604e-01, 2.2745932097942737e-01,
          1.0934110456959968e-01, 3.9743409486242248e-02,
          -2.5889021937920603e-01, -5.1679710556915703e-01,
          1.9329905531910527e-02, -1.2687474945749883e-01,
          9.9011290094903925e-01, -1.0063465117278041e-01,
          -2.3412998092178802e-01, -1.0296810786491911e-01,
          4.3154065244671726e-02, -2.0317191017317771e-01,
          1.3318643206823930e-01, -2.8118646281567922e-01,
          -1.0019894452537634e-01, 3.4645781545934867e-02,
          3.3207777289619600e-02, 1.0034507522655280e-01,
          -1.4478853179012632e-01, 5.0566911294547434e-01,
          2.4047126497518584e-01, -3.0830248724176634e-01,
          -3.3182572681258299e-01, 3.8850439919916174e-01,
          5.8143008652799943e-01, -2.0592389336698780e-01,
          -1.0180712514933127e-01, -2.7676700402381021e-01,
          8.0753439371298155e-02, -2.7591913794468886e-01,
          1.4316303347611889e-01, 3.6883600538300632e-01,
          -1.0251884914729879e-01, 4.9229558394246187e-01,
          -1.0329377830467780e-02, 7.4794594527887934e-02,
          4.9927752062802749e-01, -3.3305833067033769e-01,
          -2.0607890632517895e-01, -1.7108123932205568e-01,
          -3.5621661748268990e-01, -9.2674253712955623e-02,
          -2.7772743753670731e-01, 2.9542859549232259e-01,
          7.4691257907878783e-02, -1.0193990521430071e-01,
          -1.3055344888398200e-02, 1.1321756746837720e-01,
          -3.6728171495331619e-01, 1.1375292203132286e-02,
          2.2744092288706264e-02, 5.3355040517383497e-02,
          -8.6176554867504279e-02, 1.5968908205376750e-01,
          -4.2889129003564896e-01, 3.5824655018875246e-02,
          -5.1785517629437047e-02, -3.6926892705318742e-01,
          7.1377100404116323e-02, 1.4564474498353566e-01,
          -1.4755293826302436e-03, -3.1283742478996579e-01,
          1.1291910084720386e-01, -1.8351730579974024e-02,
          5.8549418830326139e-01, -2.4642107972234956e-02,
          -6.6469864471967954e-02, 2.5289629576268843e-02,
          1.8696536488521101e-01, 2.1125353297575422e-01,
          -3.1490300244354924e-02, -1.3980209423739981e-01,
          2.7950720227422904e-01, 6.0974555113669218e-03,
          -1.8583303794736711e-01, 1.7867944060331356e-01,
          1.4029017247375214e-01, 8.8921054564071789e-02,
          -6.2102144362112310e-02, 1.7802351644327377e-01,
          2.7948310650530828e-01, 1.1608736686811733e-01,
          1.0354991275592636e-02, -6.8950137406238565e-02,
          2.2179070256597799e-01, 2.9323904230030223e-01,
          -1.0551374371845677e-01, -6.7263756713618894e-02,
          7.7855098447381088e-01, 1.7597335183057675e-01,
          -2.2664697058704686e-01, -2.2011615128423231e-01,
          -4.2541176349653632e-02, 1.4600388855434815e-01,
          -1.5643135599295832e-01, 9.2069669510019103e-01,
          6.3748734408191166e-01, 5.8393673617541653e-01,
          3.7864711658776712e-01, 4.7636596424982636e-01,
          -1.4880241396257574e-01, 8.1966860211921566e-02,
          -3.3734897933516561e-01, 9.2089653787283357e-02,
          1.3770502457579412e-01, -5.5713563214787232e-01,
          -1.4023731886007534e-01, -2.7842474235854925e-01,
          6.4131937201320477e-01, 1.9057281662922784e-01,
          -1.8262228747578751e-01, -7.2241504735171450e-02,
          -8.7865509812395728e-02, -8.3272384327846935e-02,
          1.7723753017122007e-01, 2.6342523003609547e-01,
          6.9098544753777924e-01, 3.6596378997548634e-01,
          1.0532713829446448e-01, -5.1370978901017383e-01,
          4.0088968538202563e-01, 4.4008963904967263e-01,
          -4.5477259808753192e-03, -1.9902643297372630e-01,
          9.1610338308713110e-02, 1.0003125513625639e-01,
          -8.3480566355947819e-02, -2.0303132226877568e-01,
          -8.0672943370365888e-02, 1.3567555634588715e-01,
          -1.1139009283282783e-01, 1.1028923847533936e-01,
          3.3129076292632875e-01, -2.9686862619802915e-02,
          -4.8319657829164628e-02, 1.9762845747968888e-01,
          4.2931005807588102e-02, -2.4831579315138919e-01,
          1.4311646284305637e-01, 7.8327713787634170e-03,
          -1.0208969974993241e-01, -9.9096353645938870e-02,
          1.0937200134195904e+00, 4.9468859758872025e-02,
          4.7098558031930672e-02, 1.5760004917479448e-01,
          -2.7156470445803627e-01, -7.7391863810514216e-02,
          1.1605377750640153e+00, 3.4273714511489367e-01,
          -3.2045409856172702e-01, 3.9609126839510504e-02,
          -1.7661198323389033e-03, -1.2617027169829789e-01,
          -1.9215125555928314e-01, -1.0400956465018839e-01,
          -8.6672440744569368e-02, -1.8434140297611198e-01,
          8.4726935934996667e-02, 5.5117126182705400e-01,
          3.2048259298973474e-02, 3.6434856869117727e-01,
          -8.2138787411425829e-02, -2.2597880037804527e-01,
          -6.1330823930618861e-01, 5.9606084537845952e-02,
          2.0598499039782153e-01, -2.5346985144897194e-01,
          6.4965555679348044e-02, -3.9652311214049862e-01,
          1.6071134063235318e-01, -2.3923401900059157e-01,
          1.4000476964403147e-01, -5.2308798287821157e-01,
          -3.6914055250854769e-02, 1.6560408240318174e-02,
          -1.1190423342885894e-01, 3.1928622601000539e-01,
          1.1331019528670785e+00, 2.5647145213819356e-01,
          1.1741647481327158e-01, 3.0383719340211934e-01,
          1.6873338059495205e-01, -2.1223594797967787e-01,
          7.9624400065127290e-02, -5.2907284848546413e-02,
          -5.5632918048097038e-03, -1.2500314943150338e-03,
          -2.0870265749279138e-02, 1.1623828715836322e-01,
          -4.6687747328499807e-01, -9.4713357383232041e-02,
          -2.9451475988470706e-02, 2.7947710195647052e-01,
          -2.3106027789394776e-01, 3.4845462618429340e-01,
          -2.5133089179926738e-02, 1.9181875841049559e-01,
          4.9189491657958377e-02, -1.2405834606895356e-02,
          -3.7877835002033261e-01, 1.2160045618054074e-01,
          2.5938583785558367e-01, 1.0434706787019295e-01,
          -6.1574982805954186e-02, 5.7511746644800556e-02,
          1.0738693549195151e-01, 6.2586279622165231e-02,
          2.3049053487247381e-02, 4.8835646282231382e-01,
          -1.5012151373701309e-02, -6.7363373065301976e-02,
          9.8445000838696756e-02, 3.3473122947724149e-01,
          -4.0819529103634888e-01, -1.3978919432784712e-01,
          -1.1973155587444723e-01, 2.8598768645115957e-01,
          -2.3099360114933284e-02, -3.4615530256005073e-01,
          1.0284149038582119e-01, 1.4286399216019952e-02,
          2.6611759575240812e-01, 3.1900283494970372e-01,
          3.9906331708013787e-01, 2.1362316694878125e-01,
          6.6653245085450730e-01, -3.0533067640912563e-02,
          -1.3648491572491442e-01, -5.6793758981154263e-01,
          1.5063443946115185e-01, 5.9804489102765174e-02,
          3.1321419854578404e-02, 6.5476600143375044e-02,
          -3.5891447338863486e-02, 1.6492291312676097e-01,
          -3.7792013945307490e-01, 1.9119682630535245e-01,
          8.1387163210095689e-02, -1.3043028894585509e-01,
          -5.0255104861992514e-02, 2.5492248638579446e-01,
          2.2565025410178768e-01, 7.3529018192420148e-01,
          -9.9635869818397380e-02, 2.6280281154778157e-01,
          -2.4607902357470271e-01, 7.1326268111824673e-02,
          -8.8079361741015078e-02, -2.6701866046374063e-03,
          5.2789441638772816e-01, -7.3144146122034265e-02,
          2.3148566033718401e-01, 3.1752410850987794e-01,
          1.8064725538229157e-01, -1.1799929518561272e-01,
          -8.7740396000069687e-01, -2.9655278910374838e-02,
          5.0897480516218736e-02, -3.4951723645383997e-01,
          7.6612675095058522e-02, -4.1839340270130426e-01,
          4.4548014590531770e-01, 4.3417905489647746e-01,
          -2.2260300430729556e-02, -7.0828704514572016e-02,
          2.3152349816726669e-01, 3.7494561804828172e-02,
          2.6830809709780085e-01, -2.2241821854077218e-01,
          -6.9543155498769119e-02, -1.7924152820176545e-01,
          3.9906112007836697e-02, 5.9968268651101020e-01,
          -3.1046248017517236e-02, 1.9069646576239635e-01,
          1.0531697382544237e-02, -2.1766733632842097e-01,
          -5.8933535179822492e-02, -2.8661531630760473e-01,
          -4.2985479928927195e-01, 1.8048831688144118e-01,
          -7.6909123418953063e-01, -1.6786720147800124e-02,
          2.3186397384878094e-01, -1.8548656320407231e-01,
          8.9584839195260690e-01, 4.0166361570012959e-01,
          -8.6209699739092294e-01, -6.6190617469241472e-02,
          -1.4846126230335002e-01, 1.2440590607216342e-01,
          -6.9139691425086719e-02, 7.6777777583509517e-03,
          1.5141217327401413e-01, -1.2625338211129253e-01,
          -2.1900596440548392e-01, -2.4731817079483898e-01,
          8.5244957329450449e-02, 3.3060354366982020e-01,
          -4.6883247100614805e-01, 2.9787309716941041e-01,
          -9.9194890742735783e-02, 4.7511915925183133e-02,
          -3.8748804386775215e-01, 1.1485001392428126e-01,
          2.3251403100645829e-02, 2.4994730006435054e-01,
          3.6933064102005375e-01, 2.5267848078735215e-02,
          -1.3833012682724533e-01, -5.8944681710376534e-02,
          -3.5714320244594050e-01, -2.7932831049253459e-01,
          -1.8061078717680526e-01, 8.3527672623898916e-02,
          5.1725963216720489e-02, 2.8995420301759978e-01,
          5.8010676572729925e-01, 2.4746077603216363e-01,
          9.4437411583092781e-02, 1.1346935972768980e-01,
          -1.0649505186187496e-02, -1.8868932252867007e-01,
          -2.9233807999087630e-01, -4.3514008315204467e-02,
          1.6485741570239612e-01, 6.7352932838322430e-02,
          1.0462641699105286e-01, 2.8072929679812092e-01,
          -4.6922457402181587e-02, -3.8465907836002572e-01,
          -1.4108156310853175e-02, 1.4011025823898554e-01,
          1.7615146652173530e-01, 1.6534620268889308e-01,
          1.4781101433606286e-01, -3.3323185639443581e-01,
          1.9421009520348043e-01, 1.1388048552740726e-01,
          -1.3714984358349436e-01, 1.3574763989433578e-01,
          2.9233068441569526e-01, 1.4666553269008631e-01,
          -1.5061076149690175e-02, 2.8073409555700285e-01,
          1.9507566283433342e-01, 3.0278036540257175e-01,
          4.5551228827372649e-02, 4.1546328574106617e-01,
          3.1911521367117207e-01, -3.5561382483226328e-01,
          3.6651130490037993e-02, -5.2324662840480665e-02,
          -2.4914773221139533e-01, -2.5922881395047920e-01,
          -2.7860121856497061e-01, -1.0749009691653919e-01,
          -9.7988272561633227e-02, -1.4462279962981506e-01,
          -3.1429405523210385e-02, -1.4091092296992100e-01,
          4.2507294668255612e-02, 2.9857612351829138e-01,
          -1.8245533855045346e-01, 2.4829099711583821e-01,
          3.4342696236728093e-01, -1.9201304009410555e-01,
          -5.7941205176827562e-02, -1.1969710282177362e-01,
          3.2435393480263675e-01, 6.2355318772686109e-02,
          -1.1564380604229346e-01, 2.9110544353437913e-02,
          9.4757004599260106e-03, 8.0281459954069032e-02,
          -4.3830705239205286e-01, 6.2156566240735539e-02,
          -3.4816483683397170e-01, -1.6991531907652146e-01,
          -1.3968108858158690e-01, 2.1781124988520068e-01,
          1.5934394216374537e-01, 1.5426710432371338e-01,
          1.2295841251710859e-02, 8.1410965640476632e-02,
          -4.3688886066936737e-02, 1.0473320093432370e-01,
          -2.5559957617812795e-01, -5.5624906315460143e-01,
          2.7666724819716088e-01, 1.9376661125039490e-01,
          9.9566149217131514e-02, 5.6163079729400593e-02,
          -3.5207308189032543e-01, 2.1896317446598440e-01,
          -8.0387168193444503e-01, -2.1164835373759471e-02,
          -4.7710794783963811e-02, -2.1583784564707997e-01,
          3.4215222282810195e-02, 4.1445642940489844e-02,
          -8.1450549057876173e-02, 2.2367734021512758e-01,
          -1.4828947110261126e-01, 1.8123933512030138e-01,
          1.9877726246763042e-02, 5.0125736262315823e-01,
          -1.6266814696629526e-02, 2.1802005081452461e-01,
          -1.0850838140299564e-01, 3.0579244535505107e-02,
          -2.6313316857280233e-01, 4.2868175924399105e-01,
          -4.0732533666689419e-01, 2.9388048311581198e-02,
          8.3040784779846805e-02, -2.8372547467775472e-01,
          -5.7145973691003243e-02, 8.7030297006279705e-02,
          -1.1859249138237525e-01, 1.5458909746473187e-01,
          -5.5943070871696998e-01, -4.8849368236382318e-01,
          -1.0860439172902463e-01, 1.3111429540959016e-01,
          3.2652496563916755e-01, 3.7815284004506866e-01,
          4.1685551248364500e-01, -6.5449859472681948e-02,
          3.3241599275014566e-01, -8.0039449387371217e-02,
          -5.9307297290169640e-02, 1.9644003067445853e-01,
          3.5412236792281887e-01, -1.3404058534832911e-01,
          -1.3896398470927532e-02, 1.6971379685038740e-01,
          -9.7050364103486872e-02, 3.1302013164472432e-02,
          -4.4503257921016309e-02, -2.9014547311574607e-01,
          4.5757947500767293e-01, 1.4111204831484161e-01,
          -1.1969176552623335e-01, 2.6293699965014078e-01,
          1.2274736822803943e-02, 6.7613295964124367e-02,
          -3.6038883519227100e-01, 2.3029892157679502e-01,
          -3.1753189883049854e-01, -1.5858612738178790e-01,
          4.1311621088517986e-01, 2.6174579053690578e-01,
          2.6103030747630979e-01, 8.2416267695131842e-02,
          -1.9322488533121340e-01, -2.4708076820179850e-01,
          -5.2564419946555929e-01, -1.1025103298278474e-01,
          -5.6969935369742646e-02, 5.5239764975966756e-02,
          1.3895776481209815e-01, 7.7000376522054700e-02,
          1.4988857367660247e-01, 4.9252057836813273e-02,
          3.4997299355055922e-01, -7.8817950367911810e-02,
          -2.1725901281672683e-01, -4.3952464522851085e-02,
          -4.7022539114338881e-02, -3.2016753297355016e-01,
          -7.4176871418663179e-02, -4.5002592538456822e-02,
          -2.3598758039415427e-01, -8.0963878129815980e-02,
          3.7429463256461554e-01, 4.5319236051482292e-01,
          2.1545988072445743e-01, 6.1139012052548257e-02,
          5.0137883664408123e-01, 4.2513769074554164e-01,
          -6.2979981433585158e-02, 2.4691786114947954e-02,
          -1.2195218591345758e-01, -1.8264208344574351e-01,
          -5.5722297740258005e-02, -4.0608965822363258e-01,
          1.6576117757171310e-01, -1.1248002620799628e-01,
          -1.0586679541796233e-01, 1.9562238978532606e-01,
          -1.3697811501625892e-01, 6.1663373944819237e-02,
          -4.2684119058993435e-02, 1.1033884468943503e-02,
          -2.8668165358918696e-01, 3.0533555203012008e-01,
          2.4288196803852952e-01, -2.7496351969034671e-01,
          -5.7683426565228162e-03, -1.7393371203073386e-02,
          1.2500839941310005e-01, -1.1852880577576817e-01,
          1.0262823392808329e-01, 1.8786129023139916e-01,
          -2.9470029978893142e-01, -1.3663326987877850e-01,
          -6.8273215499504625e-01, -1.6760043457107610e-01,
          6.7538446913165420e-02, 1.2824183710614975e-01,
          5.4380410105659382e-01, -1.1071014762311345e-02,
          5.4544126160863821e-02, -5.6042169582767176e-01,
          2.2595585971708770e-01, 8.2503351916164369e-02,
          -1.0350688784014392e-01, 3.6942503145848948e-01,
          -2.4702636275615950e-01, -2.1433141156553523e-01,
          -1.4392632554042953e-01, -2.8817919480589604e-01,
          -3.6357494651409039e-01, -2.5562353991787308e-02,
          8.1462150940376413e-02, 4.4021598659350814e-01,
          -2.5910228006654115e-02, 1.5026840837161343e-02,
          -1.4678108472980458e-01, -3.5810486845127090e-03,
          -2.5008903160083423e-01, 9.1168491975087709e-02,
          -9.2878592748163583e-02, -5.2489815914693351e-02,
          5.4889413328115290e-02, -7.0880719901991174e-01,
          -3.4183077921771485e-02, 1.2118117574238285e+00,
          2.7921316817812136e-01, 2.0008649355144309e-01,
          1.1482448447511291e-02, -3.0856601848894821e-01,
          -3.6629956502663497e-01, -5.5430740704848369e-01,
          -7.3111509159635615e-02, -4.1363810936120987e-02,
          3.3127622231906162e-01, -1.3338339775469268e-01,
          7.1665526104010918e-02, 5.4093518143764494e-02,
          3.7236039357911127e-01, -1.0462121415681126e-01,
          1.7289734358531381e-01, -4.0551871063327266e-01,
          2.5172154730015334e-01, 2.1455425690070651e-01,
          7.5734227709363708e-02, 2.2275866005890316e-01,
          7.4903305838705858e-02, -1.7307508522890919e-01,
          1.9528703119288413e-01, 4.8642575186314813e-01,
          2.0533583090605097e-02, -8.4215633186342960e-03,
          4.5803842781467893e-03, -1.8601950531164296e-01,
          -2.3114089709038929e-01, 8.3080685511401700e-02,
          4.4751180753974079e-01, 5.7630857948883965e-02,
          -4.4590766588159375e-01, -2.5245087745293993e-01,
          -5.2458799273340695e-01, -9.1352059017290307e-02,
          2.6687574233860315e-02, -9.0694553566281352e-02,
          1.3969650954774768e-01, -3.3250282460742892e-01,
          -2.7484289215382492e-02, -2.5084281900902280e-02,
          1.7831144551303818e-01, 1.1624571118006621e-01,
          1.4797485426724733e-02, -3.6496896598614731e-01,
          -2.8118373005575400e-02, -9.3832917800568780e-02,
          -6.3381704927017934e-01, -5.6963911235609332e-01,
          -1.7153742833247613e-02, 3.4042062673608112e-02,
          -1.7819968580780463e-01, 3.3151470705980318e-01,
          -1.2560490339406602e-01, -1.6024478748014501e-01,
          -7.0649891312136462e-02, -1.5734509486367479e-01,
          -3.1448483072488453e-01, 1.5387499699783255e-01,
          3.5896432661805949e-01, -1.8640398754869846e-02,
          -1.6514266010369427e-01, -5.4513141272424251e-02,
          1.1920787904682749e-01, 1.0478456318093970e-01,
          -8.2830109226494086e-02, -2.9249105613246239e-02,
          -1.6795070253145253e-01, -4.7577265300961424e-01,
          9.1395216718897679e-02, 6.4678388048414470e-02,
          -1.7835292884210343e-02, 2.1801378707086812e-02,
          1.0999593266266217e-01, 5.7227527207588530e-03,
          -4.7734104142793982e-01, -3.0058063775317445e-02,
          -3.5180928615900192e-01, -4.2543273522449743e-02,
          1.1027822580117544e-01, 3.4931304389597745e-01,
          -2.8329696911628222e-01, 1.0213554399290752e-01,
          -9.1131924784288221e-02, -8.0469198974141079e-02,
          -1.9149266659062522e-01, -8.6090259058833676e-02,
          3.1101346721423984e-01, -1.0553506469317449e+00,
          -1.9169471996997606e-01, -9.0482581734011636e-01,
          9.1822136380400599e-03, -8.0675521069395878e-02,
          7.7230414167609035e-02, 1.6144699581200994e-01,
          3.5221150280123104e-01, 5.2735718222195561e-02,
          2.0599713679696255e-01, -3.0445318380788211e-01,
          -6.7428338875232441e-04, -1.4231076099967821e-01,
          -8.8147821448890055e-03, 6.5443285460850958e-02,
          1.2661144425825246e-01, -1.3470939641082544e-01,
          2.9445630023255665e-02, -2.6463399772737212e-01,
          -2.2284673480579634e-01, -1.0070790535809009e-01,
          9.8582733627214827e-02, -1.0219931047672662e-01,
          4.2316655784935114e-01, -2.0590129115122000e-01,
          -5.3374660957859490e-02, -1.3385755367589150e-01,
          1.2872419843398553e-01, 7.0314702983969954e-02,
          6.6605377328544435e-02, -2.1686775003253769e-01,
          1.1380632878253197e-01, 3.9338311889295607e-01,
          -1.5944726877771622e-02, -1.4821909295815713e-01,
          2.7959510751700883e-01, 4.2019928953079357e-02,
          2.7621387459096808e-01, 5.4039153934215205e-02,
          7.6467285342669250e-02, -1.3778521689774226e-01,
          -1.3773337081164069e-01, -7.0764048769061755e-02,
          -2.9386771603491474e-01, -1.8080341194229921e-01,
          -2.8320271829778573e-02, 1.0648900792329165e-01,
          2.3586416521490314e-01, -7.8165973390399296e-02,
          -1.7769077437291816e-01, 6.5982629904524814e-01,
          -2.2412649759852593e-01, -1.4343020724389999e-01,
          -2.5096178956841653e-01, -2.1077915789801055e-01,
          -6.8187638993196520e-02, -2.3988211137450938e-01,
          -3.8067934059373792e-01, -1.2960516437997416e-01,
          -6.6726875561049351e-02, 2.5121672143410179e-01,
          -1.5632517391855805e-01, -3.3092037246731182e-01,
          -4.7814753008089787e-02, -5.7785017000792138e-01,
          6.1491542749257566e-01, -5.8747418433686405e-01,
          1.3176772619975602e-01, 2.0750552082124329e-01,
          4.5749874729280487e-01, 2.9810011356006910e-01,
          -3.5607095005534876e-02, -7.8427958867158684e-02,
          -2.3962195023065083e-01, 9.9420850884898451e-02,
          -3.7512920632003843e-02, 8.6957435602620994e-02,
          -1.5327233329525539e-01, -1.9268294167161026e-01,
          -2.4212802375822667e-01, 7.2747465635663547e-02,
          -1.5352768173417306e-02, 1.8174897584352409e-01,
          1.9807253413167836e-01, -4.6997616752420555e-02,
          3.3721421598085272e-01, 1.8115019639977203e-01,
          -1.5028455035830690e-01, 4.9440657653937924e-02,
          -2.3636141405839028e-01, 2.3207052176071688e-01,
          -1.9727946641503913e-01, 3.0452445182289861e-01,
          -1.1071718505175746e-01, 4.3340730238929030e-02,
          -1.1706758614805009e-01, -8.6480178476200889e-02,
          -9.2240620793073227e-02, -2.1870043224718673e-02,
          4.0834269019586256e-01, -1.8660365475871146e-01,
          -9.7822555779408710e-02, -1.7652805799623701e-02,
          -8.2633483056884638e-01, 3.5840475718226225e-02,
          1.7028034198719480e-01, -2.6923007328679127e-01,
          5.9550455332522650e-02, 1.4825216471351454e-01,
          -4.0138154114833774e-01, -2.8252082815664107e-02,
          2.0392261213374741e-01, 1.0298541102863884e-01,
          -5.3797662317599228e-02, 1.7725362851401363e-01,
          -1.1424985918745596e-01, 7.3064544269296310e-03,
          -2.0603725745984344e-01, -7.1701160776881850e-02,
          -2.8607644877295746e-01, 1.6946669242901377e-02,
          -4.1254892402072883e-02, -4.5078455428952607e-01,
          2.7133453238353239e-01, -2.2747708599607566e-01,
          1.3705364671453235e-01, -5.3287736029948470e-03,
          1.1501624554850357e-01, -4.8673655810908395e-01,
          -7.7552859556084014e-02, 1.8764979141478604e-02,
          4.7906438466013314e-02, 3.8775946808739047e-02,
          6.6193622438049743e-02, 3.0496873940672536e-01,
          2.6031677252889635e-01, 8.8557468811710463e-02,
          7.8161545247910746e-02, -2.8166929200420791e-02,
          1.8074565062564212e-02, 6.2140371341399303e-01,
          -3.3066129987201182e-01, 4.8513927568899835e-02,
          1.4318315757097770e-02, 3.3747885630830567e-02,
          3.3635619223847540e-01, -1.0292583746090271e-01,
          2.9167388689113168e-02, 1.4746950144973422e-01,
          -2.1040743133223500e-01, 4.9087452525504373e-02,
          -1.9373958731374397e-01, -9.4607092396249842e-02,
          -8.8238675651843401e-02, -1.4620479558427896e-01,
          -1.9131316257810527e-01, 2.2285627732133769e-02,
          -4.4269089125848687e-01, 3.0767830369959143e-01,
          8.7159365104398911e-01, -8.3960673601122471e-02,
          -6.7410544889465171e-02, -4.1802416229419381e-02,
          -6.9086065638154515e-01, -1.2006263016594539e-01,
          -7.4063730986990095e-02, 4.0673613214769394e-01,
          -4.6249594196054500e-01, 7.3690729976647412e-02,
          -1.2230322860461378e-01, 2.1501884379253258e-01,
          3.4468488147730486e-01, 1.3357138364256385e-01,
          -2.2749341769815620e-02, -3.3665120513865880e-02,
          -1.7012824291465986e-01, 4.6168865144795701e-01,
          -1.5558904819745009e-01, 7.8401843977969256e-03,
          -7.5034989065463034e-02, 1.0413977373468913e-01,
          1.5695085445788221e-01, 2.2370505079321445e-01,
          8.1267025651327304e-02, 2.9239306797510745e-01,
          -3.9407898171174523e-02, 2.9706262214607332e-01,
          6.4303549146811829e-04, 7.3431867799987260e-03,
          1.1117972493470209e-01, -6.1554627170990461e-01,
          -2.8028600955184296e-01, -6.8994491609020492e-02,
          6.6097762332095453e-02, -1.5612496247681589e-02,
          -2.0863373365142263e-01, 6.5966677867999957e-01,
          -5.8045800426555008e-02, 1.7244235598455174e-01,
          -1.6049080907236510e-01, 2.4973757445997052e-01,
          1.5519528083263709e-01, -7.4787702581158785e-02,
          -2.0877719319706953e-01, 4.0732859130983873e-02,
          -5.3872070716358089e-01, 5.3216403395265566e-01,
          2.1007235473899821e-01, 1.3230496252759930e-01,
          -3.5773104642260017e-01, -3.1330526346725451e-02,
          1.1889082389362178e-01, 4.5479713874354594e-02,
          2.1971027232848811e-01, -5.0287634669611647e-01,
          -6.1243336165168319e-02, -1.3521045316654229e-01,
          2.3307143245561743e-01, -1.3004476998194514e-01,
          3.4128989080394151e-01, 1.9888896089508834e-01,
          -1.0138106186139317e-01, 8.4269375731395091e-02,
          1.4045922589324553e-01, -3.8690488736786176e-02,
          4.6917714656797629e-02, -1.6051660770888818e-01,
          2.2679941410366866e-01, 9.3091540119207269e-02,
          3.9837048850053704e-03, 2.9822199634813740e-01,
          -8.5330003465931656e-02, -8.0577351699324829e-03,
          -4.0560423369189136e-01, 4.8196126659209193e-01,
          -1.0636746544936901e-01, -1.3350864614311878e-01,
          -1.4062342086072491e-01, 1.4661609008656590e-01,
          -7.4244032583039132e-02, -2.4678159890992576e-01,
          2.2812577210873444e-02, -3.4923577785734006e-01,
          3.6708577169712951e-02, -9.6509158107727019e-02,
          8.3776051922471576e-02, -2.1929034110087947e-01,
          1.9671979051846505e-01, 3.0311732347955656e-01,
          5.8224615805627628e-02, 5.6410034945535405e-02,
          -5.1925079196458869e-02, 2.0030188183384623e-01,
          1.6145270923854321e-01, -1.9670608466810866e-01,
          -1.3129606504484137e-01, 1.9492507098781875e-01,
          -1.2415380877570278e-01, 1.1713580330348466e-01,
          -1.4724043275348234e-01, 5.5789244739330102e-01,
          1.2487680804198269e-01, 8.4998244868619621e-02,
          1.2229260888499995e-01, 1.6844334728297894e-01,
          -6.9193328396846360e-02, 1.1368810179909973e-01,
          -1.9895266959595689e-01, -3.8276433899956669e-01,
          -1.9836026202590319e-02, -2.9130121470944870e-01,
          -1.1765095780627391e-02, 1.4997069564509993e-01,
          -8.0583080844289320e-02, 2.1600957654707770e-01,
          1.7311070666379225e-01, 1.6299437939492165e-02,
          3.7889561332150386e-02, -2.0259019891634356e-01,
          -3.7295281916560352e-01, 4.4154356541011414e-01,
          -4.9596311322916642e-02, 1.0388536460675457e-01,
          7.8547818146174231e-02, 2.4088529462286443e-01,
          -6.1088035266642228e-02, -2.7408135151160529e-01,
          -1.8769100094897892e-01, -2.5876194109315531e-01,
          -7.5477209820381405e-02, -2.4032771844421086e-01,
          4.2543855961605026e-01, 1.5157309349982939e-01,
          1.5212893732052601e-01, 2.1925922893460514e-01,
          -5.6070748413151650e-01, -6.0214468660884979e-02,
          -2.1220063190729377e-01, 1.0879560767616638e-01,
          1.3015708451659061e-01, -2.7335420872817717e-01,
          1.6723538488313483e-01, 2.7454987628838391e-02,
          4.1418982933019745e-03, 3.1928399834382765e-01,
          1.7489939974384908e-01, -2.1654684031161686e-01,
          1.3515539723325651e-01, 4.7108413061697779e-01,
          -1.7362954970778645e-02, -2.9582847878901142e-01,
          -4.3504150071186120e-03, 1.1710239394395834e-01,
          -4.2196649815158848e-03, 2.0738173104598943e-02,
          -1.0285661591393627e-02, 3.0361984423688504e-01,
          -6.3927479765794645e-02, 7.9121603048704858e-02,
          -6.3853680447332529e-04, 4.8776141993462835e-02,
          2.5684363709603403e-01, -4.0114004404732936e-02,
          -1.2849999136251303e-01, -2.9632323463511950e-01,
          -1.1169350452664467e-01, 6.2571260679161050e-03,
          2.6759554480013764e-01, -5.4247208204420333e-02,
          -1.5749193006758069e-01, -7.7174362917178066e-02,
          2.3641672932348423e-01, 1.0652193027289983e-01,
          5.4784828131145880e-02, -5.0457908551281933e-02,
          -1.6139464223787306e-01, -3.5224021081338291e-01,
          1.3392136337836999e-01, -5.3215682774972912e-02,
          3.6255616108113220e-01, 2.1800360134486135e-01,
          3.3162963334232083e-02, -1.5817217410347803e-01,
          -1.7452728103644474e-01, 3.0492738396819552e-01,
          -5.3445171014695980e-02, -6.6043038242974736e-02,
          2.6345741770075298e-01, -5.9647368154622439e-02,
          1.4685849293366834e-01, -1.6509668583197096e-02,
          3.4869600011377583e-01, -4.9885860898348011e-02,
          -7.4135709393982285e-02, -1.0409831045219593e-01,
          -1.5139959979072581e-01, -1.8720355995895298e-02,
          -6.7871516922802355e-02, 3.8484633594519829e-01,
          -7.0600595434106694e-01, 5.0067857209908320e-02,
          -2.2697279363527109e-01, -1.7341901782293268e-01,
          1.5265955059183389e-01, 6.6019789444408297e-02,
          3.5585084432251968e-01, 1.1259997163586351e-01,
          2.1361645548896704e-01, 2.5864887157797917e-01,
          8.7240417081748761e-02, 2.2521108339727167e-01,
          4.4203676790008495e-01, 2.9754268096814612e-01,
          6.2593658849224076e-02, -2.4160408085984408e-01,
          -4.1603710903356911e-01, 1.5491896302745309e-01,
          -4.6281608894409826e-01, -3.0930048469319970e-02,
          8.9902341622947435e-01, 5.2228587623571432e-01,
          1.8010996532367368e-01, 3.8614273675341398e-02,
          2.2976199438339764e-01, -8.7360419834698033e-01,
          3.0302761877723815e-02, -9.8868699291210695e-03,
          1.8288493409441950e-01, 2.8021606939485755e-01,
          4.9884832664356527e-01, 1.0484311187654775e-01,
          1.5150556980158628e-01, 3.1530474947592380e-01,
          -1.2629234860970556e-01, 2.5920853354253742e-01,
          -7.5538757921907368e-02, 1.8683580776646908e-01,
          -1.5018467414149800e-01, -1.9198859533525506e-01,
          1.0028101503544615e+00, 2.0567626086272994e-01,
          1.4899095707331445e-01, 1.4658540581319230e-03,
          1.5433592546541644e-01, 6.7455331936943308e-02,
          3.0186310742715050e-01, -4.9669606979966821e-02,
          2.0575889796628741e-01, -2.2143314354201948e-01,
          1.1804648635064593e-01, 1.0533661839551207e-01,
          -8.6234709783013819e-01, -9.5508056469658820e-01,
          3.8211928456519345e-01, -7.4950390490804680e-02,
          -3.2851720323371986e-01, 4.9222971138451123e-02,
          2.7137159850343318e-02, -1.8473029981087286e-01,
          1.0379498050662857e-01, 2.8601464090657974e-01,
          -2.9702456911010194e-01, 1.4037983721548912e+00,
          1.5711640970384808e-01, -6.5524190259979492e-02,
          -3.2354733059582724e-01, -3.9275674502558711e-01,
          6.1944248276046901e-02, 1.1787183965533164e-01,
          3.3956646365007287e-01, 3.1290296396981387e-01,
          -1.6749350580033831e-01, 2.3974286021503963e-01,
          -2.2098581842318854e-01, 3.8957145241449158e-02,
          -1.0451682785750140e-01, -2.4808128268768342e-01,
          6.3479172495662195e-01, 1.0428035398816400e-01,
          8.4099523184004751e-02, 3.5752679462107562e-01,
          -1.5696652544974832e-01, -2.9755745895128926e-02,
          -6.5297693816768898e-01, -4.1371973822719645e-03,
          1.9477785028276812e-01, -4.0378149401799224e-01,
          7.5396355053438918e-02, -4.0096853279156430e-01,
          6.1244134283521358e-02, -1.0377765862327260e-01,
          -7.3155971580672260e-02, -2.4976899551280948e-01,
          -3.2956577523496366e-01, 7.6618038505545161e-02,
          -1.7110712911901979e-01, 2.2998512671299043e-02,
          -3.1862407375066287e-01, -4.9187517999177510e-01,
          -2.6890370360553983e-01, 2.8537819155933258e-01,
          -1.2636925820148351e-01, 2.7557923431615178e-01,
          5.7657099354408892e-01, 5.9856807878234242e-01,
          6.7733501965423257e-02, -2.9919312550635666e-02,
          -6.2633014439614457e-02, 3.3137881920566203e-01,
          -1.6432845375483446e-01, -1.1155194728260378e+00,
          -1.6607750010506805e-01, -3.1477729131023785e-01,
          2.1364475943797798e-01, 4.9164059638379765e-01,
          -5.4263582670411106e-03, 5.8209288076274091e-01,
          -1.1394296894898849e-01, 6.2293696757382611e-02,
          -2.3422214898863034e-01, 4.0463562431211703e-01,
          -4.9438385308586752e-01, -3.1535344481730655e-02,
          -9.6127221675616173e-02, 1.8065379720580146e-01,
          -3.3129583861422501e-01, 4.6547607770370275e-01,
          -2.1232833351008013e-01, -1.4899468566725227e-01,
          -3.9553876443865715e-01, -2.7572857571874720e-01,
          4.4407466004704195e-02, 3.3933390173002514e-01,
          1.5703348739403247e-01, -3.9727817534297954e-01,
          1.6517677456241897e-01, 6.3485533207161913e-03,
          5.7931553390856561e-01, 5.3076067316844178e-01,
          1.8172901296599236e-02, -2.4215187610868058e-01,
          -6.8206466673769461e-01, -1.7781216295585087e-01,
          1.3423011035460194e-01, 4.1564413848425608e-01,
          1.7931316123838834e-01, 1.1566918186200129e-01,
          1.6695153779405306e-01, 4.9452981187486462e-03,
          -1.8922580445452905e-01, 2.3669493357723637e-01,
          1.5775425318153960e-01, 2.7963275348393352e-01,
          -1.9373920101691619e-01, -2.5288074169307317e-01,
          -3.3835032401273703e-02, 4.0927358326698880e-03,
          2.3979024070759927e-02, -3.9007093120097003e-01,
          4.3360989949673273e-01, 3.3005403481303291e-02,
          1.3013365723328502e-01, -2.4236634255713187e-02,
          4.0954760779578597e-01, -4.1286192491445495e-01,
          -2.2997115459770307e-02, 4.7511171290497128e-01,
          -4.2769644975584740e-02, -2.4417508802056120e-02,
          7.4593140283960535e-01, 4.1788155589411324e-01,
          -2.4583712999562354e-02, -1.5584137472079330e-02,
          -1.9026289133160762e-01, -8.3764656365709858e-02,
          1.4410634671510272e-01, 2.6179135149856009e-01,
          -1.3528279567141643e-01, -1.0606865102530445e-01,
          2.8537844844830090e-01, 2.2975183717671996e-01,
          2.3348595212327428e-01, -3.1048822556692224e-01,
          1.1146002232368234e-01, 2.1362443924697530e-01,
          4.2105075435083336e-02, 5.3685263619296741e-01,
          1.7133757651219605e-01, 5.1008629400363548e-02,
          2.8573053757777422e-01, 1.1460089668621201e-01,
          -5.0788071754750153e-01, -4.3168256185164094e-01,
          2.7238401933407513e-01, 1.3299544773099975e-01,
          9.9882759179999170e-02, 3.6430054936846323e-01,
          6.3512427362971233e-02, 9.6502615814535245e-02,
          7.8532887534115789e-02, 2.1473106462152000e-01,
          -7.2201666209006099e-01, 4.0601540641887834e-01,
          1.4395742731114750e-01, 1.2272739937826710e-01,
          -4.2733624602661158e-01, -3.4720976350385258e-01,
          7.3070582289611705e-02, 7.5526784151381463e-02,
          1.5309020570937606e-01, -1.9268204441537834e-01,
          1.3224844959735742e-02, 5.9555624202825685e-01,
          -2.7258076267507991e-02, 6.5142724935298213e-01,
          3.0406043460095422e-01, 1.5390808309535438e-02,
          1.8191750079445318e-01, 5.3321333580787431e-02,
          5.9973520785280077e-01, -4.0183977334737407e-02,
          -1.9449950555920989e-01, -4.7914555365651823e-01,
          -6.6021710380483132e-03, 1.9015407740001788e-01,
          -1.1628015994642707e-01, 3.6224241394923966e-02,
          -3.0614391520609831e-02, 6.9318285460171630e-02,
          -2.4195158258181690e-01, 3.1282623369332896e-01,
          -1.5689400259806632e-01, 2.9278214371734741e-02,
          3.3963273708220859e-01, -2.9446446406054660e-01,
          -2.2323695759927156e-01, -2.6058433629458380e-02,
          -4.7125517429685751e-02, -1.3997432379087957e-01,
          1.0344107738882814e-01, -1.5643123603773676e-01,
          2.9953488442581944e-01, 2.2863211337007902e-01,
          2.0857777640266242e-01, 1.6706857448917306e-01,
          1.3499275387583892e-01, -5.9285307664342590e-01,
          -2.6729562939507567e-01, 2.4149484188831205e-01,
          3.1300869760630318e-01, -7.9257818267197599e-01,
          1.2731357669418672e-01, -1.1130987130606153e-01,
          2.7407384646337241e-01, 6.7141903767741129e-01,
          2.6849756302799139e-02, 7.2107372790810753e-01,
          -1.5937897088678882e-01, 2.4122396426876816e-01,
          -3.9372537031073179e-01, 1.1999730318274753e-01,
          1.3225931407163846e-01, 2.4857562124244001e-01,
          1.2980751828043210e-01, 2.3462558221375129e-01,
          -1.9724489464185115e-02, 4.6581151689799971e-01,
          -1.8037435721758116e-02, -3.3043568418187991e-01,
          -4.2771738280185567e-01, -1.5583009337006612e-01,
          3.7481472883760575e-01, 5.8601337871525438e-02,
          1.5768721177335579e-01, -3.7206364207831794e-01,
          1.3660772153159143e-01, -2.1020386397768515e-01,
          6.3553281779007417e-02, -4.7582674566202616e-03,
          5.0549263114328336e-01, -1.3169328074643205e-01,
          -1.0142392934230832e-01, -2.5078807611504395e-01,
          -6.5207505359447124e-02, 1.0470719002911881e-01,
          6.0097139414393586e-01, 1.3377805470874962e-01,
          -6.6314478661266109e-03, 3.1438697732116183e-01,
          -3.9027896512867123e-02, 5.9936621592757189e-01,
          4.0718420753644763e-01, 2.6807934375879222e-01,
          -6.5155958431920458e-02, 2.5628999037095035e-01,
          2.0674296105917495e-01, -2.9187016434520219e-01,
          8.0051016596052599e-03, -4.2612873323633638e-01,
          8.7883238250773466e-01, -2.8447164678591969e-01,
          9.6744511155524973e-02, 2.5426537542118466e-01,
          -2.3138765406483416e-01, -1.3619947523728537e-02,
          5.6763823969968263e-02, -1.7366323207224302e-01,
          1.6609652338953806e-01, 1.6513175861291265e-01,
          1.9584087638815764e-01, 8.0022654256640319e-02,
          -1.5529723722048572e-01, 1.7489470689062303e-01,
          -3.5303824237123455e-01, 9.9824734547856966e-02,
          -3.5646935098684807e-01, 4.0303557849748491e-02,
          -6.2058386601525121e-02, -2.6501041006753379e-01,
          1.8823744602185882e-01, -7.1718103842881145e-02,
          2.2041470382824030e-01, -2.7888640109932816e-01,
          -5.6865134289669647e-02, 6.1188897334113763e-02,
          2.0777324122355756e-03, -1.0859336784584210e-01,
          4.9579816199640458e-01, -1.7439049711692992e-01,
          8.2461413695170876e-02, 2.4364356868793571e-01,
          2.5030711922817889e-02, -2.5826307672765936e-01,
          2.6708153083330433e-01, 2.6096788750583788e-01,
          -2.9653894986178809e-02, 3.3545418255197740e-01,
          3.2491598978874359e-01, 1.7044296666716738e-01,
          -2.0951740091873619e-01, 6.5031365952935716e-01,
          -6.6141050365343705e-03, 5.0339208506640021e-01,
          1.1304482650027217e-01, 2.3606853307281034e-01,
          -5.6019326404973946e-01, -8.1527528625947782e-02,
          3.2353251940584721e-01, 8.7050384785765725e-02,
          -1.7986054155225584e-01, 1.9531363997825696e-01,
          -2.9915540462805984e-01, 9.3852810627618369e-02,
          -3.6945145746923869e-01, 3.9067274872207874e-01,
          -3.8705181512567766e-01, -1.2339163757513316e-01,
          5.5034173291552399e-02, 5.6385612818861930e-01,
          7.7779948608710670e-01, 2.0689093640809184e-01,
          -5.6210349587868236e-01, -9.4043629402774678e-02,
          -7.6764327683554334e-01, -8.7206684199546580e-02,
          -7.1756980395251979e-01, 5.3713952640712226e-01,
          -1.9074879313893270e-01, -4.5003424730147168e-01,
          -3.4957515577074683e-01, 1.5844517742920003e-01,
          -1.6685552251798424e-01, 1.5167532945553661e-01,
          -4.5021936848816085e-01, -2.3140754012972600e-01,
          -6.6059879402993543e-02, 1.2364608197891470e-01,
          -1.4274325515203937e-01, -2.6911207765659395e-01,
          1.4910773308712020e-02, 3.7261199179140742e-01,
          2.3869665988517150e-01, 1.3774282780129216e-01,
          3.2736051350961359e-01, 3.0004950825568871e-01,
          -7.5809395459870046e-02, 1.1435963761338545e-01,
          3.3637952290504403e-01, 3.1920477394248720e-01,
          -3.9286162959707521e-01, -1.3128591244330901e+00,
          -2.9392835504120592e-02, -1.5242859858261917e-01,
          3.4194997373623293e-01, 6.1144553987306571e-01,
          -4.1197775251975338e-01, 1.3351918423051473e-01,
          -3.1304284121590109e-01, 2.7973561889176801e-01,
          -2.8886687668075267e-01, -4.3957984661150321e-02,
          2.7705402564549259e-01, -2.8537188592582863e-01,
          -1.2367366805595982e-02, 2.1152020431922494e-01,
          -5.8088395600308573e-01, 4.7738112534971555e-01,
          -6.2557327847184985e-02, -1.9358079204711315e-01,
          -5.2495115587918584e-01, -2.0057452004671447e-01,
          1.0323522210983375e-01, -3.6960104071794686e-01,
          3.9101252620690347e-01, -8.5761240156980367e-01,
          1.7935358757907266e-01, -1.2734672431419711e-01,
          6.1803358006140630e-01, -2.2260387408579577e-01,
          4.4884442293393179e-01, -6.5288601277253347e-02,
          -3.5875577120759568e-02, -7.9503738691398693e-02,
          1.3565484651634924e-01, 8.2626113408498056e-02,
          7.7712294755513028e-02, 1.6686184453723722e-02,
          -2.8213613323845832e-01, 2.3277427231805115e-01,
          1.0430202127551448e-02, -2.6951975719882486e-02,
          1.7236346657894891e-01, 1.7028903836596984e-01,
          -1.0391279421509042e-01, -1.5648455275631401e-01,
          1.5844419165149659e-01, -5.2322125338941727e-01,
          1.6554428316326736e-01, 7.0422456949297940e-02,
          8.0186886231767653e-04, -4.9155135400277356e-01,
          -2.8327326865118524e-01, 1.3743289565513336e-01,
          -1.4699148778601270e-01, 4.2323224739818938e-01,
          3.2213776657949375e-02, 4.1096010729702331e-01,
          -2.8823857320428281e-01, -6.0284272185201149e-01,
          -6.0097180500626979e-01, -6.7831224706513968e-02,
          -3.3999040701888467e-01, -3.9843622827459402e-01,
          -1.3152942111539312e-01, -8.2357693953824388e-04,
          2.0367659306581107e-01, 3.9092068680795689e-01,
          1.7511648981081310e-01, -3.6648683753647361e-02,
          -5.1161339116478377e-01, -1.9075352531482753e-01,
          -2.2678275354554087e-01, 2.0421012495368165e-01,
          -1.4978516960701652e-01, -2.7140391028360161e-01,
          8.5417510492261206e-02, -1.5311860868080093e-01,
          3.5022296726171515e-01, 2.2600051823454836e-01,
          -2.1569418838071525e-01, 5.2823565371409274e-02,
          -1.7467108790915273e-01, -7.4314236174824533e-01,
          -1.9316874375562454e-01, 1.8683986991852616e-01,
          -2.1252844676140287e-01, 1.0431145102982334e-01,
          1.5051055068719149e-01, -1.7915337836635395e-01,
          -1.9349137728673552e-01, -5.1986637886771636e-01,
          -9.4120360459412813e-02, -3.4477726922665292e-01,
          4.3797724166561158e-01, -1.7378038192919772e-02,
          9.4075116800704128e-02, 1.7514034973324885e-01,
          2.1270626809560042e-01, 2.0353803185004235e-01,
          -5.1221587502119546e-02, 1.9330845568053778e-01,
          -6.2488165125088438e-02, -2.0540084243820694e-01,
          -1.7263596707786791e-01, 4.6831034306248887e-01,
          -4.4252090880308459e-01, 1.5065535644446090e-01,
          -2.5324038812557959e-01, 2.3287401156488130e-01,
          4.3796199490760540e-01, 9.7707861282227193e-02,
          -3.4158279952046672e-01, -4.2766104799352916e-01,
          2.2939100762008854e-01, -2.0307852579181562e-01,
          -9.1010055815717902e-02, 2.1629653493075918e-01,
          1.2071640850935159e-01, 6.2026033589573357e-02,
          4.8068687942633956e-02, 7.4871624715585772e-01,
          1.1554569734414749e-01, -1.4896754414325680e-01,
          -1.0263666309956361e-01, -2.4693245255196986e-01,
          1.3552897979843787e-01, 2.3850426948817377e-01,
          8.8350707583617044e-02, -6.8112112916256307e-01,
          3.2047085469102997e-03, 2.3684249665047793e-01,
          -1.2347266160316860e-01, -8.8203781302418384e-03,
          2.5271805834750521e-01, -4.3831626458276673e-01,
          5.3787929763684805e-01, -1.9767577093750155e-01,
          4.5663255133475072e-01, 1.9557675373098157e-01,
          -1.5345495621238504e-02, 3.7482945452305921e-01,
          5.0439585481568416e-01, 6.6952936726204434e-02,
          2.5594255946197142e-01, -1.6764393677980274e-01,
          1.9943293736547035e-01, 7.8049420443300577e-01,
          -2.6304440449825539e-01, -1.0102004542690937e-01,
          -1.1037818075451724e-02, 3.6891255137578328e-02,
          -1.6090656824096056e-01, -3.2865947233482096e-01,
          -1.1098216828362284e-01, -1.8614370310442005e-01,
          4.1890720614902760e-01, -3.1821935525982031e-01,
          -1.7156843896588342e-01, 1.6615004062392832e-01,
          2.9814678053367082e-02, -5.7892127063859759e-02,
          5.2799512524185543e-01, 3.8416741859648280e-02,
          -7.5352796460324403e-02, 1.6517491369293694e-01,
          5.4489338709341278e-02, 7.0673126527655335e-03,
          -3.6048001973393101e-01, -5.9809779213625169e-01,
          -4.1196852592223576e-01, 9.8343455112656522e-04,
          -1.7945187833607057e-01, 9.4137179401860366e-02,
          1.3564683971032696e-01, 2.8640855966018730e-01,
          5.7439914230080213e-01, -2.7069019342205308e-01,
          -1.3744997838228576e-01, 5.9291348526533560e-02,
          1.2997173133239476e-01, -1.3904885086588115e-01,
          -1.3010422140643785e-01, 2.0149722510673074e-01,
          6.1700620154234664e-02, -1.1802860494293890e-01,
          3.7070814906915406e-01, -2.3045710219007698e-01,
          1.3956386006680352e-01, 2.7895304045169439e-01,
          8.4835318523905523e-01, -4.1510081131959531e-01,
          -1.0058963490768079e-01, -1.4727510194402646e-01,
          -3.7511768068049428e-01, 2.9076731208157058e-01,
          -1.4152088186577183e-01, 4.8718042353064045e-01,
          7.6140793993448405e-02, -3.7667972807343414e-01,
          1.1953582058071599e-01, 4.6589393956122042e-02,
          1.6224866524194789e-01, -2.2041602644575295e-01,
          -3.1612382290070087e-02, -1.1681554031824966e-01,
          3.0455976707852861e-01, 1.6152030415492810e-01,
          1.6422298757563969e-01, -1.2104728645887727e-01,
          2.2137721082093592e-01, -1.9169313781137881e-01,
          -2.8434559195942653e-02, 2.4149863775264163e-01,
          -1.2439722723095795e-01, 1.0413115106799897e-01,
          2.2267361829359489e-01, -1.9597397129045580e-01,
          6.5580307059364118e-01, -4.9735551755984547e-01,
          2.0508188867211988e-01, -8.7647299167253438e-03,
          -1.7749312609944834e-01, -4.6639991971086092e-01,
          -3.3493593017003953e-01, -3.1337737482522200e-02,
          -4.1202144961148501e-01, 6.8078160403526100e-02,
          1.5371089070429669e-01, 1.1441435960754157e-04,
          3.2325610561665025e-02, 9.8122465614102028e-01,
          1.8621575198008153e-01, 4.3066244984579766e-01,
          4.5381897538019794e-01, 1.5856590479386029e-01,
          4.4278664755512998e-01, 2.7033144478044246e-01,
          1.8329461207045355e-02, 6.8479200694182354e-02,
          -1.0876557801557690e-01, 1.8639485914231632e-01,
          -2.6675445830900768e-01, -2.9666188920676372e-02,
          -3.8517892183780555e-01, 2.2118609827908794e-01,
          1.0456347035714425e-01, 4.8227750679278404e-02,
          -3.2689674000007024e-01, 1.6638901548314489e-01,
          5.0779524516532526e-01, -1.0296884391604082e-02,
          -3.5627173820267788e-01, -1.5686544438139624e-01,
          -5.3557793194876624e-01, -2.3883145747265237e-02,
          1.9003281515782747e-02, 4.0975777191308005e-01,
          -1.5307990492899579e-01, 1.3438990745963347e-01,
          -3.5595136932120935e-02, 3.2061524653244933e-01,
          1.6585450710652616e-01, -2.5013575741344690e-01,
          -1.0540939740032054e-01, 3.4261797296094638e-02,
          1.0755143976264613e-01, 3.0927509313808343e-01,
          -9.7780682719202719e-02, -2.8578123372775244e-01,
          -4.5049924903443769e-02, 1.2881852409732539e-01,
          -5.7303801330023985e-01, 1.9938743651979568e-01,
          2.7073382810967833e-01, 1.3508609817542191e-01,
          4.8130235260732701e-01, -2.1472772209264013e-01,
          2.6772419544226805e-01, 8.3567689831433423e-02,
          -8.1955035704755867e-03, -1.1538129176522496e+00,
          -9.3469331857525692e-02, 7.9520152754031292e-02,
          8.2562460816937855e-02, 2.0021016330085342e-01,
          -8.8334719308053089e-02, 6.4946933681795771e-01,
          -4.2448756643809221e-01, 5.7894617642761818e-02,
          1.3796207566929902e-04, 7.6466510800752494e-02,
          1.5360325782840881e-01, -3.7472765156150128e-01,
          3.4068114963824975e-02, 4.1839257904781235e-01,
          -2.7210576281524057e-01, 6.7948095011999909e-01,
          -2.3261683245616926e-01, 2.4955087851332650e-01,
          -4.5964529263472786e-01, -1.2098167077834714e-01,
          1.9672636416994604e-01, 6.1056800078301263e-02,
          6.1540992331200151e-01, -7.1685867289651106e-01,
          -1.5387250634978972e-01, 1.1874094994996499e-01,
          5.8127856300774805e-01, -1.8340481927630894e-01,
          -6.8816986950495307e-01, 1.8291613525155917e-01,
          3.5889779029026608e-01, 2.9755371974833805e-01,
          4.1977853627694689e-01, -5.6416621299951675e-01,
          1.3431803063261680e-01, -5.1204532679586534e-01,
          -9.1977011830827363e-02, -3.0728967767517940e-01,
          -2.9095590025799895e-02, -7.6502104295590526e-02,
          -3.1845541488136436e-01, 4.2660153507639138e-02,
          4.3449151294600341e-01, -6.3548154902325060e-01,
          -4.8498884942156387e-02, 1.2719605671437295e-01,
          7.3912799048294064e-02, 2.7146606480226870e-01,
          -2.8549508329044831e-01, 1.9951153986819437e-01,
          -1.7053845281961583e-01, 1.9303051950783431e-01,
          -4.5751983743623936e-01, 5.2642223845490388e-01,
          1.5526631291043572e-01, -3.6941192465329159e-01,
          -4.6196424955030008e-01, -6.3201279228596174e-01,
          -1.6299590466400650e-02, 3.4937013905120196e-01,
          5.6318774154401542e-02, -2.5203502101811875e-01,
          -3.7966777648041461e-01, 1.6958586080429008e-01,
          3.1076344375324533e-01, -2.4277589141645659e-01,
          -1.0674969590915581e-01, 1.2487208511910924e-01,
          1.6370453147037048e-01, -3.7705973923848091e-01,
          1.4104999813302321e-01, -8.9601693006987893e-02,
          -8.5953313320471555e-02, -4.1964409388597856e-01,
          7.4566333945501356e-02, -1.5051360015517165e-01,
          3.1733133521535867e-02, -4.3457376888373356e-01,
          9.8839322906131122e-02, -1.4479191132758168e-01,
          -1.3567480394137088e-01, 9.2301907064105640e-02,
          -5.1439087614804466e-02, -5.7815202795383636e-01,
          -6.8698272126795867e-01, -3.6481127238853445e-01,
          2.6011749918966969e-02, 2.1544626830950586e-01,
          7.3134856683598226e-01, -1.2042385514747352e-01,
          -2.5350962808235386e-02, -1.4015555333248178e-01,
          7.4424232527306898e-03, -7.2848812828260245e-01,
          1.7212857042152030e-01, 4.0681062884272007e-01,
          7.8489773685388037e-02, 4.0660494465096952e-01,
          -1.4504082990464667e-01, -3.8092015474994945e-01,
          -2.3116996626391537e-01, -3.5960143506909059e-01,
          6.1393278568080127e-02, -2.0199012090453258e-01,
          -7.2046926441120684e-01, -2.5024705082989468e-01,
          -4.7221535162460297e-02, -5.1886855810701404e-01,
          -1.7750636719019061e-01, -4.5494978016563570e-01,
          -1.6871444548066955e-01, -3.2760689738616580e-03,
          3.8262582380474405e-02, -1.6807152176859536e-01,
          1.6526074455127202e-01, -4.6105817127488208e-01,
          -3.8775955987817107e-01, -3.1573600143027841e-01,
          -3.0392405156306057e-01, -4.9515592385031976e-01,
          -5.3338326352246453e-02, -3.2202628621446994e-01,
          1.9545170595878086e-01, 3.9881871407090069e-01,
          2.6351639247926512e-01, -8.3433399325178625e-02,
          3.8942152344370895e-01, -4.6063527250475807e-02,
          -1.2495476273519136e-01, -8.3500609424801801e-03,
          -7.8362301498239151e-01, -1.1753312753240304e-01,
          2.1287211364459416e-01, 5.5923136304342125e-01,
          -7.8939038346779507e-03, -1.8667174579359992e-02,
          -3.0622047647997708e-01, -3.2126835140969406e-01,
          -1.2367608894160649e-02, -1.7438400361197669e-02,
          -2.7733714945877769e-01, 2.3558030540060651e-01,
          -1.1474551742451151e-01, -2.0066895010138741e-01,
          -6.0882067265470352e-01, 2.8129316737340809e-01,
          2.6555482691480459e-01, 4.5308610751740741e-01,
          -1.3645544307672211e-01, 4.6708700659412583e-01,
          -1.2514720145547992e-01, -4.6256941738967489e-01,
          -3.1153819253367138e-01, -1.1117866314188567e-01,
          -4.0395533998157990e-01, -1.9836167299398327e-01,
          1.6574640586755326e-01, 2.2753121956775038e-01,
          -4.2759352599479543e-02, 4.5819292095709324e-01,
          1.3859572181769031e-01, 3.4150877970627302e-01,
          -2.1699796179798056e-01, 4.6873107930446112e-01,
          -1.1008061724724919e-01, 2.3451454718507139e-01,
          6.2780996572101300e-01, -2.5238968284065399e-01,
          -4.0755076036821875e-01, 4.1117945447511954e-02,
          -3.2456152279572194e-02, 2.6475584328023238e-01,
          -4.1371089626284724e-01, 1.6188489855841659e-01,
          -2.5078556656556283e-01, -4.3906147082116975e-01,
          -1.3707474898630717e-02, -4.2935374127109210e-02,
          3.7681946888944834e-01, -2.6098156252474430e-01,
          -8.5008008796288226e-02, -6.4038712232176359e-02,
          -2.0626236759596664e-01, -2.1006016953769949e-01,
          -1.4673396649661956e-02, 9.0379522019315678e-02,
          1.8846994519774122e-02, -3.9285225030696852e-01,
          -2.0745554653270731e-01, -1.8302985173020783e-01,
          9.5212550736019017e-02, 7.1348759652810553e-02,
          -2.8775614379374898e-02, 3.0599993456368019e-02,
          4.8150594136424467e-02, -2.5662503866413122e-02,
          -2.0269486019104641e-01, -3.5504276289362778e-02,
          -1.6782845921825360e-01, -4.7494029294536144e-01,
          -1.6778163895163495e-01, -9.0614657245965360e-02,
          1.9621081082332620e-01, -2.3660604366197692e-02,
          -1.9702816402887630e-01, -1.8654484305438701e-01,
          2.6882306218272639e-01, 1.6555409466426638e-01,
          -3.7954560262245668e-01, -7.4687844631389555e-02,
          -4.2489049213185713e-03, 4.8534289254260049e-01,
          -3.2611187560581489e-01, 2.4243962475892117e-01,
          6.5423691716017154e-02, -1.3478327752578262e-01,
          -1.2198450415643897e-01, 5.4288615943985430e-01,
          8.1568680465206989e-02, -1.8421341042233200e-01,
          2.4268884157793497e-01, 1.5738613793265221e-01,
          -2.7134416322723059e-01, -9.5999044363166502e-02,
          -9.7775235692177526e-02, -5.6945150885106564e-02,
          1.7831046736672193e-01, -1.1777207336782372e-01,
          -7.0032646190483239e-01, -3.5946034861786746e-01,
          2.2872328381212159e-01, -4.6577030706925038e-02,
          2.6397646915719232e-03, -7.9672376788547078e-02,
          2.7522903898424816e-01, 1.1772950599829170e-01,
          7.4513093921190765e-02, -2.8426829053269270e-01,
          3.9476308140438338e-01, 2.4319296590736764e-01,
          -1.1163031095248295e-01, 5.0796295234298454e-02,
          -7.2616885518226770e-01, -1.4817287394680728e-01,
          6.2526481773381243e-02, -2.9626454182900254e-02,
          -1.8123906757004168e-01, -3.1228780604057288e-01,
          -2.5366820767270049e-01, 1.5124294711337691e-01,
          6.5474256809483308e-02, -4.4306023681581867e-02,
          2.1205889690807911e-01, -2.1264046583220725e-01,
          2.7794575665272864e-01, 4.4181688909231527e-02,
          2.8423318538594772e-02, 3.3475161452828789e-01,
          5.5371526171507890e-01, -1.9208247578950274e-02,
          1.0382140760791118e-01, -1.0126021883849233e-01,
          2.4249644431431061e-01, -1.7514651668558825e-01,
          3.0067515318316657e-01, 2.8468859121087553e-01,
          -2.5344032005904286e-02, -2.1751945558009411e-01,
          4.2808968879926584e-01, 1.2142039331276326e-01,
          4.5973329556388032e-01, -5.2491691417863129e-01,
          -1.6709858748084516e-01, -6.0445896667909171e-01,
          -3.5682364221814550e-01, -3.0422282457154187e-01,
          4.8758693316961060e-01, -2.0292485449197070e-01,
          3.2854177467282607e-02, 5.8287051775739029e-01,
          1.4374833180681168e-01, -1.5230791581157599e-01,
          -3.4468904400135569e-01, 6.7475296827288367e-02,
          7.7184701587943083e-01, -9.5536470136406190e-02,
          -3.4587869652204881e-02, -2.5657620863978470e-01,
          -1.1731396201169256e-01, 2.5878382346812878e-01,
          -5.0353553115816616e-02, 3.7878281939401215e-01,
          1.9653107987174917e-01, -4.8079466923728764e-01,
          6.4250425151044088e-01, -2.6256988878706716e-01,
          -3.5334654256321890e-01, 2.2188262187158009e-01,
          -5.0995214714940597e-02, 1.1014098021652749e-01,
          -3.0927340845870555e-01, 2.0420656276635266e-01,
          2.1140663975556659e-01, -2.7216285516168059e-01,
          6.4550607916661756e-03, -2.5270554973049469e-01,
          -6.3186749619398153e-01, -2.3813247291155672e-02,
          4.2065671883041333e-01, -3.4842503419136590e-02,
          -3.7149235890555565e-01, -1.7394168322776465e-01,
          -1.8398818494187112e-02, 2.5429764392994159e-01,
          -2.3998658411695642e-01, 4.0564179977225795e-01,
          -5.5593788748050342e-03, 4.4350726806234843e-02,
          -3.3495135140009807e-01, -2.0536124849605183e-01,
          2.0554865370150673e-02, -3.1180137349230097e-01,
          -4.8073553616838016e-02, 5.1689763081680529e-01,
          2.1895749828173916e-01, 9.0545684380226796e-03,
          -1.7335267678978111e-01, 6.3943826428209483e-01,
          1.8749411402505317e-01, 2.7072921385808529e-01,
          -2.0232051295174644e-01, -6.2858519632131782e-01,
          3.9210236748563437e-01, -1.8623812312823348e-01,
          -9.9591575599278490e-02, 1.1255178076488540e-01,
          6.1256512904287486e-01, 5.7535278423945890e-01,
          -8.9206660271745841e-02, -6.4653948338195766e-02,
          3.4122708533113499e-01, 1.0521112757704278e-01,
          4.4413220345582449e-01, -8.1129721124820947e-02,
          2.7315346853421685e-01, 1.2548276020927121e-01,
          -2.5787830090222875e-02, -1.4571059355273791e-01,
          3.0983944453429213e-01, 4.0927273632416650e-01,
          -3.7475079483739704e-01, -1.7322999728961577e-01,
          1.5463748734018376e-01, -4.6589562818550277e-03,
          -1.3344177272046720e-01, 9.7751316040593401e-03,
          7.0658304257538732e-02, -3.1628588616792885e-01,
          -5.2035629544439965e-01, -7.4607308117753304e-02,
          3.1200729230894675e-01, -1.2479049148974146e-01,
          -5.1677276086709974e-02, 4.0203871215320380e-01,
          4.8240955887647102e-01, -5.6952751880739408e-02,
          -4.2200510650103368e-01, -1.0505461378113554e-01,
          2.4016412125106451e-01, 5.6016278447362067e-01,
          2.9969547738052887e-01, 3.6739697258287923e-01,
          -8.7558034275731320e-02, 4.3203629818823097e-01,
          6.1809468471452876e-02, -1.2188766153811356e-01,
          -2.8694424939678914e-01, -3.9780379250892017e-01,
          5.2888540849996148e-02, 8.5088184669895692e-02,
          1.9776199814641146e-01, -1.8402494010491852e-01,
          7.3846519447820791e-01, -2.6260876739192823e-01,
          8.3613849322926270e-01, 1.3013497024777848e-01,
          4.7236297813481176e-01, 2.9150061661271681e-01,
          -4.1244808865337929e-01, 2.9689449012358837e-01,
          4.8178622556580664e-01, 2.5688127609178241e-01,
          -8.8607994793809930e-02, 3.2483900678423883e-01,
          1.0784287766890426e-02, -1.7010785830914397e-02,
          4.4289306427027114e-01, 1.6161203418654727e-01,
          -8.2198395058670506e-02, 5.4995557894529395e-02,
          1.1155796255867245e-01, -1.0231229824230180e-01,
          -2.8168746484190560e-01, 2.3457028778416933e-01,
          -1.6029733239206304e-01, -1.9425568533634777e-01,
          -1.3947863776859493e-01, 2.5278901290290623e-01,
          -3.3642946950138664e-01, -2.1409045258822207e-01,
          -1.0668577839580466e-01, 4.1400456449004125e-01,
          -4.2959193071322527e-01, 9.6851193449865897e-02,
          3.8176509091015987e-01, 4.9737250632032026e-01,
          -1.1997573909561134e-01, 1.9194504766035683e-01,
          1.7463045980012895e-01, 8.0588301211153457e-02,
          -1.9712503533566555e-01, 1.8874869880349388e-01,
          8.9228295294373441e-02, -4.1163030333945677e-01,
          -8.3720148926804794e-02, -3.3478269590084114e-01,
          1.7170331783578704e-01, -4.3575616984472232e-01,
          7.4625931384193522e-01, -6.7131300127404536e-01,
          6.5559349361474263e-03, 9.9077699979324849e-02,
          1.6270702443381360e-01, 3.4526172113356557e-01,
          2.0289971699156317e-01, 3.0068388058188517e-01,
          1.2667581431737371e-01, -1.1459083235667950e-01,
          5.1017764491355488e-01, -2.2040494507413119e-01,
          -2.2006757530501828e-01, -2.9446969742830981e-01,
          -1.0631404369623336e-01, 2.7643512777945783e-02,
          -1.0794256311669403e-01, 1.4827331934071203e-01,
          -3.7934578528582528e-02, 2.4347962730626146e-01,
          6.7052620356244763e-01, 2.5766211691216557e-02,
          3.6842316822251725e-01, -6.9221074262774318e-01,
          5.6634129244468125e-04, -2.0643378104118185e-01,
          -2.4180926969696562e-01, 7.5935782201777235e-01,
          -2.7669674689226803e-01, 1.5596072484715051e-01,
          -3.8807073438376057e-03, 1.8183656815241281e-01,
          -2.0657463562513279e-01, -1.5429107292546690e-01,
          -3.9008537585863445e-01, 5.8676784387638548e-01,
          -5.8989068378657372e-01, -2.6352919412571874e-01,
          3.3837963348630720e-02, 1.5278994430476328e-01,
          -3.6150466205759979e-01, -4.3992587900540181e-01,
          1.9144399581857621e-02, 6.7637035831887640e-02,
          2.9572185015830471e-01, -4.1668288860817770e-01,
          -3.5220751551493495e-01, 7.8754290961528806e-02,
          2.0780051556654042e-01, 9.5688352876789590e-02,
          -3.4008297490179606e-01, -2.9760997455607844e-02,
          4.4393803463484355e-01, 1.9667439268894144e-01,
          -1.2409719200407798e-01, -4.5713165472761018e-03,
          -3.1838313980504490e-01, 3.5625102219515836e-01,
          1.1277301531826964e-01, -1.7135786185569893e-01,
          -3.2478774960797790e-02, 1.0874036091851008e-01,
          3.7785402380340963e-02, -5.8876253556459361e-02,
          8.5307276340789773e-01, -2.7635323407296578e-02,
          -2.3340696357155444e-01, -2.4496452854197184e-02,
          -3.7491848294175423e-01, 2.4954772734219186e-01,
          -7.4734831888688180e-02, 4.1071745580343166e-01,
          -2.1713372971876896e-01, 6.4633040562676172e-02,
          2.3011265178502463e-01, -4.4543827309915192e-02,
          4.2826527030789374e-01, -2.2739135959250253e-01,
          -3.7630874916892182e-01, -4.7835288367250983e-02,
          1.3550734338420656e-01, -2.2677510220677305e-01,
          1.3301344231903577e-03, -6.4198827499271349e-01,
          -1.2467142778785364e-01, 3.5965683739890758e-01,
          -7.3482148469535226e-03, -2.4303833079254719e-01,
          -4.6471308159946129e-01, 3.9564468130502761e-01,
          -4.8906274020095108e-01, 2.5269607177623071e-01,
          4.9017137279539708e-01, 2.2371521852646470e-01,
          5.4452278793204689e-01, -2.1177438413848593e-01,
          3.7040798343551545e-01, 5.9248074486370805e-01,
          -7.5501152936554114e-02, 6.9546710900646036e-01,
          -9.7153889936314991e-02, 1.6877973476672744e-02,
          1.9363816240308659e-01, 3.7933317001699124e-01,
          -1.3712077844117501e-02, 1.9225041421226666e-01,
          -2.5195621885575353e-01, 2.4800896910972633e-01,
          -8.5726835414567347e-03, 3.2055793072886592e-02,
          3.3827243408907132e-01, 2.4376828095845401e-01,
          -7.7475877111345360e-03, 4.5077123499263899e-01,
          1.7789594236768392e-02, -3.2976884006784096e-01,
          -5.0193119472688719e-01, -2.7838951771670462e-01,
          -3.6192350880265700e-01, 3.8731583046823698e-01,
          7.8587865242598379e-02, -1.2301774930575826e-01,
          2.1706711315132321e-01, 2.6906190612642067e-01,
          -7.9507519579873495e-02, 7.7057913043771173e-02,
          1.2626541811490458e-01, -3.7605138071278403e-02,
          -3.7222519567162943e-01, 7.2731775756791794e-02,
          1.1383225239624560e-01, 3.9086666843806017e-01,
          1.5528948614903465e-01, 1.5177010633848984e-01,
          -1.4633197478415242e-02, -1.6381675879034108e-01,
          1.2910177458141700e-01, -7.8549097459156636e-01,
          1.1410689275099443e-01, -1.6166826859939665e-01,
          -1.4468428683516221e-01, -4.0182234809632400e-01,
          -1.4580002957558894e-01, -4.9691032670964905e-02,
          -1.2199706832630645e-01, 2.8722300135670137e-01,
          -2.5390509429115204e-01, 6.1791005082899107e-02,
          1.4006303457423372e-01, -1.3426932072335132e-01,
          1.4620380755158352e-01, -2.5762092862598635e-01,
          2.1451120716235095e-01, -1.9668589510137177e-01,
          -3.2401175463158804e-01, 5.0728613236497166e-01,
          -6.4987363454196562e-02, 8.7036042887978213e-02,
          -5.0804063002668320e-02, 4.3409810170167556e-01,
          3.7555846760748718e-01, -7.1039648816492745e-02,
          4.3949105240181591e-01, 1.2996704102195780e-01,
          1.5687506936984155e-01, 1.5958346902071185e-01,
          -5.9791530487957644e-03, 4.4905346773500437e-01,
          4.2228752820287696e-01, 1.8613895651944032e-01,
          -2.0553864133239730e-02, 1.8376055915481168e-01,
          3.7467698745916767e-01, 3.1543074286487954e-01,
          2.2559727898606227e-01, 2.3410612193642377e-01,
          1.0516280206863345e-01, 4.1537026859493287e-01,
          8.0647775372134321e-03, -3.4306959721482327e-01,
          -5.2537078299268136e-01, 2.6849429301647793e-01,
          2.0139839007245730e-01, 4.2891965845119673e-01,
          1.0358539092771617e-02, -1.4144812068523452e-01,
          2.1687676803643818e-02, 3.9788298892281565e-01,
          1.1469927824807841e-01, 1.9660226156291633e-01,
          9.7601302596532685e-02, 2.4591591657004641e-01,
          -5.4716368760681233e-01, 3.1852744595286830e-01,
          2.7590957871865990e-01, -1.0371626747424982e-01,
          3.1292616881493741e-02, 1.2048799735605792e-01,
          -1.6262030571447042e-01, 3.9959072222583358e-01,
          -6.1119597005250514e-01, 1.7436816225238114e-01,
          1.6807640817530578e-01, -1.4324811634149703e-01,
          -9.6290965306102885e-02, 1.7268211631825470e-01,
          -5.8187918981714090e-03, 4.4045035489206891e-01,
          -6.6980892711869255e-01, 2.3536735052877816e-01,
          2.9921753751102115e-01, 1.9004914542603397e-02,
          -2.7128889821554042e-01, 5.9682448970458057e-01,
          1.3322043366886582e-01, 3.3498658244015739e-01,
          5.3034422772962975e-01, 5.6420240642035913e-01,
          1.1972446236519844e-01, -1.9489922972725141e-01,
          -4.0918731212444881e-01, -8.6671616949650732e-01,
          -5.7766615676568345e-01, -7.8872720794820494e-01,
          -8.0276547616814339e-02, 1.2140108315713188e-01,
          -1.7536044358753278e-01, -3.8961114428946314e-01,
          1.3478858484682055e-01, 1.8632783867855579e-01,
          -1.5908965045449389e-01, -1.8756106066823303e-01,
          5.8114776155671366e-01, 3.2432610432228121e-01,
          2.0075739478836518e-01, 5.3235317715193764e-01,
          -3.0241148670741475e-01, -1.2941572208004060e-01,
          -4.6655998482915678e-01, -2.0154316981273165e-01,
          3.1170730631999199e-01, -3.2197619149987794e-01,
          1.7107802374508663e-01, -1.9890724822340514e-01,
          6.3323752297850100e-01, 1.9462728529736414e-01,
          1.2103737226221090e-01, -1.1615538904210410e-02,
          4.6724369428546064e-01, 6.0483335156697023e-02,
          -1.2577913188120243e-01, 2.1782687946459392e-01,
          -1.2962069545343322e-01, 6.3335008021339101e-01,
          -1.8117359730738408e-01, 1.0983649574060951e-01,
          -2.8071389172428979e-01, -1.2537959113405364e-01,
          1.0942275778456785e-01, 4.2687355731406679e-01,
          -1.4584247079651649e-01, -2.7186079745281272e-01,
          3.5757306347557705e-01, 2.3863933646041199e-01,
          1.4633043512812816e-01, -6.0375924342087417e-01,
          -2.4719412805534391e-01, 1.3061029385176970e-01,
          -2.9799583262431134e-01, 1.3603370494419323e-01,
          -2.3112215293712046e-01, 7.1277675167562204e-01,
          4.2367419791841326e-01, -3.2543305848565612e-01,
          2.0909232611587969e-01, -5.5130267118347696e-02,
          5.7591106745881158e-02, 7.6714667750136592e-02,
          -3.5695264718379544e-01, 2.3042378392016408e-01,
          -6.4985035908660990e-02, -4.1110744615604315e-02,
          1.2417163247885296e-01, 3.2781282971947406e-01,
          -2.3666578475933209e-01, -4.1408626935169549e-04,
          7.7367905840475731e-02, -5.0201102453985091e-01,
          3.1594969171064646e-01, -2.7797273253103549e-01,
          3.1594408647123950e-01, -1.0488575229576917e-01,
          1.7771523566605579e-01, -1.0104862842506059e-01,
          -3.6958725365399792e-01, 8.0020911229874703e-01,
          1.6035071361429126e-01, 1.7472615468407227e-01,
          -6.5186186386918343e-01, 2.9960290586721239e-01,
          4.0968928679881272e-01, -1.5855777114148634e-01,
          2.7125560126165138e-01, 2.0980144753991689e-01,
          1.9881462246088741e-01, 1.1902000419339975e-01,
          -7.0685489714650912e-02, 2.6163978460223564e-01,
          3.5696486524811705e-01, -4.1240004639600945e-02,
          -2.2821674077369175e-01, 1.6168971554391937e-01,
          4.7120181070371325e-01, 2.6339061954468029e-01,
          1.9406093830202431e-01, 1.3979908356249354e-01,
          1.7766211283952801e-01, 2.3503955508926327e-01,
          2.1794663775529591e-01, -3.3772616829339824e-01,
          -3.8165456421680444e-01, 4.7532860519999881e-01,
          1.9961072957235482e-01, 1.6109804813925913e-01,
          1.8472323932224566e-01, -3.3761839460902698e-01,
          2.6979013973861132e-01, 3.1418866195804157e-01,
          -7.2830349690068026e-03, 3.4803330827490625e-01,
          2.8859535614581938e-01, 1.3253215832291518e-01,
          -3.3723546660364462e-01, 4.3213181170733306e-01,
          3.4507189054717985e-01, -1.3179511220319251e-01,
          -1.1236591841117419e-01, 2.2139684039812441e-01,
          -1.2496039772837145e-01, 3.7447558726147556e-01,
          -4.3101544491236699e-01, 2.2908380511165385e-01,
          3.0470867330920520e-03, -9.3059579754413424e-02,
          -2.1646670021581785e-01, 3.2179729760809384e-01,
          4.2050686485863185e-03, 5.2638605050830112e-01,
          -5.4109401172576244e-01, 7.4115242805115694e-02,
          2.0144779356865611e-01, 3.9376937808574868e-02,
          -1.9110743977418038e-01, 4.3124726344246356e-01,
          1.9284063340653068e-01, 1.1691024245451211e-01,
          3.8221549557241946e-01, 5.9616556286498590e-01,
          8.6550276530271322e-02, -2.0979934295775005e-01,
          -4.6401945604974643e-01, -6.9422375656941437e-01,
          -5.6307383538768474e-01, -5.9027939371144267e-01,
          -1.5441168079873727e-01, 1.1966919993480664e-01,
          -1.9667103722559939e-01, -4.4383762516473996e-01,
          1.3751939159416005e-01, -7.2118012826367761e-02,
          -1.5662578875058489e-01, -3.0097695849498951e-01,
          5.1060755954887005e-01, 3.9911000796614365e-01,
          3.9954828089616318e-01, 6.6809279272476785e-01,
          -1.8351272801296026e-01, -1.1816723223483137e-01,
          -1.9407869102059394e-01, -3.4441478827807159e-01,
          1.7636298632769831e-01, -1.7040757127427847e-01,
          1.8085837975005262e-01, -1.6099724081730762e-01,
          6.7827876554461841e-01, 2.7282251057993201e-01,
          2.4119891798084170e-01, -2.9357465762155804e-01,
          2.8007409562341856e-01, 1.0429069008684262e-01,
          -3.5536241056109813e-01, 1.2924408601470838e-01,
          6.7158637542491961e-02, 5.8903065897695595e-01,
          -1.3912989213695365e-01, -5.0020698284526620e-03,
          -2.8470288414570627e-01, -8.8791117561924301e-02,
          -6.0803381429496532e-02, 2.9461775101541915e-01,
          -3.0271820853234627e-01, -2.1197051023097840e-01,
          3.4317708154395782e-01, 1.5081763426558359e-01,
          1.9772651007388561e-01, -7.9868958989480676e-01,
          -1.1356115494385932e-01, 9.5136736984963291e-02,
          -8.2455490469891771e-02, 2.6341598862141130e-01,
          -2.2275163610965792e-01, 4.7390724928935674e-01,
          5.1195655035475429e-01, -3.2249004982911289e-01,
          1.9313896182660428e-01, -7.1621151041529798e-03,
          -4.1853684322120707e-02, 1.4695436571989567e-01,
          -3.3467770420404597e-01, 1.7185527593897040e-01,
          -1.4157889525062953e-01, 1.4026633961745683e-01,
          2.0927430876084765e-01, 3.3115208105980432e-01,
          -1.1550484436345315e-01, 8.3837993277989714e-02,
          -6.2101285211658024e-02, -3.5216259757740442e-01,
          4.0044563138859407e-01, -2.3798550267637156e-01,
          1.5321199214960551e-01, -1.2906225466186616e-01,
          8.0252180086226532e-02, -1.5633000923962995e-01,
          -2.8133256394898248e-01, 5.5508289740691630e-01,
          1.7434174608669006e-01, -6.2234138037147127e-02,
          -6.7561134131908063e-01, 1.0605679321637401e-01,
          7.6200977922286317e-01, 1.0980889797666922e-01,
          3.1111819761437415e-01, -1.6344180564055311e-01,
          -1.5982213258119218e-01, 1.5873774374443966e-01,
          -1.5290002542689640e-01, -3.2819121788148337e-01,
          2.0320984246815599e-02, 3.3313893225811048e-01,
          -2.1346844232992207e-01, 4.3098180841826922e-01,
          -8.3123157340569090e-02, 2.5793481181548328e-01,
          2.0695697134379895e-01, 1.5170851595594820e-01,
          5.6611542690471173e-01, -3.4456409291831164e-01,
          5.4347541442624638e-02, -8.1897804361184046e-02,
          1.9791016902108799e-01, -2.9753454521788419e-01,
          1.0644931621183169e-02, -1.0613443931453153e-02,
          2.1151760343158493e-01, 6.7993375457408634e-01,
          3.9481134077369245e-01, 3.2203503264765720e-01,
          4.5664607606523605e-01, -5.8525969578992343e-01,
          3.5197250592375301e-01, 1.5791610319666374e-01,
          -2.5913190480416770e-01, 3.3660865968626208e-01,
          -3.1892915600652327e-01, -3.3488976753220723e-01,
          -1.9842441517028045e-01, 3.2030163368090830e-01,
          3.8856441993279957e-02, -1.9300105774585463e-01,
          -2.7893182189082488e-01, -2.4511140552853036e-01,
          2.0995273065451979e-02, -2.1433356970918454e-02,
          -1.8079807476401055e-01, 2.8554887646292626e-01,
          -1.4816181805655029e-01, 3.0383750511864477e-01,
          4.0385847442575507e-01, 1.0139102612552253e-01,
          1.2200871931908382e-01, 3.1239505116471855e-01,
          2.0007605342175150e-01, 4.9392849041554981e-01,
          -3.0288610860501056e-02, -2.4927993962030223e-01,
          -1.4728944466299010e-01, 4.9041406830079226e-01,
          9.7282559567297908e-02, 4.9785489012490325e-01,
          -2.5441992815810544e-01, 3.1420984710826612e-02,
          2.4040786927426161e-01, -3.0919719454233729e-01,
          -8.5438611643520249e-02, 2.3717991744473910e-01,
          7.5560055392207837e-02, 5.1799103441453796e-02,
          3.6076561819879832e-01, -5.2881089682915394e-01,
          -2.7897812789732412e-01, -7.8916614209484773e-02,
          -1.3655633226055614e-02, -1.5534406937161103e-02,
          1.7998362393257705e-02, 1.4751805781286084e-01,
          3.6722833704224939e-02, 3.7377324637987414e-01,
          -1.2631095522643587e-01, 1.6798254131595694e-01,
          -1.2005524333400795e-01, 2.1992727443512706e-02,
          -1.6571810103419510e-01, -1.4366169509956972e-01,
          3.4924276534967956e-02, -2.3948202478554040e-01,
          -2.9341983736662969e-01, 1.2702191720933384e-01,
          -1.6588190193898614e-01, -1.0780281348251460e-01,
          -3.2931686921237158e-01, -1.6648282636674952e-01,
          4.0023782239959682e-01, 3.8413092744501465e-01,
          -3.8685553023376462e-01, 5.7586104453677657e-02,
          -2.1111911814924597e-01, 6.9976481454005823e-01,
          -1.5921445634683662e-01, 1.6467170179274623e-01,
          -1.5853933333215436e-01, 3.9694903975873885e-01,
          7.4668063297744683e-02, 1.9879137452456602e-01,
          2.7243678435289387e-01, -1.7610265668535161e-01,
          -4.4665814711568125e-01, 3.1834259408828697e-01,
          5.8557511853129407e-01, 8.5141763699812217e-02,
          -1.8515558440910787e-01, 1.7119681044354193e-01,
          -1.0706839484906953e-03, -6.3521276793088791e-02,
          8.1175509955156336e-02, -7.4653700996793693e-02,
          -9.6993315838035055e-02, -4.1827904542673466e-01,
          -4.0086588313793825e-01, 7.7388884852598622e-02,
          -1.7290117526226390e-01, -3.7503322557548641e-01,
          -8.2582847887875774e-02, -1.5706451329412943e-01,
          1.2065494038359098e-01, -1.6101733646981195e-01,
          3.6430040883081566e-01, -3.5406555547321600e-01,
          5.3871803254501327e-01, -3.3343015837291018e-01,
          8.0497249093027436e-03, -2.2087192062600666e-01,
          3.0200840649221089e-01, -4.3413964830052520e-01,
          3.3325203301083589e-01, 9.9349250040557155e-02,
          1.3612943660486568e-01, 6.5447496198961619e-02,
          2.1425333666290022e-01, -1.4221751184031250e-01,
          1.3092076135409774e+00, -1.5848798153999577e-01,
          -1.7180127448543589e-01, 3.0516059246949939e-01,
          3.5773753727921759e-01, 1.4284417916950778e-01,
          3.7450255351898920e-01, 3.8452398069329008e-01,
          1.4670979520763561e-01, 8.4802631491116762e-02,
          -2.7638287378492876e-01, 5.2050793880047264e-01,
          3.2024585914934250e-01, 2.8860956120022629e-01,
          2.1921658135321917e-01, 2.3215610391875890e-01,
          1.9683244330198676e-01, -7.3112062812242553e-04,
          2.4111632969686203e-01, -3.2715321200553465e-01,
          -2.8555757383720844e-02, 3.0826271082251944e-01,
          1.2824583383029475e-01, 2.0947148901175849e-01,
          -4.3434334703654787e-01, -6.8291667995930594e-01,
          4.6304127110862181e-01, -2.5950082920372830e-01,
          -9.2409630970589712e-02, 8.7702055800060693e-04,
          -1.0700070903710453e-01, -2.0427678716775319e-01,
          -2.9283084273256954e-01, 3.3725474438799624e-01,
          4.0111920394831725e-02, -7.2638152827205829e-02,
          5.3182809942468587e-02, 6.5329078798653711e-02,
          -2.5318891037201319e-01, 2.1025221259430765e-01,
          -4.3455249038790039e-01, 1.7769650696226061e-01,
          -2.1621037835384473e-02, -1.4600662618293281e-01,
          -5.7535869514273114e-02, 6.9598066153168575e-02,
          1.0921427399592666e-01, 2.0088907911144444e-01,
          -2.1174335989525150e-01, -1.8788633857704018e-01,
          1.0333439875847888e-01, 1.6558413949741832e-01,
          -1.8326214837395330e-01, -4.3169809689843741e-01,
          2.1257331749056346e-01, 3.8837579593527799e-01,
          1.6433883730738688e-01, 4.5780861342723761e-01,
          3.6924892715967655e-01, -6.3680083325541870e-01,
          -3.6056255796390396e-01, -2.8725235418288320e-01,
          -6.3513496717904427e-01, 9.4211223358708962e-02,
          2.2364858028901927e-01, 2.3261206059605671e-01,
          -2.6135754225697322e-01, -1.6332068453978207e-02,
          2.7152757143954509e-01, 5.9891772923613695e-01,
          -1.1051629118985969e-01, 2.7685394491549598e-02,
          -2.7488276592757632e-01, 2.4982837303261152e-01,
          2.9577572036955568e-01, 8.2848174124557328e-01,
          6.9057166236606821e-02, 7.0973475706320607e-02,
          3.0605965347187486e-02, 9.9034358066935085e-02,
          1.0459336985139309e+00, -1.1065668603139929e-01,
          -1.6262553251937273e-01, -2.0202332506450102e-01,
          8.8918444478490538e-02, 8.8521692772546318e-02,
          -2.7130718934641507e-01, 6.0516349323991259e-01,
          2.7536539933487347e-01, 3.8184284486676012e-01,
          -1.0974783787172543e-01, 6.4602907122752395e-01,
          1.4130102691130930e-01, 5.1183211238878779e-01,
          -2.9494881381815974e-01, -1.7652350320943921e-01,
          -2.1740442840996829e-01, -1.1751387541494346e-01,
          -5.6367193786496475e-02, -3.2187008742743728e-01,
          -5.5068780810174904e-02, 1.4562051954419131e-01,
          2.2303998675673642e-01, 1.0561550807402983e-01,
          3.3536656119008784e-01, -6.2275689048970384e-01,
          3.2284157841950312e-01, 1.4712214802749431e-02,
          -6.2337505980215875e-02, 8.4357231535519239e-01,
          -2.4172942056157251e-01, -3.9031740018842348e-01,
          6.4406012767717757e-01, -3.4343974174743991e-01,
          2.0848748721565383e-01, 5.5767798870019303e-01,
          -2.4220677713666514e-01, 8.4462721703402233e-01,
          -2.6144034332905713e-01, 1.9248513325484562e-01,
          -3.2847957634826397e-01, 5.5235179324261185e-01,
          -7.5655114878010830e-03, 2.5450657532872312e-01,
          1.2044923504790188e-02, 2.9210566237072288e-01,
          -2.3383167521332793e-01, -2.0523402597115367e-01,
          2.3293077185501460e-01, 4.6800341720054324e-02,
          -1.0054775317595986e-01, -2.6822591240239946e-01,
          -3.0214012227349492e-02, -3.4963001689932716e-01,
          -1.6313828976241015e-01, 1.9176734792248959e-01,
          6.9277727302135689e-02, -4.2519451483321208e-01,
          -8.1140324764462723e-01, 1.9401185699867413e-01,
          2.0315431935278305e-01, -8.6653345379009511e-02,
          -2.3000029882445172e-01, 1.1996504542386375e-02,
          2.7245060779364033e-01, -1.7375473999195851e-01,
          4.0010801358582926e-01, 4.5562120517931931e-01,
          4.7230196644972466e-01, -1.0868512358178342e-01,
          3.1117281042780127e-02, 3.4884001631686534e-01,
          4.8114648349443034e-01, 8.9100689921269002e-02,
          1.0738493035286691e-01, 1.9658967619257173e-01,
          4.2289037869594093e-02, -4.4901822619315412e-01,
          -1.0467736332928425e-01, -2.2127801478908807e-01,
          4.7736158707562276e-01, -1.4909513718088716e-01,
          1.7241163574319579e-01, 2.6748055033291018e-01,
          -1.3637029798788114e-01, -3.0230184492131107e-01,
          4.7016903545131022e-01, -1.4073675323495957e-01,
          -2.2449162726335059e-01, 1.3455654081042101e-01,
          3.8653412386164726e-01, -5.8883922037013044e-02,
          2.1738946701416806e-01, 2.1434398883278666e-01,
          3.5475051538631779e-02, -2.1075518949900795e-02,
          2.6267415049139059e-01, 6.6866539649881263e-02,
          -2.7564034615339289e-01, 3.0602522856276154e-01,
          1.9550925012974751e-01, 1.1979430554661436e-02,
          7.4136216444751310e-02, 2.6870509347385371e-02,
          6.6640773117527613e-02, 5.4113580819884399e-01,
          1.8631824575113201e-01, 8.7707902279291011e-02,
          2.3925467912602036e-01, -1.4773633273588352e-01,
          3.9203685943281735e-01, 3.6407010740353829e-01,
          -1.5463768904545688e-01, -3.0171718899121192e-01,
          4.0142923065178865e-01, 4.3741780195973529e-01,
          4.0795931684025327e-01, 3.4340253117444142e-01,
          2.6432552547124150e-01, -2.9586191664293271e-01,
          -5.4274530072596305e-02, 4.5990122800061722e-01,
          -4.8022572193145519e-01, -7.0417828537430440e-03,
          2.4690989533635654e-01, 1.5321443875026738e-01,
          -1.6006041928709761e-01, -1.1576297024347189e-01,
          3.7018460418837557e-01, 4.3206585883368692e-01,
          -2.1632093513175427e-02, 1.1667327432946648e-01,
          -1.4095321600733829e-01, 4.5185151528490580e-01,
          -3.2112725259908916e-02, 7.1584575916444837e-01,
          4.0600553585735116e-01, 1.6595262136540301e-01,
          1.0593700412002913e-01, 1.1776459677136911e-01,
          7.4726051563314211e-01, -5.1282008823566191e-02,
          -4.0011094511114575e-01, 2.1998345892224731e-02,
          -1.5926892254547639e-01, 1.5584060502605010e-01,
          -2.7886120993568037e-01, 4.4066873981396831e-01,
          4.8628155641895243e-01, -2.2072958538052075e-02,
          -4.0047118198003773e-01, 2.9398639164719398e-01,
          2.8185157356980634e-01, 7.1128291361859317e-02,
          7.0858104761782753e-02, -2.7100472865043701e-01,
          -9.8957554264767211e-02, 1.3550653246540714e-01,
          -1.9889952325561089e-01, -3.0734723850503470e-01,
          -3.5384017717718541e-02, 6.1597373627637597e-01,
          1.3257141787873500e-01, 6.1959825335851447e-02,
          3.5490473241498088e-01, 1.3980535369772396e-01,
          3.8305050513154776e-01, 2.8817592822162635e-01,
          2.6429068364814323e-01, 2.6861880315872144e-01,
          -5.2200216809910416e-01, -4.9525054532951374e-01,
          8.2367082307078276e-01, -1.9594213514942036e-02,
          3.0779225657144238e-01, 4.5859476960093382e-01,
          -2.8098050441257139e-01, 3.2866276619758922e-01,
          -3.9899758909540767e-01, 5.2641248902655147e-01,
