%YAML:1.0
ANN: !!opencv-ml-ann-mlp
   layer_sizes: !!opencv-matrix
      rows: 1
      cols: 3
      dt: i
      data: [ 60, 120, 17 ]
   activation_function: SIGMOID_SYM
   f_param1: 1.
   f_param2: 1.
   min_val: -9.4999999999999996e-01
   max_val: 9.4999999999999996e-01
   min_val1: -9.7999999999999998e-01
   max_val1: 9.7999999999999998e-01
   training_params:
      train_method: BACKPROP
      dw_scale: 1.0000000000000001e-01
      moment_scale: 5.0000000000000003e-02
      term_criteria: { epsilon:1.0000000116860974e-07, iterations:500000 }
   input_scale: [ 1.0625034261452553e+01, -4.8506337678468037e-01,
       5.7587716580166166e+00, -6.3863466599894514e-01,
       5.0441225376836158e+01, -6.9402646448056782e-01,
       5.6951670749806070e+01, -6.8256052762864572e-01,
       3.5087135742085103e+00, -5.1463205006062085e-01,
       3.1558269695773276e+00, -1.2341994410225325e+00,
       3.9708384513670119e+00, -7.0892666444169727e-01,
       7.8359640843771032e+00, -5.2501657920279821e-01,
       1.4439930708280404e+01, -2.9622964283671577e-01,
       2.3328862390462298e+01, -3.2422810952777559e-01,
       7.0796782064171762e+00, -6.6456848594347884e-01,
       7.0349319499963956e+00, -8.1682177307246406e-01,
       1.3216446029989520e+01, -9.6844121481303380e-01,
       1.2529346951523891e+01, -9.1180236404953730e-01,
       1.0045092187685608e+01, -9.1566256570415017e-01,
       1.4710692194098748e+01, -9.1242387575647887e-01,
       2.5005244978315908e+01, -1.2617990047118084e+00,
       2.0906738461124807e+01, -1.2573232334009530e+00,
       1.6157148088260989e+01, -1.0872103246636426e+00,
       1.3189908459942998e+01, -1.0438191828433008e+00,
       1.0330959201564076e+02, -1.2908459685961432e-01,
       6.0005800421086029e+01, -2.2090500250391273e-01,
       3.5769439771613655e+01, -3.3298747077757346e-01,
       1.3112931408775031e+01, -3.5321921447666943e-01,
       2.6032229771268423e+01, -4.0416740040723342e-01,
       3.1431966669096163e+01, -6.3768892563832691e-01,
       1.6362317273344932e+01, -7.8470385596153236e-01,
       8.4694571349604928e+00, -8.9292248181322731e-01,
       7.3216860635787038e+00, -1.1284995927752570e+00,
       7.3644537904098506e+00, -1.3203229285572042e+00,
       1.2111268327583161e+01, -4.8754762615350006e-01,
       5.2017177483434240e+00, -9.7409397945408993e-01,
       7.9233085968973915e+00, -1.2456299198185192e+00,
       8.6389904062457745e+00, -1.3559428189749132e+00,
       9.3654849541946721e+00, -1.1799283373731682e+00,
       9.9975707766269473e+00, -9.3587270406058298e-01,
       1.5402971470896320e+01, -8.9394875133099538e-01,
       1.5607382005294111e+01, -7.5728107077922047e-01,
       1.5634685134879621e+01, -7.4874313617548627e-01,
       6.3762177657733670e+00, -5.3731431197942836e-01,
       1.4467667343155544e+01, -3.6377714865670341e-01,
       8.0659407025439567e+00, -6.1130235123487719e-01,
       8.6490019720719467e+00, -6.9006222662300387e-01,
       8.9718611321571302e+00, -7.4305457704434452e-01,
       8.4089804509878956e+00, -8.6752313817953486e-01,
       7.5697070581234218e+00, -1.1807770925574488e+00,
       8.9592999560119875e+00, -1.3379669286025080e+00,
       7.1271783054655717e+00, -9.5284352850696175e-01,
       7.5016080978064963e+00, -8.8243397100933441e-01,
       6.8204016459865695e+00, -5.2275685184926857e-01,
       2.9508921292180972e+01, -1.9718525931848677e-01,
       2.2726812327642833e+01, -4.0435382666344871e-01,
       1.0945537501458517e+01, -4.2230106446503113e-01,
       2.0725613730292650e+01, -6.7271903235265318e-01,
       1.1857060730835220e+01, -9.4436089749465701e-01,
       5.3031237063905436e+00, -1.1378236505611243e+00,
       5.6574579338752349e+00, -1.4663484113714396e+00,
       7.3915869525465334e+00, -1.1616899109149637e+00,
       6.8596573131872809e+00, -8.7151729169925485e-01,
       7.6097903428936444e+00, -5.0894829971664157e-01 ]
   output_scale: [ 1.0526315789473684e+00, 0., 1.0526315789473684e+00,
       0., 1.0526315789473684e+00, 0., 1.0526315789473684e+00, 0.,
       1.0526315789473684e+00, 0., 1.0526315789473684e+00, 0.,
       1.0526315789473684e+00, 0., 1.0526315789473684e+00, 0.,
       1.0526315789473684e+00, 0., 1.0526315789473684e+00, 0.,
       1.0526315789473684e+00, 0., 1.0526315789473684e+00, 0.,
       1.0526315789473684e+00, 0., 1.0526315789473684e+00, 0.,
       1.0526315789473684e+00, 0., 1.0526315789473684e+00, 0.,
       1.0526315789473684e+00, 0. ]
   inv_output_scale: [ 9.4999999999999996e-01, 0.,
       9.4999999999999996e-01, 0., 9.4999999999999996e-01, 0.,
       9.4999999999999996e-01, 0., 9.4999999999999996e-01, 0.,
       9.4999999999999996e-01, 0., 9.4999999999999996e-01, 0.,
       9.4999999999999996e-01, 0., 9.4999999999999996e-01, 0.,
       9.4999999999999996e-01, 0., 9.4999999999999996e-01, 0.,
       9.4999999999999996e-01, 0., 9.4999999999999996e-01, 0.,
       9.4999999999999996e-01, 0., 9.4999999999999996e-01, 0.,
       9.4999999999999996e-01, 0., 9.4999999999999996e-01, 0. ]
   weights:
      - [ 1.5526117800570609e+00, 1.4762358011945190e-01,
          1.9363417206592581e-01, -4.3563306824542453e-01,
          1.2781376348490603e-01, -8.6966603722281199e-01,
          -2.6964350293057932e-01, -8.9195866324030343e-02,
          1.3814132187047046e-01, -3.5684080605094048e-01,
          -6.6220933412410810e-02, -1.6227238565701185e-01,
          -3.2605227812508822e-03, 4.0248325361098430e-01,
          -1.0620141357612069e-01, -5.5710098470711088e-02,
          -1.2930332194218573e-02, -1.6213898223224030e-01,
          -3.6899490450141970e-01, -1.5170115065317072e-01,
          1.3469489917138805e-01, 6.0791912500252498e-01,
          -2.7076007461397256e-01, 2.8547156656505668e-01,
          1.6380200416279000e-01, -1.6804935039432162e-01,
          9.6367074380024426e-02, -1.8377667025230615e-01,
          -3.0903226156901659e-01, 7.4451414936097349e-01,
          2.3303762492791308e-01, 2.5160515870429284e-01,
          7.6688960993057376e-01, 1.3950412682783009e-01,
          -2.8402567419211633e-01, -2.2653939819145788e-01,
          5.5293148512110118e-02, -2.7396160068060924e-03,
          1.7323472265341505e-01, -2.4045815378511043e-01,
          1.0538386722142215e-01, -4.8334826095549191e-02,
          -2.7767068787327120e-01, -2.4322623157602560e-01,
          6.7483511627568049e-01, -2.6321853042363103e-01,
          -1.7718140235935276e-01, 5.0818800384654361e-01,
          -4.1384185341799662e-01, -5.8271480102645024e-01,
          -2.1070058701842448e-01, 2.7414993789934133e-01,
          2.2838751097351731e-01, 8.1839279699434686e-01,
          3.3176338675168993e-01, -6.4464840510891708e-01,
          -5.8199269572082310e-02, 4.8300038178699621e-02,
          6.4250790647807388e-01, 3.4076548922263289e-01,
          -1.1479526049205523e-01, -3.4666304127417398e-02,
          6.5753174048056018e-01, 6.2376174123489114e-01,
          1.6477835384439637e-01, -2.9707801349286034e-01,
          -2.9415788548651817e-01, 4.4208595729056221e-01,
          3.5994464844231323e-03, -4.1550510643165672e-01,
          2.3058069174935772e-01, -1.2589135706543594e-01,
          -7.4836454862217572e-02, 1.5983379699323680e-01,
          -5.1795774942577089e-01, 3.9889308160095738e-01,
          3.0889239071968505e-01, -1.7824242867830301e-02,
          -4.8811323790420447e-01, 2.3157856508286900e-01,
          -2.9369385561114270e-01, 1.0004964076361013e-01,
          -3.0195220207951745e-01, -1.1838005061328859e-01,
          1.2259611060855836e-01, -1.6028138655106116e-02,
          -1.3624023857812670e-01, 1.7251764464660452e-01,
          2.0235640306835895e-01, -1.4487105046896465e-01,
          1.0152339419970438e+00, 3.0711325589567046e-01,
          1.2667534543096828e-01, -1.7190099401251316e-01,
          2.6278919240514026e-01, -1.0361457480744005e+00,
          5.5759800969012330e-03, -2.4849102566968195e-01,
          -6.4904018259811846e-01, 4.1632667523241323e-01,
          6.4349022476412939e-03, -5.6852638542163059e-01,
          2.7387242187641875e-01, 4.4962418164242651e-01,
          -6.1955426436511973e-01, 1.0668999819269359e-01,
          -1.3324390276140638e-01, -4.4572386579567680e-01,
          -3.7675966529271571e-01, 4.1868555444064998e-01,
          -3.5207549384032072e-01, 4.3471759629390300e-01,
          -1.0252131643109756e-01, 3.6381223982153943e-01,
          1.2860328687941189e+00, 2.0041213342495454e-01,
          -2.0194712656638392e-01, -3.9332817806841530e-01,
          5.4033502364935271e-01, 2.4200041280692311e-01,
          -4.4932466156054547e+00, 3.4456436332818025e-01,
          3.9930400470273414e-01, 5.3347733717277057e-01,
          4.8203676628934433e-01, 1.8440539623624561e-01,
          -1.7411945941376381e-01, 1.9310502592244028e-01,
          -3.0651241129411122e-01, -1.0462181279420824e-01,
          -4.6650799321262354e-01, -1.4943241142018610e-01,
          2.4798496357773145e-01, -7.9962487001795951e-02,
          4.9679458089526875e-02, -1.4864005984436407e-01,
          -4.7904735992837738e-01, -4.1034247281418879e-01,
          -3.9810162439228325e-01, 4.2505717705972879e-01,
          -1.1210348514521647e-01, -3.3317066930159628e-01,
          -2.5722899747326672e-01, -6.7604853108298099e-02,
          3.2640072972885614e-01, 6.1249378493846862e-01,
          -2.9764806979716391e-01, 4.4591318362493371e-01,
          6.2757440673747930e-02, 1.3213380045306850e-01,
          7.0785911076457361e-02, -1.8919578360119382e-01,
          8.3259045003880774e-02, -7.6558185623459389e-03,
          -7.2604924210943933e-01, 4.4376915718375326e-01,
          -2.5592269347540247e-01, -1.4795407843406991e-01,
          3.0935122203621984e-01, 2.6705804963112717e-01,
          -7.1155461623848143e-02, 2.0681356378188531e-01,
          -1.7816012520262428e-01, -2.9839749931697473e-01,
          7.3751775436989220e-01, -3.9518388481292815e-01,
          -1.7652404188747570e-01, 3.1772887968133662e-01,
          -6.4789937332124486e-02, -2.6260980382300791e-01,
          -3.6259743600529432e-01, -3.1179146276755286e-03,
          2.9785881007889242e-01, -1.2830902280494261e-01,
          2.4615011182510696e-01, -2.8734287919584450e-01,
          7.8331210315507480e-02, 3.2371976566979338e-01,
          7.6208663049788206e-01, 4.3469904336824083e-01,
          -5.4827054970870415e-01, -2.2194376524746009e-02,
          2.5115780045560704e-01, 1.8503574356689054e-01,
          3.3594084446115913e-01, -4.4622996141657378e-01,
          -1.0439091044060880e-01, 1.3077903178239508e-01,
          -4.4893058217181497e-01, 1.3255710952321162e-01,
          1.7101976011139744e-01, 5.5271954507528198e-01,
          5.2096816733429618e-01, 1.5545819352092810e-01,
          -6.2108905911570866e-01, -4.7438561175559735e-01,
          -4.1295257526439276e-02, 2.9742336636508326e-01,
          1.0137007398411910e-01, 2.2720163165476392e-01,
          1.8981946046281353e-01, 8.6988743081057973e-02,
          -1.6556093820034323e-01, 1.3708007650914519e-01,
          2.9404762551710129e-01, -4.7025126523358479e-01,
          -7.6253864784084358e-02, -2.4321712978199836e-02,
          5.7360396967815794e-02, 3.1715285791681069e-01,
          5.5367031632544672e-01, -1.1229624481718661e-01,
          2.1083787261331710e-01, 6.0943961674117106e-03,
          8.2701481639167157e-02, -3.5706730317074875e-01,
          -3.5950071018954222e-01, 1.8426983242203532e-02,
          3.5897138375109751e-02, 5.1294534226038524e-01,
          3.1793632857725046e-01, -2.2542749435500822e-01,
          -3.3089661186254182e-01, -4.0085568314368564e-01,
          1.3427452186322203e-01, 2.1233349499531382e-01,
          -3.1069429400190945e-01, -5.6602519840835119e-01,
          3.6449062899989657e-02, 1.1401012402539350e-01,
          -2.7551529067209018e-02, 1.5837085220332911e-01,
          -5.4310148535526859e-01, 4.0531372797468834e-01,
          -5.6747592374745810e-02, 4.7383363815014033e-02,
          -7.1665576910235285e-02, -2.5556560253483740e-01,
          -1.6511164599240843e-02, 2.2303387847273268e-01,
          -2.2875874514111780e+00, 2.1865664990126019e-01,
          4.9990210505190513e-01, -9.6730936360505504e-02,
          3.1294133376168898e-01, -5.5160786701097397e-01,
          -1.5492291755171161e-01, 1.0197675979478377e-02,
          5.1510403742961930e-01, -6.5457894984607778e-01,
          2.4537752999278661e-01, 2.7088825600390869e-02,
          5.8103198045438231e-02, -9.1098568145579983e-02,
          1.8199125293116925e-01, -5.6893510587951730e-02,
          2.1943057902832647e-01, -1.0575925363205810e-01,
          6.1848502592036692e-01, 2.3123661334508819e-01,
          -1.4956820601035584e-01, 3.1024325298362637e-01,
          2.0250008518947840e-01, -1.1224861419234452e-03,
          1.4984482260179871e-01, -4.3241877983247945e-01,
          -7.1651228779374368e-02, 3.7480366609374627e-01,
          -4.3683264371481664e-02, -4.0501048129732481e-01,
          1.1046002241322536e-01, -5.2257111049553773e-01,
          -1.0540847468037533e-01, -1.9183745730095900e-01,
          -1.1969807198043862e-01, -9.0831894721886325e-02,
          1.6688479059688552e-02, -1.8478372917438302e-01,
          -4.5954633076783086e-01, -3.3549267390342047e-01,
          -5.7824162810472195e-02, 7.5479690140158123e-02,
          -4.3279882138747244e-01, -2.0568237996063315e-01,
          7.9239741843558842e-01, -9.4771138659220683e-02,
          -4.7772747275948400e-02, 7.2428664497805398e-02,
          -6.9312134395452307e-01, -6.2422259193798388e-02,
          4.7105400171393308e-01, -3.1486259488073315e-01,
          2.4514464026930771e-01, -3.1845825927991900e-01,
          -3.1464710926277811e-01, -6.8426089823060643e-01,
          -1.2332888563947708e-01, -1.7007315878091052e-03,
          4.2505297756427241e-01, 1.7546778496772611e-01,
          8.2002944953107754e-02, -2.4156656563883888e-01,
          1.7663460835499489e-01, 1.2027489910858403e-02,
          1.3900551127540361e-01, 8.1471797703701603e-04,
          -4.3500364879038189e-01, -3.6265407520293036e-01,
          -8.7420482416007861e-02, 3.5282015826156776e-01,
          3.5052039152894156e-02, 6.5504720573040454e-01,
          2.6683275390028860e-01, -7.3960537124295775e-02,
          1.0502793519602929e+00, -1.8269910736002659e-01,
          -3.9468231644375340e-01, 1.5051174852982477e-01,
          -3.0677302875277818e-01, 3.2669744685074731e-01,
          1.0855268269848635e+00, 9.8513699213288661e-02,
          -3.0178725037384463e-01, 3.2610371584898562e-01,
          3.8474736634967421e-01, -5.5903897460825613e-01,
          -9.4567511851126870e-02, -2.3035765558713844e-01,
          -5.6653848677844128e-02, 6.2813297257973044e-01,
          8.3079218787856429e-02, 2.9463369978548798e-01,
          -1.7859450336743543e-01, 4.0280375951440717e-01,
          -7.4719665466523200e-02, 2.7373528305497491e-01,
          -3.9205264541689558e-02, -6.3332694806102430e-01,
          2.4926416286591579e-01, 5.4070604056031968e-01,
          7.8453969577187505e-02, -1.1481753715199647e-01,
          -1.7987080271012551e-01, 3.0514964572465086e-01,
          8.1122403641336924e-02, 4.0922679643743770e-02,
          -1.4663357135607180e-01, -3.8682459924140666e-01,
          3.1040647371228081e-01, 3.6105348338367454e-01,
          3.7988596093258548e-01, 6.5997918474269124e-01,
          -1.7594269431998377e-01, 5.4435573276115257e-01,
          -3.3866290084308631e-01, -5.5606725569374967e-02,
          6.2650134637890445e-02, 1.4362239783944125e-01,
          -2.8103536632299320e-01, 2.4484217699672306e-01,
          -1.8747395091815322e+00, -1.4579542684913135e-01,
          1.4645628326074631e-01, 2.5508239803927896e-01,
          2.5157947572743289e-01, -1.0888982178705292e-01,
          -7.3809700568082809e-02, -1.6310772327790371e-01,
          4.9666701587237749e-01, -3.9504680537604592e-01,
          -2.9315301136360741e-02, -8.2213943249899404e-02,
          -9.4982494403864554e-02, -1.9957137367578875e-01,
          -3.0971935455401223e-01, -1.1797763893012043e-01,
          -3.3680305456687515e-02, -1.9099252571816669e-01,
          -1.3318185097934501e-01, 8.1691343879863554e-01,
          2.9380951352399143e-01, 4.2263791328605438e-01,
          8.0352873570660954e-02, 1.9616144779578473e-01,
          3.3503332384663154e-01, -2.8506028573190106e-01,
          1.9079878864941557e-01, -3.0991407526759412e-02,
          -4.7850600400191545e-01, -4.4299969262409833e-01,
          3.8352808513828479e-01, -1.1531828451102040e+00,
          -6.9272250699287052e-02, -5.7461127908461607e-01,
          -2.7296271302465119e-01, 2.5647369125653541e-01,
          -1.9244378333807519e-01, 3.8893367404117329e-01,
          -2.1133915525052283e-01, -4.2102805131276938e-01,
          -1.5914747044761784e-01, 8.5429017179469626e-03,
          1.7822239168388002e-01, -2.0819550643484624e-01,
          3.9075898280745680e-01, -2.8811311747600205e-01,
          -3.2475664019403333e-01, 1.4389143235712792e-01,
          -5.2565712650787366e-01, -1.4752525800353716e-01,
          -2.1740527705596863e-01, -9.1746475412960479e-02,
          -1.0277101571611803e-01, 1.5355091548969169e-01,
          -1.5719673609383741e-01, -3.2918295242040915e-02,
          -9.6242941958855605e-02, -2.7799671135769036e-02,
          1.3975622372600478e+00, -1.5265050036218963e-01,
          5.1792686887302197e-01, -2.7566246195565675e-01,
          9.9774630973288114e-01, 6.6469700033529067e-01,
          -3.7542582320724341e-02, -9.7961034413517386e-03,
          7.5490759804374252e-02, 1.5361849302740846e-01,
          1.5065998544475515e-01, 1.2082591645875938e-01,
          -2.0629282356103601e-01, 2.6530947265126048e-01,
          3.8627189238425769e-01, -1.9897234131954467e-01,
          7.8109471829803925e-03, -1.5727032102033117e-01,
          -3.0631092433473176e-02, -4.7352863728557463e-03,
          -3.4387919077876966e-01, 7.6479429667381860e-02,
          3.4205821676407711e-01, 2.4471702245653933e-02,
          -4.7437560270996232e-01, 3.1502762239822524e-01,
          2.2227249734692717e-01, -5.7976593405000354e-01,
          6.9141369163270947e-02, -3.2008326601483328e-01,
          -5.3922753409214111e-02, 3.1722862220187054e-02,
          6.7058282657332352e-02, 1.6153617078733559e-01,
          -3.5567751981108210e-02, 3.7705217619614162e-01,
          -2.9762306751990875e-01, 3.6480626565437435e-01,
          4.1752269450489474e-02, -4.2582080850220566e-01,
          -9.3562568441616145e-02, 2.7487639125994695e-01,
          -1.5467566808244387e-01, -3.5242005215559570e-02,
          2.2976420305723444e-01, -4.0364992343289552e-02,
          -3.7987543045526245e-01, -8.7386400112664575e-02,
          -4.0749850978201546e-01, 7.8844301862070462e-02,
          3.8830907721188287e-02, 2.8129947270450495e-01,
          2.8912725506110704e-01, 3.2872445989827365e-01,
          -8.1285510040193121e-01, 6.6710541748139984e-01,
          -1.2751933713159114e-01, 2.7670095627550634e-01,
          6.2249683258105837e-01, 1.0030824909874841e-02,
          -1.0575521358979850e-01, 2.4386708637988133e-01,
          9.5598723267077212e-01, -2.1161937406183701e-01,
          -3.1104955474265678e-01, -1.7179528421246415e-01,
          -1.6156132063000622e-02, 3.2154669140438165e-02,
          -3.0757967342708936e-01, -2.1849750436613030e-01,
          3.6687197466747717e-01, 5.9314103312881483e-01,
          -3.3142907956820500e-01, 3.1703280542384088e-01,
          -3.9341175661656463e-01, -1.2504809372333062e-01,
          2.8251913322298267e-01, 2.3560242287863883e-01,
          -1.3998104947455312e-01, -2.5518595252332684e-02,
          -5.2105534675873910e-01, -1.4547069136829377e-01,
          -2.4748698787442636e-01, 4.5730391831849909e-01,
          -5.3400963549246050e-01, 6.6088913456069387e-01,
          1.8356656416932846e-01, -2.6783058484264216e-01,
          6.2571444904723203e-02, -1.0818894357064208e-01,
          2.3432730125817189e-01, 1.6388208759570000e-01,
          2.8774045412670046e-01, -1.8189902472061537e-01,
          -5.2678179788901672e-02, -1.7294925666615651e-01,
          2.3381489637236041e-01, -4.1238654066625585e-01,
          6.6559225903906394e-02, 2.5394628075546072e-01,
          -5.5371564005891027e-01, 6.3489278202022936e-01,
          1.0572148076934636e-01, -3.9764435583982999e-01,
          -3.6009578808473514e-01, 2.4606568459114220e-01,
          -1.8181882736699975e-01, 2.1632954997571593e-01,
          4.2913585234524332e-01, 2.5792436787924544e-01,
          2.7670953037673812e-01, -2.9607581805213085e-01,
          -2.6596092751451078e-01, -2.5223938266886597e-01,
          4.4836165140079942e-01, 1.7413573933514937e-02,
          8.3647646702827760e-02, 4.1510791642405609e-01,
          2.0216661339330110e-02, -1.8693856933408824e-02,
          -3.2550354710588542e-01, 6.2075251660489361e-01,
          6.0782340372136501e-01, -2.1581927486838143e-01,
          5.3151639023246844e-01, 1.7320455499548634e-01,
          -3.2614547862186721e-01, 3.4785055954633798e-01,
          1.2704229856995275e-01, 5.2911153608774586e-01,
          7.4304937579409466e-02, -2.6917641673294601e-01,
          -2.1985432475542116e-01, 2.0233337159300732e-01,
          -6.1388468851802414e-01, 9.3622479561228333e-01,
          -7.8308260294458287e-01, -1.5657787941427587e-01,
          -5.5958570151664590e-02, 4.7680096737649608e-01,
          5.8443906113403921e-01, 1.5157382793712124e-02,
          -2.0664197033828371e-01, 1.1577364394335240e-03,
          2.5071295524353204e-01, -7.0070165779371099e-02,
          5.9169935595052570e-03, -4.9000615766259509e-01,
          -2.9300889528053653e-01, 1.5485001294145923e-01,
          -9.1496840037385577e-02, -2.8105101050383502e-01,
          -2.7768836607899244e-01, -1.1590686785302753e-01,
          -1.0667600315254126e-01, 9.0928672180864104e-02,
          -7.7716532907302238e-02, 3.2762523985751713e-01,
          1.7853899184265551e-01, 5.2165772733567473e-01,
          1.3671704106621016e-01, 1.4846938938335497e-01,
          2.8160498031565873e-01, 6.0392373238653307e-01,
          1.3067337077660940e-01, 3.6164079110581215e-01,
          1.3565420201686360e-01, 2.6825381125819964e-01,
          1.7866809727119942e-01, 3.2807609609912097e-01,
          4.6867319362247095e-01, -1.0916757623907937e-02,
          -7.2280550156067003e-01, -2.1686777337453758e-01,
          -3.5156235097816807e-01, -9.5057338478129097e-02,
          -4.1282949948505021e-01, -4.1540110313764966e-01,
          -3.2683792139220103e-01, 1.9667564916424143e-01,
          2.6548777591014144e-01, -3.1830542880130719e-01,
          1.0401935218019820e+00, -2.2874703407054128e-01,
          2.2824645312776717e-01, 2.8029234261171854e-01,
          -7.7207152707751400e-02, 1.7360640903263877e-01,
          2.7559739952350393e-01, 6.0963591208068227e-02,
          2.0219737780951558e-01, -2.3180052098131687e-01,
          4.9720761348829717e-01, 3.9538842859573847e-02,
          -1.3295815773584409e-02, -3.2760977749856440e-01,
          1.1253107755545422e-01, 7.2509431498855179e-02,
          1.5260229885153007e-01, 7.0829233262406699e-02,
          7.5315643544922728e-01, 3.9337665597616506e-01,
          2.4181865412928333e-01, 2.4213396435205099e-02,
          2.8023977025095008e-02, -3.1196235475015516e-01,
          -3.6929178633796654e-02, 3.4055082825805821e-01,
          9.5549855099807332e-02, -2.2664389855216294e-01,
          -1.1884647163284946e-01, -8.3322974988323062e-01,
          -2.8352964638794642e-01, -7.2265508794246966e-02,
          -6.1072495169021725e-02, 1.3418925560391617e-01,
          2.7621936291842103e-01, 6.6626714329945949e-02,
          -4.0733340696398190e-01, 1.2859593531859631e-01,
          7.6051196254730558e-02, 1.2000877274463992e-01,
          1.8749883874164247e-01, 5.3410699299934905e-01,
          3.5160259248674047e-01, -7.0419667190912355e-03,
          3.5612387494784775e-01, -3.2614126786630740e-02,
          -3.8955276542199041e-01, 1.3771461519684272e-01,
          -3.1910229994559547e-01, 2.5815978373378906e-01,
          1.0072379394995919e-01, -9.1780105322381927e-02,
          -2.5718494051559837e-01, -2.3162251986766960e-01,
          3.5904727855355972e-01, 7.3594252411007921e-02,
          3.9898507386807941e-01, 2.6744124048263324e-01,
          3.2269042889239122e-03, -6.8210415898363141e-01,
          -4.4374682939438514e-01, 3.1522798526272891e-02,
          -5.4795271991864514e-01, -4.6019999955165686e-01,
          -2.9784774040850698e-01, 2.0920811058180156e-02,
          -3.1846392521068065e-02, -6.2212560141406192e-01,
          -1.7113025380851915e-01, 3.9918536579683084e-01,
          -3.6421806232743992e-01, 7.1531607039477141e-02,
          -3.3567335765188541e-02, -5.3862741026851135e-01,
          4.5863015718549888e-01, -4.6798907693601392e-02,
          -9.7905236109513780e-02, -4.3608954217846607e-01,
          -8.7236401073564701e-02, 1.2337451246233090e-01,
          2.9452974765099560e-01, -1.7999302380591342e-01,
          4.6623671264880334e-01, 1.2613655239607365e-02,
          5.4940562298162444e-02, 2.5114701905588244e-01,
          3.5638988363278179e-01, -5.3286636217674554e-01,
          -1.6472051782342492e-01, -1.6561686544606099e-02,
          -5.3701819179181010e-01, 1.6833158795773337e-01,
          -7.0003270724315403e-01, 3.6425323089619244e-01,
          2.1637312284292262e-01, 3.9147295540656979e-01,
          -3.7528417446871160e-01, -4.4350884817279673e-01,
          7.6828204151665233e-02, -4.5097238721572791e-01,
          -5.0070471362097790e-01, -2.3405878582769174e-01,
          -6.6429536623492247e-01, 5.4522194188945813e-02,
          9.5284516760847385e-02, -1.6597715226691384e-01,
          1.3983818709722806e-01, 2.2194148001711302e-02,
          1.2664627407215237e-01, 2.6382440979473165e-01,
          4.8897357504007682e-01, 5.1488762033454227e-01,
          -8.2963604598933066e-02, 3.4215706310924587e-01,
          -1.4064464441573868e-01, 1.1283474404091709e-01,
          4.7090466798137703e-01, 5.2157539455070845e-01,
          -3.2308910876197622e-01, 3.9754589176103160e-02,
          2.0770671857758929e-01, 2.6853876407567867e-01,
          -1.9491688470881188e-01, -7.5784193399493410e-02,
          -1.1960057675153411e-01, -2.1203835445319755e-01,
          3.8638313918589079e-01, -1.0030131721788342e-01,
          -1.6294868153319003e-01, 2.8892677715490778e-01,
          -4.4693198022983216e-02, 5.1673598711088745e-02,
          7.8331480207799953e-02, 1.8330293366301240e-01,
          -1.6016976034448827e-01, -8.7082519383757009e-02,
          2.4531788259902657e-01, 1.7870372557652894e-01,
          -1.5525321409550322e-01, -2.2130531656973665e-01,
          1.0904252213922166e-01, -2.9480681586112389e-01,
          7.5208876031632599e-01, -3.2070922522901379e-01,
          -5.9969733727743679e-01, -2.9591600777628746e-01,
          1.6566503926171836e-01, -9.4250441166904356e-03,
          -3.5755839979584453e-01, 9.3076194278004662e-02,
          -3.0665409879147464e-02, 2.1765368697245446e-01,
          -4.5743557721871858e-01, 1.7156003229405509e-01,
          -5.3364095621693280e-02, 1.5390284045949415e-01,
          1.2830742731305012e-01, -4.5472179473585611e-01,
          4.4124392769018755e-01, -3.6822881391483187e-01,
          -5.2356791782745299e-02, -8.7554190494799150e-02,
          1.4158281151072447e-01, -1.5170223636073421e-01,
          -4.1274162028617073e-01, 1.0833316889337111e-01,
          -2.7802803268893849e-03, -6.5336570189596299e-01,
          3.6931440951370814e-01, 4.7794428380054993e-01,
          -7.4415293987611694e-02, 3.6827810904571384e-01,
          -5.4643649856123300e-01, -1.6493369440522337e-01,
          -4.1142972305552755e-01, 1.1048097764638282e-01,
          -4.7253016623887573e-01, -5.2780096098372709e-01,
          -9.8859792789943418e-02, -2.3262382046045993e-01,
          3.1224195459595838e-01, 4.7246620204610221e-02,
          1.4337748976606993e-01, -1.9822692923671392e-02,
          2.6657510992872629e-01, 1.9594095267277353e-01,
          3.0306385203166486e-01, -8.9260121575191170e-02,
          6.2531902478928170e-01, -8.4120079476949078e-02,
          -3.5506137431210713e-02, -3.6831450860477893e-01,
          3.7701971920672361e-01, -3.0776651023461793e-01,
          2.6826219736846535e-01, -3.1362318393677130e-01,
          6.1247558517670428e-02, -6.1138851772811798e-01,
          -5.1002189637025075e-01, -3.6281720589998856e-01,
          -8.0049036174047877e-03, 1.1150858256679805e-02,
          -4.2455631545379779e-01, -3.7487690971497782e-02,
          -5.1105463304860910e-01, 3.6867091250616096e-01,
          7.0503505727966390e-02, 2.0605461015755357e-02,
          4.1220589394040907e-01, 3.9455856418312035e-02,
          -6.2264122898466036e-02, -5.8688272982577352e-02,
          4.7415324949204429e-01, -9.7728801992342657e-02,
          -2.6841704067538702e-01, 3.3421598930822527e-02,
          2.3457046777895568e-01, 3.9141427019708491e-01,
          2.9813431326554965e-02, -3.1992287224691540e-01,
          8.0322392356632730e-02, 3.5489380835308060e-02,
          2.2846302746844027e-01, -3.7374180659549783e-01,
          -2.8801790833984048e-01, -1.5238761268832410e-01,
          -1.0642774071247925e-01, 2.7364578769950371e-01,
          -9.8929254696512192e-01, -2.6560422650364857e-01,
          3.9595386174783992e-01, -7.1090769670389298e-01,
          6.1741173030709928e-01, -3.4175546743316348e-01,
          -1.5254430951502926e-01, 1.8924877127475859e-01,
          2.1810017150413547e-02, -1.4488232505233634e-01,
          -1.0491361014153786e-01, -5.8193610272479664e-02,
          1.1996618680011062e+00, 2.3410748337810711e-01,
          -4.2184928183371428e-01, -3.3658997744176511e-01,
          -3.8165295871712362e-01, 5.2137853608702134e-01,
          1.2631745473896719e-01, 5.9109905684825903e-01,
          -8.7721437308230354e-01, -3.7550777897840737e-01,
          2.9868128773660213e-01, -2.2969909077136788e-01,
          4.0440391952803872e-01, 5.2150644968396409e-01,
          -9.8848938669464523e-02, -1.7822599726256522e-02,
          1.8897224435756318e-01, 3.2152965430571656e-01,
          2.2272934080027512e-01, -2.1383629249233985e-01,
          -5.1055080625746291e-02, -7.7450552225805291e-01,
          4.2532210163088430e-01, -3.1548366070834749e-02,
          6.3687980907140410e-02, -2.4198323101296196e-01,
          -1.3328694632974991e-01, 2.5523418918825774e-01,
          2.6804026776280587e-01, 6.0075265535656563e-01,
          -1.2650371722687884e-01, 4.6208628960892512e-01,
          8.1462750741559134e-02, -1.3558095616274349e-01,
          3.3449983376273673e-01, 1.9045371735862772e-02,
          5.8715142760980255e-01, -7.4855374704824703e-03,
          1.2386153853338072e-01, -5.5313251091477378e-01,
          -3.3321707601968220e-01, -4.3064172166693626e-01,
          -6.5457161369317576e-02, 3.4414811639765469e-01,
          -8.2348783135013204e-01, 3.0664075703065213e-01,
          3.0435821702384380e-01, -7.0009791600584370e-01,
          2.6823479200245470e-01, -2.7111441087659584e-03,
          4.5384527560235405e-01, 2.2958240773099023e-01,
          -7.5899422220688600e-02, 3.0753024515467653e-01,
          -7.1421524918664370e-01, -6.9764045671180636e-02,
          -1.0942128878813674e-01, 8.9166603617292728e-02,
          -5.7271930750075228e-01, -5.0266875178288248e-02,
          5.9919905038879596e-02, 2.2246510781330536e-01,
          -1.1097022823608131e+00, -2.7151415017844543e-01,
          1.8708161246595273e-01, 3.0580545087732100e-02,
          -1.9913752921359543e-01, 8.0096952584316095e-02,
          3.0111164011467254e-02, -1.8997023696223259e-01,
          6.9675621047546443e-01, -3.5626733129273130e-01,
          1.6385965486405321e-02, -2.8074871319414579e-01,
          4.9081241217887500e-01, 6.4136734403446016e-01,
          1.4560426077058294e-01, 4.3019563807728728e-01,
          -6.6611627029428050e-02, -2.7629015079992886e-01,
          -2.1646264333401449e-01, 4.8618309589125941e-02,
          -1.0631885936973312e-01, 1.2393306133735935e-01,
          5.8942094985640771e-02, 4.2203280776395680e-01,
          -6.8012080045880649e-02, 3.1631151962728149e-01,
          -1.6151636491931745e-01, 2.9943777078986566e-01,
          4.2282718950996184e-01, -3.3408357335240935e-01,
          4.0928940558828925e-01, -5.7795974001910566e-01,
          3.1465830719432777e-02, -3.7628665211044793e-01,
          3.7774526272553077e-01, -4.3435862546070114e-01,
          -1.2242046071927744e-01, 5.2988078634545806e-02,
          -3.4537052451712270e-02, 4.5674423446001788e-03,
          7.2568024798646746e-01, -2.9390619695134212e-01,
          2.1091502395254097e-01, -3.3955446241525100e-01,
          5.7093112812811493e-02, -3.9943477047930755e-02,
          2.2248715655725318e-01, -5.5318180802298256e-01,
          1.0051029345803138e-01, -1.8225531721652832e-01,
          7.0775156528158545e-01, -3.1593702087532544e-01,
          3.9507530894666859e-01, -1.7168778689111971e-01,
          -5.3408393932536387e-02, -5.5813429715823781e-01,
          -2.1903778363123173e-02, 6.8956207865547949e-04,
          -9.1906607602184609e-01, -5.0033604526992215e-01,
          -9.0338440643403378e-02, -6.5925307025882784e-02,
          8.4410406744932928e-02, 1.4454274315810064e-01,
          -2.3009796225595397e-01, -9.9416478753410267e-02,
          -2.2201639276046081e-01, -4.3044409629421382e-01,
          -1.6615578104196710e-01, -4.2882412253503166e-01,
          1.1331692608795189e-01, 1.9159711099226251e-01,
          -3.8169577468088312e-01, -5.6070942559729192e-02,
          -9.6185362283969039e-02, 6.0580983258566042e-02,
          3.6881980041455056e-02, -7.5513525840450479e-01,
          -2.0283852218091628e-01, 7.5264218621527961e-04,
          -2.2045360047611109e-01, -3.9715348818841689e-01,
          2.0270472423533994e-01, -1.2119439361608192e-01,
          -3.1371825499000655e-01, 7.4017937281387169e-02,
          6.3436943247324351e-01, 3.7420190820434451e-01,
          -1.1287550713518653e-01, -8.7503784817970776e-02,
          2.4505058759395282e-01, -2.9260731369095394e-01,
          -4.9518313802287368e-03, -1.4278118994573755e-01,
          3.4251197920807136e-01, 2.6366723784779217e-01,
          -3.9801324539902483e-01, -5.1940911285632041e-01,
          -2.5390032877738250e-01, 1.1947588738409731e-01,
          4.5834334340161625e-01, 1.7775396170058805e-01,
          -7.0087681748006569e-01, -3.0856186484604903e-01,
          8.4212016818237298e-02, 3.8170871368977878e-02,
          -8.5898758076328685e-02, -1.3236169426640984e-01,
          7.0986038081754788e-01, -2.9292294442206129e-01,
          1.5671880141332173e-01, 6.4251291306218913e-02,
          -1.8401237843555776e-01, -3.4865327278979830e-01,
          1.1586075104628908e-01, -1.5982141345457340e-01,
          -2.7629601554685657e-01, -1.9574065848051203e-01,
          -2.1331901992249147e-01, 4.9634041199023815e-01,
          -3.0004136665951192e-01, 2.3178837825607623e-01,
          3.1665806096977045e-01, -6.2537878699845173e-01,
          -1.1163566431315576e-01, -6.2828741245148340e-02,
          -4.4333996079699278e-01, 2.1386148836848529e-01,
          7.6361789840429928e-01, -7.4998375917247084e-01,
          1.2261693204518867e-01, 7.5528408909873836e-03,
          8.2993029060926693e-01, 9.7568865704440033e-01,
          -2.2322726889597286e-01, 2.6939058204766353e-01,
          5.6218307204687823e-01, 1.2332000316008089e-02,
          -3.8749657863603937e-01, 3.7024100310401759e-01,
          -2.9991301576095480e-01, 1.7101118738200832e-02,
          2.0365878553090638e-01, 2.1363685226767343e-01,
          -5.1073869040996221e-02, 6.8510297248116392e-01,
          -3.1843012559264955e-01, -1.2077373738821284e-01,
          -1.7738447205145540e-02, 2.7550962697173498e-01,
          4.2984320261291753e-01, -3.3259092623055631e-01,
          -3.4389129991780443e-01, -1.2081596349127738e-01,
          3.0615160066162028e-01, -2.7424592988294755e-01,
          -1.0978513352325465e-01, 3.0804115635922347e-01,
          2.1397858309589918e-01, 7.1305199122683308e-02,
          5.4788687341274500e-01, 2.8418734639664445e-01,
          2.6933463100530469e-01, -1.4960215703558474e-01,
          -1.7419821889496201e-01, -1.7225865092323298e-01,
          8.4389370603968783e-01, -2.2681335348371617e-01,
          -1.7724323910144785e-01, 4.5600817851463998e-02,
          -4.4043547212848444e-03, -7.7066011123627975e-01,
          4.2420284351312526e-01, 2.6982377537471175e-01,
          -4.6079461889771117e-01, -3.7482589460574300e-01,
          1.1913231560994608e-02, 1.3892702407623078e-01,
          -2.7955995663514038e-01, -4.6029229676926825e-01,
          2.1818803768780690e-01, -3.5699556464148369e-01,
          1.0131886733210237e-01, -1.3878333279305993e-01,
          -4.8766739552025290e-01, -6.8310247237056670e-02,
          3.2225840328755723e-01, -4.7936587114240209e-01,
          -1.5149883748397169e-01, -3.8954956376644501e-01,
          2.1995622496520675e-02, 2.3217305001485103e-01,
          -5.5761831125091821e-01, -1.6333456728619655e-01,
          7.0573727529583949e-02, -1.7282761157464957e-01,
          -2.0769342701707094e-01, -9.4864233540297493e-01,
          -5.8356539842647985e-02, 2.4100687612004046e-01,
          -1.5483751685334962e-01, 1.6003986334888826e-01,
          -7.8540706100885677e-02, -4.0629245283686805e-01,
          -1.8163981442996149e-01, -2.8842434586963790e-02,
          1.4256329396251965e-01, 5.2003471966860793e-01,
          1.3976733086445409e-01, -8.2354238333580937e-02,
          6.7249380960295724e-01, -2.1043709108531650e-01,
          -3.7696463772917854e-02, -3.9654533287166505e-02,
          3.5530252050410011e-01, 1.9093628640427662e-01,
          -3.1493693374996806e-01, -2.1114350030287074e-01,
          -2.0419174207178542e-01, -6.5046398461054283e-02,
          2.4811047526815680e-01, 2.3774496549599788e-01,
          -1.1974509887530881e-01, -2.9042705676215680e-01,
          3.8220169445807341e-02, 3.1735663033548189e-01,
          -5.2877743860653725e-01, -2.2826313438214696e-01,
          4.7249882888448264e-01, -1.4103687944881066e-01,
          9.8246159030844715e-02, 2.9510268725181282e-01,
          2.5335902099830197e-02, -3.2370595702011773e-01,
          5.4469281989678153e-02, -3.4696439711453769e-01,
          -1.5422335248786415e-01, -6.9912045382653443e-02,
          2.8517919136927281e-02, 1.3174427287881776e-01,
          9.7154345177943038e-02, 4.2538029382022374e-01,
          3.7863107967314197e-01, -4.0741162358472555e-01,
          -1.8226516234775333e-01, 1.4701924950712034e-01,
          -2.9676341949814239e-01, -9.1004184161046955e-02,
          1.7458902977061125e-01, -9.2930824271995990e-02,
          -2.5097424477454405e-01, -1.8067103104289184e-01,
          4.0449956645078616e-01, 9.1370793215902002e-01,
          1.0732919347344926e-01, 2.7185084902921108e-01,
          1.7119158885466484e-01, 2.2035831221195296e-01,
          -2.6339926776695161e-01, 2.0134990446163339e-01,
          -1.3380762001411578e-01, 1.6906891671603555e-01,
          2.6439401983167748e-01, 1.7286211803947037e-02,
          -5.8783473184216478e-02, 7.7864404906616169e-01,
          -2.2042841195363569e-01, -8.6475988515223895e-02,
          3.6947982688887931e-01, 5.8539050632836320e-02,
          3.4357173869874691e-01, -3.2787263227367323e-02,
          -2.0734878221515593e-01, -4.5772199507417372e-01,
          1.9527100884684684e-01, 1.0957998189466417e-01,
          -2.1229736382087619e-01, 2.7048228595905177e-01,
          5.7015579231306020e-02, -4.5659673027174069e-01,
          4.2010796875053102e-01, 3.8396654581720607e-01,
          -2.0566710448561296e-01, 7.6140468518743690e-02,
          -9.0639802007459858e-02, -2.3918970053833896e-01,
          3.2453339726638958e-01, -1.8583471542353303e-01,
          -2.8166345606943349e-01, 1.3630230510979102e-01,
          8.9731376687244027e-02, -3.4371646049609367e-01,
          8.2304342335351599e-01, 3.1098537413717908e-01,
          -3.7272142524669827e-01, -3.2443370686163941e-01,
          1.5952916460920472e-01, 1.0678999392605563e-01,
          -5.7804989593317586e+00, 4.2703260368270751e-01,
          6.4395583607989515e-01, 1.1077516273098467e-01,
          7.4013149358670072e-01, 8.2083366717266093e-01,
          -5.8271847913726382e-01, -4.3146082238371089e-02,
          6.6697908737119338e-01, -9.9539955103244440e-02,
          5.8257026931091159e-02, -1.1882866374458308e-01,
          -9.5513459752122748e-02, -4.7991190042756710e-01,
          -6.4469157270414768e-01, -9.5997093177569395e-02,
          2.9554224092678760e-01, -1.6761878380073023e-01,
          3.9539577242683660e-01, 1.0796652398264861e+00,
          3.5281074627655484e-01, -8.9625044898057649e-01,
          -9.3284732696211278e-02, -6.0446099418565036e-01,
          2.4655374297874824e-01, 8.2972921003510891e-02,
          8.0318693782379214e-01, 7.7977686500249749e-02,
          3.5197524045834055e-01, -1.0624746137547947e+00,
          7.2574778295966980e-02, 2.2951504908013343e-02,
          -1.3431068749837742e+00, -2.0476417249601242e-01,
          6.6841283468742729e-01, -2.5392724081265949e-01,
          1.4238012499421995e-02, 2.0131544471071922e-01,
          1.8320053054884641e-01, -4.0692859264133052e-01,
          -1.9934294517775500e-01, -2.2337457813998721e-01,
          -3.2313303692018186e-01, 4.5622805756429952e-01,
          -2.1977342895321833e-01, -1.5963681763971793e-01,
          -6.7699647243489425e-01, 3.5678304766729363e-01,
          -6.6556135070142297e-02, -8.2799039079272593e-02,
          5.4467180262532638e-02, -5.8545219606190753e-02,
          -2.5069006312360118e-02, 2.5862447761095270e-01,
          1.5425814618773523e-01, 1.9955824656469640e-01,
          5.2028045982854265e-02, 1.4355909637174508e-01,
          -3.2880681270972034e-01, 6.7233903358897495e-01,
          2.1137952539016852e-01, -7.4671423406703227e-02,
          1.1275198195076663e-01, 1.1092345561467500e-01,
          2.1622065493362957e-01, 2.6886634244717916e-01,
          -3.0762612103304211e-02, 3.0736491315098097e-01,
          -3.3301099899938805e-02, 2.7086748605777611e-01,
          1.9925843306946905e-01, 7.0924480068678464e-01,
          3.5936898213070395e-01, 3.9149473610309474e-02,
          2.0579248886567442e-01, 1.5520119936884924e-02,
          -4.3726946979865400e-01, 2.0989433330016288e-01,
          -1.3985063628969743e-01, 4.6156521430484393e-01,
          -1.4828379046811566e-01, 7.4863136241059072e-02,
          -2.3473923022211834e-01, 3.8101638507280333e-01,
          7.8744001358954452e-01, -1.5131382790136089e-01,
          7.8044560978432334e-02, 9.5125840646819951e-03,
          -1.4359061656380945e-01, -2.5156200707937659e-01,
          -1.4805322832927186e+00, 4.5139330979641651e-02,
          3.3023910241168619e-01, 3.6809531926606931e-01,
          -4.8821289262541351e-01, 1.6441603399116924e+00,
          7.7671189937372390e-02, -1.3431971125500933e-01,
          -3.0332093539676186e-01, 2.5693280622556186e-01,
          4.5164177550707119e-02, 1.8216281935694179e+00,
          2.1286274337109537e-01, -5.6684978155314625e-01,
          1.1335585167333340e+00, 1.4470173355919722e-01,
          -1.3243266884759608e-01, 1.2970238289263586e-01,
          -6.1733636008849824e-01, -3.7900265336533586e-03,
          -4.7068757726586430e-01, 1.7363430949300621e-01,
          -1.2682567370321315e-01, 2.5003663527266740e-01,
          -1.2907356589728241e+00, 6.8953992287186905e-02,
          6.9494337339308820e-01, 1.8244913460450710e-01,
          3.7150163809508913e-01, 1.5405222855626599e-01,
          -2.5605129765410672e-01, -1.3651998450815089e-01,
          6.6282384349593992e-01, 4.7123248045104489e-02,
          3.1774768698887484e-01, -1.1970467542705703e+00,
          -3.6138935544212894e-02, -5.2030072245388981e-01,
          -3.1316664549296741e-02, -1.1099744414626451e+00,
          -3.1500568605146040e-01, -2.1452918087686071e-01,
          3.7979805647063480e-01, 6.6265466367529224e-01,
          -3.0566436836784305e-01, -1.8470579295465250e-01,
          -1.5762602415044302e-01, -1.5918853579045866e-01,
          -1.2000579882282933e+00, -9.9139364839711142e-01,
          -5.7878313649279436e-02, 6.6759096731479506e-02,
          -3.7238790780307685e-01, 7.9328066655779139e-01,
          2.0499733961819762e-02, -6.6049073434364114e-01,
          -5.9918316228918100e-01, 4.9998058496979236e-01,
          4.4282680345551995e-02, 1.0138081262532153e+00,
          -7.0988399325148221e-02, -4.7528867510454814e-01,
          1.6632258976292311e+00, 3.5254775702825000e-03,
          -1.3240307794081609e+00, 5.7114980033759388e-01,
          1.5548908240846873e-01, -3.6905337996382459e-01,
          -1.3699148947404979e-01, 4.4539971759072394e-01,
          -2.8760410407023601e-01, 2.9539444875288334e-01,
          2.3003394697005811e-01, -7.6302018080020784e-01,
          1.6823036606652161e-01, -4.0732137275028107e-01,
          4.0970043171093729e-01, 3.7117327866117122e-01,
          -3.2056540485728047e-01, -2.2157168055802909e-01,
          4.8798895128161862e-01, 1.1271735094429107e-01,
          -3.4066163856608781e-03, -9.3317548684656104e-01,
          3.3822462938205616e-01, -7.4776253699050965e-01,
          1.9731775279711300e-01, -2.5964998918413446e-02,
          1.4680620999379761e+00, -3.6454525509044988e-02,
          -1.2769126570119127e-01, -5.8115207808828707e-02,
          1.5586540417848646e-01, 1.2648669506076818e-01,
          1.1874539185916774e-01, -1.0541293638798128e+00,
          -6.5791583992559288e-01, 2.0581715847291437e-01,
          -1.2454647216026636e-01, 1.1065017386947494e-01,
          -1.9852746605488952e-01, 5.0527911286282778e-01,
          -2.0147393641374446e-02, -5.8574774999868440e-01,
          -2.0506290698275531e-02, 1.8255494872632613e-01,
          4.0336561521677550e-01, 3.7326347689964495e-01,
          1.4076574500313396e-01, 4.9542894688918132e-01,
          -1.9670522384791977e-03, 1.0255333368156813e-01,
          -8.7529551060832919e-02, 1.5523609968585717e-01,
          2.7468049086333557e-01, -1.7322871747355764e-01,
          -3.4960909977078576e-03, 8.1329419552891280e-01,
          -7.6848967527581594e-02, 4.2215102974860941e-01,
          1.6674911986696226e+00, -2.3084209090915692e-01,
          -1.0656902600564096e-01, 1.0727931138029960e-02,
          1.2787425008380032e-01, -1.4023134674552211e+00,
          -1.8768704967527383e-01, -7.3479243269656247e-01,
          -1.5791026293717654e-02, 4.7688560203847297e-01,
          3.9021711998745295e-02, -1.9777510703245023e+00,
          -2.8359238943582615e-01, 4.8211333478277135e-01,
          -9.6220332918355622e-01, -1.3137108302057405e-02,
          -2.2448006299242276e-01, -3.8760760618700701e-01,
          5.6615115383953085e-01, 3.5600670550353358e-01,
          2.9161956646587395e-01, 5.4778635673953646e-01,
          -1.4717562676005036e+00, -1.7479101565200474e-02,
          1.2982632215197201e+00, 2.4775224002098922e-01,
          -8.7665265235766521e-01, -7.1724103449982080e-01,
          -5.1026069924804340e-01, 2.1186994570069823e-01,
          -8.8411832381279684e-02, -9.3526964394591100e-02,
          4.2752565601674125e-01, -1.9968369275133505e-01,
          3.6000018767227727e-03, -4.1133281151406176e-01,
          -7.8853539735556713e-02, -5.0507706126430518e-01,
          -9.5910564345300944e-02, -9.6844296242384176e-01,
          3.5356442664643120e-02, -2.4891930785959826e-01,
          -1.7683969463253099e-01, -2.9953730852583682e-01,
          -6.6317347171114243e-03, -1.9276991436528712e-01,
          -2.6310706841333648e-01, -2.3562985808121095e-01,
          1.9208661779332981e-01, -6.9973808246216618e-01,
          2.0732957199948353e-02, 1.9872360218197857e-01,
          2.4015053518854809e-01, 7.1499341356168700e-01,
          -1.0037894738863412e-01, 1.6932067417990368e-01,
          1.0325252681241589e-02, -1.9846986009168993e-01,
          -1.6266146522181370e-02, 1.7140188644655194e-01,
          2.3692278934774566e-01, -5.6161332168463818e-01,
          8.2301368353654425e-01, -1.7060895048786809e-01,
          -3.7870528175180829e-01, 3.6542601486975479e-01,
          2.0904107634590308e-01, 3.9130861990009352e-01,
          -4.8524938857638845e-02, 5.4501190374820749e-02,
          -3.7009654290631222e-01, 3.7856577345013931e-01,
          -6.1050801193777628e-02, 7.8555603985693678e-01,
          4.3596119753792245e-01, -5.8190133803969535e-01,
          -2.3341734823899751e-01, 3.1534638927086750e-01,
          -4.7026609279240067e-01, 1.3161542780239163e-01,
          4.2929716256646261e-01, -1.5191373204754760e-01,
          3.9572444412053592e-01, -1.0220503333019372e-01,
          2.6201338241928052e-01, -4.6885934543283697e-01,
          1.9301010595625401e-01, -4.0237932538637144e-01,
          9.4526083031344510e-01, -3.0271292138355599e-01,
          -1.8115621474200952e-01, -1.2318827497571368e-01,
          5.7771695407439760e-01, 5.7698354932077389e-01,
          -2.6451216751384635e-02, -1.1114445013162306e+00,
          -6.8036308142871693e-01, -3.1975545932408488e-03,
          1.5426636048796277e-01, -2.2627431086653746e-01,
          -1.2024654677664841e-01, 3.6869670866446201e-03,
          2.1126866534925792e-02, 3.7452418155407854e-02,
          -2.5915116002587137e-02, -1.5248558126230523e-02,
          8.9702026956679452e-03, 1.8601988460306759e-01,
          2.4392923138081554e-01, 4.5049498233405333e-01,
          -1.6432250958757269e-01, -6.7995866944296102e-02,
          -6.7544155287523078e-01, 1.8328383904408213e-01,
          -2.0218426308201126e-01, -1.3903756136685716e-01,
          -3.4997986719627361e-01, -1.2274376129635657e-01,
          3.7474979171876510e-01, 2.3675579143422706e-01,
          8.7387160635969952e-01, -3.5019056173143936e-01,
          7.4506546488825709e-02, 1.5442891687905771e-01,
          -3.6312528742407413e-01, -4.0691295664062821e-01,
          3.7612376986335622e-01, -2.3277971829048319e-01,
          -6.2631770145034193e-01, 3.7683108996850112e-01,
          -7.1440977952509768e-02, -7.1234153340398576e-01,
          6.8208576538930443e-01, 1.5341759209974745e-01,
          -6.3376331528863294e-01, 6.5253723952707260e-02,
          -1.9205378527072944e-01, -1.0382502221107658e-01,
          5.0515490854624874e-02, 4.2600794116029217e-01,
          -3.4861016437872289e-01, 1.3293357561195698e-01,
          -4.6963209786682875e-01, 6.2037458624550146e-01,
          2.3314198767010469e-01, -9.1877438485926402e-02,
          -7.4590447794659218e-02, -2.9162566766004872e-01,
          3.7202824554510205e-01, 2.7974986581273531e-01,
          -8.5793409604285653e-01, 6.9108307383032341e-01,
          8.9063425760200834e-02, -2.5042101219264967e-01,
          -1.2765004630802398e-01, 4.8648461762737755e-01,
          6.1114498713358500e-01, 4.5720586156831144e-01,
          -6.8415965474090579e-01, -6.8939079184973273e-02,
          -3.7510174007089087e-01, -1.1721327912612703e-01,
          4.6021042150951208e-01, -2.1831559126572667e-01,
          2.3629241516908969e-01, -1.3687401882820782e-01,
          -3.4216818180271719e-01, 3.9538745205913173e-01,
          7.2171487679063095e-01, 4.6861471872233734e-01,
          2.5284231824224096e-01, -7.8414358760639669e-01,
          -3.9470071869413773e-02, -2.6179236331651456e-01,
          2.1161050663954006e-01, 8.8555998946738368e-01,
          4.1734535769682654e-02, 2.2994238979924506e-01,
          -2.1913900264842470e-01, -2.2808107093653660e-01,
          -1.7412516312058907e-01, -4.9880879573909187e-01,
          1.1968265484684731e-01, 1.1876494537936533e-02,
          4.7630042881142770e-01, 1.4688880484430125e-01,
          1.5362851680227671e-01, 2.3331878193461409e-03,
          -4.1114797297098560e-01, -5.0652248943476053e-01,
          -6.6877503957486678e-02, -7.1998929077219165e-02,
          6.0332097506907219e-02, -2.7164144705339545e-02,
          -4.4061017030282318e-01, -2.5881492118546828e-01,
          -7.0365833345966786e-02, -2.8093672075892034e-01,
          4.5558578725731402e-01, 8.9058606568892279e-02,
          3.0627840651488542e-01, 4.0975726772051202e-01,
          -1.0033568104495201e-01, 3.0880043133557956e-02,
          -3.1220385759053831e-01, 5.4188732638680570e-01,
          7.4760938376173605e-03, 2.6454450191678697e-01,
          -1.4142389997524935e-01, 5.2267225199974572e-02,
          -7.0849865625924302e-01, 1.1222006852104802e-01,
          -9.7450642261421516e-01, -2.8798594221427790e-02,
          3.7486562469482683e-02, 1.6987213454145464e-01,
          -3.5995820754496588e-01, 3.3410271878374348e-01,
          -5.5114411481500411e-02, -9.0967965039478613e-02,
          -4.3436729101503396e-02, -5.0559300517569739e-01,
          -2.2100207967276228e-01, 1.5392472189396586e-01,
          5.0980804634476329e-01, -5.5670226548752444e-01,
          -6.1662933649653706e-01, -3.6859296380172890e-01,
          2.3727964792459994e-02, -9.7582260403315163e-02,
          9.6826604026904217e-01, 5.7189421980963863e-02,
          6.2911578978232252e-01, -1.3197369513971375e-02,
          2.3400264326347828e-01, 5.7987600564957953e-01,
          -8.9991628644952401e-02, -8.3467845648811004e-02,
          -2.1539890829471159e-01, 3.8593625563704867e-02,
          -4.4255983524268072e-01, 2.2020801638779067e-02,
          1.0453033316653154e-01, -1.1725920122860106e-01,
          -1.2353494803241540e-01, -8.1255502205039160e-02,
          -1.1407006341634655e-01, -8.6261897636561358e-01,
          3.1098881318540647e-02, -2.4937051792491588e-01,
          1.0482627047454778e-01, 1.8701586173837062e-01,
          4.7581845224267325e-02, -7.1000138684031799e-01,
          1.3258433376206440e+00, -9.2647696863804929e-01,
          -2.4684773399376936e-01, -1.2444226756388836e-01,
          4.4614338397007658e-01, 2.4218349341998641e-01,
          2.4230195598343726e-01, -6.1587859501338965e-02,
          -1.5647042220645077e-01, -1.9062867825851235e-01,
          -5.3405501602645067e-01, 3.2781336268584912e-02,
          7.8120277200937316e-01, 5.5021588280194400e-01,
          -7.4974072058406938e-01, 2.5389702070172998e-01,
          2.0999550987640689e-01, 1.1518714389292342e-01,
          1.3856998729167760e-01, 5.0778457696611344e-02,
          1.8409318480657333e-01, -7.0011542787928349e-01,
          6.7305410163841928e-01, 4.1087203767017455e-01,
          7.0491780683863484e-02, 6.6626060027003040e-02,
          1.0586976439694389e-01, 1.7378900929353588e-01,
          4.0131830335351631e-01, -4.5757940308750739e-01,
          2.4498888538157873e-01, -5.2770189174898352e-01,
          9.8227091609128209e-02, -6.4814716702108366e-02,
          3.3462767481322114e-01, -1.0549631212288327e-01,
          1.4600356956354532e-01, -5.1792521152925507e-02,
          -1.6917881374440705e-01, -1.9656197900420316e-01,
          -2.4372657137973347e-02, 1.1203629450026460e-02,
          1.9187992660340888e-01, 2.1478850096708738e-01,
          1.8453708607649438e-01, 8.0413979896075752e-02,
          -2.7134949764722260e-01, -4.9984098854405201e-01,
          4.5426041122905353e-01, -1.8021502169668979e-01,
          -7.6990046778307826e-03, 2.7115548389236988e-01,
          -1.3650881716647542e-01, 3.8386651070996097e-01,
          1.0993855981343771e-01, 1.8651353965582085e-01,
          1.0950468438691734e-01, 9.0168415646427219e-02,
          -2.9054920595716327e-01, -1.7526192250607903e-01,
          4.4290747106235484e-01, 1.6528497710738921e-01,
          -3.3096618836857289e-01, -1.9035253705972421e-02,
          -2.0085843031051281e-01, -3.0398738587637497e-01,
          -2.7444032730048973e-01, 1.7031054596527703e-01,
          4.6077446772346536e-01, -2.5237338691811589e-01,
          -2.3009611949916497e-01, -4.2056980454798759e-01,
          -8.1882700822042603e-02, -1.5696030378219646e-02,
          -1.7054031715445428e-01, -3.1925483252097278e-02,
          -4.4481968700232599e-01, 1.3693549276602793e-01,
          -3.9285032827232808e-01, 2.0084390405072883e-01,
          -7.3302698536408861e-02, 3.0031850932101184e-01,
          -2.0507959085675084e-01, 2.9771058117418626e-02,
          -3.0929739637854805e-02, 2.5864693998372040e-01,
          -2.4464515151206967e-01, 5.0977854904627640e-01,
          -2.5443093458517124e-01, 5.7759102584823065e-02,
          -9.6651483424581436e-02, -1.8027032737568428e-03,
          -2.4348294229312581e-01, -5.0960132733876395e-01,
          2.5675958712507546e-01, 1.5790992034099260e-01,
          9.6342909039013691e-01, -1.3532412607698354e-02,
          2.3341245865535609e-01, -3.3010811372224425e-01,
          3.4768685558802948e-01, 5.7129335688064380e-02,
          1.3893720092024020e-01, -1.2277330789590863e-02,
          -2.8691689371458723e-01, 8.3809702546017217e-01,
          2.5706780743447782e-01, -2.2035589902284911e-01,
          -6.5889890910994720e-01, 2.2742892711542553e-01,
          1.1323243606973682e-01, -4.9409589450686087e-01,
          -5.2057166577447161e-02, -5.9542782513855683e-02,
          9.2038527134861173e-02, 4.4736104708835178e-01,
          1.3920696605323327e-01, -6.2068824052182059e-01,
          -6.6993583762017450e-01, -1.7624982176507417e-01,
          2.9150680931905282e-01, 9.7203252190738859e-03,
          6.6381963416044285e-02, -4.8173068596922702e-01,
          5.3028148778141763e-02, -2.3770749521705900e-01,
          1.3444774040792781e-01, 1.2557181124250966e-01,
          -2.7437469199019529e-02, 2.8913142569335509e-01,
          -5.3217243013606341e-01, 3.1436820236694824e-01,
          3.2679357402740039e-01, 2.0119591154713931e-01,
          -7.3568138946543293e-02, 3.6298475961705295e-01,
          2.6920513391276812e-01, 7.2888001763662252e-02,
          -1.9376423356124561e-01, -1.8036727612726663e-01,
          -3.0823451068888119e-01, -2.5134183336754878e-01,
          1.6047875892262634e-01, 6.3859920574284246e-02,
          -3.7897328895089583e-01, 2.4330660127326958e-01,
          1.2872390988223956e-01, -2.4573623725985244e-01,
          2.4788372850926166e-01, -1.0280299160702427e-01,
          -4.9460874916068043e-02, 3.9505520565891086e-02,
          5.9195633164592476e-01, -2.3594102015290205e-01,
          -1.5297544926102438e-01, 4.2417284325671739e-01,
          2.9826147374037654e-01, -2.9387580912562794e-01,
          -6.2350564534181328e-02, 1.8617977842764249e-01,
          4.1256675618095007e-01, 3.0879596934399511e-01,
          2.3911515426358357e-01, -1.8472646115694349e-01,
          -3.3868218227632396e-01, 1.0844535692654386e-01,
          -1.9790391852041692e-01, -6.0921898008954298e-02,
          3.5392713692478900e-01, -9.9291919958829328e-02,
          -5.4767977289267433e-01, 8.1789805836785259e-02,
          1.8143996975695975e-01, 9.2416942553393111e-01,
          5.0281387112475018e-01, 2.7496037090751929e-01,
          4.3084514279418162e-01, 1.4636927634374661e-01,
          -5.7380130979579350e-02, -1.1822299327274816e-01,
          1.2740770537415125e-01, 3.4639646073385620e-02,
          -2.2440590232065588e-01, -2.1093681502108743e-02,
          -1.2456014065116387e-01, -4.3212253842081838e-01,
          -1.4134198213074012e-01, 2.3248759912052802e-02,
          1.3407693041589053e-01, -8.1076038859415456e-01,
          3.2157753712014175e-01, -2.4959500192515136e-01,
          4.0120295242694282e-02, -2.7819533855853534e-01,
          5.9125065933902550e-02, -2.3900008963554883e-01,
          -2.8278910386608391e-01, 2.3006193530132130e-01,
          -9.0289832100707026e-02, 3.0091823079468200e-01,
          2.0119707945357454e-01, -6.3850145960713089e-01,
          -4.9772769847731763e-01, 6.2401246136585334e-02,
          -3.4936743224192895e-01, 3.0276795573246901e-01,
          -2.8890343090570085e-02, -3.0778939125770784e-02,
          -1.3360729378998501e-01, -1.2279593712983305e-01,
          -4.2293407022216478e-01, 9.0037135838679810e-02,
          9.8002565504080527e-02, -2.8464945053964030e-01,
          -2.0120599380224521e-01, -2.6906739947119623e-01,
          5.7876510412673399e-01, -2.0665442584643900e-01,
          -2.0268973551054462e-01, -8.5980444479761095e-02,
          1.9066523199640004e-01, -2.8195820180982395e-01,
          2.8104333652512642e-01, -9.5505817051006581e-02,
          3.5560095206390592e-02, 1.4519807515151689e-01,
          1.2461290235028033e-01, -3.2791101247723814e-01,
          -4.9267943618461912e-01, 1.5877984260288820e-02,
          1.3679662751121505e-01, -5.2420134094653614e-01,
          1.0590507059567859e-01, -1.5011110985309892e-01,
          -1.7684662806783991e-01, -8.5121995693878433e-02,
          -1.9163182407634091e-02, -1.0717771196033090e+00,
          -9.0777733423476920e-02, -1.2499110548100321e-01,
          5.1532882252792811e-01, 2.2974893221861642e-01,
          7.0703749066373098e-02, -5.7303733750820020e-02,
          9.4188802244240824e-02, 1.2339690691455871e-01,
          1.3779715193520156e-01, 1.0274696374395998e-02,
          1.3961488739665281e-03, 2.5804381252730518e-01,
          1.2594423215897202e-01, -1.5601970663964332e-01,
          -1.3511397662457963e-01, 7.5515850352338182e-02,
          4.0906668419628878e-01, 2.1001920277006011e-01,
          1.7256535238226386e-01, -6.1427795614022944e-02,
          -6.1047387814238144e-02, -2.9239209400587191e-01,
          -2.5592522664234418e-01, -2.1931074085859606e-02,
          -1.9074340137627932e-02, 2.7324841020106855e-01,
          -1.0196133438600878e-01, 1.1596200707208396e-01,
          2.9328801621238137e-01, -7.1580860368441274e-02,
          -9.3657885777396296e-02, -8.5973458942259398e-02,
          -1.1203544903652463e-01, -3.5715851231710544e-01,
          1.9710933369789230e-01, -2.4638648377307470e-01,
          -1.4503188165623562e-01, 1.8691183114870449e-01,
          7.4780133110454061e-02, -2.1796882019062247e-01,
          2.0893901228412148e-01, 2.6723870981135212e-01,
          -1.3587411728038087e-01, -5.7683349863072095e-02,
          -3.6914117045270978e-02, -2.2148422478377475e-01,
          3.4001981818339716e-02, -8.4577163035318273e-02,
          -1.4609022939884153e-01, -5.5332872985144825e-02,
          3.7117950777053918e-02, -1.0363342627741537e-01,
          -4.1739427436513721e-01, 2.3454942608377050e-01,
          3.3175867563235198e-03, 3.1640655827084802e-01,
          1.9662339997844924e-01, 1.4848544691322058e-01,
          2.8577953270261869e-01, -1.0180285483810675e-01,
          -2.0765833483078261e-01, 2.7194770487922831e-01,
          -2.4896114974698164e-01, -2.5424051249393908e-02,
          1.2936784485994349e-01, -2.6954476358424850e-01,
          -9.4952008396376797e-02, -7.7347479220032239e-02,
          -5.9066740106265248e-01, -1.5368538126272039e-02,
          1.8429095135614551e-01, -4.7835436627806244e-01,
          5.1967527450531048e-01, 1.9370582277124765e-01,
          -5.5361459964174943e-02, -2.4801491196348439e-02,
          1.3272709908518238e-01, 1.2920881887568647e-01,
          3.0637015601551489e-02, 1.3240050407267889e-01,
          -2.5634644406051316e-01, 2.3695339027076566e-02,
          -2.6896496532518177e-01, -6.2027346454602683e-01,
          -6.5927881561747048e-01, 1.2654171006792267e-01,
          -2.7437932761713602e-01, -2.6895010456610824e-01,
          1.9314482020021770e-01, -1.6786285206196314e-01,
          -2.4438459814913358e-02, 1.6415671862683570e-02,
          -4.3644382065308657e-01, -2.7393152653248470e-01,
          -1.3664218489625590e-01, -2.5219748533777869e-01,
          -3.2195344977095797e-01, -2.7863005071099339e-01,
          4.6009320586138763e-01, -2.4709193253718124e-02,
          1.2107659805199257e-01, -1.3137263253587969e-01,
          8.0079708170934433e-02, -1.0804053377411096e-01,
          6.6641631196729237e-02, 2.5711188694697817e-01,
          -3.1603698137420810e-02, 3.9088499207630406e-01,
          -2.4993820416953538e-02, 8.0088350408984224e-02,
          -1.5367482380060726e-01, 2.7419326875950834e-01,
          3.0519771534306939e-01, -2.7212177333965076e-01,
          3.6463292297005089e-02, -3.2173529866539802e-01,
          -9.1201147165739738e-02, -1.7406948822914725e-01,
          8.6537744125442212e-02, -4.4422608152123261e-01,
          1.6606592745984308e-01, -1.6992957215012727e-01,
          1.3025585535081866e-01, 1.4372090264769008e-01,
          -8.4025915935983783e-02, 1.0089602716804483e-02,
          7.5999867580684735e-02, -1.8738125594668406e-01,
          -6.3372685963893893e-02, 1.5216944720678649e-01,
          6.2842984772552468e-01, 1.7100169771228163e-01,
          -8.8629475230561264e-02, -2.1354702061995551e-01,
          1.9658410732304646e-01, -6.2550435499099779e-03,
          -1.2115639572642369e-01, 2.7092054984156627e-01,
          1.4025034863794703e+00, -3.5584707732307333e-02,
          -5.4176032702273325e-01, -8.1560627574525285e-02,
          -7.1243600783097771e-02, -2.0076990960245952e-01,
          2.0945108146301436e-01, 3.3885462017132252e-02,
          -2.2562946764119088e-01, 8.8939634658769029e-02,
          -1.6357498728262387e-01, 4.0593060644214278e-03,
          -1.6455600885846416e-01, -1.9532653713390229e-02,
          1.3337741507101172e-01, 7.5031455605994307e-02,
          -4.6277505809159569e-01, 9.4674674064888345e-02,
          6.8653529321765688e-02, 3.6701103365756757e-02,
          -1.9369883386057551e-01, 1.5500684282845789e-01,
          4.2147808868146841e-01, -5.5646807650654634e-02,
          -6.6624024095316692e-01, -1.9781805644214634e-01,
          -2.4256918669739005e-01, -2.0762826320603761e-01,
          -2.4407652553678991e-01, 1.3271385897659427e-01,
          1.5223838673567952e-01, 2.7586315111444804e-01,
          -5.7349213681957771e-02, 2.4727493034370177e-02,
          -1.3518364252148590e-01, 3.8981702519814787e-01,
          8.2623018464126716e-02, -2.8238347177553602e-01,
          1.6111142891582197e-01, 8.5276554486042308e-02,
          6.2771027980990976e-02, -1.3879713756580664e-01,
          -7.5839230756323719e-02, -2.1542081566608662e-01,
          2.1332336754750056e-01, 2.8914480659248593e-01,
          9.4656224931764274e-02, -4.4620168891989875e-01,
          1.8206253609607345e-01, 2.3787532072431717e-02,
          -6.4090154509222952e-01, 1.1367621269018947e-02,
          4.7661207188635923e-02, 5.8932831405226829e-02,
          2.1042261382629716e-02, 1.8194790485915643e-01,
          1.7937151559006327e-03, -3.9806023393356205e-01,
          -2.0299513697770949e-01, -3.1127280618004072e-01,
          4.3845427069373957e-02, -8.4602830515797714e-02,
          -1.0931240842647119e-01, -5.1006519615975063e-02,
          3.2772110522687768e-02, -4.9926306755679536e-02,
          1.8580051561315730e-01, -8.7642460954869689e-02,
          5.0768024324827465e-01, 1.6816817562430339e-01,
          -1.7914196293027543e-01, -1.4882963973658889e-01,
          7.0941763645582717e-02, 6.1299857071650102e-02,
          -6.8566730085139277e-02, -3.3959420614209374e-01,
          -1.5217096916869013e-01, -4.1239374043180094e-01,
          -4.4099923655158879e-01, -3.4669903097837995e-01,
          2.4147944011062215e-02, 1.0003848397984802e-01,
          8.9907109750355860e-02, 1.3421305015869164e-01,
          -6.6689064896929739e-01, 1.5368539594990405e-01,
          -1.8209191575556936e-03, -1.1708810319780429e-01,
          4.7928180476329699e-02, 2.1363636938660130e-01,
          2.6271582914926517e-01, 1.6497237777867751e-01,
          1.7518355281504652e-01, 1.4907119906128322e-01,
          8.6994752990820198e-02, 1.4890096856347687e-01,
          1.7407739910963307e-01, 1.4672026481302580e-01,
          -1.3488281236924225e-03, -4.6718368054937653e-01,
          -2.0715610936614737e-01, -3.8069349196611135e-01,
          1.9587406226903864e-01, -6.8063836846204073e-03,
          -4.0365442332123996e-01, 2.1561806783674348e-01,
          -3.3591954836014748e-01, 1.2567777271465441e-02,
          -4.4094325002817925e-01, -2.4300178969095620e-01,
          2.9808351676865390e-02, 1.1906283927791013e-01,
          9.0396812885234956e-01, -1.0642420256200939e-02,
          2.0957352030621654e-01, 1.1285016938357398e-01,
          2.3546293643398281e-01, -1.0202269288474340e-01,
          -5.1651033890531550e-02, -6.3863239971446550e-02,
          2.0104456789666263e+00, -8.2794070759897226e-02,
          -7.7976633456428790e-01, 1.0145469878393097e-02,
          -2.9976941537959689e-01, -1.2772722310105272e-01,
          8.1011300162819322e-02, -2.9008786655885255e-01,
          -1.1490668580946864e-01, 2.0299556842025818e-01,
          1.8616584380984960e-01, 3.9093616117688684e-01,
          -3.1185580148247516e-01, 4.8734853555646107e-02,
          3.8445509358078089e-01, 2.0790381871886571e-01,
          -2.4959133689696331e-01, -1.1161610511438469e-02,
          -4.9136172122843552e-01, -3.6776346042466057e-01,
          -1.8952423830448045e-01, 5.5695049419496656e-01,
          3.9106073323002966e-01, -7.8937232129628762e-02,
          -2.7263369823263084e-01, -1.2979697231561363e-01,
          -1.9616944830401853e-01, -1.4822161670765216e-01,
          -3.4621253998709561e-01, 7.9414349105388582e-02,
          3.4862061965053488e-02, 6.3347142012235158e-01,
          2.1998149215918032e-02, 1.7342470635864426e-01,
          -1.1634444975222215e-01, 8.0729905680520839e-02,
          -4.0293627798238257e-01, -3.7015777022300644e-01,
          -2.0428746321425076e-01, 1.2963620397627496e-01,
          1.5405016568881072e-01, 1.3056164500948245e-01,
          1.3836441780244169e-01, -8.9838037631176415e-01,
          -2.1647559678617684e-01, 2.8179447041154532e-01,
          3.2349020784104987e-01, -2.5412265335210499e-01,
          1.3843859930150795e-01, 4.2704131862052457e-02,
          -1.4307195841192627e-01, 1.3294588356824427e-01,
          2.9795169909911379e-02, 1.3893310370484810e-01,
          -9.6147647848044526e-02, 4.8018202259590753e-03,
          9.7366259641151462e-02, 3.6364665339853636e-01,
          -6.8490100146302846e-01, -4.1552402490100193e-01,
          3.3447805958856053e-01, -1.0322396437371099e-01,
          -5.1268444518754852e-01, -2.9068517120342241e-01,
          -3.9392588949513238e-02, 1.1277677643106845e-01,
          1.8013640536965487e-02, -1.7666558789337994e-01,
          6.5224430106864406e-01, 2.5810408143819513e-01,
          9.4915414528625730e-02, -1.1843923571943644e-01,
          2.0436964843957306e-01, -4.7404274069164289e-02,
          -3.2064400266438298e-01, 2.4182823530984925e-02,
          -1.0558078822862314e-01, -2.5129127344243130e-01,
          -4.8657624866692456e-01, -3.6696023068008654e-01,
          -9.6632080700340059e-02, -9.5323646646484239e-02,
          2.8881816631576396e-01, -5.9012274016173845e-03,
          -3.6385073256411588e-01, 1.6876661016278233e-01,
          -4.7203819442584151e-02, -5.0724895534810166e-01,
          5.5558295674429006e-02, 1.0155988172224264e-02,
          2.7135505473833380e-02, -5.6504429170004367e-02,
          1.7323803856192455e-01, 3.7168435941304562e-02,
          5.4491027602617495e-02, 2.4038639529669986e-01,
          -3.4238679330879807e-01, 2.9020470083503747e-01,
          8.5538476626143167e-02, -5.9557909795279573e-01,
          -2.0509821492297722e-01, -1.8916712053938978e-01,
          -2.3919966994274092e-01, 1.8711689703622486e-01,
          -3.7659243515641294e-01, 4.1512339370584395e-01,
          -7.9404649416577822e-02, 3.1807988254693059e-01,
          -1.8917692809129688e-01, -2.8008686677799211e-01,
          4.5135545531235399e-01, 2.7058658196460628e-01,
          6.0224282891573799e-01, -3.8289534159969896e-01,
          8.9925426269705580e-02, -3.7003819154965889e-01,
          3.8310242637101533e-02, -9.1702056864939097e-02,
          -3.8629226933798949e-01, -2.7726905284381925e-01,
          2.5161136074487342e+00, -2.8477232138984648e-01,
          -2.0293581269377808e-01, 1.6590058612593339e-01,
          -4.2288557652375774e-01, -1.6571619951837666e-01,
          -2.0487134504309218e-01, -5.3110634226477493e-01,
          -1.3539547334642005e-01, 9.4422844399804209e-02,
          4.8330505539580104e-01, 2.5600037528432840e-01,
          -1.1266377198953374e-01, 4.3856337738745482e-01,
          2.7199057275547867e-01, 2.5889515102778049e-01,
          4.6288912303930792e-02, 3.3974025528220243e-02,
          -1.0178802307034122e-01, 8.8449016615078837e-03,
          -1.5341349634706997e-01, 1.0091904478172651e+00,
          -4.5954021600142475e-02, -4.9961097042108979e-02,
          -5.1733246447675896e-01, -9.6767358855077298e-02,
          -2.9170117100513104e-01, -3.8807078638880327e-01,
          -4.6840474154494888e-01, 2.9241535909580540e-01,
          8.4587531196731139e-02, 2.6740875669917186e-01,
          -3.7596005215295375e-01, 6.1076668858439889e-02,
          -4.0060893366289846e-02, -1.3507204771756734e-01,
          -8.8784347253626147e-02, -3.5534939317731634e-01,
          8.3296571458182325e-02, 2.6335070048024717e-01,
          1.7988174126041173e-01, -1.1165875056690117e-02,
          -1.8502066546672621e-01, -7.1297547775165326e-01,
          -2.4655624654349789e-01, 3.7597719011889591e-01,
          3.4320268369393481e-01, -4.1741572416977157e-01,
          1.3328226139735963e-01, -3.2648725309744098e-01,
          -3.5262825345507004e-01, -1.7714709081827377e-02,
          -1.0094322794241233e-01, -5.3418341696094818e-01,
          8.8174070527723431e-03, 3.1217395125875791e-01,
          1.7711026096805080e-01, 5.8062887315196467e-02,
          5.9031953426820702e-02, -3.9393665584785437e-01,
          9.0524421458700488e-01, 6.7729657979286415e-02,
          1.1204784205367381e-01, -2.6192622354050338e-01,
          -1.6017107519558788e-01, 6.2855427548033692e-04,
          -1.0938900307523429e-01, -2.7547665880374983e-01,
          2.5481891338921353e-01, -1.9064591493801628e-01,
          2.8773938984972186e-01, -4.0294122496869333e-01,
          2.8717164515324162e-01, 9.5890717430329078e-02,
          -8.4019855145292333e-01, -3.0768731913717175e-02,
          3.5347558797548218e-01, -3.9133521425568851e-01,
          -6.5197445814468979e-01, -3.3677899555530072e-01,
          -4.7772492312569687e-01, -3.0788914026872533e-01,
          3.1675961371461214e-01, 1.0872693353761785e-01,
          -2.6882136804759116e-01, 5.1148894321834150e-02,
          -2.9250806417700403e-01, -3.1063899342188617e-01,
          3.3193984341007976e-01, -5.8570805503503320e-01,
          6.5076146776722799e-02, -1.0305030644283791e-01,
          -1.9434301268093251e-01, -6.4494941191662006e-02,
          3.1212398855585133e-01, 2.1737012327857685e-01,
          -1.8381733706248737e-01, 3.3178333839622692e-01,
          1.6891591264398473e-02, -5.1299900746950899e-01,
          -3.9529967921289244e-01, 7.1180316769952923e-01,
          -5.4396727280568179e-02, 1.3994737705787699e-01,
          -9.7485705961527128e-02, 1.6046706595279539e-01,
          -4.9221651550509921e-02, 4.0175302365110549e-01,
          -1.5316422002107150e-01, -4.3743975081816783e-01,
          1.8313073812909759e-02, 3.4455421750293418e-02,
          5.0075502953865003e-01, 1.4415631251345871e-02,
          2.1238975150081416e-01, -2.4009462545670129e-01,
          -3.6897493366089790e-01, 6.0058657619297746e-02,
          1.6549315079130039e-01, -4.1200980281308514e-01,
          2.9309402015999231e-01, 1.3929204601690898e-01,
          -1.2481603284788194e-02, 4.8740489325948780e-02,
          1.6860593475155902e-01, 1.5956390063597561e-01,
          1.3271861286852779e-02, 6.5596463773060831e-02,
          -1.6157493346051904e-01, -4.8626859998447507e-02,
          1.3947439484838633e-01, 7.0388667822561451e-02,
          1.0765149516758374e-01, -1.8660532276171016e-01,
          4.3942365804323186e-01, -1.2343387601604863e-01,
          3.7162152467547482e-01, -1.0430957160207090e-01,
          1.4571273952575794e-01, -3.8897530826169491e-01,
          1.8221935543967951e-01, 1.9003983309412764e-01,
          2.2610000810125611e-01, 3.3562693629261969e-01,
          -2.2065844717458222e-02, 1.2294176756296402e-01,
          -7.6647859971554960e-02, -1.7375479150411873e-02,
          -2.1438721136835423e-01, -1.7403189745364309e-01,
          -1.0924585185006015e-01, -4.2874234703011344e-01,
          2.1535111491841161e-02, -2.5061038798818980e-01,
          8.7989634557307114e-02, 2.2719022123442145e-01,
          -6.4470579030495551e-02, 3.1962015679636857e-02,
          2.4656871202269981e-01, -7.1735535232436851e-02,
          -1.3377422339868034e-01, 8.7203072448737793e-03,
          1.2324330707062334e-01, 2.2581831782341747e-02,
          1.0184220466935737e-01, 3.9947958070898813e-02,
          -1.7111275989588570e-01, 3.1456521008714328e-01,
          -1.7459817239878636e-01, 8.6093748066364897e-02,
          -1.1398241875948976e-01, -1.1599830833536809e-01,
          -8.6289451729954239e-02, -3.5363391736066466e-02,
          4.1741781321448695e-01, -5.1342997282820702e-01,
          1.6443458461910673e-01, 1.7016174201399409e-01,
          -1.1672571827735950e-01, -1.7407669286034419e-01,
          -6.3777004848073665e-02, -1.3249915201577972e-01,
          -1.3868475286091803e-01, -7.1868891447063474e-02,
          8.5327720294289644e-02, -3.0222217721272437e-02,
          1.2531933535957879e-01, 7.4412297852151657e-02,
          1.8234958290694758e-01, 3.0816208646643151e-01,
          2.1661756262727691e-01, 3.5135295881832079e-01,
          -2.1690207981977550e-01, 1.4495951664103185e-01,
          -2.0210667344460936e-01, 4.5156429416882982e-01,
          -2.3168501449227202e-01, 2.4482416204430035e-01,
          1.6065707723404374e-01, 2.4786509717674921e-01,
          -9.2452973282484543e-02, -1.5603546762004022e-02,
          3.6195772661386483e-01, 4.3024912345704434e-04,
          2.0716851824504676e-01, 1.0335815732433548e-02,
          5.9311640238108906e-02, -4.4165881206717295e-01,
          -2.6740490205899470e-02, -1.2507159560944908e-01,
          8.5752999874875266e-02, -2.5285430349293786e-01,
          4.4076594951993377e-02, 1.6033269186792984e-01,
          9.3351728374997840e-04, 1.4407418787728643e-01,
          -1.5499851156885155e-01, -1.4682326980116031e-01,
          1.2699367162431324e-01, 7.2346021777831226e-02,
          -3.3536889528457986e-01, 2.3928778585216165e-01,
          8.2114204290478568e-02, -1.5252712035535218e-01,
          -2.6824010445035695e-01, 1.5913378302645589e-01,
          -1.3521705515082660e-01, -1.7274557121488227e-01,
          7.9387773702022536e-03, 2.0277562484126248e-02,
          -3.5222257684119698e-02, -1.3348780627498491e-01,
          -2.7271955574485762e-01, 8.4893753567739701e-03,
          -1.2839973280836828e-01, -3.1024183661583987e-01,
          2.6851603343020919e-01, 2.4399830812113765e-01,
          -1.3482495170956263e-01, -1.7658666636229584e-01,
          6.0868892586955747e-01, 2.5499715168389636e-01,
          2.6014732720673850e-01, -1.1599489136610007e-01,
          2.7635865370857143e-01, 5.7833214421879331e-01,
          -6.4999493555166640e-02, 3.6332170134628562e-02,
          -6.6182314201852929e-02, -1.0798666941618558e-01,
          -8.7573965034692919e-02, -1.3060353692672530e-01,
          7.7375296825286613e-02, -3.1143879366623162e-01,
          5.8388095013878827e-01, -8.9646522347380297e-02,
          1.8071300446276495e-01, 2.7725814780263969e-01,
          1.6518267549356680e-01, -2.6852387285563806e-01,
          3.1965752537588749e-01, 2.1801349018589783e-01,
          1.4530406649719135e-01, 3.9601909776630667e-01,
          8.6253750317802219e-02, 2.4826305389219966e-01,
          -1.5258101468727833e-01, 8.3384754369162928e-02,
          -1.7659843339327572e-01, -3.8722366281858134e-01,
          -1.9323486579012650e-01, -3.1899213684407313e-01,
          3.5058701687200045e-02, -2.0654404298401913e-01,
          2.5200541198670534e-01, 3.9096006619929385e-01,
          -2.6231193982127854e-01, 1.3269876387927246e-01,
          1.0587134867333864e-01, 2.5272072802043993e-01,
          -4.1224759955670154e-01, 1.9223614797801564e-01,
          1.4884347890438296e-01, 3.5421642533476912e-02,
          9.3174178742375921e-02, -3.1440995209481695e-02,
          -2.7242804748080474e-01, 3.9636753523852852e-01,
          -2.4402022575671470e-01, -1.0459447816616428e-01,
          -3.2458510322232259e-01, -1.2430185039330828e-01,
          -1.8940321441461125e-01, -1.2331528558887633e-01,
          5.2506976747102774e-01, -4.9001398599562562e-01,
          3.5762978094668420e-02, 2.5325502391972471e-01,
          -1.8230230327802291e-01, -1.8901850415923313e-01,
          -2.3314857842772171e-01, -3.1108347781457252e-01,
          -1.8694276712315150e-01, -2.4438294638885727e-01,
          1.7121405349905033e-01, -2.1503362809021556e-01,
          -2.1488810944046276e-02, 2.3551358424078950e-01,
          1.0243554178564979e-01, 1.3415502309518484e-01,
          1.9323569780686251e-02, 4.3972443237321135e-01,
          -3.7872353781015633e-01, -2.9800239000289514e-02,
          -3.2125728660675179e-01, 8.0876219096762114e-01,
          1.8366991480816730e-01, 2.9841090925761193e-01,
          2.1168822040971641e-01, 2.1171612481780619e-01,
          1.3319303762678109e-01, 7.9971193730043175e-02,
          5.7200353826131844e-01, 9.0464611755792887e-02,
          2.1742277224290379e-01, 1.0230298335576291e-01,
          1.7583250560575334e-01, -4.7829841774715809e-01,
          -6.4132967163241961e-02, -9.2575310889750323e-02,
          9.2856802211887399e-02, -7.7157079779313320e-01,
          6.0392724235790736e-02, 3.8619908199673175e-02,
          6.8966632164021810e-02, 6.0451006966179305e-02,
          -2.7509444998353838e-01, -1.1138795151027907e-01,
          3.4388859749236156e-01, 1.2142560296307130e-01,
          -1.9977455088628868e-01, 3.8453827314703570e-01,
          -6.1104139997374962e-02, -2.8364630395512930e-01,
          -3.9710162393373039e-01, 2.4615332702735171e-01,
          4.5421817550736744e-02, -1.3944482865099825e-01,
          1.7639220189753485e-01, 8.0561518412488139e-02,
          8.6377930671223735e-02, 5.7060918536819626e-02,
          -7.3260707184843799e-01, 1.6759734047698788e-01,
          -3.6901158520252308e-01, -4.8960056455395018e-01,
          5.1358335730182658e-01, 4.8592210689942111e-01,
          -1.6771184839862782e-01, -2.2945678971949404e-01,
          4.7120518737048611e-01, 3.4038214693196783e-01,
          -2.0827110574102438e-03, 9.0484571193660754e-02,
          -6.5564537853560334e-01, 1.2102319425426886e+00,
          6.0885892995152596e-02, 2.4869824923250836e-01,
          -4.7891953984906899e-01, -3.4684630621473256e-01,
          2.5244588143491992e-01, -4.6339342153798924e-02,
          1.5750152768555020e-01, -4.6730339937296117e-01,
          2.9292183903517904e-01, -4.8841790538225474e-02,
          3.5962700445195638e-02, 5.1415378585934346e-01,
          -1.5249349170003763e-02, 1.2761265166354777e-01,
          5.9577493870105136e-01, -2.1572769509531275e-01,
          1.3345862355990151e-01, -3.0992459606618566e-01,
          -4.7195185415549484e-02, 7.1006917419741356e-01,
          -1.1143351719761109e-01, 1.0123523179651849e-01,
          2.0371726142036384e-01, -5.6925021340616133e-01,
          -9.5863470866052902e-02, 6.1133210412933403e-02,
          1.0907702519495192e-01, -3.2800215899170687e-01,
          3.6008586429315531e-01, 7.1041242401792437e-01,
          -5.4919961340802825e-01, 1.2180382243298486e-01,
          2.1028658239661749e-01, 2.0063047992552224e-01,
          -3.1247419125420756e-01, 3.4338084224714682e-01,
          -1.2719074189451862e-01, -6.2772374275663956e-01,
          5.8270117218842454e-01, -1.3137249207436477e-01,
          -5.0138714041999022e-01, 1.6055461413713074e-01,
          -1.3719761729108307e-01, -2.9434549616944217e-01,
          -2.9923643015458889e-01, 1.9775655073520432e-01,
          -5.7412592059717138e-01, -4.2021689793299921e-01,
          -9.2802816754207942e-02, 4.5619363551760478e-01,
          7.6332463640672199e-02, 2.6230196656556370e-01,
          -8.7324666480514554e-02, -8.6086725300581257e-01,
          -8.0972345793780931e-01, -1.8927679863580268e-01,
          -4.5364785288616333e-01, -2.7883848581872051e-01,
          3.3124406440676613e-01, 1.7661568346155429e-01,
          -2.0637679183885332e-01, 7.1634421134163606e-01,
          -5.6587221918447388e-02, -6.4114356818247098e-01,
          2.1450418782754097e-01, 4.5299659553496013e-01,
          -8.7965594091491894e-01, -1.9709370201270701e-01,
          -4.0065956424463417e-01, 7.4421535048572762e-01,
          4.0133135174342266e-01, -2.3596652467062704e-01,
          -5.2748775463608857e-02, -1.0077672061198339e-02,
          5.3466285757257570e-01, 1.2569037048420451e-01,
          5.9620138070281892e-01, -1.7510089335739965e-01,
          4.0136370439802183e-01, -1.8345473745206342e-01,
          2.2931127535512622e-01, -2.5284368401411855e-01,
          -7.1206520204664225e-02, -3.8509013094971600e-01,
          -3.3976329569526892e-01, -9.9423611336001694e-01,
          -3.0955895371387815e-01, 3.6115091150565348e-01,
          2.4733277993202585e-01, -6.4463282596825233e-01,
          -7.6108734754199248e-01, 2.5658365989561616e-01,
          4.0204510225141737e-01, -1.9239413110380177e-01,
          -6.8167087037488945e-03, 6.9595012066654882e-01,
          -4.7069943811712922e-01, -4.9473493219456621e-01,
          -4.8361889069475028e-01, -5.0034758252855888e-02,
          -3.1594821813939584e-02, -8.9027798442423839e-02,
          2.5522460667725944e-01, 2.0014735113180251e-01,
          4.5751766986313097e-01, -2.3408731405485234e-02,
          -4.2357877005213007e-01, 1.4135928103753173e-01,
          3.1776876727883252e-01, -7.7829764744146601e-01,
          8.1294560047369946e-01, 3.1047398676293947e-01,
          -3.9412286990815637e-01, -7.1366817921042117e-02,
          -2.7165192237688263e-01, 1.0914986237862326e-01,
          3.3437440289151127e-01, 3.4082956158627914e-01,
          2.5828447814937328e-01, -8.4934782372181356e-02,
          1.3812831646066040e-01, 1.3448550470943496e-01,
          -2.1500168946347653e-01, -2.6818950983792378e-01,
          1.6652472080875952e-01, 4.1030147970916170e-02,
          2.0590730710957716e-01, -6.5566674346433462e-01,
          2.5881754290830450e-01, -2.6226626362519257e-02,
          -6.9490687839695253e-01, 4.6237793083964540e-01,
          6.8625894458237535e-01, -1.7825739744391927e-01,
          3.8810033511579312e-01, -1.1432855838636695e-01,
          6.6820297793577330e-02, 8.9754882027992169e-03,
          9.7256211140515525e-02, 7.1922516880343701e-01,
          -3.3456125935227071e-03, 7.6377915481927128e-02,
          5.3423803917172852e-01, -4.1118412695500584e-01,
          7.4400958066229844e-02, -2.8209282593232315e-01,
          1.7394191997761771e-01, -5.0614831356044432e-01,
          3.0838615443006950e-01, 6.9086536143071209e-01,
          -2.8600254047821477e-01, 1.0484407968626640e-01,
          -2.3614421321507806e-01, -1.3375832624759879e-01,
          -2.3930875633403967e-01, 3.6717203929408698e-01,
          1.1948622027465267e-01, -4.0462928656073482e-01,
          5.5207623599085387e-01, -1.9043955051950609e-01,
          -6.8549967642495790e-01, 3.3015873773188181e-01,
          -1.6976310446454601e-01, -2.3111282034789787e-01,
          -1.3320722374143829e-01, -2.1046319242944486e-01,
          -6.5660212691150410e-02, -4.3828008623257020e-01,
          -4.3034479464930170e-01, 5.6974432149666321e-01,
          -1.5337189621009317e-01, 4.0858894954898105e-02,
          6.6288381351257392e-02, 2.2690816319662946e-01,
          -1.2396002168786743e-01, 1.8262602343881940e-01,
          -2.9747003198968103e-01, 7.1194865821753300e-02,
          1.2301442336237461e-01, 1.0160592246741083e-01,
          -1.5862766095474218e-01, 5.9577498144558566e-02,
          -1.1862557470418375e-01, 3.3393201617812085e-01,
          8.8791867490090687e-02, 3.9435991709545176e-01,
          1.7783828452072342e-01, 5.8466943135453098e-01,
          5.2580255543483979e-02, 2.2457003398427736e-01,
          -5.4561976959091585e-01, 5.0911569216132248e-02,
          2.2227674425168742e-01, 4.0537404716270369e-02,
          1.5198990336661677e-01, 4.0424999301560138e-01,
          5.6835695597995950e-01, 1.9495723114241328e-01,
          4.4602485426392502e-01, -3.5578504510011527e-01,
          5.9266017931170700e-01, -5.3651439220156238e-01,
          -7.0983475919619551e-02, -1.1135062230154616e-01,
          -2.8675263028661202e-01, 1.4490699308367891e-01,
          -1.9802168240704701e-01, 2.0879912548455398e-01,
          1.0054435505478360e-01, 8.7597949450126833e-02,
          1.8959579800646706e-01, -2.1630353476046385e-01,
          2.9592437867003468e-01, -5.3282675783891298e-01,
          -3.3398356701744886e-01, -1.7471166995475856e-01,
          1.1118618341433173e-01, -4.9907348657885581e-01,
          -4.7271761821681235e-01, -1.3797634501557573e-02,
          -1.8055895863172855e-01, -1.3558333761898164e-01,
          4.1424658757930966e-01, 3.0928947195986745e-01,
          3.3374477474794140e-01, 1.9585805389060496e-01,
          4.4922745084530633e-02, 5.0227042769953753e-02,
          7.9321422755106064e-02, -3.9896216623435149e-01,
          8.6957747420769060e-01, 4.3110877935704484e-01,
          -5.0654014662095992e-01, 1.5880363315698187e-01,
          -6.2761572594542281e-01, 3.2148057827962373e-01,
          5.7417615335013876e-02, 4.2919362968496655e-01,
          1.1186215236652840e-01, 1.6006206152817715e-01,
          -9.6705172505794565e-02, -2.1940241663799845e-01,
          7.9117481290779917e-02, -6.6368586258026149e-02,
          1.9843525617685687e-01, -2.6901977558810153e-01,
          4.1515775815291417e-01, -1.2213041941857909e+00,
          7.3751212691850851e-02, -3.2136640669749589e-01,
          6.8033710712882944e-02, 5.2564318715394875e-01,
          9.5416551570774710e-01, 2.0553729095573864e-01,
          2.3485489056724132e-01, -5.5664852614172644e-01,
          -6.2558960923628015e-01, -4.8428886679558358e-01,
          4.1774165772620508e-01, 1.2430910770399570e+00,
          -1.2250697836511870e-01, 1.1889179356541142e-01,
          2.9395525913664160e-02, -7.0867892535229537e-01,
          -5.8538373134734596e-02, -5.4317621680767314e-01,
          2.1478965743884049e-01, -6.5266812531020402e-01,
          4.9650958660260464e-01, 3.4041992975841440e-01,
          -5.6815175621668358e-02, 3.9191456814894643e-01,
          -3.4138526513421495e-02, -8.2948733501205407e-02,
          -4.1573627108378669e-01, 1.8121813464727834e-01,
          -1.5643610859005441e-01, 8.8750390849441224e-02,
          -1.4864152811814135e-01, -1.5259033162956778e-01,
          -7.0662638151861301e-01, 4.1183585162298442e-01,
          -9.2838904021720708e-02, 1.0699178797589139e-01,
          -2.3467983601998841e-02, 9.3369058216444215e-02,
          -5.5329262060890749e-01, -5.7601859872815220e-01,
          1.3846852714792820e-02, 2.0531843786984177e-01,
          4.0628616779598843e-02, 1.0255484315686522e-01,
          2.1375034561432341e-01, -1.3627031378672214e-01,
          -1.7617582210951865e-01, -1.0514471389797916e-01,
          -5.0525018383584996e-01, 5.8448486213283093e-02,
          3.9026456437546364e-01, 2.2388741732846376e-01,
          -4.3403266475182299e-02, 2.2845066403791481e-01,
          -1.6525909025971500e-01, 1.1846995165858791e-01,
          -8.8822036492912287e-02, 5.9648169170608456e-01,
          -2.8690590131745919e-01, 1.7019893758404814e-01,
          -1.9283149656204188e-02, 4.4206869134812907e-02,
          -5.5247266892860047e-01, -2.4594008539129766e-01,
          5.6205112008018410e-01, 1.6585031209573958e-01,
          3.3206611726717239e-01, -5.6192539755506268e-02,
          4.6518873936630717e-01, 5.0802674719445370e-02,
          3.6174011462995720e-01, -4.9403094766000563e-02,
          5.9919021412312708e-02, -8.4304266227860625e-01,
          -2.3153059119724734e-01, -1.3126807776075078e-01,
          -6.2028149371111918e-01, -3.3519369867466120e-01,
          -3.9260230132525298e-01, 2.7906713493379964e-01,
          -2.3348964304748698e-04, -1.5503379564508010e-01,
          -1.4486905286095756e-02, -2.5185384151027067e-02,
          2.8770176591052354e-01, -3.2988913265505965e-01,
          -5.3750148091936172e-02, -9.3334317209075493e-02,
          -1.6120571420063609e-01, -1.0960783085192500e+00,
          -4.9788447887845026e-02, 7.3408528737813642e-03,
          -1.0522890114168852e-01, -2.5869251603006672e-02,
          4.0246237486321154e-02, 7.8877195741864270e-01,
          6.6074998873522306e-01, 2.9097041784599531e-01,
          5.1253882887251578e-02, 3.6280133627748623e-01,
          -5.4978205218372622e-01, -3.0785431976417188e-01,
          1.0298213966850995e+00, 7.2444033221628046e-01,
          -2.6928216122773069e-01, 4.2441765013398108e-01,
          4.0673914394637056e-01, -1.3776215535678881e-02,
          -1.5116874268458599e-01, -1.4452327202589188e-03,
          -2.0590346421751265e-02, 2.3570519059664996e-01,
          -2.6024578001679416e-01, -2.9739704960938002e-01,
          -6.8604018071565992e-02, -6.1362747504040993e-01,
          -2.9411052493913598e-02, -5.3579780701613088e-02,
          1.6468222345330683e-01, -4.5541161027638755e-01,
          -1.4367708620485999e-02, -1.4848616995083061e-01,
          6.4099019807096610e-03, 5.7406476231366976e-01,
          1.4906601568633579e-01, 5.2541138364096567e-02,
          6.9950893698639299e-02, -2.9391512441125717e-01,
          1.7813660041971163e-01, -4.8927368060306381e-01,
          1.5651120487489645e-01, 5.3986079899952133e-01,
          2.3832965099866438e-01, 6.0549342324478860e-02,
          -1.0259176784630560e-03, -6.1098418973229485e-01,
          -1.1553000224993416e-01, -5.9844049908571388e-02,
          3.7053806194517940e-03, 1.6340529829507081e-02,
          3.8834243481541075e-01, 4.7045744449511112e-01,
          6.3099067643135442e-02, 5.6908655001403380e-02,
          1.1721025591763062e-01, 1.1598651581197279e-01,
          1.1408410946580107e-01, 9.4278513085529661e-02,
          1.9271330431757250e-01, 7.6262644588850920e-03,
          -1.8999742559670132e-01, 2.0904682510409414e-01,
          -2.8164553168971057e-01, 4.4426341801590058e-01,
          -1.7874927403986308e-02, 3.2161335679054748e-01,
          2.5931895958999812e-01, 3.5610771935865648e-02,
          -8.8321979039984774e-02, -5.9768690584922879e-01,
          3.6917998465280960e-02, 3.0832918355013167e-01,
          1.3061948867122355e-01, -1.1220168040937205e-01,
          1.6594753524272154e-01, 4.5765945211041596e-02,
          3.8243984662932162e-01, -2.1591436984765977e-01,
          -4.6129553709008404e-02, -1.1718747352752512e-01,
          -3.4213298002792679e-02, -2.2871439753162529e-01,
          -1.9139432238430981e-01, -2.6562826352708996e-01,
          -7.4938088441203393e-02, 1.0590389939529297e-02,
          -3.9966357375067815e-03, 3.7676657536477115e-01,
          1.6660077312811822e-01, 1.9950984059695823e-01,
          2.2382418351481964e-01, 1.5783705017978308e-01,
          -3.9970635582352310e-01, 3.1035945345036512e-02,
          3.2141505187880323e-03, -9.7838598022444878e-02,
          5.8725619832977534e-02, -3.6197568666631513e-01,
          5.4373068336329222e-01, -7.3641428383989516e-02,
          4.9571006908247567e-01, -1.4971067194362056e-01,
          -3.2149625082623812e-02, -4.6938197735541104e-01,
          2.6687795457377134e-01, 8.0502025909078484e-02,
          -2.7933266372452244e-02, -1.4055866809576015e-01,
          -4.2110464089179772e-01, 1.8393494600289859e-01,
          3.2785391606348979e-01, 5.8675711263233876e-01,
          -1.4366385594611774e-02, -2.2804688146587648e-01,
          2.9356418413605995e-01, -3.7505998885289410e-01,
          -1.8549104816344547e-01, 2.6899103253322448e-01,
          -5.1314423695487965e-01, -7.4300990335752803e-01,
          4.6261419595827924e-01, -1.6289963256537543e-01,
          1.4731602393754600e-02, 4.2121318826453868e-01,
          4.3362790592535383e-01, -2.5178887206114903e-02,
          1.4033578731478161e-01, -2.4429445910314726e-01,
          -4.6293383013106315e-01, 1.6929689601363423e-01,
          -3.3499554455774094e-01, -9.5338816779223151e-02,
          3.9002283552984229e-01, 4.4304430654006827e-01,
          1.9582826545317761e-01, 4.3826465144856760e-02,
          1.5867030356890932e+00, 6.4898406759654997e-02,
          -8.0068157052590752e-02, 1.8785432386557718e-01,
          6.5631761547902193e-02, 2.0381643479322063e-02,
          7.2900756255921323e-02, -2.2383505380795513e-01,
          1.4641124680865553e-02, -6.6482837254388683e-01,
          -4.4834327813194005e-02, 1.3368753116632442e-01,
          2.8282388905775541e-01, 6.8024802432305159e-02,
          -9.6530537105929973e-02, -3.0729649477912818e-01,
          7.2366948933542175e-01, 5.7321742942980269e-01,
          1.9685877836275983e-01, -1.9652429923253342e-01,
          1.2044651264263274e-01, -5.7346436412324009e-01,
          2.0999867613063714e-01, -4.8474921844318564e-02,
          8.0710979873359998e-02, -1.2125380094550273e-01,
          -8.4989053526749500e-02, 1.1647939118596478e-02,
          3.4298871531429020e-01, 2.5771456625514411e-01,
          1.4785461756551449e-01, 5.8442903821741415e-02,
          -2.3977882288367707e-02, 3.4313806337404812e-01,
          1.5801251329272212e-01, 1.6172727178646509e-01,
          6.1619061886125093e-01, -7.6632567296519474e-02,
          -1.5139972475179364e-01, -4.7736738177033616e-01,
          7.4522148917842944e-03, -2.1060064365642925e-01,
          1.8767928436619705e-02, -4.2951744787528962e-01,
          -4.5561072247992052e-01, 1.2047618566262524e-04,
          -3.6319441508940525e-01, 3.7660687090727341e-02,
          3.4829322595227324e-01, 1.8550400242079865e-01,
          2.1117600693855948e-01, 4.6729400462452764e-01,
          -1.0571313008606854e-01, -3.6406476292100637e-01,
          -2.9808209247441381e-01, -2.0889874249570416e-02,
          -7.4712433918638271e-02, 2.5697149801040795e-02,
          1.9036823313582120e-02, -2.1035581881267301e-01,
          4.8578610334551559e-01, -2.6132190459907068e-01,
          -1.5438164150997277e-01, -1.8253969630065564e-01,
          1.1995048401842764e-01, -9.4823306643684019e-02,
          -9.2527212888200747e-02, -8.6998989617933384e-02,
          4.1440055916307439e-01, -1.3161369089412164e-01,
          2.7908946200791296e-01, 1.0348685911245196e-01,
          1.8430061778357776e-01, -7.3254753419611615e-02,
          3.8341883362805579e-01, -5.6778559528541890e-02,
          2.5993319723605079e-01, 1.8284225698152204e-01,
          -2.2849737482184834e-01, 2.8976468219839187e-02,
          -6.7241565006320878e-02, 8.7054585693412734e-02,
          -4.5630983557313720e-01, 6.0142797036275022e-02,
          -7.2177532312756032e-02, 5.5881653344644830e-03,
          1.4859141743180657e-01, -2.3881831929662464e-01,
          -2.8388062189739682e-01, -5.7884560267829448e-02,
          4.2857550362462538e-01, -1.1957023218114787e-02,
          -1.9639760507025020e-01, -2.9172235776036426e-01,
          2.2660168704818626e-01, 2.8815771844528032e-01,
          8.7903939347584614e-02, -1.0420263680578525e-01,
