%YAML:1.0
ANN: !!opencv-ml-ann-mlp
   layer_sizes: !!opencv-matrix
      rows: 1
      cols: 3
      dt: i
      data: [ 70, 140, 4 ]
   activation_function: SIGMOID_SYM
   f_param1: 1.
   f_param2: 1.
   min_val: -9.4999999999999996e-01
   max_val: 9.4999999999999996e-01
   min_val1: -9.7999999999999998e-01
   max_val1: 9.7999999999999998e-01
   training_params:
      train_method: BACKPROP
      dw_scale: 1.0000000000000001e-01
      moment_scale: 5.0000000000000003e-02
      term_criteria: { epsilon:1.0000000116860974e-07, iterations:500000 }
   input_scale: [ 6.5570129035260294e+00, -3.6831606972408198e-01,
       6.7754441654123623e+00, -5.0429529434987885e-01,
       3.1021695104256777e+00, -5.5724156338818531e-01,
       8.3666227967618187e+00, -5.9158634381457897e-01,
       6.4765999019291343e+00, -5.5315789046891450e-01,
       7.9192517000503182e+00, -4.9399602114089203e-01,
       8.7739188387295979e+00, -6.1426237051958577e-01,
       3.1570904385133405e+00, -6.0703862613707804e-01,
       5.3022633714195964e+00, -5.2705814234767256e-01,
       5.6874290085406631e+00, -5.5787339269833114e-01,
       2.5137097526077978e+03, -3.0895102806473995e-01,
       8.3496120898209540e+01, -4.2671602122160041e-01,
       9.5689327365448065e+01, -4.9303263257108815e-01,
       5.0259764893840696e+01, -5.0429717881505820e-01,
       2.4787392523597767e+00, -6.1633184248202200e-01,
       3.0327482383738547e+00, -9.5121657170868157e-01,
       3.5430202787288847e+00, -1.1550067109492836e+00,
       5.9551660485340800e+00, -5.4348676053255240e-01,
       5.7199444564385167e+03, -1.5174111831774750e-01, 1., 0.,
       1.9236961490280233e+01, -8.5531467324286259e-01,
       2.6266146676879178e+01, -8.7605840244792610e-01,
       3.1740034324676628e+01, -7.1455065952668717e-01,
       1.5249908782557981e+02, -1.6547380362495292e+00,
       1.1044817218680291e+02, -1.2907111864841023e+00,
       5.0201757958860135e+01, -8.6624756303994133e-01,
       3.2150553014963194e+01, -1.2738367363333487e+00,
       2.0696284260670815e+01, -1.8548454144385298e+00,
       1.7101423871322144e+01, -2.1566357361506805e+00,
       1.5973851132757950e+01, -2.4114232375473215e+00, 1., 0., 1., 0.,
       1., 0., 1.7420277741056809e+03, -2.6033950870390654e-01,
       3.4170933668655380e+02, -4.0643521407579214e-01,
       2.7249699958463722e+01, -5.1615819691006160e-01,
       9.9500562515459610e+00, -6.7502781061288131e-01,
       8.9648603039490329e+00, -6.9365025708584560e-01,
       1.6031993603943285e+01, -1.1988835058400462e+00,
       1.4264537097530042e+01, -2.1583337961661706e+00,
       1.7276636533482925e+01, -7.9873439170944305e-01,
       6.3443770993859916e+00, -2.2034916222362004e+00,
       1.1453540086946484e+01, -2.8801085921098744e+00,
       1.2640603693145545e+01, -2.2329017735009224e+00,
       2.5387150000570593e+01, -1.5420683546739142e+00,
       6.3139968333303095e+01, -1.1748880708470089e+00,
       2.7716416169771438e+01, -7.2947473890455505e-01,
       1.9203732608562476e+01, -7.1425237125163377e-01,
       2.8424005870422459e+01, -5.9376284885251396e-01,
       3.4088656939212036e+01, -4.9758037520329823e-01,
       7.8232858505537362e+00, -5.4584061557936869e-01,
       8.9516866463905025e+00, -6.6629423473084981e-01,
       1.3689937613397744e+01, -8.2377639179937623e-01,
       1.0549727524230642e+01, -1.0683421622855083e+00,
       6.0147584009294262e+00, -7.7300917240516809e-01,
       1.0397701123065017e+01, -9.5191199277838545e-01,
       1.0925171750090794e+01, -1.0464645849832062e+00,
       5.0513758999180700e+00, -1.0342465090451629e+00,
       6.5701541057290136e+00, -9.9430281517871444e-01,
       2.6683532240709443e+01, -5.9824017248042771e-01, 1., 0., 1., 0.,
       1.5117849510770418e+03, -3.2107076413144542e-01,
       4.4107438162763486e+01, -4.6479428647765719e-01,
       7.9655538463424991e+00, -9.5408890885945175e-01,
       4.5281161010994531e+00, -1.0883410289074249e+00,
       1.4772605348726179e+01, -2.7580126954469555e+00,
       5.2018008196423269e+00, -1.2287386400099540e+00,
       5.5180453914056216e+00, -9.9031888618962605e-01,
       2.4473434845796149e+01, -6.5442323339192199e-01 ]
   output_scale: [ 1.0526315789473684e+00, 0., 1.0526315789473684e+00,
       0., 1.0526315789473684e+00, 0., 1.0526315789473684e+00, 0. ]
   inv_output_scale: [ 9.4999999999999996e-01, 0.,
       9.4999999999999996e-01, 0., 9.4999999999999996e-01, 0.,
       9.4999999999999996e-01, 0. ]
   weights:
      - [ -2.9330385580699326e-02, -4.8881706174592102e-02,
          -7.4488849981992023e-03, 7.9016217122631335e-02,
          -1.1926919854860349e-01, 6.8090805735932956e-04,
          5.9242913688254517e-02, -7.6379509510502833e-02,
          -2.2363002915705445e-02, -2.2558058615163223e-03,
          2.2630518473926046e-02, -4.2560547526660525e-02,
          -3.4934840332896969e-02, 1.6389299697371053e-02,
          -3.5234777621855340e-02, 7.0484176327708717e-02,
          -7.6942503672263490e-02, -9.6884250905580838e-02,
          7.1978851487752724e-05, 8.2080788118293994e-03,
          6.6094058385922944e-02, -9.3509229944315084e-02,
          -4.1033506912935648e-02, 5.6729104902423270e-02,
          -6.6050844320456686e-02, 6.5210859128238971e-02,
          -6.4008673899505306e-02, -5.5736079008358995e-02,
          7.2671646291262246e-03, 3.7694419930287023e-03,
          -3.2675978733364933e-02, 4.9772068539587197e-02,
          -3.9135214858585267e-02, -1.3803065337157236e-01,
          3.0590254294776381e-02, 4.4938655721222263e-02,
          -1.4532344645816446e-02, -1.0288374534655831e-03,
          1.0589423588887143e-03, -1.5357428072920195e-02,
          7.0066088102090238e-02, -5.9761013671827380e-02,
          8.7563564205824174e-02, -1.2871220990095628e-02,
          9.9003452410880197e-02, 3.2876788338024106e-02,
          1.0464514710758212e-01, -8.7547781918007272e-02,
          8.7569022955479234e-02, -6.3466225343022001e-02,
          -4.5839627590813829e-02, -1.0482235422782482e-01,
          4.5367947295609147e-02, -6.5369031220560633e-02,
          -8.8500008104960365e-02, 3.7165417645111075e-02,
          -1.0581487264212253e-01, -8.1636838951499258e-02,
          -4.8708037231466952e-03, -4.9459014643044884e-02,
          3.8577481417493800e-02, 5.8583859902365892e-02,
          5.7483623085320068e-02, 1.0199477093425038e-01,
          8.7789538872626222e-02, -7.6878130620750464e-03,
          9.6364731067910922e-02, 1.2891777204943991e-01,
          -3.8588977947518643e-02, 8.1231050519182529e-02,
          5.2314015786416555e-02, 5.8921934920512814e-02,
          -1.1322057747889303e-01, -3.5282983189354314e-02,
          -5.5614535397576943e-02, -6.9926469028618918e-02,
          1.5116547723126611e-01, -1.1031686641995940e-02,
          -1.0694205376535923e-01, -4.7073253674643281e-02,
          2.7769938794707000e-03, 1.8318522441446126e-02,
          -2.3444288605181014e-02, -4.2740102308209800e-02,
          -9.5638326319060649e-02, -3.4941036367055325e-02,
          3.2114153787644456e-02, 1.4526504972343252e-01,
          -1.3542911940941010e-02, -2.3851325556651183e-02,
          1.1998084086359519e-01, -1.0941568724204846e-02,
          -1.0726942556782798e-01, 1.3139774090666653e-02,
          6.9189204195380716e-02, -4.2550423759751349e-02,
          6.0445524579804427e-02, -1.8055306815247328e-03,
          -3.9974806546342292e-02, -9.6969882091728160e-02,
          -6.4601481998451504e-02, -6.4680891941689203e-02,
          -4.1684919496799241e-02, -6.1940031345586476e-02,
          -7.2541736108478985e-02, 9.4471955087102863e-02,
          -2.0576004531487783e-02, -7.9558684882079719e-02,
          -9.6724919333858003e-02, 5.8489959319001084e-02,
          4.7096474405296405e-03, -8.0749736029678040e-02,
          -5.3430327420351698e-02, 8.7828040889786893e-02,
          -8.4073424786888507e-02, 1.8743060138328867e-03,
          -1.4734283502589490e-02, 3.0793723808516780e-02,
          9.1395829489957961e-02, -9.9950520522821690e-02,
          -9.4347478701738527e-02, -3.9583238318512515e-02,
          -9.9410571970884806e-03, -3.4652754603523170e-02,
          5.1116216585680753e-02, 3.2499903162588328e-02,
          -3.8973332474246801e-02, 4.3296171602095965e-02,
          -1.2657374890307033e-01, 8.0670171097751597e-02,
          6.0952719343617213e-02, 5.5486937675795711e-02,
          4.6250989685051272e-02, -3.3678913859799750e-02,
          4.7338357577803206e-02, -1.0737532564938085e-01,
          -7.9206330667106709e-02, -2.6412763106845091e-02,
          2.5221093548468913e-02, -3.3608584922216571e-02,
          -2.5481311633884077e-02, -2.3308659623302863e-02,
          2.2688713480391871e-02, 3.2147376259853241e-02,
          -9.3033368113060212e-03, -5.0826938621870689e-02,
          1.2871027200378294e-02, -2.8549339798064999e-02,
          -4.6600285445932170e-03, 2.8558559092381079e-02,
          3.6931021904072027e-02, 6.0344357519258596e-03,
          -1.2751474416812928e-02, -1.1586030480106070e-02,
          6.3368365395335812e-03, 2.3897816105201107e-03,
          2.5226940657964592e-02, -4.7529469778399294e-02,
          -4.6489039273793914e-02, 4.6248468416676479e-02,
          -1.7853302496361582e-02, -9.7888107033164418e-03,
          -1.6417091392361520e-02, 6.4304608466426466e-02,
          -3.6163874378799601e-02, 1.5186405812778912e-02,
          -2.3394791895294236e-02, -2.7056104665329733e-02,
          -2.6086558781707292e-02, -2.9039259732559945e-02,
          2.1207130495052320e-02, -4.9485473187767335e-03,
          5.6978025180691441e-03, -5.0614260242331864e-02,
          -1.4684853713612573e-02, 1.2506917645516204e-02,
          3.5369669468341768e-02, -1.9657047243153224e-02,
          4.3601993822716206e-02, -2.7660810321922590e-02,
          5.0913134113553547e-02, -4.1751606697541230e-02,
          2.7086171597489769e-02, -2.7562421407663286e-03,
          5.4185071540644933e-02, 8.7205780984087964e-03,
          4.5599150181625026e-02, -8.0161623045843858e-03,
          7.4242426727849642e-02, -3.8883022156767283e-02,
          -2.4576479328630623e-03, -5.5822028974801298e-02,
          2.2880166470810284e-02, -4.2653751285806361e-02,
          -4.6285470028237533e-02, -3.1614989657599762e-02,
          -4.0950779927063197e-02, -6.0084208453241340e-02,
          2.1516136628723349e-02, 3.3858232751967372e-02,
          -3.6630240713714242e-02, -6.4895011273481448e-02,
          -8.4560652385773220e-04, -7.2439928215647089e-03,
          4.9695743620593077e-02, -4.2161133559736774e-02,
          7.9925236455419459e-03, 3.7050244610348566e-02,
          6.1083110181024795e-03, 5.9933793350631932e-02,
          6.1614190483099816e-02, 5.5587715599655835e-02,
          -4.0861427040537815e-02, -2.1461128314628188e-02,
          -4.8895399629868407e-02, -6.4799917057093717e-02,
          -6.2233411745216578e-03, 5.6049087296620058e-03,
          -8.0213196617538188e-02, 1.7570055097382087e-03,
          4.4190904265863938e-02, -1.2924959065407892e-02,
          -2.5731591629195250e-02, -2.3205119922847243e-02,
          1.6635873943074676e-02, -3.4882120452846520e-02,
          2.3031097887901145e-02, -2.6753396799782957e-02,
          -1.2682826296523274e-03, -6.9754103762933131e-02,
          3.2031521514578228e-03, -2.3483143677219775e-02,
          1.7518151706729938e-02, -5.4116302540468042e-03,
          4.0279685260551775e-03, -2.1470695709639546e-02,
          3.6722384829444600e-02, 1.0391686159300771e-02,
          1.3554651260801725e-02, -1.7348904552161416e-02,
          -6.7907783987588552e-02, -3.0309766187381897e-02,
          -8.1501473737631402e-03, -2.6728412201019586e-02,
          -2.2751944793745493e-02, 3.7797779015108314e-02,
          -2.0958490926670775e-02, -2.5221002515194199e-02,
          -6.9006770784665286e-02, 2.8617421290285938e-02,
          -1.0031797133838314e-02, -3.4084125845759233e-02,
          -5.2257999126143144e-02, 2.3973574512605459e-02,
          2.3308297248644260e-02, -7.1814317483819921e-03,
          -4.7111474141664743e-02, 2.6264158636582075e-02,
          3.3374558358993500e-02, -3.6506150830867799e-02,
          -4.0468345095521677e-02, 1.8309722711066002e-02,
          4.4089607286435517e-02, -2.3637897949532614e-02,
          2.8851472863975113e-02, -2.9264800118512048e-02,
          4.9362834352179377e-02, -5.1669317702887921e-02,
          -4.8737174737786097e-03, 6.4863270359743277e-02,
          2.2870311817742617e-02, 3.2766960265703415e-02,
          3.5614728990219835e-02, -4.6110090912168847e-02,
          6.6380346315418103e-03, 7.1247099298227005e-03,
          1.9659812548931260e-03, 1.6267949646191215e-03,
          3.5587602931959832e-02, -4.6207880474489982e-02,
          3.4571962164534814e-02, -2.5379843291661201e-02,
          2.2224901602591021e-03, -3.7492946050986783e-02,
          3.1086093615527249e-02, -2.3130660566019003e-02,
          1.1741621053401465e-02, 3.9092689042666287e-02,
          -3.5694786679013060e-02, 2.6630251581366813e-02,
          3.2121374330886604e-02, -5.8841938660948280e-03,
          1.3695211314910864e-02, 8.6938389239159617e-03,
          4.0958316452120481e-03, -7.1358417216417147e-03,
          -5.0844597157026584e-02, 3.8536779277311410e-02,
          2.2221334035875048e-02, 2.5242170691065473e-03,
          3.6869423667546752e-02, -5.2928779316278790e-02,
          -4.5506815519597309e-02, 3.0094084257160054e-02,
          -1.5590959351500339e-02, -5.1082025921271944e-02,
          -1.6788863491087797e-02, -1.2126899036698190e-02,
          7.2080060022196774e-02, 3.7320120617297163e-02,
          3.6867502069107758e-02, 1.8633629303874986e-02,
          -1.5581696925053082e-02, 3.4029465991724586e-02,
          -1.1627921538451970e-02, 1.6427882788070104e-02,
          8.4903538135121803e-03, -2.9342058980546169e-02,
          -1.8973002803366550e-02, -2.7808870799427992e-02,
          -3.4523065363839694e-03, 1.4328439230831217e-02,
          -6.8754115918968103e-04, -3.4163169450897167e-02,
          -4.6712002906022010e-02, -1.1358600132530781e-02,
          -5.3525291403786332e-03, -1.5491589913178977e-02,
          -5.4827906377562685e-02, 2.9373809986730157e-02,
          -1.6903222357090561e-02, 4.8137825365657451e-02,
          -2.2630058017006651e-02, 3.1161953767679083e-02,
          7.3615189187426253e-02, 6.9080680559173421e-02,
          6.8235561494027749e-02, -1.2193279941847018e-02,
          5.4383187411360036e-02, 4.7592764487174158e-02,
          5.0916415680965853e-02, 7.1088880498176188e-02,
          3.8715652107430211e-03, 7.6136414044801395e-03,
          -2.8626360509918462e-02, 5.0653218957390479e-02,
          -4.3601988295425081e-02, -9.8714907894107445e-02,
          3.5400581697420529e-03, -5.3596445581586714e-03,
          -4.2969396845507525e-02, 4.0649928224863963e-02,
          5.6707119063522424e-02, -1.5409933582228806e-02,
          6.4728578274911019e-02, 6.6836798224571045e-02,
          4.3222105709628068e-02, -3.2864206354490923e-02,
          8.4299994083914212e-02, 2.9693571161595674e-03,
          -5.6617019579858841e-03, 8.4572874973261620e-03,
          -3.3196925639757215e-02, -6.2547858597393003e-04,
          2.3804966164133516e-02, 2.2050094877922810e-02,
          -4.4169286544373555e-02, 5.6159457680536581e-02,
          4.0242441279952586e-02, 1.2455246144586582e-01,
          2.5606018965673738e-04, -1.3230350739351450e-04,
          -9.3501992240112908e-02, -6.8935925465794055e-03,
          2.5307295103937071e-02, 1.0247408505551993e-03,
          6.0016640094281044e-02, -2.2026041799429068e-02,
          -9.9687969135377075e-03, -3.5191222291730273e-02,
          2.6911398197705064e-02, 4.0129330253905977e-02,
          5.3734745728134040e-02, 4.7716920763111736e-02,
          9.7267701207306313e-03, 3.1617321185640909e-02,
          6.8956206968859854e-03, 3.7603885210599132e-02,
          3.6454763086252326e-02, -3.7085446485806896e-02,
          -6.6690017457808415e-03, -2.1437174124871092e-02,
          -7.0692641710035045e-02, 4.6353071585016427e-02,
          -2.2706533304268316e-02, 3.9407171610473031e-02,
          7.5609426391934137e-03, -1.0344495532258221e-02,
          -1.6216523991848360e-02, 2.1731086175102315e-02,
          3.6117831886291404e-02, 1.3189417045415572e-02,
          -6.0709243218386187e-02, -1.3016896398620260e-02,
          -1.7293273038322295e-02, 4.4817501902465938e-02,
          -4.4218294154681037e-02, 9.6944069987511358e-02,
          -3.7023820407101667e-03, -9.2688818775255810e-02,
          -1.0184870249208215e-02, -9.6042172784181618e-02,
          -4.0147391629341480e-04, 3.9154558262870516e-02,
          6.5259101767982622e-02, -9.9121783982518807e-02,
          -1.1764273116520985e-01, -1.8550158392840573e-02,
          3.3309237337647832e-02, 2.3829809257784336e-02,
          7.2034630391873133e-02, -7.4703824507229774e-02,
          -3.2234280081841177e-02, 4.6030853013071298e-02,
          -9.3137565259960087e-02, 7.4232111720568511e-02,
          1.6687832065879944e-02, -5.5963278898007937e-02,
          -4.1230110354639376e-03, -4.5062578835776100e-02,
          -8.0989433793989860e-02, -3.6669919691104405e-02,
          -1.9537828522599790e-03, 2.0205339778090265e-02,
          1.6613998322584589e-02, 9.3766836417392870e-03,
          -8.9075181842978482e-02, -1.1960950458359305e-02,
          6.0370421043215217e-02, -1.3369360383881854e-01,
          4.6019401224211214e-02, -7.8892594308396707e-02,
          -6.3620034924189231e-02, 4.1457048930774579e-02,
          -9.9302282342398837e-03, -2.3574109749029400e-02,
          -5.1332370855644280e-02, 4.3158490687715080e-02,
          4.9535381509565275e-02, -3.0709734129281116e-02,
          -3.3143631964136833e-02, 4.1781761536526296e-02,
          -2.9193540540987748e-02, -4.9911641161301853e-02,
          3.5593470974567373e-02, 7.5685734732312382e-02,
          -2.2559773700887620e-02, 1.1020138578845304e-01,
          -7.9158872557099746e-02, 6.2897254854948875e-02,
          -1.3940581724629962e-02, -8.7313943051954737e-02,
          1.0085969156232316e-01, -7.3315134771063148e-02,
          -8.5042958416138292e-02, 9.1419546912913499e-02,
          7.6901975655948973e-02, -9.2723819097515051e-02,
          1.1640948735482564e-02, 7.6482519434127576e-03,
          -4.1341087778527554e-03, -7.8918763994977936e-02,
          7.2969647005108287e-02, -5.0564225755490827e-02,
          -4.3203384607417135e-02, 3.4479506905129180e-02,
          9.7955369477815725e-03, -5.2467901524573035e-02,
          -7.4366224240258088e-03, -8.0988582073993079e-02,
          -2.5061300987304660e-02, -6.4335060440074369e-03,
          1.2822606339622077e-02, 2.6430413153794054e-03,
          3.6205009792155345e-02, 2.4642646818373519e-02,
          5.1887850888756262e-02, 8.3440419260958132e-02,
          -2.1628331892422015e-02, -1.8562139860373875e-02,
          2.7329366988501056e-02, -5.9093160361895616e-02,
          -5.6403230435796738e-02, -8.0626104385137839e-03,
          -1.4961516267230328e-02, 1.2281559218498734e-02,
          2.7037233840493190e-02, 3.5539487496853435e-02,
          -2.6823444954358153e-02, -5.0442997080519886e-02,
          -2.3350822369462954e-02, 8.9379682463590640e-02,
          -4.7161336341858175e-03, -7.9494793463519633e-02,
          -7.7477473663910959e-02, -8.8886989070339796e-03,
          7.9568306148481496e-02, 8.2565578915624910e-02,
          -5.9917232182374941e-03, -6.2423129971640172e-02,
          8.1880070574004482e-02, -3.3474812776424709e-02,
          -5.7455969494290798e-02, 1.7171363537315042e-02,
          -1.8024224279300997e-03, -1.2049368555620883e-01,
          2.4316670601794380e-02, -8.4649605281566245e-02,
          -4.1869882297356151e-02, -1.1461304664450772e-01,
          -5.4991528221606391e-02, 2.9209909384886292e-02,
          8.8765912956319679e-02, -4.4563226568050604e-02,
          -8.8150230079811157e-03, 5.6743119552826862e-02,
          -4.8365063919280943e-02, -3.1346039161489980e-02,
          -4.0853167436795878e-03, 5.4702636916580928e-02,
          -1.5029929038964499e-02, -3.3834871460432500e-02,
          -8.4000455999095350e-02, 1.1084404734574158e-01,
          -7.9669688171808015e-02, 1.4967759307425140e-03,
          1.0194637804958361e-01, -7.7479844011182852e-02,
          7.4542808051949197e-02, -5.8600248835791256e-02,
          -7.7629197014022058e-02, 4.2463239997953088e-02,
          1.4452795693703682e-02, -3.3121204466204743e-02,
          -1.9879989338096943e-02, 5.7323951754219372e-02,
          6.6124823543322834e-03, -3.8052558199366114e-02,
          1.6500873484356995e-02, 3.2086185474804477e-02,
          4.5442109919301518e-02, 1.4572991755454654e-02,
          -4.5840372074994994e-02, 9.4782174572776476e-02,
          7.1862637126214893e-02, -3.2950314390676901e-03,
          -2.6063866559413066e-02, -7.6841613934502964e-02,
          5.2219245425938129e-02, 1.0406440501335211e-01,
          -9.9821534235152720e-02, 2.5830586784909754e-02,
          8.3178687873277923e-02, -6.1815560138085625e-02,
          -8.3757530124861125e-03, -9.4079842929056953e-02,
          -2.8077547350830893e-02, -1.6427772874088600e-02,
          -1.0721783003996377e-02, 7.7471802028489842e-02,
          5.6614736053878303e-02, 8.3587358525150687e-02,
          -6.5599949975730043e-02, 2.7392821842643356e-02,
          -9.7322849482843143e-02, 6.3575815826356838e-02,
          -3.8887230208975616e-02, 2.0718412098687061e-02,
          -4.5629646573435642e-02, 1.8979145530551796e-02,
          4.9345767918849764e-03, -2.7280339645102299e-02,
          -7.7491767860662780e-03, -4.7079667733430572e-02,
          -8.4852460282423436e-02, 1.6160161855490723e-02,
          -8.3078178898056743e-02, -8.0516665203098817e-02,
          -3.1320251859348315e-02, 1.1337900456171515e-02,
          2.4513030041019391e-02, -8.4707994581357623e-02,
          6.8745973948300398e-02, -5.4161910275868322e-02,
          -5.5902931714525171e-02, 2.7874816880088429e-02,
          5.7804283826131460e-02, -3.0775942454499550e-02,
          9.1719700863954839e-02, -4.8149045199045670e-02,
          6.7954570873256390e-02, 6.4227742549814781e-02,
          -3.2471097925329942e-02, -3.2479544391241941e-02,
          5.8735396098505796e-02, -3.5687924676002701e-02,
          2.8354294386161463e-02, 2.1539348062993152e-02,
          3.4008366876540526e-02, -3.6966746114709098e-02,
          -7.5818256074621102e-02, 4.7642668106346979e-02,
          -2.6083445691517323e-02, -7.9189390563535106e-02,
          3.4278210563144236e-02, -3.7662778449398651e-02,
          -1.6267449209096157e-02, -3.6138934303029877e-02,
          -1.6945004649215702e-02, 2.1822401238400933e-02,
          7.4570469000129674e-02, 6.1730142766491379e-02,
          5.3786115646057744e-02, 1.2307564521323248e-02,
          -1.3707042086382007e-02, -1.8579052720881548e-02,
          -1.5383232107513497e-02, -9.3846993783986893e-02,
          -5.8841805326768540e-02, 8.4055782504744700e-02,
          -7.1286437358066390e-02, 6.3960346188010941e-02,
          9.6285239781865300e-03, 1.3163870650364775e-02,
          1.0904724027034999e-02, 2.4575094325617580e-02,
          5.8365138322828337e-02, -5.6557871356418238e-02,
          8.3367588921745284e-02, 1.1958857926891198e-01,
          1.0906590493038523e-01, -4.3474033373942865e-02,
          1.6065655255658191e-02, 7.0734999060764664e-02,
          2.8391056278547103e-02, 1.0490231513143294e-01,
          -4.7357736822581507e-02, 1.7508273300868425e-02,
          -7.4634649290719283e-03, 1.8191897951882467e-02,
          4.2987455306110714e-02, 9.8359848590502050e-02,
          1.9694340611073616e-02, -8.7036087436490536e-02,
          2.9922260152462788e-02, 2.3862449929514022e-02,
          7.0116942180561484e-02, 2.2528358190477556e-02,
          -5.3622481984789902e-02, 2.3894605831602071e-03,
          8.8856300807993449e-02, -5.2911283751704161e-02,
          -1.4714490483668788e-02, 3.2200523057854979e-02,
          -3.1647083613225838e-02, 2.3800228935997984e-02,
          4.3436179968701846e-02, 5.8854280311723725e-02,
          -2.1346055951718349e-02, 9.9015966738835140e-04,
          1.4072504402669881e-02, -2.6727872864529326e-02,
          -8.1054269498638198e-02, 5.7600596418452443e-02,
          -6.7058324130052024e-04, 6.6090987280331883e-03,
          -4.9433138258794682e-02, 1.5850241471128566e-03,
          -8.1870291506455917e-02, -3.0829445891305648e-02,
          -9.8981382274556159e-03, -3.6907770998577109e-02,
          -3.8939465408670611e-02, -7.8371347215170806e-02,
          3.2005501888620926e-02, 3.3712788655603593e-02,
          -2.4483270320092100e-02, -7.0705776529639700e-03,
          -6.5173564679690779e-02, -7.5509860027528242e-02,
          -5.2553835634710916e-02, -8.0523347149180566e-03,
          1.1211138069250347e-01, -2.4993591668356831e-02,
          -9.0328719896315950e-03, -6.3473209423253768e-02,
          3.3647714044640731e-02, 4.6029506329669664e-02,
          9.2272839005474658e-02, -5.4713457150466584e-02,
          1.1937536644360543e-01, -8.8633098247843642e-02,
          -1.9497236422420555e-02, 3.5830024254283666e-02,
          -5.6344466896938979e-03, 3.1991822209914200e-02,
          5.0862715211264453e-02, -8.2759869352942897e-02,
          -1.7744096789067652e-02, -4.4358178874629769e-02,
          -2.9789017561344642e-02, -3.0395252361254791e-02,
          -3.5326663019589574e-02, 7.8577563724452529e-02,
          -2.6949861555865939e-02, 1.2775809673478613e-03,
          -1.9024999625759948e-02, -1.0950913094798398e-01,
          2.3314420958733605e-02, 1.7410629598490150e-02,
          -3.6421719592311538e-02, -2.5895634877518392e-02,
          -8.4475978542919211e-04, 5.9018332708479122e-02,
          -2.9841576772222017e-02, 5.5629231284085222e-02,
          -8.6876297314231066e-03, -2.0472219209798009e-02,
          -4.5982890939877522e-02, -4.5556495057821840e-02,
          2.7195262060744459e-02, 4.9189051832578184e-02,
          -3.4688773710781579e-02, -2.3542961667252119e-02,
          4.0960042099624984e-02, 5.8534382144223421e-02,
          -1.2907861629104109e-02, -2.5930243370405136e-02,
          -9.8694331024487270e-03, 8.7570878786386863e-03,
          -2.5026228759770498e-02, -8.0411407755144979e-02,
          1.8828264192111734e-02, -1.0232768494717650e-02,
          3.7365117214638963e-02, -1.5469906358456654e-03,
          3.4084523394275784e-02, -6.1544069508842975e-02,
          6.8021544814936871e-02, -5.5280500188126053e-02,
          4.3977454183260677e-02, -9.1441090652232854e-02,
          -1.3869707214826013e-02, 2.9642174921823607e-03,
          -7.7224546132281607e-02, 5.4820923223583486e-02,
          -1.1814638119522677e-01, -2.6366739187087984e-02,
          5.3951175079261705e-02, -1.4063208994788176e-02,
          -6.3032711851941425e-02, -4.5190301938157137e-02,
          2.1442995019042146e-02, -1.9186476314863209e-02,
          4.8737221446825081e-02, -8.3428682049533964e-02,
          -1.7750817659108221e-02, 1.6289032371304402e-01,
          -1.6411894358213018e-02, 1.5360097454688484e-03,
          7.8645314692939006e-02, -2.1511914656526968e-02,
          -1.1080099975825414e-01, -7.7276384534276890e-02,
          -1.0397864730059696e-01, -1.2343350148921620e-01,
          -6.0007889086309676e-02, -4.1363337135585689e-02,
          -1.1787670818338604e-01, -1.0958167951854395e-01,
          1.0529962705230635e-02, -3.4004523767442126e-02,
          -5.4924819762657034e-02, -7.7944317615688208e-02,
          -4.3850363021718214e-02, -3.1255634544665609e-02,
          3.2634139995987306e-02, 1.2575915498962531e-02,
          -2.9467959098459128e-02, -1.4549322210068066e-01,
          2.6681505345836918e-03, -7.4610781768754575e-02,
          -1.0617727786730766e-02, -8.8336918510720022e-03,
          -9.4346331784256159e-03, -4.8549421200399590e-03,
          6.2405836399731462e-02, 2.0852929250282686e-02,
          1.1946845216782926e-02, -8.2196171699338724e-02,
          -1.0535602560985574e-01, -8.5631081412098756e-02,
          -6.5277406054448983e-02, -7.6492459943589941e-02,
          -1.7718194516941271e-02, 6.7050953705349928e-02,
          1.1340820478093665e-02, -5.5435931302254153e-02,
          -5.0070313662062861e-02, 3.1984556296849181e-02,
          -6.7997151920931573e-02, 1.9791795754417918e-02,
          -2.9676844437875854e-02, 4.9600446545223338e-02,
          -2.6124926684184098e-02, -8.6751182607555807e-02,
          -3.9395442575321359e-03, 4.0528415020095035e-02,
          1.1312047602479823e-01, -6.5092976884501110e-03,
          -8.6246214165186269e-02, 5.3196551312474465e-02,
          5.2614576058135382e-02, -3.4225477676510734e-02,
          5.5675429153040724e-02, -4.3922278441761768e-02,
          3.3887390667943822e-02, -1.0585469695145794e-01,
          3.1119721651700225e-02, 1.3062244133547421e-01,
          -1.0298239250214721e-02, 1.3438041067132414e-01,
          -5.9181375604100910e-02, -7.1990239737204934e-02,
          6.3498352537022865e-03, 5.4568864039584171e-02,
          -3.0983227986258445e-02, -2.4692445362229618e-02,
          1.0541460445572345e-04, 1.8808993644754898e-02,
          -1.1279768056379749e-02, 9.8053523112283537e-03,
          3.6119455801277761e-02, 1.2043616222681902e-02,
          1.5797892629542200e-02, -7.4821205362961662e-02,
          -6.1617311159805422e-03, -4.0614506658121205e-02,
          -8.6847737315503843e-03, 3.5456609398195081e-02,
          1.7968565783597353e-02, 3.6007496970158509e-02,
          -6.9559114174112854e-02, 4.8560536810553438e-02,
          -2.8361326927335315e-02, 4.5107606059026278e-02,
          2.7375835386820733e-02, -7.8165648578546576e-02,
          -4.4850926950627812e-02, 5.5780102782609286e-03,
          -5.1375980070488443e-02, 2.6985680231897829e-02,
          1.4637956959866199e-02, -3.7666332095908549e-02,
          -6.3517729478368118e-02, 6.3058015205697038e-02,
          -4.5355273832295177e-03, -4.2754464748614919e-02,
          -7.8358099417498397e-02, -5.9459271369054672e-03,
          1.9139713597526944e-02, -7.5293303863099417e-02,
          4.7788478392836849e-02, -3.4798402559719131e-02,
          -4.5039833155280262e-02, 2.5493469541029139e-02,
          4.0596550666917808e-02, -2.4427552759923716e-02,
          3.6680352379640339e-02, -2.2818925823594943e-02,
          -2.6118496270758269e-03, -3.9524540900902398e-02,
          -1.9539705630040897e-03, 4.4732412775540728e-03,
          4.2093491485378699e-02, -2.5171685886583608e-02,
          1.3086604114036083e-03, 1.2980165934836141e-02,
          1.8952179303021136e-02, -1.8327846395039780e-02,
          -2.2571369494055044e-02, 2.6424665098772990e-02,
          -3.4069155446104851e-02, -7.3291398170341497e-03,
          2.7424416025790071e-03, -5.3273875055152610e-02,
          -4.8565958024247388e-02, -4.8003351757031680e-02,
          1.2620550083882354e-02, -1.1223934546399261e-02,
          1.3912806146829727e-02, -5.1727935207945226e-02,
          4.1019231285810635e-02, -4.0315309782197085e-02,
          2.6734889790324678e-02, -6.1890018017816739e-02,
          7.8374973087044931e-03, -2.6990734157505750e-02,
          1.3829669805824901e-02, 2.7740505862884974e-02,
          7.7982285579542973e-03, 5.0461059031755441e-02,
          -2.0442417445661047e-02, -1.1530820861816095e-02,
          -1.3900421460596781e-02, -6.9378169907028747e-02,
          -4.2627074530337900e-02, -8.0595173524349063e-03,
          -3.5567697071306928e-02, 4.9137241501443538e-02,
          7.6967884583227786e-02, -4.8518538110220284e-02,
          -1.5170409498038991e-02, 1.1953903735535428e-02,
          1.7192142827050946e-02, 5.0036535033204661e-02,
          -1.1642384443777272e-02, -1.5078413696191945e-02,
          1.4825316567567500e-02, -1.0239387461045683e-01,
          1.3769728027084500e-02, 4.4880711733169619e-02,
          8.4232659713770711e-02, -5.9314405405805945e-02,
          -2.7031570958952460e-02, 5.2266033944304707e-02,
          1.8742533411749834e-02, 1.9051530699593849e-02,
          7.6783257495258378e-03, 4.1613659359530937e-02,
          -2.2853043112907943e-02, -5.3193746040696668e-02,
          -9.3109289406963530e-02, -2.9870152835590386e-02,
          -4.2287424324452115e-02, 3.3883592000347358e-05,
          4.5486022568869244e-02, -2.1473749958331057e-02,
          -3.2119782714576167e-03, -2.7086221790367435e-02,
          -5.1226518677283551e-04, 2.6411568524925471e-02,
          3.4568328924875366e-02, -2.3385370909584691e-02,
          -1.5652363229746710e-02, -2.0440806638898017e-02,
          -6.5588784210098242e-02, 4.0834535854724831e-02,
          -2.4194760631062569e-02, -1.0502651537955975e-02,
          -3.8950676946125307e-02, 3.7322578877537434e-02,
          3.4652364807671136e-02, -5.4140558923971190e-02,
          7.4708412245916150e-03, -2.1216984043461323e-02,
          4.5822305853200178e-03, -6.9728635425556851e-02,
          3.9735884826246043e-02, 1.7697438738159585e-02,
          -9.0340768609319944e-03, 4.5958976538536971e-02,
          4.4040065094312741e-02, -7.6551617185717374e-02,
          -6.0625755781236558e-02, 4.9276761853405932e-02,
          8.8484572901219097e-02, 5.7213395189005652e-02,
          3.4258002118018119e-02, -2.6961301498859818e-03,
          -3.5775091240343997e-02, 3.3587168479669881e-02,
          2.1366169020271074e-02, -3.3936005527413049e-02,
          8.3991072144439086e-02, -5.9966767600765115e-03,
          -4.7464113489164114e-02, 5.7120630077930466e-02,
          3.5398540926013848e-02, -2.1464485610279225e-02,
          1.5096122841880373e-03, 6.8209996775500997e-03,
          7.0422783269388944e-02, -4.3677666654060303e-02,
          6.3238761887552550e-02, -6.2118392802272243e-02,
          5.7831147582153464e-02, 3.4834373468941818e-02,
          1.5581894636375678e-02, 2.1134334123471463e-02,
          -9.2564781439699404e-03, 5.9888911071808625e-02,
          2.5957319394798409e-02, -4.1586047853736277e-02,
          4.3446981323152958e-02, -5.7149418994549096e-02,
          6.9751235927526078e-02, 3.3135542578744764e-02,
          -2.8371503797870658e-02, -1.0073351040307909e-02,
          5.0761526044391780e-03, -4.3899764891479935e-05,
          4.3248798651401639e-02, 7.1379289810906618e-02,
          3.2678547890720923e-02, -3.4577763021612890e-02,
          -1.6420510872084813e-02, -1.3213530398977878e-02,
          -1.5869065079743856e-02, -1.3447280965477868e-02,
          -2.8185845924212298e-02, 7.0988908017136559e-02,
          -9.4514930032079544e-02, 3.2466750929986979e-02,
          -1.1027012825092095e-02, -2.3116618103900216e-03,
          -9.4186595090393371e-02, 1.0762348686461566e-01,
          -6.7291832214818839e-02, 5.1422143597807370e-02,
          3.3729493584326843e-02, 6.5988527617043824e-02,
          -1.5831299690153872e-02, 7.0724766050359295e-02,
          2.8817809018938434e-02, -2.2795471744479257e-02,
          2.5739124148638524e-02, 5.8640597150827763e-02,
          -2.1362908554060883e-03, 2.1942414234496596e-02,
          -4.0129612788984644e-02, -5.5208092423248284e-02,
          -4.8702893086895079e-02, -3.2402016969752243e-02,
          -9.3363327488723887e-03, -1.4782140389038554e-02,
          1.8392482122833471e-02, -1.0393412578380581e-01,
          4.5293473177486540e-02, -7.4475212881487465e-02,
          -4.2629178735921140e-02, -4.8864914459966269e-02,
          7.5593275101504334e-02, 7.5124564923267662e-02,
          6.5231168438301901e-02, 5.5749413042485776e-03,
          -1.2373858016065488e-01, 5.5043468568646767e-02,
          7.2717202411663948e-02, 1.1323825661233446e-02,
          -8.4948279656042042e-02, -9.4258854046406527e-03,
          3.4576254011552121e-02, 6.7233093351521930e-02,
          4.6516556479867403e-02, 1.1307742855811494e-02,
          -1.5404044570870745e-02, -1.1740823129921127e-01,
          1.5121304672419079e-02, 2.6734438438252149e-02,
          -6.2812369793394149e-02, -2.7850705316144368e-02,
          3.4848897641614300e-02, 3.7304792982036934e-02,
          -5.8293076634922586e-02, 1.9199453812256111e-02,
          -5.7478241593316312e-02, 1.2405025079347400e-02,
          5.2870668629543781e-02, 9.1373194227724372e-02,
          6.5970021796916051e-02, 2.9549943301718357e-02,
          -4.9606488496263344e-03, 4.4734788146209709e-02,
          5.5863554030128985e-02, -1.0845267593477337e-01,
          8.8919421299352378e-03, 2.2684585861260830e-02,
          8.2988027147144081e-02, 2.1317135042065987e-03,
          1.3474787018526764e-02, 4.8207802028233424e-02,
          6.4380797186378458e-02, -1.0428413549870820e-01,
          7.2641654221131113e-02, -1.3366090650554767e-02,
          2.4502989543221929e-02, -3.8636403448700243e-02,
          -1.1001568076023457e-01, 2.8621285251782508e-02,
          5.5585419079751092e-02, -1.8337363738834898e-02,
          1.6419063084736649e-02, 6.0511243803572749e-02,
          -3.2728026710204368e-02, -5.7285888018044476e-02,
          3.9273847588945282e-02, -1.7455396688476784e-02,
          6.9869305737453188e-02, -3.2269174215338960e-02,
          -2.0962873204589429e-03, -4.4461964261542711e-02,
          -4.8698128622194595e-02, 2.9772348364899351e-02,
          -6.4001289196563171e-02, 7.0076527783174206e-02,
          7.1935544013983929e-02, 3.8242246648232225e-02,
          -8.4661971859526119e-02, 3.0705100630387520e-03,
          5.3908685959817820e-02, -5.0507216685396504e-02,
          1.6191906988811185e-03, 1.4073079755196038e-01,
          -1.0873258745172766e-01, 8.1846176106919327e-02,
          5.4170748987506352e-02, -1.6244300488358934e-01,
          -4.1928348730474276e-02, -7.9090865761949153e-02,
          -4.7599659374253464e-02, -1.0212124885454289e-01,
          3.6439121707082342e-02, 3.7250677803042191e-02,
          1.5544623277785326e-02, 4.2414849254477551e-03,
          -6.6403972084155882e-02, -9.3020699978932059e-02,
          4.8423475843772518e-02, -2.3114394389518133e-02,
          1.4126303787702205e-02, -1.1012190944986934e-01,
          -3.3108634707588402e-02, 1.5222289196396196e-01,
          -5.0567088011916075e-02, 8.1096448545883548e-02,
          -3.1959393531442809e-02, -2.8170268016862673e-02,
          3.1551770760881198e-02, -5.9057578300413319e-03,
          -9.9017054116342040e-02, 9.6657312571074558e-02,
          -1.0791301990129218e-01, -8.7770574378928101e-02,
          4.8208692826426397e-02, 4.7784183943812654e-02,
          -4.8731751819133931e-02, 4.7064391963022811e-02,
          -2.9342851710712582e-02, 2.5347205580502030e-02,
          9.0751992675142997e-03, -1.2496972880951072e-01,
          1.4065182379840740e-01, 3.4646461289335843e-02,
          2.8883071257730916e-02, 7.2563977420032427e-02,
          9.6841378132218547e-02, -1.3131670737207710e-01,
          7.2874649373516648e-02, -3.5776617625305963e-02,
          -1.1883565947780922e-03, -2.2121010523030649e-01,
          8.0644094114044024e-02, -5.5425824152718642e-02,
          -1.1652652074445292e-01, 9.2440218145049366e-02,
          -1.1098361802795191e-01, -8.8727502088810167e-02,
          -2.1270540393180777e-02, -9.4386050785459377e-02,
          3.3085525795219756e-02, 2.7369543647571290e-04,
          2.2898181686487822e-02, 3.2653553761156896e-02,
          4.4688318556327565e-02, -3.0475201530725830e-03,
          8.5137781552503927e-02, 3.4010570479017938e-01,
          -2.6406991453616253e-02, -3.7143300833089051e-04,
          1.4587051493167441e-01, -3.6898236255808882e-02,
          -1.5209673262074302e-01, -3.4633014536861573e-02,
          -1.4409208898449724e-01, -7.9454260280970371e-02,
          6.8697689751182789e-02, -1.6345381482250104e-02,
          -1.8515252921517977e-01, -1.7430024053449247e-01,
          -3.4088238404700891e-02, 5.1450334491944132e-02,
          -4.9196892609175709e-02, -1.1355834957561520e-01,
          -1.1306231169401791e-01, -1.3094814865960219e-01,
          9.5289359487699551e-02, 1.5084206814335441e-01,
          8.3010121769009227e-03, -5.0460470875466505e-02,
          1.0985460744994448e-01, -1.1309745745046197e-01,
          -7.7939366597532922e-02, 7.2927956495863186e-02,
          5.3783706309913824e-02, -7.7937500627938194e-02,
          7.8598556235377828e-02, -2.6253673053419749e-02,
          -3.0033538431984967e-02, -1.6412057733277716e-01,
          -1.9443774139746076e-01, -4.8832009268379765e-02,
          -2.3691786477594363e-02, -7.7310785059922185e-02,
          -1.1668738720705040e-02, 1.0586335511617341e-01,
          -6.0777133549292525e-02, -1.5064554508711803e-01,
          -1.1298631741176161e-01, 8.0607146477526093e-02,
          1.1898119313092361e-02, -3.4195194063832590e-02,
          -6.1114431924262448e-02, 5.9567289422536848e-02,
          -1.0432454041760353e-01, -1.8605212278123145e-02,
          2.9387857844551304e-03, 3.1882409851150040e-02,
          2.2845486018748815e-01, -8.7828807210026311e-02,
          -1.5194833673446514e-01, 2.5607944334950363e-02,
          2.8822011472840789e-02, 2.5608384071234654e-05,
          3.2696181780539013e-02, 3.3340947148886961e-02,
          3.1315318552184661e-02, 4.1822357503483263e-03,
          -4.6617216671305743e-02, 2.2562632685744838e-01,
          3.4911789291001444e-02, 8.0972621981790754e-02,
          -5.9170008769839272e-02, -4.6218333073292740e-02,
          6.6361743955002467e-02, -3.5356767833114297e-02,
          -1.0196670157864626e-01, -7.3642558694047858e-02,
          -3.9237223513600920e-02, 4.5277309286957598e-03,
          2.8498662215266368e-02, 2.1675152626694554e-02,
          5.1254677488959489e-02, -4.4318164624788568e-02,
          4.1752695702942703e-02, -3.8824701746145648e-02,
          1.3924826301409995e-02, 4.4483430637846710e-02,
          -1.6718605057368479e-02, 2.7240003201023877e-02,
          4.4654047857581119e-02, 4.1452396570359713e-02,
          -5.4936233821680390e-03, -3.1417943242883720e-03,
          -9.9162604725446402e-03, 2.8335015012054494e-02,
          9.0797015477424373e-02, 5.2733877718848625e-02,
          2.0960949468856898e-03, 9.4218861517034222e-02,
          -4.9050689849603570e-02, 7.3646399371917540e-02,
          4.5628228390804333e-02, -5.7262002843345663e-02,
          4.1718116370723410e-02, -1.7183664322023697e-02,
          3.9803290361230564e-02, 9.8400068213881312e-03,
          -5.6830777302100816e-02, 3.4462075256357501e-04,
          2.3546932182391615e-02, -3.2914894237195853e-02,
          5.4581238990200599e-02, 4.0811248955942903e-02,
          -3.9143709514235285e-02, -4.6013350287384250e-02,
          -7.5966384763786407e-03, -5.3400129941871072e-02,
          -1.1698707486457700e-02, 8.4646670229094455e-03,
          -2.5346057300962232e-03, 3.0866137514558332e-02,
          -8.9783671501481047e-02, 9.7849891365542647e-05,
          -1.0257658751108753e-02, -7.8987825430462427e-02,
          -7.0168054152102033e-02, 7.6114765203274690e-02,
          -4.8063135581168891e-02, 3.8061655334509344e-02,
          1.0023586395750772e-02, 7.8156855093518329e-02,
          -4.2582839152970009e-02, 6.6377912353840371e-02,
          8.0286428919417618e-02, -6.8483256862387293e-02,
          5.4274252298062015e-03, 3.5853055337912318e-02,
          9.3071364184848463e-03, 7.1652458319363718e-02,
          -4.2216487438339695e-02, -3.2836059528784926e-02,
          -4.1042955371275745e-02, -1.1853487354891352e-02,
          -2.0245348487530811e-02, 3.8056237133255177e-03,
          -7.9823885312665127e-02, -9.2862585485910212e-02,
          7.1217326360619700e-03, -2.1304381952337713e-02,
          -5.7195603912871831e-02, 1.5485728013433315e-03,
          3.4145689892749097e-02, -1.0154616657069952e-02,
          5.9775820690678022e-02, 3.2239716020926214e-02,
          -6.7101615145311114e-02, -4.6472798007541147e-03,
          3.5319824237624170e-02, 6.1089181198015055e-02,
          3.1113798668314936e-02, -3.4810984476144627e-02,
          -1.1097021784022296e-03, 6.6357003009786933e-02,
          4.4608290537767971e-02, 4.7673087328438300e-02,
          -4.1901371628787924e-02, -8.7309665962271965e-02,
          5.2393945073924012e-03, -2.3126851656814863e-02,
          -8.7652059349313458e-02, 3.6027511593337377e-02,
          9.3422116451436804e-02, -1.0321526403835711e-02,
          -5.5396373927569929e-02, 8.8776943273653042e-02,
          -2.7381797235266403e-02, 4.5861535055702174e-02,
          3.3410717759008376e-02, 7.3480109566596258e-02,
          2.2861397442455578e-02, 2.3829010469116420e-02,
          -3.0641838112518364e-03, 5.9848545139769803e-04,
          5.4580540703416400e-03, -5.5454697682754045e-02,
          5.8153619577073275e-02, 4.1692707316317162e-02,
          4.8985371780584874e-02, -6.3266895061134254e-02,
          -1.3595505104635813e-02, 6.7573318266458154e-02,
          4.7535029898544252e-02, -9.1651897097847906e-02,
          7.8773019312814288e-02, -8.2566338807388250e-03,
          2.8146003585967212e-02, 4.5262788910595186e-03,
          -8.7040373617709180e-02, 5.8810013062608704e-02,
          5.7563407894023956e-02, -1.6886730030076784e-02,
          -2.8080959825327927e-02, 1.4781928291958705e-03,
          1.2037437376756113e-03, -3.9776637681932011e-03,
          3.6072544382650597e-02, -3.4263014145635075e-02,
          5.4300363503287034e-02, -5.9911480858853297e-02,
          -3.5130677073362780e-02, -1.0356107370643712e-02,
          4.7281498186637063e-03, 3.6669104166374518e-03,
          -6.8197006573915087e-02, 7.3804472226717502e-02,
          1.0193436035775531e-01, 7.7399735401816064e-02,
          5.5256205849765233e-02, -3.5977270225314453e-02,
          4.7402167140439292e-03, -4.0111118132658878e-02,
          6.0155788172871769e-03, -6.1213500995563892e-02,
          1.5118960291618629e-02, -7.0697316193882406e-02,
          2.2259121119607456e-02, -4.0223254964368051e-02,
          -5.2123790961410149e-02, 5.3016632986503068e-02,
          4.9039131486576265e-02, 1.0537805905642293e-01,
          -8.7693841343687198e-02, 3.2368446827644920e-02,
          -9.6879923357875361e-02, 1.1861363596658483e-01,
          -7.0210504984106206e-02, 1.4517804139668973e-02,
          -2.3442738980050122e-02, 1.4350088992959554e-02,
          -1.0047505162184259e-02, -6.5163912445634908e-02,
          -7.3704698265805099e-02, -2.9424774994215253e-02,
          -8.9554273390514791e-02, 3.6584237882874002e-02,
          -8.4126631424787449e-02, -1.0608873845429319e-01,
          2.3745294683606439e-02, -2.5350467867519679e-02,
          5.7743828764920534e-02, -3.4523724905851982e-02,
          8.1724011317135317e-02, -3.3279581147739906e-02,
          -7.4944235549888744e-02, 1.9779795932538050e-02,
          9.3792569173616502e-02, -6.0146535504614143e-02,
          3.1293065676526212e-02, -4.7959615358755661e-02,
          2.6149921917307150e-02, 1.2673439018594296e-02,
          2.7310888615862786e-02, -5.7902861665573374e-02,
          5.3773019947951584e-02, -7.8870281495124622e-02,
          6.4265738013326135e-02, -4.7757428787865153e-02,
          2.4394341902479452e-02, -6.4108193034874028e-02,
          -4.9393802483253174e-02, 3.0378457363732694e-02,
          -5.3598596404864488e-02, -1.8876380695206290e-02,
          8.4291600906366854e-03, 4.6173920960637230e-02,
          -3.4318308203092958e-02, -1.0036777649430652e-01,
          6.6728414381652543e-02, 6.7604126652159938e-02,
          1.9419541683796403e-02, 2.9017429583183159e-02,
          5.2512227755446769e-02, -9.7047997722329027e-03,
          1.1595323038406683e-02, 2.8643862887001308e-02,
          -7.9383075932304578e-02, -4.4026550976786101e-02,
          -6.2078986433369357e-02, 1.1710261358304012e-01,
          -8.1027729642744517e-02, 9.1090956595048761e-02,
          -1.3807013538298960e-03, -4.5050308950865640e-02,
          3.6372743762769374e-02, -2.3240481668556994e-03,
          -2.9025021253797249e-02, -7.4991900064602490e-02,
          3.2865000248543205e-02, 1.2450910744248382e-01,
          1.1169619728227760e-01, -4.9482097722886705e-02,
          -5.0631737157900121e-03, 4.7704273856232576e-02,
          -2.8639847052556264e-02, 1.3802802381050555e-01,
          -8.1680972145917505e-02, 4.1502591029023130e-02,
          3.7003354211511012e-02, 1.5906964861262068e-02,
          4.2741506915088975e-02, 8.4736626775225338e-02,
          -1.0136508284073041e-01, -9.4743897562760776e-02,
          3.6988309615332726e-02, 8.0258894918796564e-02,
          1.0775375092941775e-01, -1.2623052733592474e-02,
          -1.2749652166369092e-03, -6.3219948975721543e-02,
          6.3352318796738874e-02, -5.3074189241981956e-02,
          8.9548596117910734e-03, -1.4768825870020421e-02,
          -6.0349792502551167e-02, 6.9973066481292201e-02,
          7.6499142515463942e-02, 3.3149078456745897e-02,
          -4.7237728450593305e-02, -3.3290646157011328e-02,
          2.9863019799622387e-02, -4.4858825677576701e-02,
          -1.2257921885154634e-01, 8.9735933564359813e-02,
          9.5921767132002966e-03, 5.8799619688230690e-03,
          -8.5457078557269028e-02, 4.4646068358013422e-02,
          -8.9800829073703233e-03, 8.6566488760280221e-03,
          -2.8845487602188847e-02, 5.1012160029589713e-02,
          -4.2238661429950503e-02, -7.9114628436370973e-02,
          4.2030894113261788e-02, 3.2166935052710924e-03,
          -6.3796733684455070e-02, -1.1912449640913800e-02,
          -1.0240567756807303e-02, -4.5079096651647978e-02,
          -9.0248369690773975e-02, -2.4803944823032606e-03,
          1.1309010870222880e-01, -1.2607697296980896e-02,
          4.0368098938178949e-02, -2.5413378043358352e-02,
          -1.0240979479178486e-01, 1.7450804751489364e-02,
          1.3326706315352713e-01, -8.1860653249847207e-03,
          4.2929906238514254e-02, -1.3155644026901774e-02,
          -1.8790392958269758e-02, 1.8829501069959845e-02,
          -4.3704091220249625e-02, 8.8478021078320940e-03,
          3.9548861403115441e-02, -7.7211385164146856e-02,
          -2.2909044133734863e-02, 2.8413158301231036e-03,
          1.2734497682715557e-02, 1.0345263026654943e-02,
          -1.3004707238162059e-02, 4.2189011958901498e-02,
          -2.8082684254483712e-02, 2.4918944838360838e-02,
          -1.6086395589344854e-02, -6.6134279933356549e-02,
          -1.6269135447068525e-02, 1.0057511944449979e-04,
          4.4669203441512831e-03, -1.1530449112505465e-02,
          -4.2625466618629156e-02, 5.8865739082356587e-02,
          -3.6039466291560532e-02, 6.1914028735260536e-02,
          -4.7252018023949023e-02, -6.2719773078763072e-02,
          -1.6739523795365249e-02, -3.0371245327878793e-03,
          -3.3446443435936994e-02, 5.5578050766677059e-03,
          3.2901160707849261e-03, -7.4331940777811745e-02,
          -2.1728380155559009e-02, 1.2527852911685606e-02,
          6.8290648140845534e-03, -3.7400296813623370e-03,
          2.9004770472032180e-02, -8.1294970806414842e-03,
          -5.8619151470727304e-03, -3.6568556284105512e-02,
          3.1927820731244172e-02, -1.0293320618268771e-02,
          9.2801858515716693e-02, 1.5031512073791884e-03,
          1.8089311763403820e-02, -6.2069292184248899e-02,
          4.0210258836497773e-02, -7.2154696306080249e-02,
          -1.9670968805466874e-02, -3.6360205490786258e-02,
          2.6758050871958403e-02, -1.5409188724327090e-02,
          -6.7799359414661947e-02, 3.5139747222696603e-02,
          -9.4532625990672414e-02, -5.3826933222854770e-02,
          2.3217284630082352e-02, -2.7529356278351000e-02,
          -5.5394697627268938e-03, 2.1635292813483854e-02,
          4.9991192047820911e-02, -1.4570651275430660e-02,
          5.9011578966597686e-02, -2.9645264063965438e-02,
          2.5845505844800623e-02, 3.5039412279047742e-02,
          -2.5946406663653460e-02, 3.1500289960082528e-02,
          1.5084782192821750e-02, 6.0265360962891965e-02,
          -4.5287019701502576e-02, -3.4374918440644019e-02,
          -5.2145929922557850e-02, -4.5388601037097603e-02,
          3.3590410457915664e-03, -1.2505105286839381e-02,
          -8.7299105785453843e-02, -2.7314432088891952e-02,
          4.5063814166102951e-02, 1.3569915618314124e-02,
          -4.0848815028460862e-02, -3.0609880744625522e-03,
          -3.8821517529777756e-02, -5.3107552348967361e-03,
          8.0710264593768094e-03, 6.0351511232669852e-02,
          -4.8224783989065023e-03, -5.8103105639652194e-02,
          2.2298190947849576e-02, -2.0021655355682219e-02,
          -4.7087710469135909e-02, 1.7261419515436964e-02,
          -1.4835723840541319e-03, 7.3083927958074680e-03,
          1.7873349860899914e-02, 4.3116248149410633e-02,
          -1.5774288292761347e-02, -6.4333266352512977e-02,
          -4.9042985895108381e-02, -7.7872616157175958e-02,
          -4.2857939778043620e-02, -2.0426299621916038e-02,
          -2.3492551103549197e-02, 3.6821240044590198e-02,
          -7.6843947757254611e-03, -2.4895482590818505e-02,
          -5.4329146282525893e-02, -4.7087650640087872e-03,
          5.2112032812970926e-03, -5.6634283536089354e-02,
          -2.9365494260031332e-02, 5.9390905036832621e-02,
          -3.3629790417578624e-02, -1.0835547947238004e-02,
          -4.6370326849375379e-02, 6.2410748050420505e-03,
          4.5580277215621232e-02, 4.8114575824960669e-03,
          -6.9378317147638036e-02, 3.9524037177485838e-03,
          3.0745618531891707e-02, -6.4827611468031036e-03,
          2.8753501923038324e-02, -7.6830711520720716e-03,
          2.8117484415493804e-02, -2.0010844514753129e-02,
          -1.5417602477179685e-02, 5.9179532507157274e-02,
          1.2263864070029356e-03, 9.4373194470632762e-02,
          9.7399292629028727e-03, -7.5073907489331848e-02,
          4.3227185078997102e-02, -4.9711222517023965e-03,
          -4.7318629315598493e-02, -3.6978559193104658e-02,
          4.5988323486292728e-03, 7.7331898798429040e-03,
          -3.1788592892866618e-02, 3.2771233387750148e-02,
          3.4895535392976039e-02, -6.2331306324575966e-03,
          -8.9224954445170993e-03, -3.6829190324014813e-02,
          -4.0586608732058382e-02, 2.4424098070737209e-02,
          2.1411818866792474e-02, -1.8293969795440460e-02,
          -5.0383511068411860e-03, 3.0945094194869344e-03,
          3.4512923262497115e-02, -2.2465138513779025e-02,
          1.5512163774188028e-03, -2.1801517708151728e-02,
          3.5741263869752980e-02, 1.5184335855077750e-02,
          -1.4156109595856349e-02, 1.6554132248926101e-02,
          -8.4857734284025689e-03, 8.0668095030555203e-03,
          1.3823171284426147e-03, -4.7199319795027617e-02,
          3.8652517846378340e-02, -1.2322769715176120e-02,
          3.5838353984509103e-02, 3.4856668728905575e-02,
          -3.0153724575493777e-02, -1.6386383679511537e-03,
          -9.0788608866166007e-03, -1.7732746873339936e-02,
          9.1277571455717806e-03, 6.9070128541738503e-03,
          1.2363123303527814e-02, -3.0119389638869957e-02,
          -1.9456496521700114e-02, 1.4471526049527316e-02,
          1.6038453438809903e-02, 1.7856146933892814e-02,
          -7.9748762257598278e-04, 3.8633665532054447e-02,
          -2.3288218605730774e-02, -2.1320307030141760e-04,
          1.7725264776563322e-03, 3.5739188925981671e-02,
          -4.7072760800191217e-02, 4.7055339195271155e-02,
          -9.3905682519267036e-03, 3.1457621009812288e-02,
          -2.4315786690939794e-02, 4.2136517506428793e-02,
          -2.5781066355801123e-02, 2.5219498532786707e-02,
          4.3859676257410329e-02, -3.5136028129577855e-02,
          4.0431535976748555e-02, 6.3753103535775554e-02,
          -2.8508603107229750e-02, -1.2966476732742352e-02,
          -1.6913402366511392e-02, 2.4707442229964578e-02,
          -2.1870775533132801e-03, 2.6868391630936454e-02,
          -3.0706336896615585e-03, 2.5188599661559834e-02,
          -1.3396002979898536e-02, -7.3409048807053262e-02,
          6.0820678794964809e-03, 8.5640655036901513e-03,
          -4.0697126316716931e-02, -3.2081950489077356e-03,
          1.3491816478696010e-02, 1.8686461903965775e-02,
          5.1213596007590241e-02, 4.3889935376164339e-03,
          -4.4341418553524366e-02, 9.1516641198981698e-03,
          3.5630775479469488e-02, 3.2855261340885192e-02,
          -2.9324650192227696e-02, 2.3493165721635033e-02,
          2.4567175726430499e-02, 4.9106294650510647e-02,
          -4.9642705298983351e-03, 1.9159303409287843e-03,
          -1.5286971269858137e-02, -4.5926352311008105e-02,
          -2.9646975748563811e-02, 1.3252552310871303e-02,
          -4.8642188665060357e-02, 2.7874206139778979e-02,
          2.8867009059721171e-02, 1.2994817773061417e-02,
          -1.8083338687363316e-02, -1.3472112963415954e-02,
          -6.3791755209694642e-02, 3.3518412824396181e-02,
          -2.9392733511899798e-02, 6.7974962406238612e-02,
          2.3659943445294415e-02, 4.1581712461170863e-03,
          -6.3987791070965151e-03, 4.7911186701319938e-03,
          -3.1801612492176950e-03, -7.3236156355034457e-02,
          -5.7676370359390991e-05, 1.3683613777259240e-02,
          4.8877988345359287e-02, 1.5464623772284565e-02,
          1.0100906996466617e-02, -3.2101066950787631e-03,
          3.3279424705350107e-02, -4.6640285070441774e-02,
          -7.7886182944282636e-03, 2.2613987270955260e-02,
          3.0563945923891528e-02, -2.0042152840794414e-02,
          -3.1468745577322529e-02, -5.2688420440209572e-03,
          2.7686904305528691e-02, -3.5074080908924617e-02,
          2.3224195290846766e-02, 5.2503973526791793e-02,
          -1.1091558732000078e-02, -1.0807334287155186e-03,
          -1.4759212246528906e-02, 3.6044550321104062e-02,
          -7.5338298743380843e-03, -3.9674367420098369e-04,
          -1.2993492662266117e-03, -1.2355291530701791e-02,
          5.8061370122537053e-03, 1.5682152340469609e-02,
          -3.1527383174584506e-02, 9.0318131287745601e-03,
          4.7695417706305136e-02, -3.9384118314461283e-03,
          -7.0150154139469581e-02, -4.7900629743622882e-03,
          1.1819169471448530e-01, -5.6671621472956450e-02,
          -5.9187952570646463e-02, 6.3170596908308951e-02,
          -9.5886109897936209e-02, 1.2967878054456369e-01,
          6.9510111440534178e-02, -1.5144801496766047e-01,
          -1.5737767301273423e-02, -8.9235559461222011e-02,
          -1.2178127080628028e-01, -7.7875450156320067e-02,
          8.0116800738371532e-02, 3.5811254998863326e-02,
          4.0167400695596850e-02, 2.1263009326058500e-03,
          -4.9198813760233245e-02, -1.1207961914277043e-01,
          1.0090176219887090e-01, -7.2007719074489523e-02,
          -8.6611228192203845e-03, -7.0678417617061062e-02,
          -2.1125095928706695e-02, 1.1427624870332681e-01,
          1.0675719432422050e-02, 6.9934864086146464e-02,
          1.7934803518437951e-02, 7.2386464473048174e-04,
          -2.8692710738519884e-03, -5.3295163108086248e-02,
          -3.6815659977964328e-02, 1.3541218326975299e-01,
          -1.0290435622408500e-01, -7.3745627307183759e-02,
          6.4771851048888718e-02, 6.1127618178724349e-02,
          -1.1421206109723189e-01, 1.0058008618457366e-01,
          -9.2358846697187025e-02, 1.2113155596047603e-01,
          -5.4695264122387323e-02, -9.0943217969524259e-02,
          8.1746875264686963e-02, 1.2871485820778539e-02,
          2.5765762920385550e-02, 7.1541168594311727e-02,
          7.7121097908077446e-02, -1.0403032863312392e-01,
          1.0316035374599442e-01, -5.7530400320893477e-03,
          4.1288229121224929e-02, -1.1899755081366274e-01,
          1.1750566990465716e-01, -4.5402454442454672e-02,
          -8.2060329273403940e-02, 1.1048785269669506e-01,
          -1.4515664900956066e-01, -3.6519384050037393e-02,
          -3.3788134091329129e-02, -4.8909004124258644e-02,
          -2.3637535554095580e-02, -2.1124743906473703e-02,
          2.7523033994551856e-02, 3.6140999931036651e-02,
          5.0678819193679336e-02, -5.2981855321919347e-02,
          2.7105206472034675e-02, 1.5783802438713215e-01,
          8.0204804184912121e-03, -6.9635029066903206e-02,
          9.4379255662697087e-02, -6.2390108796546266e-02,
          -1.3184549725173964e-01, -3.6166108837029011e-02,
          -9.7662385699396115e-02, -1.0858032434572396e-01,
          8.3168093546241995e-03, 5.3109151031978767e-02,
          -1.6983514919590700e-01, -1.2633284567655761e-01,
          -6.4832851581813247e-02, 1.0176421547963450e-01,
          -1.5335856383519524e-02, -1.3018604656501967e-01,
          -8.0741080168534596e-02, -1.0915375884479994e-01,
          1.0755700137288780e-01, 8.5229412948231165e-02,
          -5.8981605941941162e-04, -9.5986748050398377e-02,
          7.5964326832436035e-02, -1.1738455670747083e-01,
          -1.0760398876675907e-01, 9.3142041422299066e-02,
          4.4150913409057692e-03, -1.1513459755925107e-01,
          4.0429705367844675e-02, -6.4357158605607936e-02,
          -3.2437383945883178e-02, -9.1617179186788550e-02,
          -1.0271306596064318e-01, -5.5563225802230179e-02,
          -7.2551685734580484e-02, -1.0413918829624329e-01,
          5.4629627126542837e-03, 1.1125083465601861e-01,
          -6.4003286473728382e-02, -9.4769384771647175e-02,
          -6.8248684176222332e-02, 5.0918944390755935e-02,
          -3.6342349050921700e-02, -3.0417399997917954e-02,
          -1.2173430003645807e-02, 8.2116823556532159e-02,
          -9.3946861334730805e-02, -7.9295968511798695e-02,
          7.6970231117066010e-02, 1.5127781962166166e-02,
          1.4999555549002239e-01, -5.2457967633930937e-02,
          -1.3321349331542345e-01, -2.1071001533924227e-03,
          5.7847395917889351e-02, 5.7751271648343559e-02,
          4.9742144994154736e-03, -1.1608503697835277e-02,
          8.5984664894783180e-03, -3.8983290299352075e-02,
          5.1180427029802623e-03, 1.0703834442654037e-01,
          1.0472682783050698e-01, 1.4441953810291172e-01,
          -1.4043035667656203e-01, -6.1915210531683562e-03,
          1.1078338590832265e-01, 5.2316171375666682e-03,
          -9.9030284226839890e-02, -1.3667734498257897e-01,
          -7.4626950821436444e-02, 5.8557479284278853e-02,
          -3.4904855670116079e-02, -1.6471063704074290e-02,
          1.2257707400802405e-01, 1.5532921782650647e-01,
          -6.9041989496897216e-02, -3.0185979057023086e-02,
          8.6821273633749016e-02, -1.8992289489113728e-01,
          5.6541164126238587e-02, -2.9586223785388666e-02,
          6.0119213131832390e-02, -7.8210986902295027e-02,
          3.0656499282566026e-02, 5.4121712726799179e-02,
          5.6146880038671583e-02, -1.2998751275249620e-01,
          1.0374981723792577e-01, -1.7891095989760894e-01,
          -4.3559122427013000e-03, 1.2579008702846139e-01,
          -4.6722386231969663e-02, 1.7024618832804334e-02,
          5.6107521937067403e-02, 8.8338317537191235e-02,
          -5.6051326993627970e-02, 1.1586337287689107e-01,
          1.2703948786505884e-01, -8.1609205183252681e-02,
          -1.3283926252984868e-01, -5.6213978699679104e-02,
          -1.2384058387415603e-01, 3.4760261088098252e-02,
          -4.6792883120571567e-02, -3.4437928409230399e-02,
          8.5298656226883485e-02, 1.4420883381658593e-03,
          8.0064234292623101e-03, 2.7998537291115552e-02,
          1.2234749858011271e-01, -1.8148877967593218e-02,
          9.2362874253210589e-02, -7.6631441319810631e-02,
          6.3442072630618671e-02, 1.0786986757243462e-01,
          1.8168170487535282e-01, 3.2762653859119910e-02,
          -7.8512600394584197e-03, -1.2930575292360457e-02,
          1.4238643923282698e-01, -9.1455921208559290e-02,
          -9.1490257746717166e-02, -1.0983433229626731e-01,
          4.7797622040010292e-02, -1.1467726510669098e-01,
          -1.4695874717703145e-01, -5.8431171181041255e-02,
          -1.7643569684178337e-01, 6.2838304340730507e-03,
          -1.1799223924022895e-01, -1.1587874235116209e-01,
          1.4008476702338467e-03, -6.9769210639521559e-02,
          4.4992025961372160e-02, 8.3800531959985880e-02,
          8.8950761911941567e-02, -1.6645430408917591e-01,
          1.3679418271218680e-01, 2.0588614245315720e-01,
          9.1788972062329822e-03, -3.8211292731557052e-02,
          1.5244598178361304e-01, 1.0728824075989346e-01,
          -1.4706338695011509e-01, 4.0404919704124086e-03,
          -1.6251350403975065e-01, -1.7808172657278890e-01,
          4.1640193083435875e-02, 6.2539936578824062e-02,
          -1.5411754683855888e-01, -9.8428029151810190e-02,
          -1.4998075766178640e-01, -4.1651222227711844e-02,
          3.0469095194980533e-02, -6.6648449266553694e-02,
          -4.6771727945113598e-02, -1.0353916027980682e-01,
          3.0695096989280128e-02, -1.4380707235470722e-02,
          -3.3770575251423435e-02, -1.3733719125731478e-01,
          4.9008958808265191e-03, -9.6534601892722546e-02,
          1.8939094491545325e-02, 3.2602322714418243e-02,
          -2.0781686326873418e-02, -6.0927679799212757e-02,
          -4.4655915487540165e-02, 1.1498302058761647e-01,
          -3.4762182799068675e-02, -6.2898570685373204e-02,
          -1.1234554528833708e-01, -1.9380871312312134e-01,
          -1.9956066026804806e-01, -8.5244634013498910e-02,
          8.8780731999357574e-03, 5.5742411050789746e-02,
          -5.9166430705831580e-02, -1.9146631424867300e-01,
          -8.6067283662420446e-02, 4.8809933852604313e-02,
          -6.4056456639197956e-02, 2.0553670272865247e-02,
          9.0458044941632176e-02, -3.5187056681703056e-02,
          -8.6930064127301088e-02, -5.6820095343679315e-02,
          -5.4600637428473250e-02, 1.1714131585607278e-01,
          1.3831694597569535e-01, -7.6927389382274350e-02,
          -1.4708021348799821e-01, -2.1287243474228428e-02,
          1.3559421184850021e-01, 8.2459383544347953e-02,
          3.5384307368918677e-02, -6.2987421451468240e-02,
          1.0336781368035743e-01, -7.7707955820904048e-02,
          -1.1760156506604880e-01, 1.5619126672031639e-01,
          6.7146247711090928e-02, 1.7747456566346817e-01,
          -3.5537147046670746e-03, -1.5900406230319972e-01,
          -9.0657380505009835e-02, -1.4286288795843705e-02,
          -2.0944162052725229e-02, 4.5267952631759430e-02,
          -1.2441938119323390e-01, -9.7639048894526362e-02,
          1.7424064394630523e-01, 4.5788101691879968e-02,
          -1.7876376692279092e-01, -1.6108076062415713e-01,
          1.5870316473564278e-01, 1.7590408669789229e-01,
          -1.2279674999063588e-01, 2.3841941238034495e-01,
          -6.9497589791030268e-02, -1.1924924346499904e-01,
          -1.9827829632773414e-01, -3.0653788308515909e-02,
          1.1084105668646671e-01, -1.2757951614753374e-01,
          1.1654707214709195e-01, -1.1083035690583655e-01,
          3.3610675120876794e-02, 2.3592607572802746e-01,
          1.1526528159264338e-01, -1.9401917546214142e-01,
          3.4974976631551656e-02, 4.3646682136462445e-02,
          -1.4971195508216737e-02, -3.3715521451758941e-02,
          2.1951294515740236e-01, -1.9955679352336822e-01,
          9.8509108732655379e-02, 2.2224186197118853e-01,
          1.8037001827574800e-01, 5.1947148087598954e-02,
          1.2294115020167561e-01, 7.5095036263226944e-02,
          9.9109207465487067e-03, 2.0802707742017632e-01,
          3.9455922833123741e-02, 7.8942247161183070e-03,
          -9.7246991894228196e-02, 6.7699655514361093e-02,
          -1.7268044074114014e-01, 1.4944166403860926e-01,
          -1.8809989875208738e-01, 8.8976116428238355e-02,
          -1.1598139708823089e-01, -4.8793327485696307e-02,
          -3.0832822642999030e-01, 5.7974875168417331e-02,
          -1.1875537382085860e-01, 1.2128029972049784e-01,
          -2.6651488166941711e-01, 1.9137396320173575e-01,
          1.6349465091869012e-01, 1.4741607109528712e-01,
          3.9867751368304711e-04, 2.3606782738593515e-01,
          2.3669701679440971e-01, 7.7836852944316234e-02,
          2.5551149548464169e-01, 1.6317229578953815e-01,
          5.3593203409907766e-02, 1.3087298106311382e-01,
          -1.0185879607314730e-01, -1.6571368947575446e-04,
          -1.5114247635913458e-01, -1.1620066549633935e-01,
          -1.7997823676186539e-01, 1.8246322824533670e-01,
          -1.3281059107600887e-01, -2.1128208760624420e-01,
          7.2790450130099771e-02, -1.4370480449527845e-01,
          -1.2711641367599436e-01, -2.5159522225597075e-01,
          2.8242482052891776e-01, 3.9927052657093662e-02,
          2.0046331186064603e-01, 2.2803925631003838e-01,
          -9.4191356117113628e-02, 3.2623113686196539e-02,
          2.2678744081940977e-01, -2.1285176829976753e-02,
          -1.2497044785367259e-01, 5.8058807117284929e-02,
          2.5074927418326256e-02, -2.1263212431780643e-02,
          9.8590605101072801e-02, -5.7929349341820464e-03,
          -3.2401710441132124e-02, -9.2666210112388347e-02,
          6.3706945461197775e-02, 1.7071400808209344e-01,
          -1.0821140874355778e-01, -4.7179232720206472e-02,
          2.0274790775701586e-03, 9.2873150984576255e-02,
          -4.3912776299217943e-02, 3.2578679424122861e-02,
          -9.1972603085283600e-02, -1.5307989268973723e-01,
          7.8587533870761062e-02, 1.4267965694589058e-01,
          1.1538717427200247e-01, 2.6937976202775576e-01,
          2.9997325140882203e-01, 1.2794757042380969e-01,
          1.5655233538139676e-01, -2.0799227674189183e-01,
          -1.8034555885182192e-02, 1.7822942213761747e-01,
          2.2319594964296838e-01, -4.7498437249067372e-03,
          5.0797411192061975e-03, 1.1229927187154155e-01,
          6.0310368239396034e-02, -6.4654135514566044e-02,
          1.7026277689297065e-01, 7.8430403534624854e-02,
          2.3154285363910834e-01, -1.7476457524522476e-01,
          -1.4930431088060256e-01, 1.1950724203733644e-01,
          2.1626735932755900e-01, 4.3787220782459314e-02,
          -6.3570146719191437e-02, 9.3398966244303189e-02,
          -1.5760588414712359e-01, 3.2341073241323522e-02,
          -1.7505379206256853e-02, 1.4395802041451602e-01,
          2.2827707458585261e-01, -1.7136328450225047e-01,
          1.1971201906053955e-02, -2.0765446326072362e-01,
          -2.1134311903321101e-01, 2.2978159374572368e-01,
          1.7871719042599925e-02, 7.1491844308200159e-02,
          6.0398301451001588e-03, -5.6003437200476534e-02,
          -7.2245887021994443e-02, 1.6615909840783508e-01,
          -5.4317931914207439e-02, -6.6801516654426005e-02,
          1.9701050538120542e-02, -6.1342383681305596e-02,
          1.2935475959396670e-02, -1.0215032974343391e-01,
          4.1248276201397822e-02, -9.1049328749334732e-02,
          -1.0086457596029572e-01, 1.5362650856859839e-01,
          1.0243458676832916e-01, 1.6076183802238028e-01,
          -2.0508465748337842e-01, 1.4645796342423562e-01,
          -2.0574014373347893e-01, 2.2308575580413820e-01,
          -7.9535503447629594e-02, -4.5183508004006695e-02,
          -4.5923540823798382e-02, 2.6430707555600556e-02,
          8.7948835699860669e-03, -1.1560779758666999e-01,
          -9.9905953725984833e-02, -2.2106884876232406e-02,
          -2.1887575820604671e-01, 1.2917798041888073e-01,
          -2.2244416620076343e-01, -1.5812340819872395e-01,
          -2.1874182643956592e-02, -3.1559334169939661e-02,
          6.0893442036940387e-02, -7.8932552051864349e-02,
          1.0020255922757375e-01, -1.2109743560851183e-01,
          -1.2964324740052258e-01, 9.3202382365320691e-02,
          1.4848494116811367e-01, -1.2599877682228075e-01,
          1.2705941190060238e-01, -1.2631581995516272e-01,
          5.3230071692275290e-02, 9.6355130616552574e-03,
          5.1286840355207669e-02, -1.0445484289704597e-01,
          1.1913715377302932e-01, -1.2544031899339333e-01,
          1.1843693466521349e-01, -1.1425344066493764e-01,
          1.1761991808675901e-01, -1.4295060914211122e-01,
          -9.9200701351865123e-02, 2.3922266780211920e-02,
          -7.7338639881681423e-02, -6.4703406516239473e-02,
          -5.5125673359511199e-02, 1.3066952280851968e-02,
          -9.9758162932323730e-02, -1.9955907169587059e-01,
          9.7879052944322253e-02, 8.7760818544526414e-02,
          3.3400101897148586e-02, 8.5956507433904317e-02,
          1.1993474193291750e-01, -1.2854203533950795e-02,
          7.0337079366419017e-02, -8.1825606420333347e-02,
          -9.3660070091336090e-02, -5.3292623307939838e-03,
          -6.3341759698096356e-02, 2.2610791785440454e-01,
          -4.8042910550065945e-02, 1.8015621455931125e-01,
          -1.1109142456475610e-01, -6.5345815796950493e-02,
          -3.5869116479077437e-02, -1.8981275911863348e-02,
          7.5203321034352031e-04, -1.5018179452941996e-01,
          -1.2800728461859721e-02, 1.3078557211212749e-01,
          2.5611553443003293e-01, -7.2032757966940364e-02,
          -5.6057191181307003e-02, 8.3151670830025698e-02,
          -6.5881598057238588e-02, 1.8917366223418558e-01,
          -8.6280275216051125e-02, 7.8579514254825927e-02,
          2.0010077783837253e-02, -4.5510235851453029e-02,
          1.0487859480069622e-01, 1.5510857282804352e-01,
          -5.0890840435671943e-02, -1.6673871724891565e-01,
          4.0386211828224723e-02, 1.0174534149130135e-01,
          2.2273522246036090e-01, 3.4189444576096815e-02,
          1.3301291549972892e-02, -1.1887605517979037e-01,
          5.8897698451632396e-02, -1.0249234564375585e-01,
          -6.8534795640872295e-02, -1.9330578328056389e-02,
          -1.6855999652327097e-01, 1.4649058250702418e-01,
          1.1990381054895059e-01, 2.5874203436207825e-02,
          -1.3197036356870939e-01, -6.0926045973898155e-02,
          6.7999553851502165e-02, -1.1676289625798893e-01,
          -1.6618919130171017e-01, 1.7007463733430531e-01,
          -5.6254232436051967e-02, -5.6867176445824313e-02,
          -2.0048343587465120e-01, 8.6184705329459710e-02,
          4.0127795292611991e-02, 2.9020366410166313e-02,
          -1.0147528849389678e-01, 6.2329036182109790e-02,
          -3.8161475226553436e-02, -1.9936275479690876e-01,
          9.2312476330740745e-02, 4.7041360543717617e-02,
          -5.0671820216930258e-02, -1.7824667842029938e-02,
          -4.3419452411831067e-02, -1.3594241084218474e-02,
          -1.0534768697347896e-01, 5.2752145983725830e-02,
          1.9075322474028197e-01, -1.1546340427953986e-01,
          8.6649333355961672e-02, -1.3959958809974212e-02,
          -7.6938094263841447e-02, 2.1855647590759118e-02,
          2.2800699470777308e-01, -4.0108902671103272e-02,
          -1.6468246413981583e-01, 6.8864184812866977e-02,
          7.1697200262660438e-02, 2.6726043358651811e-02,
          -4.8626416018836396e-02, -5.3021488010536133e-02,
          -5.4813424880640386e-02, 7.5699294351217847e-02,
          6.5985459117302803e-02, 6.8494999220659838e-02,
          3.1853304961304882e-02, 2.9504715582770645e-02,
          2.5790610708251453e-02, -6.5642132634301562e-02,
          -7.1147985798240429e-02, 8.7682853012918879e-02,
          -4.8676465596431552e-02, 8.1994584163615769e-02,
          -7.8895846420836163e-02, -3.5985714291234885e-02,
          7.6878311810606531e-02, -4.0156744177603662e-02,
          -3.8515770026320173e-02, -6.7523519015655259e-02,
          1.1796533677781749e-02, -8.4150432551400589e-02,
          -4.7784472718642508e-02, 4.5046863917636341e-02,
          8.0729614333300156e-02, 7.3775928267116417e-02,
          -6.9097463851128749e-02, -4.2010521673759800e-02,
          4.5499172916525062e-02, -1.8544681149645990e-02,
          -2.2183042720077806e-02, -5.7911579709868606e-02,
          1.3885857478909878e-02, 7.2058219259213366e-02,
          1.2734363193625045e-02, 2.5964064853271910e-02,
          3.8802274977323310e-02, 5.8403725619442702e-02,
          6.1358507846112895e-02, -2.1400830047682860e-02,
          -7.7781631798431339e-02, 4.4358536589470608e-02,
          -1.5542924169023323e-02, -2.8382364099160704e-02,
          -4.7954257820794904e-02, 1.8297692194303380e-02,
          -5.5356842824424428e-02, -6.6479049820673861e-02,
          7.8520913247962815e-02, -5.8836106449048506e-02,
          -2.0081356837054889e-02, -1.2050504140601119e-01,
          1.1411976978435918e-01, -1.1803504775495478e-02,
          -1.1372633429844774e-01, -7.8207118239878345e-02,
          4.6493868683742119e-02, 9.0786823463669938e-02,
          1.2394176318107653e-02, 8.9811089816425729e-02,
          3.5454436518435641e-03, 9.7584129168255790e-02,
          8.7063438614300631e-02, -3.2729043846607138e-02,
          -4.1482567404494346e-02, 5.9866802279418097e-02,
          -4.8291096641517893e-02, 1.9482960763015547e-02,
          6.4001192561662382e-02, 6.3585156284954231e-02,
          2.3015010632215265e-02, 6.4611381072060922e-02,
          8.8546481460765006e-02, 4.3896363662819557e-02,
          8.4913234492239587e-02, 5.9399815890166380e-02,
          8.9952259305288024e-02, 6.8086340877018689e-02,
          4.9821401388306111e-02, 5.2098546316777454e-02,
          -3.7067545151801121e-02, 5.9727416346205202e-02,
          4.6092505489971153e-02, 4.9644943950106053e-02,
          2.6821527759430513e-02, 9.0520344034111785e-02,
          4.8990396434944697e-02, 8.4871521152751039e-02,
          3.7508233366919781e-02, -3.6939255688013178e-02,
          4.3792138491239842e-02, -3.6943746489566102e-02,
          -2.4946595803294266e-02, -5.1741234904713426e-02,
          -8.7580884800121953e-02, 4.4835042020639634e-02,
          4.3901540529833132e-02, 9.3487054310322448e-02,
          1.1322150447142858e-01, 5.9721471810535977e-02,
          -6.0109163574112598e-02, -3.7333056243517751e-02,
          -5.9878793501191442e-02, 1.3211541857214063e-04,
          4.6114020168993311e-02, 3.4685775171999875e-02,
          2.7995121254455472e-02, -1.5245115656876911e-02,
          6.6753908010433035e-03, -2.2513648275083200e-02,
          -6.8622739049562398e-02, 8.4295232513595775e-02,
          5.1547258175943154e-02, -8.8589604020689494e-02,
          -9.3818123697191239e-02, -3.5975337903938441e-02,
          6.7220436154641058e-02, -8.0273268829523264e-02,
          -7.2384158036838661e-02, -4.3518002671967745e-03,
          -1.1200520727636724e-02, 7.8460494494868319e-02,
          -5.5826252205862577e-02, 1.0349943731918719e-01,
          -7.0749233045762694e-02, -5.7667815449197302e-02,
          4.5246249494058755e-02, -7.7664305043388310e-02,
          6.8646968346609799e-02, 7.5283614324428635e-02,
          -2.4647549454738411e-02, -4.6530093042501365e-02,
          1.3260725226343284e-01, 1.9209713112620163e-02,
          6.9840786875634497e-02, 1.4574997461014259e-02,
          -2.3248637861189820e-02, 2.5892747119962520e-02,
          1.2908664142383746e-02, -1.2651061969039343e-01,
          -1.8750732280573258e-02, -3.0998210748348676e-02,
          -1.7483297750585339e-02, 1.3761420704955379e-02,
          -2.9235626554620971e-02, 5.6167805276372787e-02,
          1.0984477820681305e-02, 1.0267819944050134e-01,
          -9.2607385978349707e-02, 7.2383837360096265e-02,
          -5.2632129783642040e-02, 1.0759343045904869e-01,
          -5.3944710102030814e-02, 7.3388033102113240e-02,
          -1.4691639335949150e-02, 2.7962390500145699e-02,
          6.4437074988791976e-02, -3.2471304995734800e-02,
          -4.2017936795281756e-02, -4.1284390937077003e-02,
          -8.4604314124274771e-02, 6.7779681503121435e-03,
          -9.1828002974383122e-02, -7.2676765066149229e-02,
          4.6744595148298727e-02, 4.4247409700928317e-02,
          8.1236736085030653e-02, -4.0135752114175374e-02,
          4.3040989354533488e-02, -1.7535814577015182e-02,
          -7.2913322995863561e-02, 3.4852350055599675e-02,
          6.5325737723558167e-02, -7.7333185895625697e-02,
          4.0866339067864084e-02, -3.5629408896153049e-02,
          4.2674228635790359e-02, 2.6853695114657294e-02,
          1.0789739624314752e-02, -8.3777830254323365e-02,
          -5.7735727746983566e-02, -6.4956161882561619e-02,
          -1.0789924399118061e-02, -2.8114527134913340e-03,
          -3.0021936730818440e-02, -1.2947221832786930e-02,
          -1.8821321657995901e-03, 6.7165931131897366e-02,
          -6.1051167333524808e-02, 2.0969505134139292e-03,
          7.3058184450935010e-02, -2.1847607647748183e-02,
          2.6457361933552047e-02, -5.6504041272607754e-02,
          7.0751617938981395e-02, 7.0877447981260958e-02,
          3.0753726106233219e-02, 9.5796956603283925e-02,
          5.1728842184611865e-02, -1.8292707963165233e-02,
          -3.2073180042809721e-02, 6.3392396032460038e-02,
          -5.2727480424712467e-02, -4.8738854573146008e-02,
          -5.8996555653820462e-02, 6.6314552415753028e-02,
          -7.3532349222525772e-02, 4.8669234271036636e-02,
          4.5986634875078369e-02, 6.8909892297587703e-03,
          5.7591158854063684e-02, 8.8752816030779558e-02,
          8.4151310523654724e-02, -9.9048459446336681e-02,
          4.3749093945974524e-02, 7.9140458848649328e-02,
          1.1979925779273441e-01, 7.4481794709045732e-03,
          3.4207482094382098e-03, 6.5959491096848136e-02,
          1.6231663543010425e-02, 9.2267088325698743e-02,
          -6.7397580806360921e-02, 3.7098308916217966e-02,
          2.0162830596157266e-02, 5.7159806354955073e-02,
          8.6405503597727796e-03, 6.0622666742921938e-02,
          3.1056463200698249e-02, -7.1295353337881548e-02,
          2.5676168693143965e-02, 5.7981206375922183e-02,
          6.8351457648080330e-02, -3.9957408930104833e-02,
          1.2180451962458506e-03, 8.6410856095157605e-03,
          6.0070989035138189e-02, 2.2518879649751099e-02,
          4.4600057486579879e-02, 3.3344323581031621e-02,
          -8.0683328216962988e-02, 2.5721080783125006e-02,
          5.1045751825064316e-02, 8.9977307078838456e-02,
          -5.1810459403482997e-03, -6.7677095973730908e-02,
          4.3208440807690436e-02, -4.0624174286910050e-02,
          -7.0105209416991138e-02, 7.7015810904759022e-02,
          1.5616238305592698e-03, 5.0745036889652539e-02,
          -7.1769774257843158e-02, -1.5822335454921527e-02,
          -6.5950214943860844e-02, 8.9373665634947010e-03,
          4.2060238392098860e-02, -1.8545625968470633e-02,
          -7.8301056248081952e-02, -1.1659950010093180e-01,
          1.9440031082452038e-02, 3.4893079430010791e-02,
          -8.9095681014258160e-02, 6.7021952446244065e-02,
          -2.6980545818105009e-02, -8.2922601303756255e-02,
          -8.1778140988120418e-02, -7.6402056657433978e-02,
          7.0776790337244433e-02, 6.2475871662751092e-02,
          -9.1022069837846161e-03, -8.2116214580856980e-02,
          4.9633508163843876e-02, 4.7426309952305602e-02,
          1.0518358922468257e-01, 8.7900972971523932e-03,
          -1.1722789065570978e-02, -1.4640551688964139e-02,
          1.1163449383766960e-03, 7.9897685965759132e-03,
          -3.7192798445441445e-03, -1.7060033227470784e-02,
          -2.8547290710270814e-02, 1.0981118836319392e-02,
          1.3809418421298788e-02, 1.4726551291345015e-02,
          -1.9240068493879610e-02, 1.1794110912357526e-02,
          2.4844723750794655e-03, -2.1211390293532365e-02,
          -2.9237356697666920e-02, 1.9939581831192928e-02,
          -9.6488691993613397e-04, -1.5970925091915337e-02,
          2.2055493652746561e-02, 2.8868974020720920e-02,
          2.4744441162920325e-02, 1.4698303207578763e-02,
          -2.2750581657026051e-02, -2.4578469688781697e-02,
          8.5240884403403553e-03, -6.9374656470046229e-03,
          4.2400540533847082e-03, 1.4828628164708264e-02,
          -1.7326259914337915e-02, 2.2057494698968349e-02,
          2.6582334414131163e-02, -2.7849682467745714e-02,
          2.0297528984164919e-03, -3.6045389909951565e-04,
          2.0746774801700549e-02, 1.2417488696662145e-02,
          2.0135833696991047e-02, 7.3313550829213646e-03,
          2.5653933431639870e-02, 2.0243129095441875e-02,
          -1.2179251978962396e-02, -1.8934969363435160e-02,
          -1.2481508109517144e-02, -2.6002520766456601e-02,
          -4.9280390929289965e-03, 7.3494770811727674e-03,
          -2.9549128325298776e-03, 8.2228131736651923e-03,
          -1.5796982469969145e-02, 5.6619560595626674e-03,
          -6.0938501716249205e-03, -1.1237881137731713e-02,
          1.7081415259468834e-02, 3.1711636887242825e-04,
          2.2812920659478722e-02, 2.2252178337176562e-02,
          1.9747106715010936e-03, -1.9208612577282043e-03,
          2.0783054983475140e-02, 2.7773510386434842e-03,
          1.1939096355270734e-02, 1.8457517744590535e-02,
          5.8703733462576850e-04, -1.8494599524650292e-02,
          -1.4592795301510138e-02, -1.9623258765344580e-02,
          1.7705188498169405e-02, -4.4614891443583915e-03,
          1.0662672840790912e-02, -1.4616322467756643e-02,
          2.0291636364784281e-02, -2.9238932743410632e-03,
          1.1387698394686228e-02, -2.6043903047186914e-02,
          6.0141474912015127e-03, 1.5261407377412311e-02,
          -2.3120090954674852e-02, -1.6625943479680917e-02,
          1.6005154432253973e-02, 1.2887085238094200e-02,
          -2.0606980564283651e-02, 1.1248478207480244e-02,
          -7.0785485246752091e-03, 9.5640360915963535e-03,
          -2.7611596775589291e-03, 2.7851939690743217e-03,
          -2.4732868416692221e-02, -4.7837314034746394e-03,
          1.0942679416982787e-02, 4.1538178895932374e-03,
          1.3747776275224381e-02, -2.2748378619518717e-02,
          2.7240406135094340e-02, 2.2341231009332271e-02,
          1.9020181424833246e-02, 6.8559787414551523e-04,
          1.5742069370812243e-03, 6.8253116946448943e-03,
          5.4373603466761336e-04, 2.1924356570356882e-02,
          -3.0045089186829316e-02, 2.7177789626398724e-03,
          1.6622983658132816e-03, -2.1360295940179203e-02,
          -2.0034776593473025e-02, -1.6720673906576156e-02,
          1.9352934029517078e-02, -2.0799793618809473e-02,
          -1.9856814933991836e-02, -1.9010241651325196e-02,
          6.0660745780449160e-03, 1.9761246323773362e-02,
          -1.6528553600005155e-03, 2.3707908918803006e-02,
          -2.9730857636524589e-02, -1.5695748890994943e-02,
          -3.3542087426959603e-03, -1.5822911083697537e-02,
          1.3854071376399969e-02, -9.3449222686205549e-03,
          -6.2359261440789590e-03, 6.9119724964047174e-03,
          -1.0769120146104816e-02, -2.1606345367465460e-02,
          -9.5513717273806222e-03, 2.9295213786074265e-02,
          -1.3446191700218628e-02, 1.2328071974243423e-02,
          1.5239185464067978e-03, 2.2949397264849722e-02,
          -2.9138779131003070e-02, -2.5238721792685045e-02,
          1.0434048660675642e-02, 7.5887376331571750e-03,
          -1.3178417762441436e-02, -2.8793578385389308e-02,
          -2.6129107931693136e-03, -2.2827566162496291e-02,
          1.6770012571436749e-02, -2.3357444994414049e-02,
          1.2696749815416157e-03, -5.1307084381132892e-02,
          3.7245691663028130e-02, 5.3632166294852006e-02,
          1.3683195463468053e-02, -1.2019944875419400e-02,
          2.5562549268885734e-02, -6.3235901851751389e-02,
          2.3730259224363920e-02, 4.7458024547480861e-02,
          5.7118238161326725e-02, 1.8750937234133017e-02,
          -5.2519174217328164e-02, 8.1170309144497022e-02,
          -3.2199857673676634e-02, 2.1352219718008096e-02,
          5.1101090769121622e-03, -8.3810730186640897e-02,
          -4.8799472163471906e-02, 4.8284595011728604e-02,
          -5.6144301040688266e-02, 1.2735285881839153e-02,
          -1.1045324119660017e-02, 9.9058845714536173e-03,
          -8.2877225348377381e-02, 5.3231208531706459e-02,
          -1.5823591859552247e-02, -4.2917041402085278e-02,
          -8.0608060061545667e-02, -4.6177612521029941e-02,
          -1.5600011713498913e-02, -4.4831527380184998e-02,
          1.8800064674489414e-02, -4.0959455516675895e-02,
          -1.7118208395957409e-02, 1.3194963645987290e-02,
          2.8218865432745054e-02, -4.0518468697480707e-02,
          3.5992522519800035e-02, -4.0815299244346931e-02,
          2.9057720018911923e-02, -5.5754040075377972e-02,
          2.5700972450727097e-02, 1.0032616610452254e-02,
          9.1812413509999261e-02, 6.4483392836972705e-03,
          3.2027594213044547e-02, -2.5739783715898780e-02,
          8.2379236867272679e-02, -4.8282405794838924e-02,
          -2.2361358997833418e-02, -3.9213111878401860e-02,
          -4.4110738611494414e-02, -2.0374022236424698e-02,
          -8.0249953101213772e-02, -9.9230102856252989e-03,
          -1.1144682676529415e-01, -2.6993147386740690e-02,
          3.1882343173455455e-03, 3.6206756704336172e-02,
          1.7292813301553401e-02, -2.3199652767283981e-02,
          3.7465158460616557e-02, 6.9058390150243008e-03,
          6.1010719029552261e-02, -8.8385173498590819e-02,
          -1.1784469063943809e-02, 6.2294873843295955e-02,
          7.7647423533393533e-03, 1.1889662720817420e-02,
          2.7160505053965719e-02, 6.5173893868779240e-02,
          -1.0256644837325106e-01, -3.0995559832867343e-02,
          -6.5023316180320714e-02, -5.8831255209343673e-02,
          -1.8125474237157976e-02, -3.4903759159444984e-02,
          -1.0861289922333485e-01, 1.2089768008986175e-02,
          6.6235270896718018e-03, -4.1265013168750114e-02,
          9.3386240764343192e-03, -4.0442698318855419e-03,
          3.2798309502023938e-03, 4.1494610554129722e-02,
          -6.4415782890192650e-03, -7.3100537968215301e-03,
          -2.5291092653676683e-02, -8.5910564066267181e-02,
          -5.3342985147459675e-04, 1.7329135536446678e-02,
          9.8551598507277821e-03, -3.6065614806141705e-02,
          8.6170975700877502e-03, 3.5722744010005317e-02,
          1.8799808927873654e-02, 3.0942949471669503e-02,
          2.1160743972751611e-02, -5.5540138717229716e-02,
          -3.0923206539766459e-02, -1.1477426666139609e-01,
          -7.3387928502238492e-02, -2.4136575636002560e-02,
          -1.5211156635172236e-02, 6.6239950745703394e-02,
          -4.6842649470331139e-03, -1.2784232722237771e-02,
          -4.6791749597303443e-02, -5.3613850548639690e-03,
          -3.2005617624714509e-02, -3.8041126732777888e-02,
          -5.3151266183339221e-03, 3.1518761099004033e-02,
          1.5317503532881764e-03, -3.4343193211866921e-02,
          -7.7416295749417732e-02, 6.3928633562899573e-02,
          3.5254935143993540e-02, -3.6324335309313844e-03,
          -9.5939067985948187e-02, 2.8632663295286496e-02,
          6.2511441847433707e-02, 1.2478275089226554e-02,
          5.1075954578972994e-02, -4.9040730744496698e-02,
          3.6690991431334349e-02, -6.3287542544219422e-02,
          -1.5034865938206939e-02, 2.6741150669503999e-02,
          -3.2136786798407528e-02, 7.8208400709618361e-02,
          2.6001972994507901e-02, -9.9841406266038255e-02,
          -5.2962555891267306e-03, -2.8473842919963361e-03,
          -4.4677950791153012e-02, 1.6419724640089391e-02,
          8.2504182217874276e-03, -5.2284272552382882e-02,
          -1.2534615575056651e-01, 2.7674700342146558e-02,
          -2.9949800527233769e-02, -2.7544119798474952e-02,
          -8.3004712633298658e-02, -2.6357477849615382e-02,
          -2.6647091387006838e-02, 5.1767264981395007e-02,
          2.4481141824262184e-02, 3.7051333553418241e-02,
          -5.9994064531885508e-02, 5.4047234497611570e-02,
          -3.5800917055474273e-02, -6.0683079511507379e-02,
          -9.9359385830006822e-02, 1.3658203388709150e-01,
          -1.1061308791043209e-01, 5.8247989330626575e-02,
          -2.4863160470691308e-02, -8.4497326320654695e-02,
          9.7144907674353312e-02, -8.5558122475496476e-02,
          -5.8972936334891327e-02, -5.5928678455677686e-02,
          6.4168032338300929e-03, -4.5421804547984682e-02,
          -1.2631489887485114e-01, 3.7878890103709296e-02,
          8.7794030101275025e-02, 4.9307030147081987e-02,
          -1.8017136021951395e-02, -4.1862542375516516e-02,
          2.3045863578731503e-02, -4.5728622964089166e-02,
          -1.0784975779480448e-02, 1.0374851390792013e-02,
          2.1101619745684322e-02, 3.6919900556487410e-02,
          -6.2217301763007576e-02, 3.2713566604400827e-02,
          3.4751156121021642e-02, 4.6661819818120981e-02,
          5.1743376330754848e-02, -7.0898788400557800e-02,
          -8.6544529282494731e-02, 1.0113164251534195e-02,
          1.2445078403974389e-02, -5.3548864327815783e-02,
          -6.4343261268289126e-02, 4.3903389441172273e-02,
          -4.5762778224650420e-02, -4.1486105789032134e-02,
          2.8919631794165717e-02, -3.2620708957133912e-02,
          4.7968700107234481e-02, -3.7908020891352173e-02,
          5.9989776615913815e-02, -4.3190521510745962e-02,
          -3.5059972115308813e-02, -4.4547825520383076e-02,
          6.7431885164011746e-02, 9.2993737263821499e-02,
          -2.2055358735151957e-02, 4.7176573274391433e-02,
          -8.6396402400307770e-03, 1.1273221711548244e-01,
          3.5703647262772441e-02, -7.5722900381270969e-02,
          -4.4645605613470085e-02, 6.5126647193838802e-02,
          -9.3020708111069869e-02, -2.2765495357575490e-02,
          6.6051252673450869e-02, 4.4685999591080265e-02,
          3.5028066838066918e-02, 7.2399530681660398e-02,
          1.2877832792647173e-01, -2.1501198584389643e-02,
          5.9464892953554387e-02, 7.7343584830001297e-02,
          1.4587275465835159e-01, 8.6643082896553772e-02,
          3.3526874224697807e-02, 8.3934209139075056e-03,
          -8.4689013876199273e-02, 6.7520754124004226e-02,
          4.9061246371185606e-02, 9.4465232727854731e-02,
          4.2028289294920945e-02, 1.0261169592257526e-01,
          3.9053986856309765e-02, 8.6323942037896381e-02,
          2.0453452788810153e-02, -2.0140268652599290e-02,
          1.1147404119275292e-01, -7.8807784414470020e-02,
          5.9374338596389856e-03, -1.1842111764095165e-01,
          -5.2605505090781962e-02, 1.0220164323965048e-02,
          5.3959368865078468e-02, 9.3913248426449186e-02,
          9.8838582055352731e-02, 2.6726905836045173e-02,
          -2.8124927185345087e-02, -3.6450461358081152e-02,
          -2.4173311146514071e-02, 2.5512863254760397e-02,
          3.8551065907248591e-02, 6.7799985585534503e-02,
          9.0432106733079567e-02, -7.3662470037410860e-02,
          -8.3062586857455684e-02, 4.3670246446868149e-02,
          -6.9332248317646616e-02, 8.9691322982669325e-02,
          6.3253315105319147e-02, -7.3662451716338673e-02,
          -8.8705306451308030e-02, -4.9147497529312231e-02,
          5.4962876589405692e-02, -4.7445067021972272e-02,
          -9.2962230002185717e-02, -2.1013759861654695e-02,
          -3.6935048367150294e-02, 7.7535462684821213e-02,
          -8.1313254802941784e-02, 8.8816456359686644e-02,
          -4.5686113354826058e-02, -8.5817970148694134e-02,
          3.3459212391729186e-02, -9.2171603027590920e-02,
          -9.9889724975036915e-03, 8.8417091800952238e-02,
          6.4664465148385833e-04, -1.1554327247877073e-01,
          5.9542062209373976e-02, -1.9661479785822694e-02,
          1.2693840493462924e-01, 4.3645420435875007e-02,
          1.0604708078686331e-02, -4.2599964996609466e-02,
          1.9042610462620672e-02, 1.5571986175906757e-01,
          -1.0292494238184149e-01, 8.1356835839656860e-02,
          4.0104298266802160e-02, -1.0890726046323078e-01,
          4.1332922948231536e-02, -4.3314251862998497e-02,
          -1.2901452045563635e-02, -1.6030443446450710e-01,
          7.6033825620671042e-02, -4.3505394044972952e-02,
          5.0328418982327074e-02, 2.1967515626761585e-03,
          -7.8701737065690031e-02, -1.0836679496681602e-01,
          4.4834034665072069e-02, -3.1823733641061142e-02,
          9.4198522131151541e-02, -1.2093066463273877e-01,
          -3.7073238935874671e-02, 1.2240764972224674e-01,
          -1.4689203932639347e-02, 3.4964845035810828e-02,
          -3.8292760009675663e-03, -3.4870250553255808e-02,
          9.8722056439606756e-02, 1.3170394415464482e-04,
          -1.3014444729696437e-01, 1.2787250872357231e-01,
          -1.1323528307610264e-01, -1.0298534774098170e-01,
          5.8837543975751368e-02, 5.1465806076360171e-02,
          -7.8717843831093454e-02, 8.5528304883233069e-02,
          7.1851079220808895e-04, 3.0305328348096808e-02,
          5.8633702468070571e-02, -1.1146196640111121e-01,
          1.4498416473245476e-01, 6.1198022230910684e-02,
          5.6214781743856773e-02, 1.1172823799681862e-01,
          1.1399903050380257e-01, -1.5915047171975955e-01,
          1.1023850675105745e-01, -2.0599159589713745e-02,
          -8.3897024630334355e-02, -2.2386545969419139e-01,
          1.3244761614785663e-01, -1.1515183518361183e-01,
          -1.5727042778055814e-01, 4.2207614320074728e-02,
          -7.5377499605273429e-02, -4.2037210715306923e-02,
          -1.0323708781525713e-01, -1.2776192033997216e-01,
          6.9457701213416725e-02, 5.9125316892901833e-02,
          -1.1447292180485014e-02, 9.9563395682710248e-02,
          7.6511999640584805e-02, 5.7969748943595648e-02,
          1.4505609563982089e-01, 2.8003113230108034e-01,
          -2.2638864905372303e-02, 1.5920842005021665e-02,
          1.4450406830863041e-01, 3.0676271719568080e-02,
          -1.4719714065072925e-01, 2.4818909455532411e-02,
          -1.3207242524043789e-01, -4.4010063469017466e-02,
          8.6776500591969494e-02, 6.2729359691668832e-02,
          -2.0379206252091084e-01, -1.8357213512318118e-01,
          -9.9430476437278911e-02, 9.0282009951976758e-02,
          1.7722455136777192e-02, -1.4164126778667246e-01,
          -1.1858839555667046e-01, -1.7251334535054108e-01,
          1.3150267730995316e-01, 1.2508818027603671e-01,
          5.5873276440276667e-03, -1.3634026509667297e-02,
          9.9711358717660514e-02, -6.3530541884396663e-02,
          -1.2029123636228448e-01, 1.0948193597876481e-01,
          4.3337659829540347e-02, -1.4310885251872296e-01,
          1.6897994542845660e-03, -2.4069567731645470e-02,
          -9.1253914030888533e-02, -1.3944029891509602e-01,
          -1.7859702925595036e-01, -4.6179496859305606e-02,
          -7.8884538372368963e-03, -6.2249780888839160e-02,
          -6.3747135296439422e-03, 7.0557026226373110e-02,
          -9.5952299691264453e-02, -1.3464431940929786e-01,
          -4.8798022783579621e-02, 9.2985708021165389e-02,
          -2.6055637274891699e-02, -5.5613817237663489e-02,
          -1.8478982202028340e-02, 5.9203250028863071e-02,
          -1.3104444360879433e-01, -7.8578380457131336e-03,
          -6.1926712471805437e-03, -1.3824048977418147e-02,
          2.0816788655857979e-01, -8.4446593873116718e-02,
          -1.1020668984371459e-01, -4.3136762351774494e-02,
          4.1097837548550266e-02, 5.7768092554487581e-02,
          -1.9320350440595706e-02, 2.1719562025179284e-02,
          7.2756323568762375e-03, 5.3417362154354449e-02,
          -9.7929804015053357e-02, 2.1467845287126408e-01,
          1.2395006127979152e-01, 5.7641852929491803e-02,
          -2.0541238487404821e-02, -6.9396621266362493e-03,
          3.9773578142147104e-02, -8.5031715582244732e-02,
          -1.3641213577666997e-01, -6.9272667779101155e-02,
          -7.2772025121450243e-02, 6.4946627320825953e-04,
          4.1554479771822750e-02, -4.9209092576576199e-02,
          -5.6399087288687907e-02, -6.6731060425531457e-03,
          -1.7930094797619256e-02, 4.2632644716734863e-02,
          1.5321637785683323e-02, -4.1671666181695266e-02,
          -3.5900760304053113e-02, -9.2388672446049053e-03,
          -2.5714136749151587e-02, 2.9045387302311074e-02,
          -8.5643795492911998e-03, 3.8034332707775502e-02,
          -3.6617550827472256e-02, 7.6113020546947187e-03,
